[[[-0.72143947165912, 0.5910196309245657, -1.8473148847126295, 1.889582654015886, -0.01650935023112976, 0.15738230794157043, 0.12454587683457133, 1.492627254339666, 1.5513363706844931, 0.7188976862219641, -1.5678187688890797, -2.0386182000409496, 0.5505032861532768, 0.48731077958830316, 0.6733494822268344, 0.8361265203254269, 1.4401127990893303, 0.4452003708587977, -0.02779815847309949, 0.3083550232341495, -0.7171593879519399, 0.2212011683896429, -0.07221777428706819, -0.24740140756534054, 0.04917483490894673, 0.1776394935810041, 0.48163009672161644, -0.07714970269315634, 0.6300102466413465, -0.7508234117975262, 0.256520034161839, -0.02073590294473822, 1.5141438656819832, 0.120584748378521, -1.0160372031866207, -0.832262501429186, 0.6894308468508612, -0.48117437747086894, -0.1535188922375199, 0.26773509258564854, -1.133155596027958, 0.5519407928704136, -0.939008368609091, 0.3923074037392921, 0.3586011507662366, 0.7815278077939882, 0.21343607489292368, -1.0928935141400895, -0.30182759365675155, -0.7727564186169054, -0.2717086007754663, 0.20647035234918115, -0.4699768975661196, -1.0864729747786028, -0.12684520925948936, -0.25534400035178323, -0.0922685283024893, -0.41038490712971915, 0.10308680015728118, 0.36862045810312766, -0.04217554648833408, -0.14714747153729885, 0.059361495225187286, -0.15125347635575936, -0.19388460354408632, -0.01669975950842963], [-0.9714740827356252, -0.18560906971273494, 0.628032670216881, -0.37657801058567186, -0.010920725469453276, -0.05566276134718526, 0.17297857399365504, 2.794540831630221, -1.0289152242567776, -0.9772255674955564, 1.3405248808368497, 0.8373957628887806, -1.508845137549527, 1.0771160547856016, 0.03291162100996971, -0.05921401667823192, 0.36228113106515675, 0.012362779634021586, -0.06981446011270492, -0.11868607076787806, 0.2972183923555979, 0.301969099244179, 0.9920946825000896, -0.22750798830589786, 0.8693700127150124, -0.009386518346608544, -0.07778627497796484, -0.3422788792012688, 0.3207612839066069, 0.2679061455725128, -1.0837934015018957, -0.4505582700167945, 0.9151408974786589, 0.5953451904335462, 0.32345998485522537, -1.390537001221504, 0.5424301395397834, -0.06621384739966582, -0.12268622091422171, -1.1183384256904307, 0.2950095904836581, -0.07058715215210466, -0.10386775867142252, 0.12340350025899527, -0.3163762223684206, -0.5530202824873087, 0.2767547538334128, -1.4897608273512497, 0.16265868839411718, -0.8549115798416331, 0.19682392150561634, -0.31228101201490055, -0.07045645003332697, 0.3953313851231469, -0.09149625687197915, 0.4681451349080655, 0.06494121317574192, 0.47514265438565895, -0.049460711710508254, -0.13097478845077595, -0.18400790739612571, -0.10446903298547977, 0.045650705523158835, 0.1687044842488276, 0.02302002845351315, 0.01992919714262623], [-1.0188021505224787, 0.036423423573083334, -1.7478245741679121, -0.5817582706960845, 0.01474360897470125, -1.1880377615419595, 1.540056357457146, -1.2434153831001151, 1.393061515404422, 0.42066502000963407, -2.5821481326096203, -2.2053215433980493, 1.4096846785338148, 1.6377624729215587, 0.36816405084309173, 0.2055474515894061, 1.8479292382829573, -0.43461960302818115, 1.375001086416799, 0.2683343870515267, -2.660432303434539, 0.18821642812900496, 2.113323876631738, 0.43248763221816555, 2.009144641334547, -0.023113161444201506, -0.8431498533117869, 0.3030546115130666, 1.2320918017309794, -0.039189035844887414, 0.34427166523390595, 0.5410637488486697, 2.9598521725281968, 0.24381597969014915, -0.8997442000785043, 0.6433875637477903, 0.09996338476533376, 0.23982365707645656, 0.11249914693893606, -0.3312509346056365, 0.7555865923910852, 0.39639039427757583, -0.007191995124775596, 0.892749539065357, 0.13651840486640324, 0.5064585951599951, 0.6506548578930458, -2.1542233717953243, -0.631674386366335, -1.7807351693241407, -0.5195687949587571, -0.05783773170482169, -0.24135023220074212, -0.1803183205428309, 0.08841439617153306, -1.2915627944550285, -0.1248836434297002, -1.4290587334730183, -0.02693525109011187, 0.2055573824672027, -0.10714880892232265, 0.040569113525519514, -0.19775364077160665, -0.20303040563451202, -0.09523135807116694, -0.013220038345207909], [-0.17146500220382152, -0.4564766277637206, -0.04092055114702239, -0.669275619036848, 0.0016462810695912588, 0.4431937665424872, 2.5763799926207853, 1.6765596372194158, 1.6039804365109118, -0.7015521006306652, 1.064825062354055, 3.5040234525652214, 0.34234917212936306, -2.128546242765974, -1.316752679102546, 0.9716511745113777, -0.8628671602691124, 0.356885597548941, 1.7484864354698308, -0.3055414661906755, -1.2822226287903102, 0.4767805804934516, 1.5035603513052067, -0.2577492659538253, -1.3427462232981233, -0.4730983247760921, 0.27805060636477996, 0.09023996578250128, -0.10561800029254387, 1.111402213182318, -1.1800336760380137, -1.1014249965185565, 0.5312484126108931, 0.6551016696020653, -0.5916833041804944, -2.390406966417545, -0.45388279617381305, -0.8603723044927168, 0.4859505217651257, -1.8478354587593153, -0.9165652273840742, 0.5636268648581532, 0.027967368584568476, 0.32959036661330904, -0.3032138769676551, 0.0015833172015965835, 0.24328714188438755, -0.22551130773259762, 0.029657798408935933, -0.21093234013925355, 0.3258042704868879, -0.35842965489941053, -0.014468124765822333, 0.399910897663477, -0.22049337802214147, 0.3686323518787172, 0.22452674869052325, 0.7402182132106321, -0.17935563173239497, -0.40234107064532293, -0.11732760823901972, -0.22181245470102037, 0.09668405235649612, 0.3140128580266466, -0.08582608961467064, -0.0028906066433322906], [0.8541419224241824, -0.5168926985373822, 2.497357659677465, -1.4531533617850674, -0.007198074461762256, 0.6146312925591946, 0.05500223532119211, 1.8972071358456022, -0.5357588247316257, -0.9972654214682246, 0.707285557848915, 2.5280782000249364, -1.6378550515185555, -1.005643787090232, -1.200937410332155, -0.7004776872308389, -0.18927631756703525, 0.43132582661873103, -1.9442879234520625, -0.4118616144379052, 2.0177190890119694, -0.4744751043712042, -1.6189058735697093, -0.0018833959257538058, 1.1337296134547734, 0.19592582197427158, 0.026289778983241956, -0.5944335104626256, -0.759736062313817, 0.7188150763098129, -0.70158666524541, 0.04004904252963561, 0.8778831315991534, 0.9164852624283149, 0.051434296780741254, -2.0997665051739425, -0.029362321302997613, 0.020317912836694405, -0.24576824387573007, -0.8089645626975916, 0.11068963222996865, -0.5562804004599552, 0.4672181744894278, -1.0674847571513226, -0.771943578638733, -0.8234694215564535, -0.5831114107727526, 0.44049977198307594, 0.7213852642006797, 0.4537180543096592, 0.3629709838294964, -0.37020283195193454, 0.45095903268258447, 0.5059791871637357, 0.16546745708784708, 0.5441698229668943, 0.29585679878369286, 0.6350226256323286, -0.10063303812386207, -0.42018791475981704, 0.004385808482475054, 0.11223824940736972, 0.04111156220193392, 0.17317855876819419, 0.10767842007923273, -0.030892604552867547], [-1.469184373987708, -0.3621898569002811, -2.471991019192171, 0.9329753479305006, -0.006479528449950316, 0.4567081767490269, -2.0790231399621173, 2.4518902366561655, 1.4465081862156832, -0.3680325186094546, 2.462142360100638, 0.7469720484892345, -0.7667455293241359, 1.6900676986754288, -0.5705552081309984, 0.0700468325048648, -0.6252593319507719, 0.29594477000938707, 2.3962880159871096, -0.7112250479097286, -1.4306967648267686, 0.5277400166798367, 1.6540784940926954, -0.7251551289069846, -2.069692303430331, -0.14219726949567035, -0.24222950592690437, -0.9419057203421439, 1.4826836545297173, 0.6840940952992682, 1.0626282617193938, -0.7026442474616186, 2.2901537479461185, 0.9710156306904743, -0.14255365276061002, -2.5837172375008866, 1.058007920058017, -0.04094381639878727, -0.07407955689737963, 0.15778908518610477, -0.42150914061916245, -0.26534567778318513, -0.7096954734823798, 0.5418958463233832, -0.4871621160240294, -0.4524586191761582, -1.6321206504192076, -1.122221120442556, 0.022292675847739873, -0.7876764095674569, 0.24288791086747558, -0.45426484857766036, 0.47130752974853424, 1.065080221058842, -0.46169147195336263, 0.501029566192945, 0.18309664200457187, 0.5349739272301642, -0.07435919185843312, -0.19921730696570739, -0.1399009651057162, -0.171632532476373, 0.04586758936608229, 0.4024275099914246, 0.18871512426017484, 0.017061296364208306], [-0.457956563165735, -0.33910624151348, -2.2595177772350548, 0.018385206446995456, 0.012939701641400509, 1.3000884719624501, 2.9715583331377395, 0.6629934111278334, -0.3754374393628016, -1.0844845262197884, 1.3571450817968749, 0.6717673777110288, 0.7288352348445447, 0.292413518535684, 0.28045504622513695, 0.7731063145690807, 1.465711022877808, 1.2390435147494394, -1.3366811767746045, -0.6408839263724752, -0.5515292027975388, 0.6346250433309817, 1.2763677092358303, 0.025385522984857252, 1.5657608222632324, 0.26831695066359945, 0.3102160480237447, -0.11589752976365572, 1.4348991395566573, -0.13120416540898053, -1.7294924684920336, -0.5049304385423655, -0.7595997721943292, 0.06580176077331239, -0.8861959301525542, -1.9878325247100805, 0.83318428949911, -0.1591018473201058, -0.40796925289473246, 0.4438564680578298, -0.7016796764610935, 0.7755545844780815, -0.5397200052767139, 0.34400733054874, -0.1703542241129691, 0.5226691147138127, -0.07314722081850675, -1.3292211100188893, 0.058944624391521996, -0.6753790739444762, -0.11472367491857333, -0.4198719828239881, -0.23823248329748276, -0.18273137735031322, -0.1401635254991981, -0.09080738598143555, -0.05098407025295877, -0.09684205396828975, 0.13292984459893145, -0.09320022124639729, -0.15154693736083946, -0.1885664804825972, 0.001954020467174213, 0.003327362555461317, -0.07321455060051639, -0.027443590322728237], [0.5411354254615383, -0.07729604413767088, -0.49358913406777905, 1.7010772841978563, 0.02310182440046759, -0.8077941801558024, 1.21302551968239, 0.29270723544404587, -0.7787393824961709, -0.8209322024060145, 0.24252889016637297, 0.3895077747217888, 0.48714873721732144, -1.2360155152489107, 1.1920676000144128, -1.2747150462965855, 1.1818411512560598, -0.1866097818566608, -0.7809658452925503, 0.5328027308527987, 0.7381437312703194, 0.4677753821401241, -1.6886719901509593, 0.3649844291463088, 0.6935514529715558, 0.47410837256536187, 0.05377626210346237, 0.09288224332003851, -0.9115251549611886, -0.44372220179107935, 0.6734932555569789, -0.0305018222597733, -2.4715657856826487, -0.8089507240273595, -0.7977422755347333, 0.5103446432602764, 0.3578279574357024, 0.45148918521412407, 0.02026453122690854, -0.49214010200065833, -1.0107291000623104, -0.09621303134378192, 0.27178453201486086, -0.47412663464768734, 0.10357052123967897, 0.24854843263556495, 0.2229949440278245, 1.28898695278255, 0.09551374237472185, 0.993170692347512, -0.008585403089937358, 0.212170042950172, -0.338858381249858, 0.15774728484565625, -0.04680837738098544, 0.035062666256303686, -0.17517370043705255, -0.28317437168911735, 0.12197692424357161, 0.12415033216321067, 0.04380752609765612, 0.03093607057485009, 0.011053667095931852, -0.1891123303062283, 0.002072828239462618, -0.03458650511559986], [-0.46675493745357266, 0.13674456935976673, -1.0981272766581966, 0.6631200194151615, 0.018547444572482807, 0.22149336234385988, 0.6536436554001751, 0.6576820881762361, 1.2357742603467738, -0.593259524614726, -0.5197258124387613, -0.1653354835036093, 1.5610578704975837, -0.8049156937645056, -0.21857583088763696, 0.5702029522101423, -1.798227159457517, -0.507745233000701, 3.0003689383951033, -0.13629632050579668, 1.073225030228967, 0.2625671817850383, 1.0005240002080293, 0.655425188336479, 1.3638455185674427, -0.2371310426646128, -0.4049115877777231, 0.6980126192939154, 0.6351387190279335, -0.17643044100180583, -1.8436887460638547, -0.8627419825681267, -0.7291408278235727, 0.39213553710808113, 0.04818396686414487, -0.6744024844253173, 0.5023795392537537, -0.20773343614175094, 0.08311557642832819, -0.3179710531754005, 0.46730836463332065, 0.5422674306799438, 0.21576290331210135, 0.06086194303845728, 0.21055123310469437, 0.2549789724987272, 0.6240411627118482, -1.4938039693122944, -0.22060746024707212, -0.9597584882966035, -0.2329334494251401, -0.28007542918349126, -0.1870114805509175, -0.810930988526526, 0.14568580396073394, -0.22535707041008954, -0.2326756373631183, -0.2599029722422209, 0.055870036290773556, 0.18076640473752578, -0.1349525990582525, -0.01219565396314922, -0.08627974277781297, -0.05084290557693226, -0.01883507500146781, 0.0015772660356141973], [0.45359390938303334, -0.5520590013987281, -2.3613769035499277, 0.5406584788787443, 0.007638924386939038, 0.5334154095095845, 0.7565447816995601, -1.3569577901395076, 1.5067441300440947, 0.3091189917591371, -0.4496760688285159, 0.14756470733262977, 1.404430347980611, -1.3507339925486486, 0.7245783613144711, 0.34996032170945623, -1.0704886584724136, 0.2793891561049105, -1.822988284669026, 0.2602498177036811, -0.5228386983378965, -0.5478583500391425, 1.9907511651519365, 0.4310554497844747, -0.4611043804947774, 0.3831874119349536, 0.21234544383163076, 1.26534637304324, 0.03777602613262201, -0.06582239283389806, 0.554541428023059, -1.1038211871813925, -0.51037043869211, -0.6068892140341354, -0.8063640158579908, -1.278307942930048, -0.3805808004077285, -0.3636121793179311, 1.078231047931259, -1.2803364759981009, -0.876509631695851, 0.28929408483283864, 0.19206021708601154, 0.0593790531787329, 0.16082431392425375, 0.31128868081912386, 0.9613284033721033, 1.668256844615977, -0.19018120690834975, 1.138303179817663, 0.03279001325811456, 0.09189321891682774, -0.537033551516266, -0.510383889977583, 0.4729034479588191, 0.04233588541111495, -0.11791591964278392, 0.10322317453964092, 0.11621411857025966, 0.05292873337586839, 0.19242441151099146, 0.1196246901221799, 0.014755573145277171, -0.16882028195076407, -0.1987778027760681, -0.0020153713758010745], [0.1446425188716152, -0.3494388308126096, -0.15589920218966077, -0.3403092186835478, -0.02450394093622481, -0.10419070016532056, 0.7014460116668083, -0.05522805852742129, -0.1673429747094062, -0.02551423708418236, 0.03137065075395706, -0.31566410603641376, 0.3874796162382244, -0.5480841258214431, 0.3768998586193911, -0.11780494693416767, 0.2814421892951965, -0.06136210527099462, 0.09519556375054898, 0.012531204861449994, 0.4208641972692503, 0.058229222203736344, -0.321583891076196, -0.10243612361822783, 0.1619669288724005, -0.2957206484549367, 0.1528200820621452, -0.06465421327228123, 0.3784050794961971, 0.44265177826567986, 0.2581078015450779, -0.35846696664979033, -0.22947763538709062, -0.11977995612327359, -0.1811251900418801, -0.20502381939183895, -0.6766352206642802, -0.2316579941489042, -0.2859347742386245, -0.3037228174315651, -0.11658771702598923, 0.10780718115111598, -0.1082432702907337, 0.1026568961614951, -0.052595275248255476, 0.04992247253920745, 0.2410569831531074, 0.28689215485244285, 0.07187576493108086, 0.26115985396046243, 0.03298234900474923, -0.028766567026851726, -0.04388549614028579, 0.6129374270961238, -0.07310347957161553, 0.14335267090889428, 0.06730819178679179, 0.026332777711960798, -0.0598602592806434, -0.0903832647357182, -0.06424293803158419, 0.016163309658838054, 0.04105479182323344, 0.04976402547903315, 0.014419436240328062, -0.012664585227286614], [0.41225547595009243, -0.3721340923882963, -1.6877893562963258, 0.07007112035679053, 0.0030007759997956428, -0.4852881646894115, -2.5333197834745924, 2.5508726136554505, 1.1837150415099522, -0.4561650438347464, -1.6323595859427127, -1.889790946534934, 0.05956898422903487, 0.7294407670465015, -0.7577695013263415, -0.561703890348647, 3.2771025775572205, -0.2959356532027958, 0.027265332678532123, -0.4111275224752401, 1.1675797934461842, -0.026307757582887937, -2.4047646441406556, 0.024980356611877925, 1.4261534399249285, -0.40467180475802444, -0.5468347061821145, -0.24755082879500284, 1.5980946691654279, -0.7638180215281409, 0.955872511299875, 0.7121687334654239, 0.250770334312647, 0.9123767167718633, 1.9375995374525232, -1.653372517786947, 0.0526322877899715, -0.09301525582126594, -0.2783794432642085, 1.55477263645716, 0.5597117671656038, 0.0464561402409609, 0.059688761726518776, 0.5290190503706532, -0.123039236111237, -0.06481771151909604, -0.5365202346053913, -0.14221541365881932, 0.16100412495641128, -0.1246600959176967, -0.35190002514042523, -0.1614894385013812, 0.2837336627521486, 0.918771215922778, -0.12710471646424068, -0.4373791958321187, -0.029905069987804837, -0.9536487896043795, -0.26847193658528634, -0.10220540881917202, 0.010257909792546031, 0.06835043150605434, -0.08412024009654637, -0.14094370649439408, 0.034482036706487286, -0.01761696857934255], [0.3152371127443849, -0.3295627337389589, 1.2698247301126435, -0.7355823487952091, 0.02405957267785247, -0.1974164459560773, -1.0690790797757403, 0.21096701236802065, -1.0037142194931816, -0.5316792297422122, -0.46905703455699743, -0.5348595656249746, -0.5906823244797909, -1.426440806862245, 1.2640142547036237, -0.5829516496443736, 0.47607342432849437, -0.05701003273971181, -0.4726495370174532, -0.32279530347880836, 0.4714557822622923, -0.32357200755465143, -1.1242817078190699, -0.04489270078437812, -2.19767086199024, -0.0759306140675703, -0.1657160143027581, -0.23812712057631638, -0.23261117400982168, 1.448341171960379, 0.9185953658285823, 0.6282418890891114, 3.1468852720652047, 0.3047542574415365, 0.7053123580947395, 0.10972711296598946, -1.0279798577651509, -0.17524028032051545, -0.04946236383631077, 0.2745022671398551, -0.06238450712594131, -0.3323984100018335, -0.10096701092901898, 0.2650398274727297, -0.40261806889131574, -0.3285243089679067, -0.168516986990538, 0.2578649345234581, 0.20882741022455437, 0.29017707163173656, 0.16988848094443385, -0.008750700855460371, 0.5704021738051309, 0.31261367338588864, 0.057838227761546006, 0.45014857773048, 0.453647059795623, 0.23369576973503164, -0.1675854869310401, -0.14133154124053762, 0.0078112518635222086, 0.0868092218400824, -0.026892897059088854, 0.11649038525069975, -0.00911007923642895, 0.01022659683176295], [0.4474422205633227, 0.61593931775978, -1.0564982616981706, -1.828819415384669, 0.007119769939069348, 1.0551017615172107, 0.10100786234871738, 0.40325345512030364, 0.3090035618900119, -0.3398110756204401, -0.9731303128180891, 0.21565743367218157, 0.3631442341432974, -0.18792508204906344, -0.8460544498393058, 0.19120866952390972, -1.0782617105260084, -0.4885759568149108, 1.647794837783074, -0.17209425771569611, 1.5506009908799008, -0.07300837976091698, -0.6920194940910203, 0.026401291891532397, -2.6518213457115487, -0.25282112447791966, -0.5095472920128741, -0.47009410970119664, -1.2766034055895847, 0.21859424754744314, 0.8199257174310615, -0.27688695429323323, -1.1079181140765535, -0.461259280055928, 0.3634346634043822, 1.3813220718914696, -0.4323557560865167, -0.031378813662303336, 0.018401425694860616, 1.2303496818832707, 0.12644589980812043, -0.2597896095003825, 0.9316202853488014, -0.46965070154951466, 0.07463316031522575, -0.055950844782105734, -0.16948681709711874, 1.2113457242414445, 0.16687206209812974, 0.9416501772718973, 0.10570080828706833, 0.07368350078663007, -0.006410561135843819, 0.7305806605421556, -0.11283310382292851, 0.0004872861102537866, -0.004203470464191084, 0.2781365609868985, 0.016484646194947643, -0.06911585013820176, 0.06272926293493003, -0.05575661309376806, -0.09046919988496965, -0.07323979301005862, -0.008236666393237904, -0.003127315183033995], [0.547296795349183, 0.6026188261383181, -1.5259781374734538, 0.15789567260075785, -0.030210018856247467, -0.14492512661615256, 0.1255644258439241, -1.3574858006292836, 1.649572211699285, 1.1087884295953145, -0.8816037865631188, -1.3328817883644413, 1.2853485341043827, -1.1389224265667248, 0.16946769817523052, 1.0532006000329526, 1.5624246858611213, 0.186566457161332, 0.46757132989021893, 0.834151590174873, -1.2636844985536246, 0.5930999042070729, 0.7012283811988602, -0.2197119888075617, -2.1353795343947217, -0.1705933382636027, 0.03516899039889217, 0.5596920916918018, 0.03950767914069508, -0.7989555433738125, 0.9623853492701062, -0.8515016261722258, -0.7742571482942657, -0.31277176445122223, 0.6730976188623563, -0.3532550006165102, 0.42918532702133216, -1.0136587217916417, 0.47999005896585606, -0.38422290370947565, -0.5789264888752728, 0.5747969293559847, -0.5986442478957276, 0.5343853791022735, 0.44901345786947106, 0.6869091330591204, 0.18408273567534375, 0.445290907264997, -0.22323921626067678, 0.28283896807444087, -0.3699232948358082, 0.5171850666987755, -0.346724621639869, 0.08813319708666331, -0.3013763659445326, -0.1616159519892729, -0.247398286953939, -0.4809365263468533, 0.15110401046036687, -0.08193080032534021, 0.036473385560278036, -0.14626904140060035, 0.1094279280344976, -0.2370417470572853, -0.14251106805636973, -0.016079015985680057], [0.5319282457940188, 0.28530999236247034, 1.091695973181087, -2.5169423359418897, -0.026987073939060458, 0.31241365794185644, 2.6834995719550894, 0.654467662702223, 0.08290290287973381, -0.09835415332104101, -0.4605599137652608, 1.8128328130129732, -0.18632565769777926, -1.596848423455487, -0.8778380084533433, 0.1931659403359359, -1.6555963483583342, -0.9855150320354529, 0.007235217787978346, 0.2161291294143002, 0.9679611601293493, 0.18524952607764317, 0.9327709507175431, 0.2718335478895502, 1.6710465448790808, 0.02944221124636289, -0.4482746750571817, 0.3138569471511325, -1.4525924023532528, -0.24589672623890163, -1.432767284121291, -0.010975202808345045, -1.1369428496944165, 0.32423359114950256, 0.013104045912187076, -0.37336070689050904, -0.8054523461374955, -0.5123599128446713, 0.19983126105686097, -0.5819383860937, 0.16979209182275737, 0.17195401204341068, 0.7787664277850831, -0.12397109532041568, -0.14374261383982295, -0.1620648619134247, 0.32747174849296695, 0.09858478070891402, 0.035889933523141314, 0.10401755869671697, 0.1443265146039776, -0.020622420035520117, 0.37951774154962425, 0.24828222945927086, 0.0693745792913098, 0.06487421209800884, -0.211331861334929, 0.45281894579326765, 0.0031905706416044287, -0.03504394625809193, 0.0012810924107139305, -0.04904445216126943, -0.03681582780082756, 0.060675853586222954, 0.019806883588513905, 0.014174778756592949], [0.017163311490115536, 0.7750692317717557, -0.42207731846068, -1.509794210193567, 0.0023572115518054, 0.7084292125408208, 0.8464355768310052, -0.9094435845717288, -0.75881338792573, 0.5810889224615572, -0.8256032216501062, 1.9322985249565685, -0.8056101839613641, 1.319756573149761, -0.9017640156880172, 0.31132698346866494, 1.8875867328046392, -0.48209751090150194, 1.1439310315800368, 0.5963595186420526, 0.13803692876325502, 0.14696558855478845, 0.637102085803236, -0.348352567686281, -2.007282845950189, 0.10902536938937998, -0.4943501111311734, -0.6462214371469411, -1.8080082504512562, -0.6166013795658851, 1.1830439555566183, -0.7426592655966462, -1.3429131038802777, -0.41970339739104345, -1.3984815264449406, 0.769379725417225, -1.3542742308557894, -0.3786435630022491, 0.43040163255892294, 0.10268385231261946, 0.7213002999499348, -0.6126679612872444, 0.5526624669719321, -0.31603518938686165, 0.38514963678392117, -0.3212575016571626, -0.04102902769837802, 1.0970538812129544, 0.10908340204565588, 0.6393600803162554, 0.18604876004430218, 0.26983695642574484, 0.45862075306021804, -0.158267448784398, -0.10787011169887223, 0.30699587453712357, -0.16428593248372797, 0.535020874604619, 0.005153683658301498, 0.013358966142683495, 0.07871178550569188, 0.016756414833053505, -0.025382950355009388, 0.004699219088296203, 0.0525885527356733, -0.009582593172169982], [-0.49767188882309626, -1.4592284621988254, 0.9587432353857932, 1.645768346617237, -0.01840555666309056, 0.09301467796493953, -1.7195904586193695, -1.6652942386483796, -1.8511261041548421, -0.34443684935733615, -0.019472776277618124, -1.5388685395646682, 1.4756466471453416, -0.5192656831410651, 0.09509311309765905, -0.6649956444620199, -1.4245570619709433, 0.013151921341911295, 1.0684407479195834, 0.3379929690969623, 0.15851058792646136, 0.22702026373457768, -1.2496805714432817, 0.7878082576342749, 2.7396571415230535, 0.00879656043722901, -0.3577395922936213, 0.5245504643309684, 2.840260905268929, 0.5629493468114821, -0.9677359306577815, -0.40898798650394075, 1.0650009992276013, 0.3107392986086112, -0.45052799239015545, 0.7303805152196934, 1.5228002779473306, 0.5806608019417154, -0.09961870852868526, 1.4156607214377195, 0.7924353028288025, 0.47017284861634273, -0.93602030614261, 0.4108664125024433, -0.47748379396668456, 0.2149736212226812, 1.472971229574815, -1.6211451379316981, 0.044228937796546706, -1.2189225332458165, -0.11746547613110596, -0.46785937264702193, -0.4957911807404644, -1.2652222095260612, 0.30711467141971205, -0.18307359365674242, -0.2028643584785655, -0.45434655223721565, -0.027918003941773142, 0.4786093669912165, -0.18335772089276262, 0.1574842888218743, -0.05987270371484652, -0.19651527334085336, -0.09878625072389377, 0.012982768148359], [0.6356204481520477, 0.6673368492944272, -2.05706950118022, -0.7930256666535119, 0.014919957715321657, 0.6440450774030696, 1.2281994034899517, 0.72432348211834, 0.2608534107358817, -0.7010562162431394, 0.0028029675547865066, 2.7224993258485584, -0.5053687580945684, -2.091640982732013, -1.508861652004581, 0.8297071009825523, 0.4839311818605465, -0.41434399809908823, 0.6614118951880457, 0.4939799078150997, 0.7949486249029108, -0.21991914814764596, -0.9773926643845927, 0.11818716325848168, -0.6145763476259041, -0.2935307103614657, 0.10994591325916109, -0.1734701598333243, -1.7556553607457916, -0.12168008475798026, 0.152653766980559, 0.4244116053791521, -1.0579711037161934, 0.34639564030446096, -1.2363570627767464, -0.3571116235015307, 0.5970959330577961, -0.8281665086570573, -0.1538358975330081, 0.3292219027726164, -0.35781349906157767, 0.03537275140832952, 0.3160438683206397, -0.2892223845264453, 0.5299750060729259, -0.2818679380278543, -0.4045784243432017, 1.1124415976771587, 0.16278132850855942, 0.9491409478892014, 0.12001929407277497, -0.05019095734102035, -0.14692281997579296, 0.6483962697192972, -0.45530356876071365, 0.010333296368935886, 0.06733955846819005, 0.1850761780181435, 0.20767891920655535, -0.2891474903057438, 0.0033942465588859922, -0.13944840491328192, 0.174448716595317, -0.10543266645457369, -0.05841007275248263, 0.012694906131995387], [0.713356531695624, -0.4303948079687511, 1.3181292847618538, 1.533108822397985, 0.026352399279920564, -0.16495872335349931, -2.6100738374229313, -2.2037541236308003, -1.6691311995137827, 0.2327271409705934, 0.3769671948160157, -1.5145281010855811, 0.07911882636070884, -0.25102982571807536, 0.2100825474692137, -0.6007030424929405, 0.23600992423040087, 0.6737898942146556, 1.250659711359205, 0.19930060299836777, -0.05199058274246986, 0.39976162340097443, -1.286468943488104, -0.8999502605074927, -1.8708017032248645, 0.3735241633701087, 0.8668176986645034, -0.6482606908239061, -0.3023317183651907, -0.042892531671683866, 0.14245318668756535, 0.3217900619523176, -2.301173763257349, -1.2233399949447508, 1.0591366855226552, 2.275808045875457, 1.1588669821162543, 0.40829437078645997, 0.028330083683785118, 1.3223042414512725, 0.2968582738088184, -0.44083072150761415, -0.10759985524697925, -1.0040139232641392, 0.28956176858703403, 0.03909763177943648, -0.6926454883806518, 1.3368596069197651, -0.06645422999970131, 1.0555164011921438, 0.1538308601472254, 0.48102704055311407, -0.5045498169442306, 0.3517619007095297, -0.012494656181670345, 0.13077807841080377, -0.13137620407406345, -0.03586858376044886, 0.3782977825877023, 0.19934814761990366, 0.033953366895381115, 0.03280282441138998, 0.07769344997120356, -0.13858565365416686, 0.07789964623215866, 0.038026666089407364], [0.22735407806616356, -0.35447548556636327, -0.7002427513004038, 0.42691574085503525, -0.008641469219689918, -0.4906683928822888, 1.6131849367783362, 1.475101231513844, -0.395696127974696, -1.0897625148788024, 0.6270245348416534, -1.0746197789719119, -1.0118619506301947, 0.5681875706903886, -0.818358842381682, -0.8634103054292296, 0.23420069287242445, 0.007557326927241276, -1.191235078956962, -0.7236918355529184, 0.4949931866562676, 0.7167154347905456, -1.166187168557257, -0.1830224458957417, 1.0747310731401534, -0.8221338583754022, -0.916258429096422, -1.057907943912299, 2.6594438699994014, 0.7769156240517062, -0.9533897570894162, 0.4983984121699508, 1.516268357801618, 0.78487729665401, -0.15399388017928656, 0.7507091521670689, -0.2805901128690357, 0.005199232596316629, -0.9672860086442345, 0.09544881640717932, 0.8532131855378734, 0.0809671539232485, 0.11473672182578677, 0.7132960635536232, -0.47745659487806574, -0.0724815147301801, 0.30994233793400344, -1.0427083687111234, 0.032667461718126824, -0.748592337772265, -0.03612868194936463, -0.6127441843204866, 0.576444068600967, 0.6218021949437031, -0.3405496966096049, -0.09834774328367428, 0.33635492247620785, 0.07572907857889864, -0.3890937928449525, -0.25691053272676256, -0.17997814386042826, -0.004607603851372876, -0.1663951318294038, 0.2846009396561935, 0.2466237104341924, 0.01189467616907584], [-0.2517494695470127, -0.7513230208584135, -1.5342152035697505, 0.5028358998557605, -0.03432231057691747, -0.7881669017409967, 0.24717266811713823, -1.2257928015184532, 0.47894251830613915, 0.3418601961955776, -0.7520672660562716, -1.807365849909832, -0.1489861368243404, 0.5806886877800636, 0.23937517368346675, -0.4903815969928597, -0.23866873127395685, -0.9360408594588134, 0.1030662375952667, 0.24387887413260212, 0.8512464365609484, -1.0008992687830347, 0.0992796171124517, 0.32524628099056524, 0.37668243610978985, 0.3329458992233062, -0.7448030258485837, 0.561819783344052, -1.2054864980387139, -0.5451675252942154, 1.4496805566497895, 0.24952178662608251, 0.8531800874899976, 0.08067827144502618, 1.034600265816249, 0.24244590378489014, -0.7549714683094088, 0.25906530737175504, 0.44615601088030976, 0.08425476779442889, 0.24141830686038734, -0.3413221362497833, 0.8637269875424505, 0.05336051193717807, -0.13834458835400243, -0.38700793577376297, 0.9848652515586684, 0.9663251965317579, 0.07490495765396844, 0.41648960342653535, 0.05875789394030727, 0.1695291367907933, 0.3700259321383789, -0.32363501311746484, 0.5694553000265797, 0.2383353339003251, -0.07285565510026167, -0.15266029733009673, -0.12642892007816245, 0.027936701453493508, 0.08753971876648736, 0.3459069182656143, -0.13592530313917844, -0.08494820547511205, 0.015134949507848019, 0.007251495045053984], [-0.013958566271262896, -0.7028525515445143, 1.667432436052182, 0.3763085663378915, 0.005581355801889994, -0.8366963863143029, 0.7700758818252408, 1.6247505465463032, -0.6293665703229393, -0.6272667554414707, 1.4599791671139817, -0.14063026266025153, -1.5183777503990081, 1.792827884331905, -0.42904608175336445, -0.9404441366949113, -1.0226144185128956, -0.19567024944483258, 1.738318941590978, -1.2958041393444355, 0.4146983531825615, -0.23929385216188892, -0.5335593072118945, -0.23749821957796613, -1.663368158515853, -0.2572529388975239, -0.7952634057935398, 0.30467643309541553, 2.353097182742462, 0.7700857010517167, 0.04941755456676876, -1.3499936613491654, 1.8045921320462643, 0.3790927638788424, 1.1390830886797305, -2.7303766429809913, -1.9036386607163018, -0.5539832616757839, 0.29314702396707504, -0.6390761494106365, 1.0889960873648725, 0.006904889184279492, 0.21537768230028154, -0.5888267573340984, -0.8661170209784782, -0.4446852781882998, 0.4645356770174947, -0.3490622164074787, 0.19740673995702704, -0.15449901883950878, 0.4341633936698177, -0.29458418150798904, 0.6941571994188883, -0.23986509114816604, 0.45104921907872875, 0.5292710886071165, 0.2261093098138071, 0.7867126182281724, -0.4577282979800645, -0.2470948134145539, -0.0319029871429436, 0.20865886805265838, -0.07460413713236168, 0.389802488845306, 0.15232880113699004, 0.0022193064577979977], [0.3473690845416106, 0.28072099256811517, -2.3303702704327005, 0.36948542345505825, 0.017009336799958953, -0.8158666773084488, -1.084056367655201, -0.2912396772999082, 0.9289911170131511, -0.25098249313071525, -0.08660191649079485, -1.842412876208427, 0.7842078211043758, 0.5311536869988885, 0.9094671492548622, 0.14327036338938762, 0.12033775564409323, -0.190405354860378, 0.4490745535911736, 0.3196143667717395, -1.3814227503044534, 0.3284696033963808, 0.048579183595394676, 0.314635251051358, 1.8588579265404486, -0.31567153073821735, 0.03557746365628884, -0.36457131893634886, 1.004720247514023, -0.19454728936969495, -0.38920329905398343, -0.22076254283649593, -0.45941183270509534, -0.04253096267369816, 1.0537007183155351, 2.2286279049264666, 0.6675743817301731, 0.2594974547370645, -0.6817292799913901, -0.12837213008562073, 0.8716104922683204, 0.24381781463709717, 0.06592798033473189, 0.8047438818505098, 0.7897498689024546, 0.07758604095095485, 0.9585199734574263, -1.1000089491246499, -0.5318618929964783, -0.9305292093384275, -0.50923199068582, 0.010402389211990421, -0.2800689694252978, -0.08044100501088658, -0.24790460237760228, -0.4942529795590498, -0.10086383527052223, -1.0813656039940163, 0.07622405050518469, 0.25982097269136584, -0.06734694820522404, -0.05092870465444328, 0.007359143618800167, -0.1340416728101193, -0.021916451636859537, -0.01821930801968838], [0.3516383578061936, -0.9140963124826246, 1.6039350830577614, 0.9080185392005526, 0.03137251884408347, -0.7437673436129975, 0.34474550237442275, -0.5407243385389019, -2.1463055166959757, 1.1401928636188556, 2.4248431732785103, -1.7435285480252498, -2.1075867386951583, 0.49522524282544517, 0.7229716961783512, -0.754009646803435, 0.21653147695874572, 0.5795176133177861, -1.087802449222623, 0.21279031129858342, -1.395468872773018, -0.3947243129751203, -0.1422362221791622, -0.892602563745803, 0.33074663312883257, -0.15227334469898499, 0.16057812051246337, 0.15046680434272275, 0.0530394695081177, 0.5206974012126645, 1.2108521934519934, -0.9713103582612888, 0.5674334419324149, -0.7098217021672798, 0.6527048954329616, -0.1972757576654345, -0.24123098879366506, 0.11605014941099247, 0.1636834897013633, -0.4067506922581259, 0.18504726811134062, -0.24593756973908812, -0.10477710181944733, -0.17414507238533722, -0.2994415469698252, 0.05560745219744259, -0.33942431419394337, 0.5493720535428595, 0.3463855866460126, 0.2819894498188696, 0.20754027069762046, 0.29570892321459347, -0.05142724881900479, 0.40146992426244327, 0.17382817946112955, 0.2107678149608839, 0.11510158833849642, 0.06657292986180435, -0.11851813336971408, -0.024985458261017904, 0.04282346084817303, 0.07800435073446157, 0.05026747889896802, 0.1928068929108686, 0.11912092180899468, 0.03776932970216631], [0.9338808437772365, -0.12298641045169861, 0.5722918210817365, -0.9086038632270088, 0.0018807209694197754, -0.09126147525946132, 1.7975283220524798, -2.9938614622186974, -1.5280914956435983, -0.17596094310172816, 1.0539586681922084, -0.2724420656656489, 0.17471979360366754, 1.136819310083987, 0.21665757762888366, -0.6310995069302063, 0.5980075480017546, 0.23010558683869883, 0.4389720645607897, 0.2960566250210557, -0.6186586388211585, 0.8859250484229936, -0.026140995837470867, 0.10959578456448686, 0.25354934876365176, 0.28446802827128326, 0.207084610060483, -0.1270870912146294, 0.156815217809498, -0.1466438765736272, -1.1210560561696632, -0.3629016879067022, -2.4030906705023076, -0.6741156207939675, -0.02504583901163704, 0.8427135520083624, -0.4088228839582219, 0.19800800902558174, 0.009194793574740383, -0.2107751914857665, 0.6726677487731897, -0.12918696079796377, 0.18893114886213383, -0.8411786141989832, 0.11612492381707223, 0.09427067827231916, -0.0891539282765525, 0.49096665702941034, 0.07194873695237135, 0.27177809254457275, 0.19397885259005015, 0.08697496991389779, -0.5946803570445808, -0.052138276487928924, -0.0011403404202684282, 0.1874724632966227, -0.18899097524386618, 0.12966619971926258, 0.01714509770553232, 0.11903598324642785, 0.02472660304367721, -0.02265960823130085, -0.026239390934138792, -0.0029446118118691424, -0.009334433926844056, -0.012977904431709814], [-0.5977019960220774, -0.2460109393842037, -0.7133549287474125, 1.6551799498120416, 0.041630589788051314, 0.2765244157443203, -0.6065447243960065, 1.8226661562646966, 1.2071954321517022, -0.8969375233065432, 0.11836530018149356, 1.6158270415179163, 0.6597973640255498, -1.7049190970220893, -1.0459617031164647, 0.4712375184107896, -1.2218363741534575, 0.07889010583126667, 2.0313574540199317, -0.10521938742456666, 1.3378613404864856, 0.16539270402117814, 1.430521284663792, 0.1323719167575829, 0.2985083944959921, -0.49590022997158617, -0.13548637761703253, 0.34964234010229034, 0.1414827620967658, 0.12412019706792783, -1.1019702368387563, -1.430841001048846, -0.3158668933008479, 0.3136416946671685, 0.04306919719978437, -0.8661529296708157, 0.5962878455035359, -0.710701062846536, 0.2885316000781307, 0.11452349655462317, 0.34468292491920177, 0.38354960332011423, -0.2216774659675141, 0.2888549200978791, -0.12341281087374618, -0.0657419855344843, 0.5571525347343012, -1.4969794978603634, -0.06074347942563346, -0.7428602299905607, 0.23052363179230234, -0.43475443889961374, -0.1923263630726109, 0.13583192398166288, -0.09408341843261434, 0.041003017839884345, 0.00511407205012594, 0.2567274219846857, -0.10069675107092659, -7.276556778350184e-05, -0.08801788598567487, -0.11164267647739569, 0.030376502203687403, 0.11273713151466057, 0.03967943928506546, -0.010115531293380295], [0.39160783654739934, 0.5938447641759165, -2.9460617927409625, 1.9703754046340929, -0.010899838807456484, 0.40844747375079543, -3.4266892204272894, 1.047966610799413, 2.113014220929742, -0.4045543802769195, 2.388083028437915, 0.49667826336913146, -1.4314741255241932, 0.041273562269849635, -1.0063655005713796, 0.549269390348669, -0.39623933761267405, 0.33766249728848624, 0.3406518796055319, 0.4065114936397828, -0.9184204195718914, 0.003138093509856721, 0.23373762293872613, -0.8860870337502936, -1.2851982863870925, -0.43864714782828806, 0.5475913891047763, -1.3748080746382745, 0.030352695679982833, 0.6698025717639677, 2.5409178887807706, 0.010361769376472634, 1.995044687947241, 0.6657660056823913, -2.1481491338318683, -1.7074350571770434, 1.2494384712402509, -0.11186911514255539, -0.5123728262543752, -0.10294087908054723, -0.41755401065264414, -0.6760690252075359, -0.31817571990053284, 0.5755625874464956, 0.12536885360056038, -0.4977276871663191, 0.10774640113339219, 0.027047650200431858, -0.058339207654687614, -0.026852189054547084, 0.29432308467560003, -0.0033288678499240236, 0.03793812354519217, 0.6094389928783386, -0.6211670930332293, 0.2814906806973072, 0.31531871265442335, 0.4739182615238332, -0.008956823215655049, -0.26785088380940175, -0.004395366292218679, -0.05402466312769341, 0.15867495504138518, 0.04631188094653872, 0.02281174946905567, -0.017964369745071894], [0.4273613194139153, -0.3282327883987592, -0.4695684568721683, 0.5619263138248575, -0.039527590890141136, 0.723529115203983, 0.45332283768697124, 1.3837926253419635, 0.46526460112876106, -0.5983693690579245, 2.156959005940538, 0.49830066107294557, -2.4313910086556785, 0.8801266669655138, 0.39758802401275256, -0.3332957256332679, -2.9127196547142993, -0.49826176646816794, 1.4427390147239885, -0.2137016692598674, -1.1977210670048892, -0.6958860050924186, -0.2748732617954228, -0.9478246294011572, 1.003331566400234, -1.1828883539695172, -0.7151526994144031, -1.3651142351319696, -2.634881074609483, 1.7606024644439036, 1.4127749082625742, 1.0510332013711319, 2.8870178598359315, 1.278734143650446, 0.9097879773540201, 0.2780102158386568, 0.15890323187615524, -0.42047576286124694, -0.8939650246819963, -0.7202486315479586, 0.9123658782628135, -0.7065005257221368, 0.7304752021924622, 0.24778640478446642, -0.5424774818743806, -0.7884737290680782, -0.27938644278847713, -0.8173182882150914, 0.06777651006301814, -0.32072076597889343, -0.0033635358195108146, -0.47731482983463225, 0.4177960906147244, 1.0886069492058998, -0.4247708123059327, 0.4032907322342912, 0.9000491734540411, 0.15415775888778027, -0.3881178825807998, -0.5758365150974154, -0.055038581090339746, 0.10879330770490454, -0.06067161803234108, 0.40172177777270895, 0.10826151457456354, -0.01597330091863027], [0.8592677591232167, 0.8051246751770069, 0.866709140805344, -1.4550963749841055, 0.014664825239753954, -0.731044988086378, -1.323897240221841, 2.863477924159297, -0.6745018126102498, -1.2976378774177444, 2.6595113027388573, 1.4101721859346774, -1.6483706485601801, -0.3182835910766226, -2.025401325882179, -0.8611076837427614, 1.6767929710818323, -1.064360993976383, 0.6422770966869119, -0.4301681951939756, 0.1258210376554256, 0.4174973035909269, -0.7722120638521947, -0.3135290705590117, 0.9091173090922228, -0.750960062299387, -0.8061764084462704, -1.116827576403136, -2.0198503277680135, 0.6805300719233308, 0.5088131313168657, -0.4108297138195401, 0.9474083808450854, 0.8307141562638284, 1.38161662142004, 0.3544240224587406, -1.464279815773449, -0.31133952359713113, -0.5407574403216555, 0.3869901605640064, 1.3559693331096432, -0.7004435283810376, 1.2399907106441537, 0.15865495502529373, -1.014545466332566, -0.9126392031556794, -0.47058488899336526, -0.19668897206918506, 0.2317710049577045, 0.13151378402480624, 0.271174589853076, -0.17339847598420982, 1.0582753107011564, 1.3294994899177983, -0.39886290559863063, 0.12344017461232958, 0.17018827527671754, 0.49671192910538864, -0.5096248993371312, -0.4286099456465268, 0.006515293038997008, 0.013617691455902086, -0.07392152891505284, 0.30120384415489837, 0.27147144678235513, 0.027842053404759762], [-0.32270555020493824, -1.43973296300057, 3.274661179032792, -1.4159668070439813, 0.010798001569054055, 0.22597898506135622, -0.3794579765638006, 1.5095737847326134, -2.7249935435309376, 0.07455423192264765, -0.4200666377924097, 1.9613385666090617, -1.2726052168757231, 0.7862419666444285, -0.0810507739313999, 0.07086422300442063, -0.44213713446227376, 0.46219989727977784, 0.03192844585882511, -0.7916830445352824, 0.979965408836055, -0.616254073818176, -0.4273451005749632, -0.10140165533585943, 0.8580164070004935, -0.12524808135927787, 0.17770852401808043, 0.08973101363893492, 0.41257923347245545, 0.5637675467449018, -1.2862689148923308, -0.28094451448795693, 0.4473422925362316, 0.20242307212760666, 0.19246011825444428, -0.9087861958852357, -0.5420994637518621, -0.13296321500008262, 0.10285482170181588, 0.6258887201714416, 0.28909555132260817, 0.10408125319193992, -0.3173608994968688, -0.5951758717642378, -0.15318071431512384, -0.27514915232272813, -0.37672115084718455, -0.3727155885701122, 0.557216124782667, -0.1780266006009595, 0.4034572312847704, -0.21043906525418132, -0.018288483493657325, 0.061408914802420785, 0.1623956303279474, 0.8442192790120318, 0.12454145883499708, 0.8941106358374576, -0.11985715605597956, -0.057991536975260626, -0.04221269315684421, -0.008613593794340133, 0.05593057273056487, 0.12399425858392582, 0.0471369148382702, 0.011014417990072658], [-0.055401462901903474, -0.14227653963357648, -0.6633473743945743, 2.0266138927398014, 0.040541598944372925, -0.40861303627685697, 1.4897013973248296, -2.1815791594836176, 1.4609655641265422, -0.027215877985522916, -3.0022149102597253, -1.8933927558630825, 1.6974189271255196, 0.06929358335723593, 0.6702267551540858, -0.0315727990763866, 2.335584387273599, 0.4432300406795237, -1.2616439231505632, 0.36300443255585124, -1.9742705986836009, 0.7720891599967616, 0.3240521110344117, 0.42723810002140394, 1.554351743842694, 0.4823510864325712, 0.0626757974815555, 0.3121381383059823, 3.1031715871122283, -0.7197507474879165, -1.7660503563321783, 0.07829397629700108, -0.5367140645437039, -1.1285645326554756, 0.6546062049841547, -0.1434813735404804, 2.5233071658942228, 0.3582048196796267, 0.4664032423353112, -0.5809163732312984, 0.36927117918546626, 0.4398240856247446, -0.866230582043966, 0.6611371401307332, 0.13046975487406157, 0.7360027781471721, 0.6756149612313107, -1.3542291252879672, -0.21608973056769812, -0.9384453341060927, -0.5848253103047356, -0.15051173937606824, -0.7536742638461928, -0.25370621076194644, 0.09841984034539894, -0.9816388752864965, -0.4948698253877532, -0.6578348858276305, -0.09881614527264541, 0.2593800246538143, -0.09329105442971226, -0.07911260680577675, -0.057047859453614985, -0.29870630070352505, -0.12680339548169894, 0.014721383187601128]], [[0.2572021712520249, 0.28526908004015367, 0.21281032858664856, 1.4646554662423186, -0.5621018574273808, 0.18580088817987597, 0.8151420760943796, -0.26029653248953033, 0.45971870983997354, 1.0610984105665833, -0.2227585963073516, -0.563813290075181, -0.34476844209149293, 0.1733185671572383, 0.2751516160033125, -0.03626356329550196, -0.681594415764077, -0.4452744409839646, 0.9659994829302477, 0.21412522576757387, -1.0537899266546975, 0.09243665189312608, -0.7467674027381302, 0.7336033091364005, -0.0026885675614267386, 0.4032230770658287, -0.4104362013136516, -0.5763284604138224, 0.1580782643219532, -0.17764349134446505, -0.026268018319224158, -0.46314208453086614], [0.034132728182463094, -0.4864957702226372, -0.253070568095623, -0.7749109108406371, 0.12230762713027736, 0.526601542404591, -0.21923801500738027, 0.23789049524586414, 0.01213510609326345, -0.5110477340407881, -0.13082483622919858, 0.9279164176942368, 0.4030029096963348, 0.14265324460377757, 0.22754315852296475, -0.07283248038228975, -0.062089286682698516, 0.9262977941348273, -0.4033720534488178, 0.38889906432146887, -0.258931355909223, 0.43264118440762234, -0.913962440023797, -0.2845920572478809, -0.5887011573335408, 0.6551107539162528, 0.4225611768889611, -0.03720265127491141, 0.22949285057999771, 0.8066683450738172, -0.14743015073405846, -0.09835868165365756], [-0.35234719803682735, 0.3565208840494008, -0.5647552896972654, 0.14789860608287764, -0.23003597329634717, 0.25424678778549953, 0.11077879517466362, -0.13834574137376282, -0.06883202586141647, -0.3906490769748075, -0.03547763484579856, -0.32025259523235866, 0.09526305541436593, 0.28932808511103486, -0.06659609589828175, 0.07646770157152877, -0.17011841638043074, -0.05414241783212045, -0.3990123170583028, -0.022631662650028864, 0.19171732327213759, -0.08431329246235664, 0.21873114713290182, 0.196455507146114, 0.29356629754868657, 0.58011778521901, 0.07443338968869587, 0.22337658939870478, -0.1358660925675158, 0.2063885717102519, 0.24594877396114304, -0.007047668472291682], [0.01427708604578455, -0.14123926641959608, -0.260882403373502, -0.12069247153887466, -0.004794603062407481, 0.057531695211626585, 0.005314987224534956, -0.07980475043804465, -0.5787536782570137, -0.4789743916866352, 0.17752908410127505, -0.018353678263896275, 0.0036103242860028497, -0.1392647768294331, -0.19841712542629145, -0.3641678680620496, -0.4798947308890777, -0.390301208779495, 0.08068150761375179, 0.8760374105531531, 0.2892985813274066, -0.8584524629974992, -0.22105999598637058, 0.4028838189939369, -0.35408916500942933, -0.05716221125825302, -0.09704698956026184, -0.033250907263993414, -0.35850306038033997, -0.02353743526401392, 0.7041367757336993, 0.49571838980865296], [0.11265008020286733, 0.5982916087837294, -0.809928924488763, 0.33376915117838846, -0.32569747854741554, 0.22399955364309723, -0.21699330538465592, -0.3884802624041318, 0.16040640292484717, 0.25198063160777007, -0.13675856052450874, -0.3378614309442545, -0.22996668078624477, 1.0995483620662638, 0.1999931268958582, 0.06632805161277415, 0.6765379738284829, -0.4574125230698059, 0.5213205739925159, 0.9989566215526818, 0.03916195529215503, 0.29290889249196883, 0.15133507354962025, -0.17264113428826766, 0.26415690601675873, -0.386916693562253, 0.116745839454414, 0.36771356187186527, -0.0650384517831133, 0.18163328717359606, 0.28120043981791193, 0.02314607484795647], [-0.251482889326034, 0.5976669204597809, 0.49099009993356363, 0.08608693689716097, 0.26742921296560035, -0.8179153843170947, 0.19129853696896335, 0.35141096408915556, -0.01395669831156886, 0.18870349800227368, -0.145130199203072, 0.09421412426269733, -0.06530987163999517, -0.5025271587151813, 0.42242902137163174, 0.10949471584783307, -0.2923326390548253, 0.7878431572413996, 0.13683473882016287, 0.18308125438395714, 0.7800569076725291, 0.1639559005075648, 0.08974363703417633, -0.15598443769924833, 0.05660311383524461, 0.6150932996629556, 0.5530443815166344, 0.14303716857194068, -0.12139875494595748, 0.08028233713969028, -0.015843829892223493, 0.1297679055815006], [-0.4445266765758853, 0.18988274172807432, -0.4663654383432953, -0.22683971119277935, 0.4665196795160562, -0.3937833787800312, -0.16526050315200982, -0.36148915799028775, 0.09508736650813226, 0.3830764374530409, 0.4098336409277134, -0.5546061652452732, -0.3208058806481296, -0.23838909371504555, -0.6526224098357092, -0.2465488086683761, -1.1558133398111583, 0.30157441054868755, -0.3665204501774176, 0.7271587112504437, -0.2990614333536835, -0.3455252991222531, -0.07399142985994914, -0.3417120161988542, -0.030254866365639083, 0.6559935434936374, -0.6361191112392213, -0.5598410960536373, 0.3007821627617452, -0.4597541378986219, 1.2088904862369314, -0.26094054524247035], [0.6383731635963755, 0.12526338245714588, 0.18447478528600797, 0.04931060626777831, -0.3852804582482547, -1.3624748408486056, 0.5964121666109484, -0.03636013809201404, 0.41765659217472084, -0.30449363781162453, -0.3889505680892353, 0.031665041747081936, -0.40474507407335036, 0.03237540134780887, 0.14303594327889055, -0.08356433972606384, 0.1562943237762763, -0.007092931362672563, -0.25100727185972443, 0.5761204541944189, 0.007970807816014667, -0.6983748368688396, -0.9274869456280038, 0.610354587395053, 0.2904731943529706, 0.6795356776818536, -0.9928694447734501, 0.7027855428279706, 0.008086266697935498, -0.5037505289426537, 0.052774941958772505, -1.4069227569979075], [-0.06791020135775487, -1.4309349238408362, -0.08772752518648531, -0.44191575353993384, -7.627539517537724e-05, -0.24200033856998845, 0.17921906538912608, -0.4608634519497008, 0.0756417525371428, 0.5274585497018132, -0.4145322926465265, 0.02916051964404927, -0.04435449982127868, -0.28856304839264035, 0.4204896677597725, 0.5611069493856318, 0.7277436202481167, 0.7208382218569434, -0.10689444597902585, -0.32569755473588574, 0.27864787243481937, 0.10659854248900284, 0.168416407120732, -0.41439269377584753, 0.6057913640551056, -0.3931118549484306, 0.42814057019624646, 0.14504158959301205, -0.13331730919935625, -0.3614642367794829, -0.6586758765870923, 0.5841651846958157], [0.33587496659604327, 0.049935621991673784, 0.35455143524810334, -0.19288151141113802, 0.39369913126937167, 0.3697633166203912, 0.5418150201728248, 0.6158395692193378, -0.32633501934469006, -0.10616839905823103, -0.11822809658230278, 1.1062817135699627, 0.2375184720990322, 0.033453702094677205, -0.44261479837262296, -0.2180795291272247, 0.008589592340812998, -0.3885252426363777, -0.20468249946907263, 0.4738358070479504, 0.33985453654550213, 0.5598443268629837, 0.026079718613452783, -0.8082608143969288, 0.18951458291400664, 0.20210935499351185, -0.28822901090408426, -0.06216457543824969, 0.8111847906512532, -0.21470059138709793, -0.0478239387574634, -0.36316603679394893], [-0.5534587946790547, -0.09851540417386213, -0.9285127427155812, -0.26138655285572837, 0.016728872982304594, -0.2713726722492802, 0.08072273168143647, -0.7080096251814544, -0.4146284005481765, 0.09950976309456692, -0.5403364600997073, -0.47664154659823904, -0.029453198630869495, -0.2023712661720979, -0.6477592078943735, 0.07067863274634904, -0.14695980487996851, 0.9017795515600575, -0.8588630596656942, 0.17862737251611094, -0.190435912424512, -0.16816936500931542, 0.722822072477503, 0.06656469246470968, 0.7710516622209891, 0.7712191442997229, -0.5154264714329347, -0.2677550426374756, -0.15713067396064298, 0.40034778146833555, 0.2494325134957557, -0.26699346552421793], [0.4241609956041439, 0.2846008155653335, 0.41496290720435464, -0.4460577565767325, 0.2450168190897874, -0.04414038127927686, 0.02962429543159736, 0.19183379808635445, 0.22270347498478318, -0.1288669504264001, 0.09179051078946486, 0.048423669287187825, 0.014541466119571815, 0.5441369961673096, -0.4785307927820047, -0.03654538821833673, -0.2748894637594421, 0.5610842168733231, 0.5877049702604047, 0.6183935294438677, -0.22945996389977014, 0.0547667136494043, 0.6112673367358396, 0.24811417670421138, -0.17118297863111798, 0.27573133157278024, 0.40311004091123925, -0.5008675379956917, -0.5216194149522235, 0.13491873618850392, 0.1714256909801603, -0.09823112526100032], [-0.032922277155648653, -0.27285019487219386, -0.28874774462297625, 0.26946519824681586, 0.018753267833342583, -1.0140352463280282, 0.15460238639113436, -0.5997077119384245, -0.25180132202813954, 0.49697793855281636, 0.5298303371325497, -0.4097784686863024, -0.3138050419031669, 0.2342495313602804, -0.14866932904831412, -0.1801857080523014, 0.3841727824577558, 0.07340322995121218, -0.9077154281207699, -0.41552966897776306, -0.334051981242674, -0.6720749006447367, -0.38327702314081585, -1.068016882251833, 0.3941444230456325, 0.44583116549751445, 0.2788396055964888, -0.2779260157381092, -0.16887889881916762, -0.8054562074045964, 0.5405065260844615, 0.7193728942778548], [0.06794987192160681, 0.26402519111985157, -0.4076748011397854, 0.3864471320353414, -0.11431286122634984, 0.06723045404202557, 0.7037887942630553, -0.03678822129081644, 0.24847324483465785, -0.2972651012563282, -0.182364640324787, -0.5664750491962696, 0.2856248366459935, 0.25986821232639257, -0.6447495745252082, -0.06309520545608194, -0.046934333754184626, -0.56075616896961, 0.4725706753360333, 0.8201747850810471, -0.2293763314883716, 0.25990564723202364, -0.24438774165172694, -0.1813172279552, -0.3098898622852809, 0.7893605017779328, -0.7377887101324778, -0.15011502562079945, 0.16933795608545163, 0.09594747445861457, 0.3517788926410103, -0.14357869873127624], [-0.7672621419817931, 0.0911819121164165, -0.9241720125603283, 0.1651909544989519, 0.27228078450453685, 0.6017736355574552, -0.29736906101908905, 0.17831258665685212, 0.29843186104087427, 1.0799921821387433, -0.5207887173797485, -1.4187336020400458, -0.533875813641179, -0.6030409010785339, 0.051045416449242154, -0.6328140022257679, -0.3891705939295915, -0.6381913705986803, 0.441147958395717, -0.2210241481868313, -0.3332708416608456, -0.35708525109349926, 0.4243652139601374, -0.4128023510912602, -0.4037130928109331, 0.5670695706537783, 0.028628222967089067, 0.32128824114983684, -0.06749814921441834, -0.17333587330262024, -0.1993630855881363, 0.17308650531984332], [-0.7623856522688648, 0.5969757092671696, 0.3362593245800033, -0.47192054308219417, 0.5253359423785915, -0.742823757144153, 0.030393250633362213, 1.0065180020920934, 0.48113526033966847, 0.009666653231473267, -0.2015865741810779, 0.16413911457858932, 0.03164034854136638, -0.3438753877504664, 0.17365472191050893, 0.4745917467858853, 0.48213579565931486, 0.6220754736881761, 0.2655798603899911, -0.3917914793356399, -0.5595673703969241, 0.33194247198978705, -0.5354445659897187, 0.3405551087695659, -0.22823100420012213, 1.1547298737770553, 0.02362032007382041, -0.6583829646494098, -0.7586502853749422, -0.45322340176339504, -0.5956454283303481, -0.01187149778108449], [0.4964041988575595, 0.33802899681957943, 0.08163357421720764, 1.103854912528426, 0.4145008252708248, -0.07154711456766084, 0.5718480336128066, -0.28895829943014223, 0.40769543765260335, 1.2062035431530642, 0.13155030545665955, -0.09638147353535126, -0.8347242335377586, 0.4651629839113255, 0.19687665152867354, 0.6776755329727366, -0.2968379370236641, -0.1764761898554402, -0.24142128261039938, 0.12154705901843815, -0.36940715098025534, -0.10114308153623212, 0.4032164799030434, -0.7081318215075474, -0.7341500552336917, 0.08478961966098357, 0.4337285773399122, -0.16052536209660523, 0.21460364874655438, -0.056853889700865246, -0.2875285661960045, -0.3706402831131489], [-0.13803545577908105, 0.11475444412995314, -0.3112645553516531, 0.6171281239978019, 0.06020407336708138, -0.19036809227822235, 0.24525283927147568, 0.2698252266124952, 0.1559568331925632, 0.3830307495876114, 0.4573588894516765, -0.6340818188520073, -0.5189677051683327, -0.10964893654004698, -0.22363519028738182, -0.5185204752108294, 0.38272620046250205, -0.17144020681507732, 0.3067440963725996, 0.11267510791082706, -0.1192223912448922, 0.4986694939733693, -0.4985790085484852, -0.543353815714269, -0.3882072778989927, 0.24440247374144067, 0.4193234267422622, 0.5197636934471376, 0.4703511658251833, -0.5258889367226887, 0.02345174434256826, -0.5489830576031536], [-0.7119505428463176, -0.3635216225699949, 0.19012996727972833, 0.9780745300984366, -0.6486508102922435, 0.04925237635685796, 0.28077609779778834, 0.05831645012326735, -0.41177325756170285, 0.042778074788274945, 0.08498095828209586, -0.18960579828214702, -0.03570609196864937, 0.23651880919787988, -0.1668992005885633, -0.07540220098159989, 0.9978818254622609, -0.5361150557336748, 0.31607910228331654, -0.06944100584838622, 0.06658618784441163, 0.42674600884519026, 0.045251959033043236, 0.5516056811458756, -0.20731094760697708, 0.32455120204746996, 0.16950559377126495, 0.07933388123347089, -0.19056623513243512, 0.005032735724052608, -0.2427069391625173, -0.08792007803870547], [-0.09467195712524443, -0.1530993788461571, -1.0049641224736596, -0.2937192329616121, 0.6453340317803077, 0.11438596395908121, 0.00016734919075720017, -0.20223808494093345, -0.6739440833377353, -0.2357913161817452, -0.47539336924252823, 0.01873093523755636, 0.2522300985911928, -0.12517477141935165, -0.07477313442256642, 0.06245342561416338, -0.3280159040556671, 0.5663869272963551, -0.31749933343283154, 0.6147333717962239, -0.31946854906177713, -0.5147132391321103, -0.19491982117553197, -0.35235844039251635, 0.25790327939324464, -0.6119828460440279, 0.6354645798605537, 0.6507357595932504, 0.3350940569658397, 0.2014388741653388, -0.12589740542150263, 0.9664680003507486], [-0.1763012675158969, 0.30755299822601184, -1.4702903533134883, -0.20921616224994088, 0.6181174812201733, 0.29621474956384597, -0.16097696978849088, 0.6261246305651738, 0.29498996788502263, -0.8406134576473944, -0.5972273004256984, -0.14851934539574155, 0.5443494150491707, 0.11038605690879334, -0.4630804136762274, 1.0758312092953672, -0.14280372972497954, 0.2379214927350956, 0.1382082182864857, -0.030157748791836195, 0.011792449919247956, -0.29566160552598497, -0.08735553717274554, 0.2395213549436803, -0.4582855471312856, -0.1417131822439507, -0.5726049714934189, -0.15970339519396737, -0.005201353289352865, 0.6397079463800657, -0.520727259066107, -0.665024742198293], [-0.40234557303401847, 0.2499544203987126, 0.5368314250283883, 0.7324034364082976, -0.30279180081769685, -0.18763012995140768, 0.5074541987226833, 0.06623037371649246, 0.4882325112939649, -0.6929148921216745, 1.188421184615219, -0.6214267371946229, -0.22527970471925404, 0.2694659303950202, -0.01270409344093436, -0.8738273686758405, 0.2702618992954072, -0.030014643264237827, 0.5817946519904877, 0.1101457211712148, 0.367925853549678, 0.17343977758991724, -0.8040199997786072, 0.29780366558013815, 0.4402126449770534, -0.40508152917426693, 0.023489217714159957, 0.2015757357002354, 0.981775333441357, -0.25097638793921123, -1.0475488339512364, -0.10021962393992866], [0.15750455051951168, -0.40357509635909483, 0.05442384128866147, 0.054004434612473104, 0.08647255433148023, 0.43544638781264994, -0.7589703569637352, 0.3574612208903921, -0.15045276848715491, 0.27241383212078635, -0.24181782109005995, -0.45069825313705053, -0.16418090772967686, -0.33285349283943466, 0.04340127233451676, -0.12559786221786026, -0.11639258926734264, -0.04997502616685758, -0.15902160408042157, -0.32165165051740463, -0.2067614888474761, 0.16685594923604521, -0.26378043085052305, 0.21461303602468979, -0.4324220908650473, 0.4065827901735231, -0.31572136807609896, 0.472003887876808, -0.29217131372061367, -0.3536569649828786, -0.04884953094312284, -0.47337320254696313], [-0.194860907730947, -0.5503722949573506, -0.19746855378901187, -0.5707978733661901, -0.16002603415775735, -0.039348873278536575, -0.08589509992862317, -0.6933343903434789, 0.5650819058283065, 0.25038564036878613, 0.07255872278111614, -0.28524430335191897, 0.6869449386413303, 1.0427124328238813, 0.26317136800472063, -0.015927281727397165, 0.4569998159456221, -0.870214581930357, 0.17660892631682676, 0.5759464514934802, -0.14064353409079655, -0.18040678627167508, -0.8206861914288195, -0.1618944461167315, -0.34498672702229644, -0.5271804001931989, -0.25880217874198524, -0.27379338056170294, 0.19425407716824233, 0.676835942139943, -0.12930198234970106, 0.33006051752193477], [-0.3420099335356555, -0.3277889926471825, -0.6661057203536294, -0.19857547154035426, 0.43432283758941825, 0.067359378088422, 0.015021717390817696, -0.43444419888844266, -0.5182838329454178, -0.29127034743309077, 0.3514142956646649, -0.15287803851368373, 0.018641277797919208, 0.35134330559153115, -0.31550602384542814, -0.6181212162676941, 0.21809199439314228, -0.6905596347622407, -0.13052913087556473, -0.43773166076679115, -0.7956059433275119, -0.44797268903932097, -0.23484589511286433, -0.8472081124631357, -0.10012581941096704, 0.1738141018188498, 0.44312736933958596, -0.19506959805040033, -0.15069119442449713, -0.33371563575646346, 0.3280425359806805, -0.2672705251712717], [0.5564483827940676, 0.2717562521839869, -0.2957565574719472, -0.6370968712612376, -1.4993628210279208, 0.8494662818841991, -0.11548524454467386, -0.5297857626977897, -0.20144068356887992, 0.33498964862023334, -0.053160934987434995, 0.22401441658633425, 0.15855135065711154, 0.22547153214040996, -0.5444074357218329, -1.005045241978987, -0.3288069831115123, -0.3102130588627499, 0.25235089570138725, -0.1540679819269308, -0.49363388496503063, 0.685993774990145, -0.11126432757866045, 0.08653471465939461, 0.07655899055433969, -0.139986913040425, 0.8088754587194851, 1.0428256419266315, 0.3849742327712862, 0.6478751351708644, -0.5782701804271483, -0.05076580163862493], [-0.39447911374489436, 0.13569099464393292, -0.4384410111380287, -0.04111036732496134, -0.14713323994948038, -0.781424470785893, -0.09398362543731095, 0.0419671710957073, -0.3784335226523616, -1.0922739528121255, -0.019150827656960145, -0.5839591903601934, -0.17476269091905675, 0.3167169737526824, -0.6168142375282268, -0.12267907509721704, 0.07324881363205443, 0.20604060446310532, 0.41588357285890837, -0.08670394600611094, 0.7510366576718216, -0.30612359597999417, 0.16305930670771118, 0.2795756293916328, 0.43309295876328735, -0.3788973881679924, 0.040328079812309514, 0.07943356985072245, 0.4858407385056094, 0.5053077214758624, 0.3414041633586081, 0.3375780952339528], [-0.24363993000350564, -0.198585658417409, -0.3385209327623885, 0.6348315422580117, 0.021956274369180278, 0.29644650967451364, 0.18414407974149175, -0.04941441933647599, 0.4910003573012106, 0.7383996770659135, -0.42533980716151787, -0.11853648784778217, 0.010850669876337836, -0.08323437801241071, 0.02440160381083946, 0.40153126532216254, 0.3429424099384127, -0.2534602916213057, -0.2082164663195289, -0.3079727802591856, -0.16367058529532894, -0.0060079911714898335, -0.02980076744963852, 0.1319586737269479, -0.0884425591039973, -0.012864173470322331, 0.12647635112350744, 0.036034550350089685, 0.8950227436918609, -0.1692153688634327, -0.8548714962370058, -0.3971330573296567], [-0.2092938977768187, 0.6058677714538467, -1.201482757564258, -0.4020570236578312, 0.7090726058916673, 0.6422003565787969, 0.13315777478483035, 0.26273128479709656, -0.35873660777103605, -0.09299876902198989, 0.16461053173511497, 0.39611056473547196, 0.7842510707884031, -0.12514241082606387, -0.15696940576902207, -0.021062243523533038, -0.600595075814086, -0.31926749690741174, 0.3408168016492724, 0.420114664098045, 0.004118102440313377, 0.30330940852995936, 0.42588201659240893, -0.5663729073279078, -0.2791793085526348, 0.3098356649331563, -0.6665222351352852, 0.905444842819736, -0.2466861719209318, -0.403237685233772, 0.4558066546590313, -0.7768601837719121], [0.7130506858681835, 0.2932650316643191, -0.4758100013731241, 0.7794127187216672, 0.43560158015268574, 0.07807665693083857, -0.20665638455078028, -0.04553481709768124, 0.4295883969494003, 0.20869251412237633, 0.28686784444818514, -0.010180570202895603, -0.07912765288738689, -0.30095790080281354, 0.43286506923426893, 0.18105842424162744, -0.8495626190979955, -0.04802106708047071, 0.01683478441954557, -0.20119312961569089, -0.36768728157447944, 0.12339349771982003, -0.15917442698860765, -0.4268920954823301, -0.817094083186883, 0.5447146648333544, -0.10527837316445907, -0.6915405766846471, 0.37822876617614315, -0.08874051338682638, 0.23125207070628911, 0.11482220257308391], [-0.494493752980398, -0.6098745559772604, 0.4322958557278478, 0.30775336155066446, 0.05566236942354892, 0.3402770427159443, 0.230641735248571, 0.5337650777640018, 0.30061146677147943, -0.1916603126566501, 0.21074766638081308, -0.9070302149955307, 0.05243251113635987, 0.07894703468949966, -0.1298863440189809, -0.18534159525991542, -0.1969749890028274, -0.6099560545520726, -0.42081805434701913, 0.4051608295995598, 0.07424205106968021, 0.11356177314351609, 0.31337045960424487, -0.06507242550977788, -0.13605284054676742, -0.2161297552691994, 0.1807842000562262, 0.7331798388005194, 0.1183993473750612, 0.36323343083410764, -0.5831154821438141, -1.2685694644173076], [0.22789015060080622, 0.32227892762483545, 0.08027355265952488, 0.294508146408354, -0.3581262047688926, 0.5287176281333724, -0.3056557397485267, 0.0035508099593172656, -0.396626220519009, 0.2529411679970192, 0.035372456649239256, 0.3078088333434848, -0.08740233671219673, 0.24956797348863122, 0.1638918830240755, -0.316818406756368, 0.5276030714359624, -0.26192002256738206, 0.4255545468088574, 0.21960001613831975, -0.29697378948519065, 0.4636577570530671, 0.2227134380202163, 0.06096144539968817, -0.21282744422979535, -0.17346130711874985, -0.06952066765892205, 0.028464390016936108, 0.9028574121654288, 0.46573009139275795, -0.21578072331929246, -0.09107223739273661]], [0.00675155230752146, 0.5654444020695197, 0.19472759623474234, 0.7199914972257129, -0.8824354913259507, 0.20863117931542075, -0.2020628064350185, 0.26067437301970414, -0.08522130277300287, -0.4132420497018122, -2.3761501946339663, 0.10904748599182632, -0.4476487846898988, -0.3547987179784972, -0.35073095081127864, -0.07633269191743444, 0.10458454415395141, 0.15333029020941036, -1.036120235259762, -0.7151225046779851, -1.1377796907244835, 1.6072916131029786, 0.2814593981065559, -0.11989131086974464, -0.11844569037900134, -0.9637411377663843, 0.8348575177387879, -0.4434425091575996, 0.32088326509322607, -0.09946107151490886, 0.6394344414384676, 0.08075912837746396], [[-0.6327533872336596, 0.6584857893174939, -0.2307677078873897, 0.28247879414749405, 0.014779474346563997, 1.8049186992318635, 0.14263917135648496, -0.23704126029348602, 0.28052529725019243, -1.7904220622983187, 0.28585260341990154, -0.3057231667416989, 0.19361564999951694, -0.41798910694092656, 0.09176896375308595, 0.5459307618257645, 0.5504487198883128, 0.3731495066128154, -0.6389384650133928, -0.892313813130077, 0.9521339335381676, -0.7713947977149191, 0.8914661200304765, 0.16103573580214142, 0.08343906432794759, 0.3813926678927246, 0.6053844453619874, -1.1732721259381553, -0.01245176008168943, 1.6166600654664203, 0.6368180030209397, -0.2378441734812614], [-0.5857120413059032, -0.4818245924938965, -0.6319802783327113, 0.3307941063619788, -0.7469537735023759, -0.661443454592427, -1.8893508322498471, -0.5545289236675679, -0.2970187766246873, 1.136454028345625, 1.2358309483147978, 0.07803857634223298, -0.11865410573668947, -0.19572509090524692, 0.8518820999259105, 0.38254922687137305, 0.3974646351676489, -0.09406174718231741, 0.23538670645358525, 0.31364884003321547, -0.9554504455042058, 0.4279058037536875, -0.8268433842138725, -0.21312990823702382, 0.9775203859864063, 0.053295570094114925, -0.39076937336394263, 0.6549737469306551, -0.3963494101462407, -0.6914894663791291, -0.0026207534403116994, -1.6775402983085212], [-0.048701684960195564, 0.4900436014032759, 0.17428602010735342, -0.36846105481888697, -1.1680786894090296, 0.5424418816143383, 1.2076519239309926, 0.2044373686551901, -0.6640212643264111, 1.0854140857680938, 0.7943417244908054, -0.12607589247725245, -1.0592275456804163, -0.1917035018977322, 0.2704805333377878, -1.1082620775371108, -0.13730103721619738, -0.6237669864240003, 0.0746451514287051, 0.04844599593627176, -1.2854507563760593, 0.702535496012331, -0.6748525528024961, 0.16601490838763003, -0.46877200130316915, 0.24332511425791237, -0.1846762768750249, 0.6049075473169075, 1.1925718895606723, -0.37131555947209505, -0.2140021145277309, 0.4530190759430414], [-1.0144299412466682, 0.9424416922137796, -0.5961597958696705, 1.0428488049503055, 0.10644427259906218, 0.26600838594441156, 0.22907538946151246, -1.4910489034603083, 1.259801288798997, 1.3023932970570964, 0.3436001355060536, -0.2212009530573454, -0.046986424367842006, 0.8203904653750842, 0.21497422773470473, 0.3575423791875197, 0.08958631784823377, 0.37738537115902154, 0.1903154352704182, -0.8034950755910067, -0.6175355293010905, 0.7259910598707037, 1.3722907034966194, 0.18820086327188218, -1.062629217877918, 0.0577029899635784, 1.50639434099086, -1.2917773703232374, 0.600906872274024, 0.5154496595595588, 0.6305977600479894, 0.08542508933537403], [-0.592902657158799, -0.36410749754813077, -0.48961837107752576, 0.11079395193322276, 0.5380732428733219, 0.1907488338522281, -0.786773324655043, 0.35418610450460114, -0.5239285581046285, 0.7587157586844909, 0.16683927772756618, 0.07630699575796451, 0.16161896720873267, 0.2771408075871742, -0.14604156177671698, -0.18672983678338034, 0.6381337620993425, -0.505812392033547, -0.07221289441122401, -0.7331307362171703, 0.7687103852940077, 0.797972539790443, 0.2978992060507518, -0.27673266666882224, 0.1412940807389334, -0.4430911610108775, -0.6631261886486725, -1.0522994714256246, 0.028633061374685805, 0.7733745555968794, -0.44373504705513866, 0.37055155796618827], [0.37474576687669303, 0.4562516253901737, 0.7883417078097963, 0.939037785970025, 0.0892493611960655, -0.07398307016399724, -0.04739145686379033, 0.5837538635037778, 0.6933703878326842, -0.036712720634439144, -0.8269044261604309, -2.1824301348413475, -0.37981609573374764, -0.1293752612266494, 0.19814394768904106, 0.6430345687601273, 1.987374898383769, -1.6120754592862472, 0.6819097750721734, 0.2634898952246047, -0.9967830891042643, -0.325118926755957, -0.7286601596383319, 0.47619936043041994, -0.6874680888414075, 1.0078311188640807, -0.15835318980937446, 0.5478037596049556, 0.24428535202048446, 0.07562617017425734, -1.0971766860105874, -0.6630164318436687], [1.8574710735095907, -0.10851274964571844, 0.026138779031878286, -0.8686954809953293, -1.0481079233024926, 1.1903685813191411, -0.7693469145094214, 0.2263622756936251, 0.30464970273041736, 0.13507537013523335, 0.09748685251119407, 0.8705935757688431, 0.524679318251471, 1.3189879906123643, -0.2571473945806788, -1.0233628465572062, -1.0115570323795517, 0.30040458953817606, -1.0245587235766076, 0.6942996478244496, 0.13541495326194863, 0.06747215014662662, -0.04278024973294832, 0.07253570546034749, 0.4712843223398006, 0.35073188692423546, 0.40747637329016195, -0.19332951288776246, 0.5930307101016206, 0.0724824039980437, -0.3662209900613173, -0.5073731131554045], [0.4060922232392642, 0.25388569260161903, 1.9538716410207924, -0.13696449644182396, 0.1796314476530862, 0.7257083917188492, 0.6362895788396878, -1.029137447484235, 0.4276448191281818, 0.5717895012621289, -1.1186659577158062, 0.8245991097431589, 1.0731280860831318, -0.5068469556448375, 0.6234946119156165, -0.45251107846256894, -1.1335801793175666, -0.2813787022940533, -0.14442180909793004, -0.4190013940204342, -1.5277412166587891, -0.7015633548225076, 0.37250713336469266, 0.9050944118990718, 0.18832072981391976, -0.639313432688612, 0.8701297993526212, 0.18492943870343836, 0.49074751268714817, -0.6624894143177738, -1.6191182669965751, 1.4386293935161776], [0.010694761280733154, -0.16237834247232738, 0.2389596511356478, 0.9987835339952793, -1.3933279379556864, -0.21494422808253644, 0.25926446530480673, 0.12912962934959193, 1.537359097358343, 1.232238788440497, 0.6736105029023113, -1.5468335182480555, -0.8048205849226909, -0.11374608175452794, -0.3846296652069739, 1.0035510900646207, 0.5489565064094244, 1.3914255904017498, 0.017645419145922246, -0.5843367906456179, -0.19046138570803708, 0.10482920458742893, 0.39309934333412627, 0.7202780182106775, -0.5580211604491109, 0.9992862316007525, 1.2358281153981878, 0.3221124387289177, -0.6231134263006165, -0.36710344444416265, 0.05341030306947889, 0.7233727178575655], [-0.19310716415263987, -0.34190034038797434, 0.7269524653255383, -1.547855163344138, -0.47055249440171854, -0.006015660066270584, 0.22196270695173168, 0.8171182195170115, 1.0028797293119613, 0.009803733571512456, -0.1378264086724413, 0.5538729567891801, -0.07645598261601959, 0.03405706487279185, -0.05082948470215, -0.4624225723051882, -0.8738125911136574, 0.7026729597600472, 0.09501824285026254, -0.8258290766013582, -0.14689825019618624, 0.07321264101207947, 0.13355704783807137, 0.6455117475397679, -0.4858132467181724, -0.9861369558558659, 0.1748653182981898, -1.005116932163404, -2.085978287257144, -0.6467433388481063, -0.010616935554288097, -0.9287847791482929], [-0.1535805086742509, -0.5281987718838113, 0.13926961590221723, -0.3050152435159759, 0.7156016592405368, -0.7370131802698687, 0.5741007804249509, -0.18836054781064399, 0.6297360608890762, -0.8839836170655375, -0.7259980082779159, -0.8483421926912372, -0.8983539640527135, -0.542155698684418, -0.19603697816542312, 0.873953688421553, -1.477612808243894, 0.7381629481186517, -0.7515864322768312, 0.6357376549227626, 0.4700908208138417, -1.5205807130929194, -1.2164255709745053, 0.5100103610288907, -0.10158613116871053, 1.4706824156942477, 0.06052690784860109, -0.49617727884721974, 0.8233341204172919, 0.09254654444870775, 0.39462177299554696, 0.6847727041312576], [-0.5475387193704969, -1.3877892845819093, 1.4880130093020776, -1.1795702465305578, -0.3359892995822367, -1.0084988334592873, -0.9612647848696573, 0.7576876850641149, 0.1627850456804387, -0.4200290896739476, -0.6879094709990696, -0.10391802642387744, 0.776432492797883, 0.38321993642340185, 0.5612872802541033, 0.44812711948010886, 0.42126221445042095, 0.6948162961048002, -0.5350006650172934, 0.39813021935398124, 0.5338315238796824, 0.6830157775434287, 0.08499187259146262, -0.13562337001240862, -0.186548518211423, 0.1959846466617694, -1.4460103863777025, -0.8978851299454157, -0.7682871343809573, -0.11908735469609326, -1.3776411927958931, 0.6081351868259842], [0.4221068040929526, -0.7140317009528124, 0.942446281959334, 0.6051113009794497, -1.0681195443999325, 0.5794670054229175, 0.3259896139468727, -0.6128522621410022, -0.17905143835944448, 0.3097254047009936, 0.08776226167788691, 0.12291982727858834, 0.1971071814740383, -0.14767884226346198, 0.6344040862259888, 0.06113535103283309, 0.05658432315696591, -0.0732592752273874, -0.5064347831501178, -0.731052649434171, -0.31904910445857054, -0.10499639086570696, -0.06833200390476679, -0.18744700422321556, 0.4363309567346218, -0.5609516900017536, 0.057397574026978905, -0.28218229349064755, -0.20181224678785653, -1.1579697502546638, -0.021030062126874444, 0.10172119145543854], [-0.4012132739409637, -1.0253805271393868, -1.710472694388606, -0.23319228242854423, 1.0647858118238813, -0.7694543772967943, -0.9382413119305644, -0.01442800359178315, -0.46669757162214726, 0.416234271607237, 0.08361304225595444, -0.24600920762358663, 0.2933966056448183, 1.5082787974608247, -0.4850040597924401, 0.5774342457304305, 0.6128097401941707, -0.07375818952723535, 0.5253604444538301, 0.5684060552395545, -0.4728318227221852, -0.3578090443958484, -0.7844162923209999, -1.5155575369540308, -0.9451393041308349, 0.5124367345653613, -0.3721518146493651, -0.02583905862378825, -0.34322260756887646, -0.4210272314030404, 0.6397114386858388, -1.8375195832005535], [0.038741815975604506, 0.9679990113277105, -0.8905465828136173, 0.13397622431556724, 0.911179296665817, 1.5932613406562899, -0.025967843803238837, -0.8272373454433417, -0.08149476382496634, -0.21604396742810072, 0.23907616798526848, 0.3284005255040295, 0.3243350815590791, 0.23014936404824102, -0.7037214847487919, -1.0164857617778895, 0.4077023316656324, 0.027686878620043855, -0.6505428154396874, -0.2788407892497343, 1.6270034791964907, 0.5443204349884744, 1.4170048059741045, -0.3153747846316968, 1.4540141965426414, 0.8283498980917705, 0.5780091786696364, 0.7508952460090415, 1.715884748041013, 0.32066314268645285, 0.7533359716889362, -0.06428017421978811], [0.7134075830680069, 0.13082497720614497, 0.5114382013531162, -0.06645986519005843, -0.37326488676609854, -0.013901950652281152, -0.215008199418601, -0.08083851416436323, 0.9985060861049156, -0.8089618988860912, -0.876592315262534, -0.8893083188677388, -0.5829518950878655, -0.8074141462929434, -0.4484800418111664, 0.7449303750976868, -0.18327534456596398, 0.8245199618838805, -0.4368316823850729, -0.5734075922032291, 0.20292758027508637, -0.24341944669619028, 0.46694473006871473, 0.3233658408146202, -0.38521797889730536, -0.28932022168146176, 0.4500080668928551, -0.34115300159623174, -0.07866513139908848, -0.7162116850038597, -0.25580832231758305, -0.5334364048765007], [0.9799951400007453, 1.044726153442263, -0.6642110390422098, 0.8586350680712149, -0.4375765048764811, 0.1357210283547157, 1.0890936097796493, 0.9482335766675101, -0.1574829055981218, 0.10385125126139592, 0.5020485767896979, -0.6676200112562162, -0.7270082160871064, -0.0013692378584582857, 0.19644751317384168, 0.007460686621504311, 0.16497931103498853, 0.378518412498922, -1.1513038419120325, 0.5019736154881275, -0.8702614467820053, -1.1418051963818308, -0.3033065736032539, -0.11698696219068626, 0.6543222982199496, 0.6073332829646358, -0.00578419166392345, -0.6854086187449353, -0.61120613033537, -0.5404483987079229, -0.26403318162226874, 1.2707157507544584], [0.8131018733882711, 0.2719084767054288, 0.13005734793001952, 0.6607948459246666, 0.6571338749937464, 0.19884414271969225, 0.8042134901009043, 0.3726280089932372, -0.6317343872406598, 1.1021051816958445, 0.13154928492473, -0.9139843360535076, 0.8833767141089399, -1.1574907588527192, -0.3114651124535036, -0.24819899306947418, -0.0047332090159304795, 1.2290901732356831, -0.7607648882155934, -1.6784513655434343, -0.07908019526414123, 0.1854697573107713, -1.3123158794434708, -0.8977706540670773, 0.06918109859507422, -0.786261878781833, -0.43534737181389255, 0.7119264966327777, 0.8857647619844424, -1.6123946342332922, 0.02593039470638865, -0.20066033965239582], [0.16732983809877378, 0.44727628852448514, -1.357524966274551, -0.5032155021820327, 0.028868181515013344, -0.4214195348828654, -0.22371706759974816, -0.32481856944331167, -0.5227491578060891, 0.5437757979515757, -0.8138423794699238, -1.0237511604893628, -0.4855176670707538, -0.3519932044666068, -0.5933485905014776, 0.14140147462928962, -0.14211610858729062, -0.8242841785687688, -1.591349805206267, 0.8080114891115047, -1.3875943983846506, 0.043197319332142645, 1.3403118373010092, -1.4600822022243702, 0.7819213792969695, 1.123278570678013, -1.2262377601183567, -0.25879161953468344, -1.406006229688245, -0.95247644418451, 0.7683029442812319, -0.6080487389433707], [-0.12922791878404316, -0.9293928999415589, -0.11592990945170768, -1.467858713942527, -0.8375323692712235, -1.3988574198156338, 0.5610425810599898, 0.10907334091374343, 0.4962878832240476, -0.1780732786057864, -0.8675616461015567, -0.04266027837901997, -1.0994464792762693, 1.2333236459071792, 0.12424082608325347, -0.07512962761464148, 0.7146829661285293, 0.7689826243287734, 0.5818667370081019, 1.2018669987770663, -0.4925515391786006, -0.8315978039186658, -0.8820853837627176, 0.004722040039081336, -0.46223925308400515, 0.5917515038489817, -0.9870336942449813, -0.28231022112609755, -1.865924249904519, -0.5413696521213611, -1.0989058287300946, 1.1097260908745006], [-0.7361557657517002, -0.3414459148584454, 1.5709880868325115, 0.5663123005895863, -0.9786034499263865, 0.45413308242856515, 1.5579886095903728, 0.16245366242475656, -1.041864889798827, 0.9442340311551801, 0.001225816017021289, -1.199078814791212, -0.9226884630798725, 0.13306865262198317, -0.778059540624148, -0.38892588283344776, 0.5516869739851183, -0.7853936549673981, 0.5978219608593631, 0.1467166839437472, 0.04606630527677009, -0.5574226547692608, -0.11334520049288299, -0.6889819127305978, 0.12724241271440137, 1.0405715729721636, -0.10314001613471664, 0.18301830070022218, 0.49972427206668846, 0.27728948693969235, 0.8757812353944862, 0.548539783781207], [-0.5261627515197101, -0.1320613752898993, 2.0940984557676954, -0.9286009143329039, -0.8946898756531207, -0.8651950168006916, 0.6065365513452795, 0.12689264654645357, 0.6528379694711368, -0.8270160235059988, -0.25392812286989186, -0.3147696254916814, -0.4211606255103004, -0.7547121639057472, -0.7061651958087045, 0.7855990612588006, -0.7997819257009917, 0.9291068869495794, -1.3478622757141985, -0.1610312718325467, 0.2384167515444103, -0.1414629066210649, -1.0060250797496386, -0.8258968089711476, 0.3502419788674731, 0.3608086586890954, -0.4930598677410606, -0.4700242237705714, -0.547398559354482, -0.5666003312933744, 0.6815168512375684, -0.05765705541098367], [0.12519624397557622, -0.6901610672625101, 0.39818641376087277, -1.4188194205660853, 0.012946987043470456, -0.5219928331973234, -1.3024296763789334, 0.8199819691199345, -0.716058079527441, -1.1642057567568946, 0.4689567779287631, -0.6852184692434549, 1.0519882357485524, -0.28797515421238057, -1.2618827638708403, -1.6803418791014502, -0.6519223567014306, 0.3131671531961767, -1.0744641690178134, 1.0011775549154596, 0.8443230830633977, -0.43374818849287977, 0.6600977551707665, -0.09557785261664413, 0.6494651260232108, 1.0940331354864627, -0.6026542123402212, -0.2234262657184495, 1.8693524725974129, 0.4997496637943456, 0.6085213099899541, -0.29450391150109645], [0.9189542999008276, 0.7557516889434551, 1.178788820229178, 0.3200726505970552, 0.7231172056380301, -2.3026944076007183, 0.13514671445757503, -0.6496282898462509, 0.3965354630389781, -0.13088686507023797, 0.007537017571233683, -0.257956718977505, 0.4939962277149452, -0.6003388401892329, -0.811027907303486, 0.8190354800658851, 0.33888901554460915, 0.1807452430159114, -0.5249652560145885, -0.46896023333069037, 0.48202334991947965, -0.7875094390294025, 0.07598241760624846, -0.44995963298316594, 1.3011696544459344, -0.7007622165340193, 0.8401088403550165, -1.2293873100968813, -0.2516665688685629, 0.18092497350548797, 0.47683285017008026, 0.8876467972546117], [-0.989161074547771, 0.00036860766228168356, -0.47775300384986713, 0.938575803412929, 0.16800759763317394, -0.8277881755265041, -0.8216288774086902, 0.7010562515812673, -0.194119808296037, 0.3983317344799758, 0.8004504238773377, -1.6258702953079534, 0.7802672506054387, 0.8495387976440059, -0.2929156845547423, 0.2507289310428657, -0.43979069477108595, 0.045396290323213254, 0.21732543009308616, 0.09079630537418286, 0.3463810607839327, -0.31501530240116926, 0.5065184594799382, -1.1977783396133712, 0.16342728093066095, 0.10658229158022842, 0.19097117093464566, -0.22423274395894852, 1.3772727121366855, 0.28380456735583937, -0.40650742497208153, -0.662122212344765], [1.1534809232356655, -0.08365560048036266, 2.0421743874982052, 0.1511621379782585, -1.2964459505409196, 1.1581080684920804, -0.3226375705031836, -0.6922605014855321, 0.6741006803025397, 0.42809586314980086, -0.5223282422618605, 0.5597605939309799, 0.22885443485214987, 0.020001867941521506, 0.8460518935222875, -1.5139548928973383, -0.7271019593728774, 1.1948372022819334, -0.8427030304224925, -0.5302529862385528, -0.23767357267891928, 0.2541660406770101, 0.22361244566232294, 0.4499009384365755, -1.1031010939093964, -0.31682147423737045, 0.7399026201160553, 1.6088756936460515, 0.10834841272229906, -0.6364859088824179, -0.7174785197008988, 0.9021685566271563], [-0.3306015258015012, 0.799313366509722, -1.2587716141081473, 1.151692912677384, 0.6666461698275926, 0.7379491811544178, 1.106453507493212, -0.13626142689255596, 0.3229679195714076, -0.30904518583414214, -0.9630075447006358, -0.9783898947354458, 0.5879232342468167, 0.20154921152374383, -1.4149416748459402, 0.32154080396182266, -0.7518271524430615, 0.4047265937732574, 0.9594955853803222, -0.39144824817747664, 0.5593179348195425, -0.701132858436009, 0.19773606497972224, -1.0683859776656464, -0.22107020614776687, 0.015320052947740609, 1.2296712282797775, 1.348775141347106, -0.3055346625222596, 1.139275102355375, 0.41225644737201345, 0.3818358035385256], [-0.5508659579723187, 0.42486415751626494, -0.5625100205409195, -0.9178052526529445, 0.13899380155779925, 2.1883757089830294, -0.5222002648047053, -0.17575619996370223, -1.2134521124992883, -1.1977976571325206, -0.5492099467656221, -0.5914421377416124, 0.41867995306232786, 0.9019196835234414, -0.07552215321504771, 0.20683013913379783, 0.9618045280257628, -0.558701431730805, 0.4091895900300373, 0.2990591210669589, -1.0499527971029319, -0.35361953798473633, -0.6558302580195847, 0.19446732031629352, 0.30323061883020214, -0.5620637943658278, -0.0647566307606863, 0.6069300455773475, 0.813795687581228, 0.5963253365116952, 0.9249565948119723, -2.119651587641505], [-0.650691613027068, 0.04723633088576088, -0.09485921467005691, 0.5852067651902031, -0.819434849170765, -0.42483974906363037, 0.5137846218156809, -0.3249176090656297, 0.3674398669253813, -0.15160739558526048, -0.8688284686062424, -1.0020151449277912, -0.819400256997321, 0.4708593832871994, -0.5235833132698567, 0.823199658770086, -0.8254174749614092, -0.8422537010345937, -0.0480120923428113, 0.5182902198711143, -0.6235927102928629, -1.3962305548532796, -1.5331791018539318, -0.1033650518857422, -1.1284425320577314, 0.01643740132287153, -0.06250352759538949, -1.5525632930360473, -1.1041130922467375, -1.2482384778084321, 0.48813640274818015, 0.4630231733649745], [0.4375042896381582, 1.198688414015987, 0.30411942218389815, -0.38489074387843275, 0.9417315979814957, -0.2616382319476393, 0.8318881679367157, -1.4198845166397052, -0.514404872600264, -0.6337103199342358, -0.12858667247776706, 0.6114317950094283, -0.15278514124957024, -0.4834557327783246, -1.062339098851274, -0.5868743235923065, -0.8000891803961261, -0.5425294140056287, 0.18274566101476553, -1.26284180532855, 0.4003373375919148, -0.6429469198145595, -0.24012626442736612, -0.017284587905575882, 0.555312440093459, -0.5321680147427422, -0.19500834556535743, -1.2016587241828334, -0.7171105674002887, 1.0223857359974757, 1.7433346926134754, 0.11290586757251553], [0.46317538499007377, 0.04048393279728398, -0.20793193982768385, 0.9224216824060938, -0.5244290531477266, 0.21435488873802694, -0.02565674554730334, 0.2798668691922725, -0.001333309084875668, 0.9975481800616849, -0.46091369857849296, -0.09916493910815795, 0.10894820462126487, 0.18824615939947267, 1.203144715390719, 0.10369524367666395, 0.10811339390746504, -0.41153255648566733, 0.06714927017298308, -0.46885343656025064, -1.0920545154434091, -0.3742583439709969, -0.42122627701607107, 0.3256887099828305, -0.6389942039092226, 0.8071866682698243, -0.2011300125614261, -0.6386481687892425, -1.0278930435459492, -0.6868340198032691, -0.052480985049727286, 0.6339083242919519], [0.6353314096640148, -0.9342653842248962, -0.7486173683402372, 0.8088428020089824, 0.12057742874002418, 0.6368904364837428, 0.5080948421239939, -1.5546265566131698, -0.06885950114907995, 0.21814341683333582, -0.44990586859004184, -0.4986995751344093, 0.8196073507787571, 0.22416768601199005, 0.6080977003586141, 0.5149159513593664, 0.973866267879482, -1.4529176757963962, 1.169775618354468, -1.485172700773859, 0.1997164756834056, 0.3890136205692319, 0.47756730620700627, -0.2773102630354119, -0.5961015362669624, -1.130389453207141, 0.720789059871391, 1.6490339951682897, 1.1688319516601435, 0.7136885080832273, -0.4727335046817219, -1.8452636741124435]], [[0.8217594396552054, -0.3518347060392997, 0.6366004624256906, 0.5277720132939592, -0.6891007905087831, 0.5789470061356184, 0.5421358639377408, -0.17585667826237233, 0.28926969599391283, 0.2768368820100325, -0.2238271098943694, -0.7693140561323846, 0.22842407401505235, -0.7292832385589182, 0.285128702798492, -0.28742417503117723, 0.46990803146815135, 0.4154643948426946, -0.3364149621824087, 0.574426723659356, -0.28383698865484847, 0.3144912390722094, -0.040033463715575424, -0.11141322990704045, -0.557596782078615, 0.13058638946645196, 0.2783468983509068, -0.46227465079363017, 0.5586113866552948, -0.03440350034743114, 0.06849567194674955, 0.5851056744248927], [-0.9301699052019936, 0.25324762891649794, 0.03244421981467637, 0.9450757907082808, 0.22062021069159746, -0.12022706072031636, 0.32256879143445416, 0.05123663310540791, 0.7568253640780881, -0.3786408174335371, 0.09442606508892347, 0.34057551329832797, -0.936967948241039, -0.2849780001278317, -0.7445067708128663, -0.46518495980598434, -0.22785816519509847, -0.09511025328977646, 0.2056984981242867, 0.03157726443695148, 0.065161107358559, 0.1528654267346261, -0.13511500277659047, -0.29267862678078893, -0.18149117002377718, 0.4856807733237501, -0.4446426780233335, 1.0508065254229924, -0.31998509089356175, -0.5429166420975133, -0.01913846120113795, -0.19452402128433885], [1.099943087959956, -0.09357262882107946, 0.49228111039693684, -0.11260923922044211, -0.007521775092580142, -0.966970612824967, -0.45697581132430576, 0.3540283859087458, -0.6657141686722308, -0.40706706852585783, 0.4173402554168019, -0.6016910552277234, -0.7145097359557357, -2.0037855113148146, 0.9453731651441704, 0.4429124126339125, 0.030963273539932553, -0.5470132406453266, -1.267074882792593, 0.3655910208248714, 0.6524774855585403, 1.0060655080028056, -0.5304286653976319, -0.2562760104469684, -0.34979886737396465, 0.910689491329597, 0.3006698826654493, 0.04751312210716412, 0.08022347639384175, 0.25298123598560845, -0.6246095340384558, 1.0327253726437722], [-1.8349393646451622, -0.6921463742871592, 1.0127547575602815, 0.8719419780206646, 0.31649282465546014, 0.6203495073972142, -0.31035306165906096, 1.1489550930360688, -0.7169863609597364, -0.007286032093201441, 1.296857871023249, -0.7510347702602941, -0.9545592256872166, -0.39126011383933806, -0.08641761327910173, -0.8256339158572227, 0.35803550092104325, 0.10783343277003968, 0.34996267117828095, 0.37672685038171577, -0.14313473588222078, -0.38877701353422545, -0.10355218380654126, 0.03867494335369912, 0.18334461757399703, 0.6123061331742202, 0.03566561183681141, -0.49250870299592986, -0.5833594963686662, 0.3272255870133971, -0.16068988627034478, -0.4968248390435254], [-0.08913526260206943, -0.24759209336695434, -0.7678999132116359, -0.2515259939161203, 0.6181694607978616, -0.5603558170356917, 0.034483678323607464, 0.6344467549005267, 0.23125945899346123, -0.5535526524697714, -0.18054710673375207, -0.5693915642687529, 0.6275902046195726, -0.07942397828617093, 0.08807891377608719, -0.4990032101044661, 0.4966288226016388, -0.22623612671236346, -0.4984141368293755, -0.6683240007469873, -0.4194968434897947, -0.6462950074283735, 0.4134749936851344, 0.20971738164632306, -0.1939301948812381, -0.39158433386933766, -0.13371869493313993, -0.7429534752497305, -0.15782600516627063, -0.4598536156722737, 0.18916185800956503, 0.06290592950240502], [-0.6267068798895639, 0.365064811523144, -0.030656952467006175, 0.260794205334272, -0.4061810955846962, 0.6296435864186501, -0.4664723092354824, 0.0015620800748231134, 0.13865013660835876, -0.2626448536582953, -0.9626947783420148, 0.9864402065674972, 0.2377639565767022, -0.30044600381291947, -0.447587720709836, 0.1542472481071185, -0.7463333351621967, 0.6135788870503299, -0.262196201465862, 0.45129404815636337, -0.150317258346821, 0.19873373657171464, 0.38029638087495926, 0.3748877853458651, -0.1878163349761277, -0.5890943191109139, 0.4140282033428371, 0.17168333158127724, 0.5783016225872694, 0.055803814891461495, -0.1771158782346804, 0.16907135535485035], [1.6668910676392763, -0.6281596664908807, -0.11727735264048618, 0.32550776575945917, -0.1807842910298555, -0.9412323129137646, 0.2432272182841894, -0.2871058411472141, -0.08390841669233279, -0.049404215834852896, -1.1194699561629886, 0.46995593036482924, 0.8307686626067918, -0.2911826325574135, 0.6007064001816463, 0.9732651017443992, 0.40945990604420296, 0.015826302150285763, -1.3624703645852017, 0.43127592726933145, 0.1412232715968152, 0.04842746586666822, -1.5008418627632376, -0.021892301901705675, 0.2787482165769796, 0.602393239766808, -0.6656609265936151, 0.8561288913004138, 0.5915676162695463, 0.09823543756534202, -0.9044146860400174, 0.19145649958985309], [-1.1346352753414954, -0.9320373786614906, 0.5766541083410703, -0.3462066055156106, 1.0265955879843176, -0.658471142843208, 0.08168892187575762, 0.326455750320247, 1.1814727705367913, 0.5967847987882813, -0.2611897666249119, 0.5005921057606166, -0.3802092395382739, 0.4625411769976938, -1.2718125151733746, -0.3716818571465761, 0.2099033940808234, 0.14077559425368286, 0.1725284800860165, 0.06746008765199595, -0.5995743254777136, -0.658336886475544, 0.9895346389269603, -0.1859906390022917, 0.42506283837105263, 0.3547944318847284, 0.15058272231919226, -0.19693181323279355, 0.23416218174316158, -0.18852321453447368, 0.34055454106773075, 0.0371410480615121], [-0.8770752516701471, 0.08828798072560826, 0.9758307173187742, 0.6621189588146079, 0.3078416906468232, -0.7679784400567159, 0.8859487064231539, 0.0049760732023729016, 0.023568274906989452, 0.17221841801812932, -0.8540842683926577, 0.8444950059479709, 0.09370657029761022, -0.22739036857892356, 0.26104026504417094, -0.1572944515886498, -0.5386717290178967, 0.3182403629778339, 0.45185085377014444, 0.8693910335252739, -0.7208166155660637, -0.6425762769674279, -1.0910116816842048, 0.20230441820403527, 0.4207397926685775, 0.7123808165642015, 0.11684345901204078, 0.6236960979220986, 0.37142015571907566, -0.3719246006401114, -0.7161975006223336, -0.18796281782364369], [-1.8549474639974741, 0.05587060772894099, 0.5033551949624481, -0.12239704600669694, -0.16202877712803612, 0.162166260502432, -0.46536351694282974, 0.04879227608226631, -0.456065331361426, 0.6592903432782591, 0.4479472948415658, 0.25857286725308126, 0.5280256433280893, 0.17870568210158047, -0.11109377879359046, 0.1769457600892793, 0.027052980595147293, 0.04923930572506596, 0.8745182983407657, 0.349733384491664, 0.16315705479389941, -0.7329080735514685, 1.3857128107940047, -0.06196661042635774, -0.46637998135958597, 0.3269729359587568, 0.3973970970814303, 0.08058972545972717, 0.5379222458462669, -0.07541819279600305, -0.6127726833889836, -0.8436884300218815], [-1.2462588022847987, -0.2759884138491505, 0.26082538812483047, 0.6248286881835237, 0.39146330770939225, 0.26066468316121805, -1.0401539557737123, 0.8730005643118743, 0.3391393958909143, -0.1318781423622878, 1.1179370953460401, 0.4807680094498421, -1.235350915532538, 0.09770706324414935, 0.23272354893784003, -0.4629855055971018, 0.4390285622555935, -0.16812588249710814, 0.29833082500460817, -0.42093962553580483, 0.7723829378280064, -0.43917640053815066, -0.3359600716480187, 0.13787876632472043, 0.6458115609078166, 0.026360243579805945, -0.16467447571913474, 0.2396747475650829, 0.8065380211427673, -0.006026452476701148, 1.3512468244843612, -0.043411231004109097], [-0.2431832485702529, 0.4383569764873267, -0.35182367381482144, -0.4543597508767124, 0.8965436030558328, 0.5519609614538075, -1.1102103533530956, -0.29675075435327275, -0.11096442927753376, 0.25867700967523755, -0.32232053380050535, 0.11847144028445532, 0.6146669920632799, -0.8546110069983902, -0.6209273286202835, 0.07218265784853461, 0.7054129156154703, -0.3786958732071333, -0.19956995464644303, 0.3017969073907582, -0.04706528472193932, 0.3800510425905709, 0.10049669242585356, -0.06095541162400112, 0.7297705154672858, 0.36150207565679804, -1.6826669331158943, -0.10634948057861522, -0.03422724222250858, -0.09605702126930553, -0.23118646853282449, -1.1789781117251497], [0.9067602107898786, -0.4499553186669249, 0.14755801887519948, -0.09252763485829102, -0.1753857292157963, 0.6099889634156112, 1.0411559585267314, -0.03611730496988911, -0.4191996707692504, -0.08972555498374819, -0.6705240653865787, -0.42571621100307083, -0.11142525568752099, 0.39499390486089436, 0.2895720165630697, 1.020773469963813, 0.6403769127198805, 0.5650960890180544, -0.4525738223816041, 0.7207450920000175, -0.11287162933355478, 0.16127400303492234, 0.2483000913636257, 0.06433226034454839, -0.21383928490573675, 0.6097616918667077, 0.7415459700621525, -0.4928417972876926, 0.06690994666374968, 0.8507856546034334, -0.892440786156631, 0.06531895398120091], [0.5765049941083327, -0.7513050430462361, 0.10290346331104305, 0.5021750938418615, -0.0138317668202631, -1.0251819328795353, 1.3753363032443746, -0.17071700030301787, 0.4111092536197831, -0.05765485958485216, -0.4741590309478305, -0.2269450859494465, -0.4711157858979139, 0.6123282504257547, -0.6593000670984239, -0.7626465530262139, -0.7870507956060595, 0.075722715173812, -0.37137231002143534, 0.09624282531321829, 0.19643886689822546, -0.26844269948111993, 0.20032776769639937, -0.1221861303838986, 0.04963730581864117, -0.7882534792594732, -0.24135986618782704, -0.27724499276628367, 0.005361930343486546, -0.7271617611515988, -0.5937872062266478, -0.427260189005577], [-0.41477708900829147, -0.799100159521773, 0.5581991058985113, -0.3329707642934791, -0.3469748529331338, 0.5035334972400558, -0.28381124117896706, 0.7072288005995424, -0.2016320569749375, -0.6115213308509758, 0.3398548348761232, -0.43706918204979317, -0.03508351314313039, 0.18893104193015026, -0.7816439768265291, 0.5971109124637263, -0.041904959967809165, -0.05785774402179944, -0.10925275440525324, 0.8883432328663681, 0.3710994670941927, -0.13447163586057423, -0.37006621050792887, 0.2676339537624559, -0.26314481740255485, 0.10460046439701959, -0.000394776146295373, 0.6578409818037947, -0.2644425551409329, -0.05306778689420321, 1.2075156108389375, -0.43524697451192745], [0.23703740672786405, -0.31781993996539837, -0.3559852180728821, -0.6290894167128098, -0.5425191843801823, 0.3584988961469186, 0.1212942203753207, -1.0237675040047853, -0.46024356823951995, -0.3757511903411981, 0.8073586420839278, 0.1275219068857544, 0.8479343274890286, 0.08100458882392261, -0.329459957951097, 0.5550037267353656, 0.4740151047950571, 0.057085306376272245, 0.6645430982042658, 0.1858823062769222, 0.12237713613668427, -0.08131129803412825, 0.044766792198233235, 0.07518815842914599, -0.8719249722441722, 0.3952392412935633, -0.8046059019300894, -0.8155414112078311, -0.1394998064143888, -0.5944212654341641, 0.3390264174464684, -0.5772365618330578], [0.6336198916384982, 0.20934351062959697, -0.6386200885826642, -0.7430395441676876, -0.28588189855414253, -0.019515344338068525, -0.05474515274471258, 0.05831823563229685, 0.20710088092132123, -0.05163792324128099, 0.0019250592366083724, 0.3886358599384768, -1.2273288075409503, 0.30832577876601447, -0.012339598763081895, 0.9394135699040338, 0.03456134543587829, 1.5064641888123966, -0.8627408117326143, -0.26570771499983414, -0.6988286275106627, 0.10123658339508758, 0.22510247971262914, 0.6757525793023561, 1.4172845522337676, -0.07289291697621958, 0.500173052351746, 0.4118901688195871, -0.10344727028013627, 0.42507522125331076, -0.6615473789577954, 0.6301784614120017], [1.1439741098884668, -0.5128502508226335, 0.12930396977209516, 0.4977834420907017, -0.20228584593477042, 0.4019135207016663, 0.9048998015117634, 0.6590745889599223, -0.6920540822414243, -1.1898704155086282, -0.9964467972597123, -0.6588950251760476, 0.8586658229710572, 1.1438973844284173, -0.07167516227059481, 0.2769289454027644, 0.3917632994901517, -0.02422167153209739, -0.7292799505567769, 0.12012216804196099, -0.28855152764167236, 0.325402695063727, 0.6174090523293506, -0.26707255933669827, 0.5324609779747759, 0.634883871375062, 0.04543486726001145, 0.2639192393010471, -0.044857673761032994, 0.20403628594056986, -0.28572555920859505, 0.19047344959691714], [-0.8565412364719296, 0.08126728628457994, -0.6091113979334187, 0.5004599340647864, -0.4418190354063892, 0.5621784524026419, 