[[[-0.06245363828884714, 0.13234666846022164, 1.5906542809729032, -0.47326218607083204, -0.01284093307029401, -0.5407603441203198, -1.8452308705318614, 2.066594226823885, -1.5068508886484204, -0.4017928847241045, 2.344090970396063, 0.5260618136848464, -1.464901427112546, 0.5972509193471773, 0.7870882453746335, 0.12366474197164191, -0.19487717010818814, 0.006819311674762155, -2.078526420329171, -0.7998041276255388, 1.30418290638078, -0.03687725189602221, 0.008392702755813325, -0.6573893481466466, -1.0823933635230678, -0.514189392132837, -0.966952944094859, -0.2972206671277842, -0.5446237050437599, 0.755210995916349, 0.23145750259741982, -0.15596838064476956, 0.2266935919986687, 0.5041673464996443, -0.6021143320512043, -1.0391584396128646, -0.4515658214879208, -0.6054973774333793, -0.7455981691368629, 0.4907816837925126, 1.3177410456074043, -0.7907172113190868, 0.5922625643724672, 0.12457882423364133, -0.9899459123101434, -0.8881990477356128, -1.008203066111148, 1.5374240223277824, 0.17480744129079168, 0.37771215554922244, 0.5166174031437184, -0.4350862953930923, 0.641697778593024, 0.8331219636569966, -0.38429296833668236, 0.8488263633799144, 0.776332382081051, 0.668798567272628, 0.19766203674962976, -0.693812618242353, 0.6065319694344723, -0.08363139296876743, 0.5332982493665871, 0.22878216447190747, -0.012552095037511288, -0.4265432885249579], [2.236908357840162, -0.055947551568016216, -0.590261841813166, -0.6127947001746018, -0.021134656358945885, -0.19417098824187423, 0.029508251719491882, 0.45089022594937905, -0.21532868585962847, -0.48126139873941104, -0.20413384560825165, 0.11528046008113674, -0.014480044016307907, -1.8041960165600721, -1.3222801852465056, 0.5001619018828722, -1.4944320745394915, 0.35523134143594925, -2.138902999248041, -0.44733159274690515, -1.0357565143949026, -0.7053502118410065, -0.0876293753634754, 0.27717473969675144, -0.6742528988309056, -0.6486819930659767, -0.4716785402471267, -0.8717768086585552, -0.4066729123283307, 0.2681766696264988, 0.36615569718395147, 0.23773972606239874, -0.201023148122131, 0.17525971072569296, 0.6687155735899906, 1.8845520185042277, -1.2956704588271295, -0.11814663089684757, 0.6871007875523027, 0.7336208989776333, 0.1072692544274835, 0.4373780042338956, 0.12982306159928703, -0.4538314100315387, 0.36371945839905706, -0.39204629939996855, -1.3915936959091249, 3.094720336587629, 0.07885861909571734, 0.9554011639658394, 0.08563680830252252, -0.25632812947331224, 0.12498140630787127, 0.8028278980189504, -0.017871828230759373, 0.17544633900904885, 0.4112471912667345, 0.2293882474674816, -0.3672140542818364, -0.35529382358297895, 1.524626187876918, -0.02036455116399446, -0.11123488448540113, 0.12396634653531174, 0.015089438868110752, -0.21179036957651537], [-1.4918700201465895, -0.1311974667905179, 0.06057944514910878, 1.0761235685552972, -0.002732532550986541, 0.2614541410017602, 1.8244577351775628, -1.4201077481988338, -0.3887955143242524, -0.38890096999040946, -2.856948147156543, 1.0393552196920044, 0.8081137325817938, 0.08792260949385237, 0.07824025861474666, 0.37469218086119477, 0.9689075189910626, 0.3423354670875424, -0.5867639635393577, 0.5155148807298304, 0.6765077637201714, 0.42762005663709457, 1.0428538154741087, 0.42282076899043025, 1.2016357344402342, 0.22561791777544132, 0.423804706840043, 0.40026822171960996, 0.9303899913937661, 0.10171982231842575, -0.19027980009764744, -0.4842967918957589, 0.7205109511054829, -0.3385344761679577, -1.5190827479252749, 0.036273635323792096, 1.4531772532341047, 0.11934338123798358, 0.49185424289343704, -0.49999888087725786, 0.4591471715722887, -0.4784587830725274, -0.23078688699714794, 0.14286635717267662, 0.8693291638316683, 0.3012816663587237, 0.17911474661753307, -1.55204648920041, -0.15899757777024018, -0.5399156321706754, -0.42853406247778264, -0.7694436405730525, -0.34885324340830265, -0.6447685060146351, 0.26581965193234286, -0.6242449613111386, -0.4976090964026783, -0.03220767788561967, 0.2301561981107704, 0.13872653631247772, -0.7990920701375184, 0.05762143723074222, -0.08794955005868751, -0.07088905426719301, 0.02055870297502836, 0.12680004733880462], [0.9436800110836944, 0.13903819720677524, 1.103306965872926, -0.5940578665040128, -0.020003795161633503, -0.4767636664251378, -2.3623567859375023, -3.355790642880909, -0.25161385504177297, 0.0635169321506872, -0.10667554629497185, 0.03743342962304361, -0.9980042242023209, 2.422290407928645, -0.5442520163581084, -1.0110033771496056, 3.187089120866635, -1.086608560645612, 2.4112380341661455, 0.27314315838374226, 1.8382189294417395, -0.4376328762165427, -1.07008819477413, 0.1807965458506403, -1.5897548066929206, -0.27991771804314214, -0.7024793870191833, 1.2100054664570532, -0.11369007117588892, 0.2549157032215132, 0.09626230660876939, -1.029290715478514, 0.07079121345190824, 0.5350114674729807, -0.9602486825070384, 1.4038359028391934, -1.8130410568142448, -0.22363668886271715, -0.5358160501479063, 1.5543531135129331, 1.4949872243067608, 0.019589672150265258, 0.03786211410782282, -0.4171956039957706, -1.0038584006438551, -0.16831743262494198, 0.8280722972843133, -0.07867546016626956, 0.13802346363153917, 0.2460632226480385, -0.41185446825363375, 0.29999999885831846, 0.2275240009672693, 0.022346867455345736, -0.17048946712309443, 0.27424896101751894, 0.4129280226566693, 0.46977648919507947, -0.5753305093593448, -0.544340080961516, 0.5486733721933739, -0.012528650737671183, -0.05986078784872193, 0.13568600510755346, 0.01619570472947821, -0.2987455962527639], [-0.7707974709922225, 0.14121119789622985, -0.8090670871131207, 1.5020379492012865, 0.015119484173859008, 0.573811697588392, -2.9002644751084117, -1.6541104568989526, 1.1512109538968684, 0.8718137438665313, -0.7749902791915488, -0.8071544406242994, 0.6045299389251749, 1.9341434270000044, 0.2381678287507223, 0.3660404391162241, 0.12820277941307356, 0.08164126221294203, 0.2755910290927824, 0.6853383095897525, -2.4228412234890526, -0.5827282068663757, 0.6921667681052871, 0.2618860231972334, 1.142309967672721, 0.5607295913019059, 0.19540760042373018, -0.249645885466216, 1.6041236215912142, -0.8134438774963905, -0.09059660092236314, 0.6518903644865024, 2.814739118150356, -0.3058062205596136, -1.5629764974445297, 0.38086696026572076, 0.7604177497497121, -0.41524278506238654, 0.06233782471359539, 0.5244775041360136, -0.7758430147726254, 0.3067401187599245, -0.3100802665666041, 1.2927131218828185, 2.2632756774480867, 0.49374766704336054, -0.1396403315408712, -1.0284705766502489, -0.21405437383697629, -0.2389551267894893, -1.0930259218263068, 0.4471243176542055, -0.4130269245552947, -0.8321760549574146, 0.20804149509954017, -0.8156932835063088, -0.47935500069320736, -0.6145621292693028, -0.18766116089724172, 0.2505831083174719, -0.5341657804740683, 0.003786610284769254, -0.284899202888075, -0.03135270459885021, 0.03448499630648868, 0.25457484872225444], [-0.2118958437889722, 0.572876927282325, -1.7559479700625615, -1.171498066164616, 0.022895030871095734, 0.5674724131851124, 1.454151082952011, -0.441380069128278, 1.4982531459540704, 0.48913961038338066, -1.5441876788310878, -0.9136179296027103, 0.999765207147066, -0.5021824602726435, -0.03596091977016364, -0.23679791495480082, 2.181093670904443, 0.5639059514829818, 0.6152193014381624, 0.8719686594210471, -0.1967138895758504, -0.39694683312102647, 0.38262907018638315, 1.1516918058939125, -0.5758756461678778, -0.5857770435497426, -0.07622349182742408, -0.7454527199956289, 1.3096492960249917, -0.3282483594242011, -0.09678164757232585, 1.0062890942951395, -0.7305557029079901, -0.8335900030917993, 0.5551247638433574, 1.8502341711003352, -0.34482024971972675, 0.1613784193192241, 0.05099853505433862, -1.6281486419409534, -0.07086798813573185, -0.07467671674728976, -0.43124399294912535, -0.1917483257025909, -0.03974241783137792, 0.0444376429273097, -0.016376349621585913, 0.5737675405126449, -0.021756344334022838, -0.037560428023650186, -0.21449967184467958, 0.3498704456821538, -0.44399960110357, -0.483179439704575, 0.0743149901216623, -0.9538025806897336, -0.5511530493307465, -0.8224642694338613, -0.06293448463078065, 0.5123079037168876, 0.24007569578216625, 0.039638057742272984, 0.0809703549046284, -0.02267974211197146, -8.966532963075608e-05, 0.28291308095224443], [0.6425445358437247, -0.04014028699051894, -0.23605146048241427, -1.104062333676998, -0.04074268312860442, 0.2055776363928884, -0.7295865741714034, -0.7993104518067384, -0.6752054466248014, -0.00859598942922035, -0.3871114945422879, -0.38831626392895785, -0.26244461745594294, 0.4066146769641489, -0.7369073435230584, 0.07766690437356895, 1.9044937849101011, 0.1557506722922631, -0.39301950078631936, 0.07008996652216305, 0.8999766148774585, 0.07655226705696001, 0.2716155059066149, 0.0735013851122602, 2.0367328999422867, -0.1747430485139487, -0.25448618368621073, -0.147302664554907, 0.3032085930683592, -0.05354348049319514, 0.0399124265414894, -0.1829445282690688, 0.11654554068523973, 0.03433546496722688, -0.530250194221312, 0.4120387984193809, -0.6512342109906378, 0.07821125537240842, -0.11352795303988447, 0.38858582648695716, -0.03896592503091586, -0.040599434735527046, -0.012268571917834923, -0.044098826805977605, 0.21246241558945717, -0.06523244300219608, 0.6127134038694061, 0.09625483293315557, -0.03358100468908934, 0.019976149864839938, 0.012371822585156077, 0.0014874454754069328, 0.19578860978854648, -0.11953955298504115, -0.02520261277081287, 0.14213987799959743, -0.05687657004278964, -0.020053083220307306, -0.3833277444681585, -0.22410508254508799, -0.0362682365198941, -0.02977486113050765, -0.14239820625472838, -0.003251279241217091, -0.005019489000477569, -0.08961426939328125], [-0.47350799634416474, 0.48594252405522365, -0.7916950831154624, -0.6448459725293381, -0.052287721962942846, 0.08026796472691007, -1.6957929221413257, -0.7077768320021774, 0.0044077420493146505, 0.2059094982928135, 0.5128148054924726, -0.46841532303884137, 0.8216525127283583, -0.7333103541166727, 1.7634460045522078, 1.0554305221003997, 0.25517559569784853, 0.6561369871465776, -0.5188344043062117, 0.3049079740089821, -0.2419343409931593, 0.24717141894660066, 0.9024516618311917, 0.12614946929120016, -1.0398500264143242, 0.6199952652040722, 0.14104927556068275, 0.461616684149742, 0.21098493972147375, -0.7359336516244271, 0.0663336669507379, -0.5307279793896859, -1.7269284851987659, -0.9636609549321835, 0.19301672187750282, 1.4409048045348132, 1.093067321772474, 0.428084833003102, 0.5108273296522732, -0.53340046015758, -0.7135313001824215, -0.1901513128657904, -0.45245882135239557, -0.02115756514579982, -1.1573355595575254, 0.11089550050676744, -0.21039097258679026, 0.4991855488168225, 0.014481971084311969, 0.05734726235561717, -0.3839989635723833, -0.2852609443442437, 0.026289033394818154, 0.5236165570461425, -0.07567565452499857, -0.1029115131936762, 0.2227326052765332, -0.005451366153261426, 0.7175502146503328, 0.6434831401261796, 0.32398286426512796, -0.008004086196874415, 0.4545855466369642, -0.33159398817786806, -0.006474401787733496, 0.34514243277178697], [0.7956635610476659, 0.06403974624218883, 0.03171224805104819, 0.6404067258134053, -0.02700638503249262, -0.5137056933560772, 0.4823841618704506, -0.35498457074720496, -0.2000286622702125, -0.011109889517122388, 0.25136635532729795, 1.1912169688107772, -0.25162986746795235, -1.773632063771103, -0.6970216441361444, -0.3745401376778236, -1.9048437437266301, -0.39119489374562266, 1.4427294801089936, -0.4026137009232882, -1.5158736414607805, -0.669993763597989, -0.41250874183892816, -0.036573573719371935, -1.8461441775638645, -0.028279941764887566, 0.25408494000810733, 0.9169916912199847, -0.001562550402684325, 0.05177827087286211, 0.21122391816719796, -0.429701674405123, -0.9700107374236655, 0.30023720127449943, 0.21257015197113097, -0.10790717490836066, -0.06773517098375362, -0.4141323925721051, 0.2052050672940066, -0.11519196352154207, -0.5648451581830883, 0.47264817049166125, 0.40598152215822064, -0.21585721583816248, 1.191159259076301, -0.25751152656362786, 0.2666536396166849, 0.49357616966473555, 0.1902470441343665, 0.17880638076842392, 0.20248626420104765, 0.03922626589000067, -0.013237896298523517, 0.1438919816056671, 0.43691682816756416, 0.41583054774327227, 0.23593120859383107, 0.014365615337132846, 0.33100188331165575, 0.09993203652845944, 0.27462065746570985, 0.01740602245917791, 0.7184815824821, -0.15568272412768916, -0.0008337785107498303, -0.04872112512726721], [0.3911486104853368, 0.1864077240355562, -0.517553628093331, -1.4510593096704902, -0.0007416820355829961, 0.8979865654455753, 0.3935346233026584, 1.647627495585056, -0.10701406379703463, -0.4146806444866866, -3.196228039054369, -0.3798183525384689, 1.3822108122665193, -1.2111090620733262, -1.0110169717550292, 0.4447446570003088, 0.5919707736703677, 0.313468771833497, 0.36304033332652247, 0.0403334063364763, 1.675810669123887, 0.09863437215648473, -0.9961112768862891, 0.7577998175242981, 1.0593807684397696, -0.4265682661916568, 0.3204332022622134, -0.4459545451441075, 0.588895386722114, -0.17280001895232194, 0.02354756796953525, 0.044795034573952154, -1.200982211543817, -0.5337908563314032, 1.1147083528992814, 2.169030240531259, 0.6229044238419269, 0.6439886386198895, -0.35798561032472076, -0.6856165932627681, -0.46845090837944675, -0.09759100564283764, -0.4588656713560934, -1.4666048828771099, -0.056953194671266555, 0.4537310048391986, -0.2732489151104247, 0.5750766419953547, 0.08503789682896423, -0.010532097332685888, 0.29222566857327276, -0.1995876009686073, -0.2344294839778805, 0.6008843101443259, -0.051731957301498425, -0.41495535462220723, -0.32689437832126206, -0.5330008793474623, -0.3969333224128434, 0.20648355872383747, 0.26230503285394063, 0.021354813732271567, -0.2990598956850138, 0.0014384691297024167, 0.019395772351470348, 0.18707998539735438], [0.5678285134052663, 0.7093183459041748, -2.8943896779156364, -1.0279461342974219, -0.00782162242185018, -0.036621724776619465, -2.0614214186688002, 0.18493194681785696, -1.0724149298277261, -0.01255307426924957, 1.0289276261388605, 0.6904123152332156, 0.006642539106758536, 1.1798087889691338, 1.2386135608641184, 0.008001159984042763, -1.2746782243773087, 0.30047954846919644, -1.4223062023547524, 0.21987653689379907, -0.27529732915615496, -0.5430747655014473, -1.8088533678280954, 0.5682391508449393, -1.747764100530363, 0.12422246441221478, -0.403651891503202, -0.42198834852431577, 1.6851129029299514, -0.15959946550964685, -0.020772221311681185, -0.2253843444090216, -1.7740770301969162, 0.2784362514738141, 0.6374703140796928, 1.6557671435485322, 1.5212857029106133, 0.303493089107174, -0.28991152435804035, -0.6229822049529798, -0.3321260061935603, 0.10375959860190852, -0.24787624886262669, -0.42121557385425856, -0.4572046092964374, -0.42437219861468284, -0.8998513725366711, 2.134125072832615, 0.11989200056054355, 0.8065032544431769, -0.41015002801294065, -0.29060053170317923, 0.3367637263918529, 0.13101581431445192, 0.19135308234534304, 0.15521360138628532, -0.019242748193953624, 0.0317277497757989, 1.0524145143319186, 0.2738794664051167, 1.3288690239606011, 0.024131359625827128, 0.3651064187840028, -0.040423305319538784, 0.01703957541210875, 0.22100147986827248], [-0.1568632327870506, -0.48483079956787606, 1.554286889984665, -1.4666206095347785, 0.004112840777722374, 0.42138872973342617, 0.6142132036609735, -0.5263672303007998, 1.0881549130016757, 0.020792688637175597, -1.141549794742416, 2.4254679192757305, -1.2512244814562776, 1.2649414031742094, 1.3228645334147096, -0.03517920144759752, 1.3422016878566212, -0.6397875307233073, -0.04683784834924174, -0.04241231980466182, 0.10074087049070107, 0.43718969868510965, 1.2538193069963004, -0.6643985352969716, 0.6381550299363865, -0.031414107697907784, 0.46685460074411683, -0.06485451821325904, -0.5627735374729849, 0.26260019371956067, -0.015527894446689023, -0.13450429488426432, 1.5318206782470778, 0.20707933035027717, -1.215224070323992, -2.3325401518162434, -0.46723969430872836, -0.2288569414477054, -0.17548627173738682, 0.4625292729209415, 0.5494891708439237, -0.38379672856144964, 0.29625707059967277, 0.2567918385341658, 1.093067100127945, 0.2888372705373539, -0.2071576762393193, -1.4852117474169833, -0.13148573455757295, -0.7266803510836103, 0.6769261677436857, 0.361397545541382, -0.011916813063592586, -0.5074067494709491, -0.2099465872203499, 0.1793839658740548, 0.009129488779550362, 0.4688155489192065, -1.2148258911766483, -0.3595033351894289, -0.9790267800974666, 0.011554190423409957, -0.48266515230085566, 0.08208657526276117, 0.02570463188179068, -0.033350788903747264], [0.758086803041763, 0.3591259874954953, -1.1472689593081193, 2.233301929076341, -0.009639044689980508, 0.7969806150207406, -0.034950033449779615, -2.6738822674305647, 1.0122955810215675, -0.13289102640696177, -1.392104509033227, -2.150757883252497, 1.4894251735758364, -0.025824917569658372, 2.20139474740365, -0.1990819678324764, -1.5463176028910608, 0.9054782013948873, -3.202006066939277, -0.08510480546550721, 0.7208830123922839, -0.20436937703342778, -0.19658799917948644, 0.8491911951001488, 0.9319769625651847, -0.3677094946462349, -0.06763709853051418, 0.5194524329975497, 1.499514590373314, -0.5459724034727267, -0.29541835527280524, 0.6873030359204509, -2.686304124658325, -0.5541755373312582, 1.3577674002423599, 2.12237911981713, 1.8679933184210862, 0.295644276211715, -0.5038189527542501, 1.7786664817362707, 0.24092836104160556, 0.5033350555888152, -0.6744194553789287, -0.9755885129846764, -1.9286214624607925, -0.028632914150966818, -0.9113164414334681, 1.6014968450321412, 0.015435277904992679, 0.32033691915721335, -0.8432058696174914, -0.4010354786617209, -0.9768913503760562, 0.24979634432406694, 0.3413822663787259, -0.8153333932444635, -0.2290579796219178, -1.3610537153437992, 0.5246488785342202, 0.27968928774234764, 0.477265026291501, 0.051887179440621864, -0.04594390141127097, -0.0020860863573279203, -0.02822933672106279, 0.34417265040436573], [-0.09504658741767266, 0.28503918360245645, -0.9442343922478389, -0.9447606886134529, 0.008944962520693552, 0.43183077233610756, -1.657953390689888, 2.8897043365975064, 1.4386341905877724, -0.47512686308815794, -0.0664230336696852, 2.0102769204958792, -0.6924118836570918, -1.0960775775410505, -0.3553805955399658, 0.8182251078524687, -0.536662491110998, 0.3148599421317584, -0.05657328202271207, -0.39552319400000713, 1.5812152219810924, -0.7441240608521816, -1.2522774218060087, -0.33609631584056093, -1.0375688084315273, -0.46649266230220626, -0.6510191675440886, -1.1048474852978183, 0.9508374858980522, 0.5618049626743987, 0.11306513351426521, -0.2167557973632725, 0.069377311240644, 0.6920236863915691, -0.513471314679914, -1.3851299486741018, -0.8710463854702791, 0.1889512494431911, -0.49287437239892173, 1.5639902298715553, -0.7895600117557362, -0.40314348098560343, 0.49906519481436556, -0.1986862367628687, -0.5399894639372083, -0.44523149565956605, -1.3522357013334987, 1.7326062839186223, 0.17325728757673448, 0.45843865262671446, 0.2740312718939649, -0.26656488412413226, 0.7231467317395408, 0.7189931733275552, -0.4120193303726458, 0.3888759804899443, 0.5061906126071685, 0.5175523154321325, 0.33645897573232403, -0.7003069801233252, 0.5177592696227437, -0.03296510451608942, 0.1580358041909677, 0.09800322484192249, 0.016290322394118047, -0.24764759783626727], [1.459961070326043, -0.5485557816436043, 2.168219433795228, -1.6661829949290972, -0.029050718879652777, 0.8865348557981682, -1.9631503451570274, 2.8553112116684614, -0.3933927444828274, -1.0896474767171906, 1.4432558540115006, 1.2201896146308697, -0.06069531802442472, -2.586989643807403, -1.3646270934821452, 0.5754485973186368, -1.1563939883398553, 0.6023546180402934, -2.3584297277654422, -1.2001034458190731, -0.43589410823146646, 0.7270742281759117, 0.5760051042148269, -0.7706592821442185, 3.6579507614664757, -0.8415880602404157, -0.3694176138498307, -1.295921769305816, -0.016931394262029668, 0.9276394827619934, -0.03713941396784365, 1.1005595782278932, 1.4376954040699659, 1.1198464621250974, 1.097986976297016, -1.8862187313749423, 0.6646664452109071, 0.16273863191770105, -1.0926632411732224, -0.5914875572198558, -0.7356746056485103, -0.3261009346084716, 0.29831140537292594, -0.5038868514173861, -1.084279067148018, -0.4804568593915009, 0.6338350258639498, 0.5139590527671707, 0.03715751269479303, -0.05052662806133074, 0.7627337004095391, 0.03784696910925787, 0.3985389190053107, 0.4855586095951201, -0.645609185980078, 0.6032235405074641, -0.3659150385273707, 0.938507257996643, -0.902642148811835, -0.7133372649955567, -0.001320708317455301, -0.015509659555934455, -0.57732695417, 0.46766622210650993, 0.003007841756836574, -0.26924062438634805], [-0.14186311428941203, 0.36317397439822835, -1.2866962124334853, 0.36861945539997565, -0.007775672622793903, -0.18250222093862212, 0.1750474840855386, -1.167196524817613, 0.630278272125203, 0.7848841869510906, -0.2686733064740055, -3.1909576398296187, 0.8881915489918181, 1.4774120093530343, 0.34760717462689916, -0.13298298914346796, 0.46588050939426345, -0.14945768522197964, -1.3330482234258594, 0.6501217887154473, -0.873096067683954, -0.8530176429882501, -0.43120976079167533, 0.5597268319241369, 1.408331004595345, 0.5674702363766163, 0.2857797701576546, -0.41865852217190264, 1.5038372877600374, -0.6589324062684894, -0.04064955695286788, 0.5650546864710313, -0.6498171530802591, 0.18909538600212794, 0.024089415219058143, 1.0462399178049733, 0.05180462501667092, 0.6144526494094267, 0.004684499545910156, -0.7859829421022623, -0.9634497012949557, 0.8427528181400222, -0.5271486581191319, 0.7202496066303973, 0.6277981227427643, 0.4153934495888504, 1.305799070151094, 0.2311377944485593, -0.015970781359156895, 0.008230363354555006, -0.16674464630174532, 0.4428458474094354, -0.5740756749166115, -0.48321093962603506, 0.106404181443847, -0.7898122025188821, -0.8537602724609588, -0.8091259563726941, -0.24801241937458074, 0.48477403326224433, 0.25690431504550304, -0.005091730887592799, -0.2156304555539529, -0.04711784215069733, 0.01520781474310936, 0.23932951411319042], [-0.15566235391775515, 0.1894072096645488, -1.2646989855773134, -1.442513362547178, -0.006641670731603524, 0.4374482353986029, -0.30131056515916266, 0.8797723735420689, 1.1365559644736811, 0.0667421979067182, -0.15623502896180386, -0.7423858943822941, 0.6922085038428091, -0.5867777125091743, 1.2110326446738129, 0.4121584869434785, 0.9924060221292085, -0.16279188482488327, -1.1315797566076196, 0.2813761189734732, -0.3209342577447689, -0.10547994664834089, 0.8927760108017346, 0.5192252965799876, 1.2423649406179471, 0.3826042203335041, 0.31272424918795694, -1.1121813311817448, 2.3634058962476474, -0.24175995810422612, -0.08728294357831284, -0.6829493105158517, 1.6344696828812304, -0.8900176930508721, -0.34767382898816496, 0.21818599791203738, 0.3407218615848175, 0.48385028085857484, 0.42761924848841004, 0.1436252076430626, 0.5556230275531829, -0.4086375548157451, -0.05505809133476393, 0.6475176112836085, -0.5314526163513952, 0.43280147313040895, -0.5494395397452246, -1.085183492762101, -0.12875689196110496, -0.24245026962860133, -0.28984593529015984, -0.08199522404133258, -0.16266651464343637, 0.08075338192118098, -0.10001787053164268, -0.45013336679729155, -0.3002621484642921, -0.05853161679431242, -1.3978294655484484, -0.17865457545376004, -0.7124367072286169, 0.009266523244827173, -0.5762461012802998, 0.043252104221684406, -0.002697645943099007, 0.20155489941792212], [0.9308012591003544, 0.5784129811737582, -0.85177700906462, -0.14083460023682606, -0.00643934261364845, -0.06018216393870884, -0.5807661001930959, -0.5857525115664829, -0.11287268059289776, -0.22293570524501174, 0.7286455244670128, -1.5854795205725445, 1.110843830239369, -1.2910846685822785, -0.030430398189756087, 0.38952374731719935, 0.33340015139397694, 0.2643013278660556, -1.4975054972133703, -0.4893879318482494, -0.26242962821336996, -0.21877398930570816, -0.7096210047077302, 0.7851728500312551, -1.200489914598056, -0.15502316477578332, -0.42520307886343595, -0.5458232925416938, 0.4178082167404942, 0.034955553445502434, 0.029799288163796237, 0.7232194321854035, -1.5050639239623052, -0.7368648326003676, 1.6308699754161624, 1.5613020465137235, 0.5338543355125361, 0.2769718041147713, 0.6002348539317961, -0.3290771961811357, -0.5123945457605672, 0.15803186896078783, -0.12477148457062243, -0.6951052258332093, -0.9800690743675992, -0.2993714864801984, -0.6897967910950368, 1.75208840369275, 0.16620181975279766, 0.254537177703241, -0.17967237760234442, -0.3931357966167989, 0.20721808697828795, 0.6552396459783874, 0.0699609363654597, -0.01886739099083787, 0.25007213176000803, -0.08648332881929728, 0.5604660683545895, 0.26285813228995103, 1.208977024913162, -0.04061777930170687, 0.17508972148631302, -0.006124502286762718, 0.0076421636108146285, 0.09849128731141733], [0.16752607510822362, -0.3524821894598907, -0.366867767899553, 1.2296157765939806, 0.003380467786681167, -1.0371239137159076, -0.7361567600483422, -3.3048346783539184, 0.32048001569904383, 0.8470067761951539, -0.6107204348030096, -2.7517436856999336, 0.587419663198376, 2.1073806226879297, -0.15774517363801843, -1.2910224094234, 3.0752424526728626, -1.0094214293218087, -0.3636349276039596, 0.3671173602033956, -0.4387978474981536, 0.31272693545771657, -0.42771317306974527, 0.6019896021770011, -0.33957452389237464, 0.5654296372029861, -0.28086099854997426, 1.388354465697953, 0.1271199050987641, -0.5893575131331381, -0.16807014545950089, -1.051364261883756, -1.1817957460267299, -0.14341156909685748, 0.3058419004800717, 2.420803946990262, -0.9550801941647816, 0.0620347894458978, -0.05270613690763516, 1.7960650055444924, 1.4449004694042982, 0.9289553215735725, -0.6771440110458111, 0.5269073227030423, -0.43483151781247714, 0.3539667294789241, 0.5104419866772877, 0.30146940893582114, -0.013501160479480537, 0.02360657639138302, -0.25767272618179354, 0.5126395179745091, -0.3684136042928763, -0.9242614468377988, 0.28514364645029916, -0.2968395270875184, -0.4835981629974933, -0.7478338882570488, -0.15798160142491985, 0.38265537246013137, 0.3799998638691438, 0.026002723711618672, 0.2731905736487989, -0.14189762060313396, -0.009030108829352002, 0.14635720792855142], [-0.02466260390079026, -0.5212221620194375, -1.4140017073845148, -0.5080035062641711, -0.006260737929104048, 0.35765401946944053, 1.9580754964002922, -1.859946765317485, 0.4531479176025811, 1.0626703480850321, -0.19566935800660343, -0.2947525027891973, -0.5802694522516856, 2.26921814369324, 0.1956979852010208, 0.13699098438985605, 0.6601924796349252, 0.07248006805497766, 1.114721261366122, 0.9599567516648383, -2.230426232548967, -0.6625459389110632, 0.2619536752468892, -0.9900425132733521, 1.3298537302620665, 0.49475790424878496, 0.452975525530536, 0.5433741821710049, -0.09667905994188336, -0.26689266939563067, -0.04615764167328416, 0.3604510186780625, 2.48412286148866, -0.7275504048997449, -1.5329700395225068, -1.2961779107711697, 0.058015086064529674, -1.025980764415201, 0.4931485093021335, -0.5359511630137435, 0.670249618954071, -0.6547044262111156, -0.06358182796274381, 0.5316219977830544, 2.341337848556924, 0.1078921271069914, -0.6348154325279027, -1.093480367851802, -0.239674402744563, -0.26390918410458203, -0.4387577974911516, 0.8181642991159226, -0.40181695532132267, -0.12888139763756015, 0.0663318338541263, -0.1817964693410697, -0.508605606901379, -0.39053385692876075, 0.3468852495111183, 0.10814871788401804, -0.6876591758806464, -0.04794717623636404, 0.8005088813925891, -0.13367425232435312, -0.006203111391676401, -0.015682078221574275], [0.549810278918344, -0.38590331745241324, -3.0350110105050847, 0.38685610847115853, -0.026162202487452078, 0.3482942112471159, 0.2669346263174737, 0.26312396349174844, 1.7146888480492315, -0.004849054335686123, -1.4439237071622253, -1.0235407192146535, 2.1735011688104695, -2.70957222542175, -0.46710621559211174, 0.023094819356033622, 0.7696058076996447, 0.30667481445752925, 0.9116869902207007, 0.6492356839240204, 0.43733008346960367, 0.41141650333020974, -0.938632894045334, 1.1673502133054057, 2.4570424054397315, -0.03595319702017442, 0.26289581419538793, -0.3774167060125945, 2.1050742082096154, -0.22198865218096814, -0.02296966605849599, -0.6335052061997656, -0.1314685434497115, -0.21186241809520026, -0.6466135571888039, -1.2210141940150177, 1.1369042273566654, -0.23427552414818256, 0.10366134546928481, 0.10763195444906484, -0.23428633290867265, 0.08122372390321259, -0.4364077228033976, -0.4667274200284707, -0.06628261237748342, 0.7975968651480686, 1.0543582124970114, 0.23051427944990438, -0.023005513706142407, -0.16502192898268908, -0.6626577808834921, -0.1845281610581702, -0.44794141942794025, -0.04809945315311012, 0.2404262234749234, -0.8273460019725171, -0.40308137019590357, -0.5821707364945096, -0.588124553910148, 0.19993044261145218, -0.2904170535910393, 0.014549114508579201, 0.04890161668692039, -0.05495494224654523, -0.002099600207458516, 0.28905227936294714], [0.10137415998287316, 0.20734922819602372, -1.7881465549890523, 1.1440919818708044, -0.011869573662847906, -0.5467988344832239, 0.3043042198246532, -1.2623301457955678, 2.1884325005292697, 0.7883406778664307, -0.24901728224855224, -2.604797845405519, 1.5892275213821634, -0.8474700862907971, 0.2703979137525701, 0.4517128510596138, -0.9723653369388052, 0.14054984159395278, -0.7718983444772941, 0.37244052914005576, -2.2989000687376615, -0.5672633873920143, 0.6761664440408317, 0.07429591413257494, -0.02353592197688234, 0.8100174924787397, 0.679596453122164, 0.2943052404747274, 1.3425700006280128, -0.9671776372521717, -0.03422153192533973, 0.5085931582894688, 0.3005979741650469, -0.7580680127914537, 1.2350573159817548, 0.7064458463378949, 0.11235630984713908, 0.23304334579868957, 0.5103264928442477, 1.2278748340039458, -1.1484128496033015, 0.768036915184272, -0.24788800168844685, 0.6798341503697055, 1.613720614141894, 0.45508302829400804, -1.1304108393084311, -0.325668592157355, -0.16157289405839348, -0.01269726458692156, -0.8198776433715171, 0.30299860818203034, -0.6803168639910534, -0.34597279212403725, 0.2713849616416734, -0.6076852278208432, -0.22293170960317032, -1.1366228268444454, -0.12519463327941144, 0.7652508436467795, -0.21634067185250425, -0.014313018534954087, 0.22609726644919687, -0.25382533420070535, -0.014180511848926594, 0.47722310707516086], [-0.45736581488270206, 0.43158689426674157, -1.8744135502766026, -0.10740979475272301, -0.0065318593492524795, -0.19028111451684526, 1.495932226107385, 0.6382706015764453, 0.6925836181753556, -0.04146587467273075, -0.5364086943897135, -0.654546777745378, 1.7062750682564576, -1.1563801429376779, -0.8601602918171529, -0.08139678097046683, 1.5488489590395456, 0.22616581955299647, -0.1379532310304959, 0.41559454151962494, -0.28471839394606013, 0.3921486031624664, 0.8059724573478236, 0.811355762747796, -0.5388989403434495, -0.32846876939735403, 0.41787786949608374, -0.6548642112826626, 0.35346881361706883, -0.3708349360919712, -0.08474911628423153, -0.19724715679564542, -1.3959107746160526, -0.921977454573493, 1.410190438984037, 0.0342838691629175, 0.20677181085531388, 0.4625651745754778, 0.3693147808017178, -0.09353645206575345, -0.20002230157630516, -0.2720635813659872, -0.2912125730878847, 0.4703820654895195, 0.30155221572715635, 0.3656507641662369, 0.8884298392054027, -0.14037058254004484, 0.019774850775584808, -0.19590091099937038, -0.6206899361466971, -0.27156262565100014, -0.010586275440061747, -0.7671524013297368, 0.06761692480882672, -0.1094276395166785, -0.16223226495144458, -0.3875125544622923, 0.11282422335985702, 0.2892854179539314, -0.14831361478358493, 0.0198659425067831, 0.20630215606039368, -0.15015540277813783, -0.003735230399564294, 0.12816989485135946], [-0.16491408792558407, -0.41873054985712765, 1.2029915328559049, 0.836172103108531, -0.012765703982009553, -0.8964404780760478, -0.1044041067582617, -1.395885274729911, -0.8469253009017759, -0.17430201198255602, 0.9033023736200058, 2.198724715099323, -1.224658735785143, 0.7426620098439561, 0.44787356888488594, -1.3082261614688333, -2.0350209997467803, -1.2999481741072398, 0.9915970010392943, 0.22502884675527604, 0.6322743912403863, -0.20623432525270208, -1.429973431662844, -0.22450029434028498, 0.22046979691311014, 0.25040901824875206, 0.4661602013858005, 0.8044505577553904, -1.6352971535988978, 0.3036290824464096, 0.28091745679744906, -0.2906419285385914, -1.8857282176147385, 0.9509438859761266, 0.2526808158716037, -0.39692500622241356, -0.13822843125109593, 0.3133487375953312, -0.5826045046590332, 0.17339346907487124, 0.663125344064652, 0.35107559154898976, 0.21478081036180094, -1.1931898358644422, -0.05332089942866882, 0.01131107176984215, 0.5146535408566566, -0.19202569174870612, 0.0890479910058245, 0.08222396685322717, 0.856531353519346, 0.11856401866327032, 0.11525592175082434, 0.47909249553127736, 0.31027264622793355, 0.5816506874369642, 0.32299307372442554, 0.16425397347251267, 0.43365842228276874, -0.01299641086252076, 0.03358128466300285, 0.024064834064915955, 0.34849973023981184, 0.025133564309915143, -0.012078654474174498, -0.2109051775474686], [-0.6694752543711087, 0.6315529468472588, -2.9595919765479892, 0.4248261096086453, 0.007980515844801387, 0.6483537306173691, -0.6465597701421791, 1.8596780568401494, 1.1378560428454416, 0.7908568826079585, -0.3075263893762737, -1.6350108377703396, 1.7658916855358913, -2.9370205891877603, 1.6049100100517464, 0.5898134737578625, 0.3002026520847706, 0.6737913512611134, -0.4690807590415775, 0.5960916862914799, -3.486868724976109, 0.03841404042116955, 1.8331675397074527, 0.24810653910267458, 0.815692282388242, 0.7498397942640403, 0.5321841539693593, -0.421994128665957, 0.7839905975775564, -0.8685773291890366, -0.37178735990511347, 0.9920338559186324, -1.933427019809368, -0.9967602383599095, 0.41393179351676307, 0.2493308980403988, 1.3685825726662986, 0.5679629738731641, 0.48921314977367336, 0.5694200750120096, -1.1720109280212223, 0.10442067323842034, -0.5663516415506654, 1.0445283646576766, 0.003237485496403361, 0.3719669848168599, 0.6101720596721206, -0.35780203963145074, -0.14100477071191858, -0.2378782092326284, -0.2713300151943762, 0.2466729053782155, -0.4062046839275534, -0.727168014024744, -0.12945324832956634, -0.632046869981322, -0.3919548595597088, -1.218943606814946, 0.537070077632611, 0.8282958070934362, -0.5404171980571426, 0.022626700812270906, 0.16856255795212446, -0.2733211866397103, -0.02177494325957626, 0.5599049707773393], [0.6308269514711271, -0.13974865937985595, -1.611933205963179, -0.21149842835760246, 0.028935860020551, -0.5996974094369573, -2.7391082175113146, 1.2025440072498523, 0.7485481822110256, -0.5455981908608392, 1.5254718098429294, 1.0965391997131493, -0.3006563179139171, -2.172357615092019, -0.5273645285320578, 0.759967047847868, -2.4542664904674383, 0.06860397677131891, -0.11671483519522732, -0.9122802558077968, -0.04955492449341758, 0.15886529337287267, -0.217755527983486, -0.3412511924704531, -1.7602166650315874, 0.6529772671400995, -0.3148641456638913, -1.2179383263117243, 1.4825133287951544, 0.44169209048874614, 0.1660321586427284, -0.8969321974439926, 0.9390306350505957, 0.9302207749827237, 0.534947104095301, -1.976007779527188, 1.2599940428182776, -0.6786880373971532, -0.17668162034891038, -0.6696558693590402, -0.887742036699293, 0.3684673442027236, 0.33485165584321125, 0.23139110936753768, 1.152236219984, 0.08639409108691548, -0.312925392152811, 1.3394125714908296, 0.24671238545129143, 0.753659056348188, -0.1747283632356172, -0.6757992471453779, 0.8245721718418122, 0.6273154599208466, 0.044688647567937424, 0.6117911688698414, 0.010286664427447597, 0.5197172292179094, 0.6871404617124759, -0.160705321865788, 1.362526962498559, -0.03247136772589353, 0.5898660280485286, -0.03221495362489421, -0.036292399788292656, -0.025460048844104886], [-0.3867047049306931, 0.02191778658480451, 0.06302936261315323, 3.152079088860741, -0.01569964134182409, -0.20862034453229855, -0.453208136484877, -2.651461049617235, -2.4492553959418593, 0.01690412307197512, -1.9692780419884888, -2.611946312895784, 1.7133150293350974, 0.4078601903714486, -0.4116228135675906, -0.2517138796755548, -1.8731622971534292, 0.008638229225048031, 0.13708289337216564, -0.038998885894920336, 1.6415675036654804, 0.5696115289756103, 0.5172408895103064, 0.7490573896987026, 2.2730426523780753, 0.35884590191176574, 0.3377960836371826, 1.1328000444774566, 0.0039546036398331805, -0.7885448231934219, -0.08877903618254915, -0.3256568379729814, -2.4626643348694017, 0.2230876923505308, 1.8422379026878835, 1.776088415386475, -0.3988306241267499, 0.5084219741978788, -0.24350126490753818, 1.570339319178232, 0.4196708484025537, 0.7584167481240898, -0.6710916219685089, 0.01820807459903182, -0.00220195027256441, 0.20512207883508657, 1.9919008379212488, -0.2854687506472064, 0.02607192336603822, -0.09214040328016598, -0.6526770703911268, -0.39105838476681454, -0.5207572154624164, -0.9998103982943954, 0.42486076689956204, -0.3741296774240387, -0.21828849637518466, -0.8920333053962834, -0.3994028058110702, 0.5111152049713298, 0.06866449392374817, 0.014119635394139386, -0.6898450156724156, 0.043298381338311244, -0.02557876262948234, 0.20234130755856336], [-0.41970539466488876, 0.9849702816980399, -2.3369441858156934, -1.5112180639111323, 0.02544292355644585, -0.0961705176989235, 0.14716731580404466, -0.9549189381987246, -1.6305814624372048, 0.07384384521341097, 1.9039679078587226, 1.1446711036348236, 0.05552479080810466, 0.4019170847951835, 1.113365737956038, -0.13912512866972576, 2.0455752795504143, 0.0521152987971271, -1.7984936399588574, 0.8179440573974907, -1.1045567787595885, -0.9573863060947787, -0.7198269781937087, 0.7929916622686399, -1.9048235001324165, -0.16648870211991673, -0.5880327217766622, -0.20326374833051947, -1.3765690577150258, -0.06023295304328803, 0.11102410470887772, 0.7268196491868337, -1.1245847440064634, -0.23666261953730838, 0.4852082132678063, 2.3164786660850845, -0.3510500722473356, 0.3637998579232599, 0.6816705143815804, -0.6602076981787195, 0.7266611678973177, -0.33329780481133225, -0.21439414628716563, -0.8093723254590491, 0.05792210228451864, -0.5470492430350872, -1.1186267570365178, 1.4539987538281411, 0.1263605359802402, 0.6058868370158698, -0.453501512202162, -0.3931366047484597, 0.1717471184772778, 0.6978058331400876, 0.07415803041789308, 0.10287996612111802, 0.21610865027881035, 0.047588463633330635, 1.6585316632709959, 0.24715073503982218, 1.0934845569251432, -0.0002633936123652106, 1.0214587624629814, -0.16723525766301572, -0.045077124693823425, 0.03463294270602126], [-0.89472436870956, -1.1488907348708308, 1.1891299758185325, 0.5875225085821476, -0.003661601898432361, 0.007996558643908169, 2.5967842730268518, -1.8192979036251484, 2.1049048545909206, -0.18240758931898005, 0.6133719282653921, 1.420144754121272, 0.2900445685239135, -1.9894049892570296, -0.7347800339350918, 0.09459444015038025, -2.440804658761796, 0.22986054084668797, 2.8388765741624242, -0.2999373597495274, -0.1612579024075501, 0.9455080385454007, 1.970127905544054, -0.7422307700011124, 0.47818168534263167, 0.4870096994732629, 0.6372923120291435, 0.7630886760376687, -0.45026162491152727, 0.3564337527471708, 0.04276824433051154, -1.5027691450773426, 0.2793211346561249, 0.09331019919745358, 1.338414139215736, -3.232088002457246, 0.4197307244936294, 0.11309114634063185, 0.7195475273940275, -1.7558450395320129, -1.260260905741694, 0.022708911787130533, 0.3965879018828014, -0.5805516793580231, -0.10805629276725119, 0.33655740719687977, 0.9688064314485035, -2.294785812627895, -0.12238076566976601, -0.7519263303578102, 0.7248655127003677, 0.5193871416672975, 0.15279023468853667, 0.20221701943885845, -0.02660621368382006, 0.3460350480363146, 0.07942664981795075, 0.4317606140003146, -0.6261603953061348, 0.3350204962752097, -1.6598340853315667, 0.040178624451065945, 0.15098224907578436, -0.11417113466316212, 0.0018255765565235388, 0.08464986206174775], [-1.691999181339306, 0.26750325188643576, 1.8480120182967017, 1.0741876275375628, 0.006377005013923773, -0.010128716984940589, -0.3652540928127858, -2.367147932094982, -0.5039534256753678, -0.037408309985981665, -0.9342623067120844, -2.052810079279687, 1.710303250605905, -2.6866060497540203, 2.3235273730951103, 0.3081453281720496, 0.6270461353508138, -0.28319968684826213, -1.078863608274356, 0.1531841153956642, -0.9138129366189764, 0.8449871193583053, 2.510503820572252, 0.6136917750606764, -0.8219135457597513, 0.77600646118221, 0.613561738687916, 1.0921376101956586, -0.1364392839039247, -0.36812675222596786, -0.03304181413592963, 0.12000289269173758, -2.357613507897356, -0.13030398168685636, 1.9502955585268285, -0.992331414064848, 1.6498184836787901, 0.5560368737881467, 0.06463526457087378, 0.9625161838076085, 0.3096985239088845, 0.5120352821208927, -0.4611996914746657, 0.13820167144730178, -1.346727736533373, 0.2659511335112349, 1.8972902056458776, -1.4392489678135465, -0.14409564519308377, -0.42363437136057963, 0.00946808382420809, -0.2118648819168877, -0.2618425099789669, -1.0803867623223582, 0.23035138037473385, -0.29535676042593023, -0.30646159099893266, -0.1314286004662983, 1.3178302060533729, 0.9508748432672682, -0.7272957300237007, 0.005493391182465806, 0.18693292066179737, -0.11217600328686402, -0.005452134437869361, 0.49738823179629715], [-0.05459172834957549, -0.5640298706120568, 0.6510726970807591, 1.2310681187112524, -0.031036876361652078, 0.14190302818845218, 0.3964870201330031, 0.8527259465564322, 0.3124946446042028, -0.44750597447711127, -1.7930604741959562, -1.2469798644261112, 0.9753170406275399, -1.3647760257823338, -1.2820954226961334, 0.43256263169691966, -0.14774481797282793, 0.2679985352839999, 0.6252090166625647, -0.6822427927381671, 0.6852437348430056, 0.681999764011954, -0.7396803433926566, 0.08803852988114158, 1.2247745068424556, 0.4243714246014135, 0.1378944994341804, 0.4842384935746279, 0.94506169347168, -0.1593459469959845, -0.030250028802970872, -1.1164437349311112, 1.1013437584274055, 0.016592183313432516, 1.0719150162117117, -0.7928206706930375, 0.22516032874004296, 0.1668795741473753, 0.21864041513274915, -0.6005043198048922, -0.4249294597391526, 0.5445834872376284, -0.30799557013415174, 0.29459616639387565, 0.016747945203793982, 0.5100431829753121, 1.2318671949644717, -0.4470199826680231, -0.0457291812724041, -0.22913448955773671, 0.0641175552089997, -0.5100721758908658, -0.23228975977425234, -0.14415206805126088, 0.10092124890035893, -0.4616693578649664, -0.3929102266074809, -0.33999026404883004, -0.4299755724768854, -0.03154801600264271, -0.3513157866874827, 0.013457872124365946, -0.25727874262397354, 0.013943444350575963, -0.014953074078953636, 0.0476044533048484], [-1.2831182163293244, 0.5906691428407304, 1.4653854308304108, -2.220998039346721, -0.007448298603118202, 0.4272487289066211, -2.0649721738145996, 1.5785887893116126, 1.8630699064912721, -1.1452228309258556, 0.6330226420089454, 1.3845280030351785, -0.15620743551319724, -1.1852687687167938, 2.0780986559774908, 0.011547468585887373, 1.9603424155240858, -0.1861929614870111, -2.8888336987003025, -0.12357503976795749, 1.4019141154105943, -0.41583762121356477, -1.6393830523420552, 0.18841221221866988, 2.5938811942585827, -0.6012058382567592, 0.14690990668096326, -0.13693817542414455, -0.7365764875639559, 0.7906868570095837, -0.06374044461948049, 1.0205752870165445, -2.463820335277095, 0.659613538785088, 1.8154594908252282, 1.2300463332752543, 0.49865039760440427, 0.4254107459196919, -0.29286999762029686, -0.4207966120950448, 0.44041797609217015, -0.9333569783777667, 0.283900391391072, -1.9516420256588518, -1.2291102633788924, -0.2913972435196665, -1.9746509169100432, 0.09639753267349467, 0.018625253673007474, 0.16234329517905205, 0.10417625717554582, -0.9599586059291222, -0.040506306656748294, 0.6810779614537013, -0.3753232258352668, 0.3265505501103891, 0.34022979628616545, 0.41979762612730587, 0.31014565237093444, -0.3326990535341584, 0.3539689043583988, -0.06592346038063428, -0.11598344460856339, 0.07952687789574019, 0.009472741368419942, -0.07339491411110603]], [[-0.29549063212814697, 0.2586537879005558, 0.09920069036427298, -0.5419661944624352, -0.3828796389633601, 0.010393471256834057, 0.2115233621547066, -0.13473086306014967, 0.4664621342807093, 0.06932760608961974, -0.4571531698953253, -0.2985710390513161, 0.3455139312888973, -0.4945824420290324, -0.015204161994514008, 0.09738742524678254, -0.3740694032091177, 0.06675440289180865, -0.02305011457726222, 0.6637802056693407, 0.208739878936166, 0.2055815239446677, 0.18116340610897977, 0.47564001944349904, -0.4236784459560507, -0.42400147324158827, 0.2640793972203495, 0.031608957877382764, 0.11974626925660406, -0.05753663209231774, 0.5232639136066397, 0.7302291163444666], [0.2206193869464236, -0.1859204589831384, -0.2303156311233827, 0.16245178710632985, -0.23422662165998873, -0.39569129073790793, 0.10236867176974167, -0.45058864020776196, -0.011438481975095696, -0.017544158213363026, 0.17805602506465626, 0.26315482390118045, -0.23370778645659773, 0.22578928754342079, -0.14491867544626136, -0.46977022587623174, -0.3494037820836176, 0.4945709558128161, 0.24327580974306562, -0.13064899283351905, -0.26497925915444953, -0.015178073708890537, 0.1437374216543252, -0.19425324000234098, -0.7088423428404779, 0.358545798504209, -0.45314982211891236, 0.21353360491035903, 0.21277005109857206, 0.22709455604042042, 0.05710763265193222, 0.4099715492022034], [0.3485682305489222, 0.3394890460729461, 0.49216934497737147, -0.36650417970258414, -0.14614645826313144, 0.1077558897686552, 0.10213841874745483, -0.298195010618952, -0.3643929026274567, 0.024461921421292106, -0.15054746026669644, 0.44280741195958917, -0.2827565313005539, 0.8498921214704162, -0.4050428633907747, -0.016377943359130516, -0.06682415594291279, 0.34164872136990765, -0.47190377779749043, 0.18703337265377215, -0.6564696332364744, 0.0481291523519927, -0.32034455644366683, -0.1861655008675155, -0.40153409010960855, 0.18325288039541632, -1.0043690639364025, 0.5763257246101876, -0.4759811967484116, -0.27597017937952756, -0.031974224865214194, 0.3317151875882193], [-0.28407493323563066, -0.5487829375877319, 0.006406420827072503, 0.11612096352499629, 0.28726491307160434, -0.5579461254113115, -0.2052388166799585, -0.1619424392320275, -0.15149607221678868, -0.09044431344170659, 0.11023197888802326, -0.0998680938461706, -0.11866110531006459, -0.41993718159952237, -0.7367354361869012, 0.043005818125691576, -0.10991943064913612, 0.03621459824328622, 0.278508596365495, 0.15586904963841222, 0.04850863598836379, 0.29437289378266557, -0.3751200199188241, 0.09536321331659653, 0.24633190549127654, 0.20816460537488182, -0.500909068742706, 0.23798201593763207, -0.72916993359416, 0.159299688546092, 0.34764488503076824, -0.17033634729251804], [-0.3599842545923644, -0.10768011025589579, 0.11837324630623522, 0.8953340089935843, 0.4426068113165146, -0.09642670273194122, 0.16467919719003818, 0.023354496941580562, -0.24685088480756479, -0.205775672745944, 0.7245191542840173, 0.34355986832455293, -0.03303426193508324, -0.2644326610591744, -0.6565133945926404, -0.22067796434513684, 0.20776597883000356, 0.15150745832102475, 0.36859681674495254, 0.15001274020479693, 0.18337590243201007, 0.30006938309370085, 0.027772321936304276, 0.2940387194557822, -0.278709315676582, 0.44272907960927205, 0.38348995247728446, -0.19781381637525877, -0.3990906683463782, -0.0893859936993081, -0.08897844320000751, -0.28918747131839906], [-0.4456359036020656, 0.044027423209347716, 0.12689378967327528, 0.35022886792025504, -0.6070338898616103, -0.32221617857494655, -0.2548663673984487, 0.18945062672845786, 0.3173503225134146, 0.1432069827550902, 0.03077721828695359, 0.06334050931501983, 0.492899121989236, 0.3815422648569244, -0.6699943918438866, -0.03684222560971533, -0.013935737511526866, 0.34082135025488636, -0.7747491983768493, 0.6667381208139596, 0.5982558338115351, 0.2202681873392898, 0.8104346834383009, 0.6050495551466818, -0.42715032729321045, -0.5310737153301899, 0.49222541875737863, 0.22502733527609645, 0.2466130378719355, -0.3324454516044623, 0.40549797253979825, 0.8061710146233351], [-0.18462978708063071, -0.5254883885561693, -0.14784134723898545, -0.45919392489033134, 0.7560227037351113, -0.09680771108270717, 0.23454784368934403, -0.04605981571780891, 0.1437180855528132, 0.7102920024144161, -0.35297706740442925, -0.4498811964276336, 0.5761723604458429, -0.1498298063761472, 0.031427904879893054, 0.21664572674850313, -0.13443715509964269, -0.44308223606301994, 0.1919924379293566, -1.2327498213234194, 0.2275715363085012, -0.18076330922880743, 0.36866652969592645, -0.8420140774444479, 0.18976620310759923, -0.2450017244205061, 0.27520847361227674, -0.35638363834849035, -0.6124131133268893, 1.1657201667577304, 0.371805819603601, -0.5213162388344332], [0.24697122507641125, -0.32072808549196125, 0.2503558823526072, 0.9117228603796059, 0.8839547717664241, -0.11246386120400084, -0.03886099068226999, 0.12471391276599135, -0.7890428142919327, -1.2995909323430535, -0.1543579978921384, -0.35113219767019177, 0.0011196764033527438, -0.3503878452526715, 0.24576233142243284, 0.08065288074794566, -0.12523325929115753, -0.19719327380127905, -0.08262968118891903, 0.05088701072977711, -0.5985804340758991, 0.391813001211859, -1.045220560829545, -0.09163332136353915, 0.8076014048002828, 0.5590091501245618, -0.391855213142278, -0.6992591137995114, 0.6068704899467502, 0.5382991229316121, 0.42439000175772135, 0.05210180808963165], [-0.7166352862336757, 0.15523252864484915, 0.1910833918464653, -0.2147313551052402, 0.20343991516440404, 0.32369661586917486, 0.41072334065950256, -0.7939185195364737, -0.07478142852718461, 0.3726541326316124, -0.4570454176181902, 0.2101188614730518, 0.5063111750017838, -0.5690096980245372, -0.37247505793480784, 0.40964919598034316, 0.27411906652771245, 0.027597353854791444, -0.25387855529698833, 0.19692281693561062, 0.4710217094034638, -0.04184355195382473, 0.2517109137618662, 0.07867788605475869, 0.025463087098685305, -0.6228030894103886, 0.6985035624563751, -0.0790310943155026, -0.7043106372338922, -1.0678277161095524, -0.0607266631785665, 0.15434570984006923], [0.391220759443426, -0.6666453430410257, -0.08784521673484894, 0.6408494128583803, 0.240961343033281, 0.176669106905231, 0.12815415352824722, -0.2890000113670102, 0.37597298432135884, -0.8994615889337452, 0.3627626126834896, 0.04546579717092175, -0.11105911166471877, -0.2326792211835406, -0.14368890306154142, 0.03129959049852519, 0.0939558210801916, 0.46062174672163625, 0.3933771616405394, 0.20127378520878084, -0.24274152917051298, 0.2527104932319756, -0.3220227779885146, 0.3749143369094017, -0.675351872979236, -0.5398257918175716, -0.32481243586460673, 0.051530436645342154, 0.12799409419516125, 0.14095077818908616, -0.26601971015038917, -0.5976275496975088], [-0.08113965669490292, 0.023532841126255002, 0.08226422981316178, -0.7296784917256613, 0.06838137597078996, 0.22093571551598234, -0.48629591894631624, 0.7517855886550078, -0.5138716615040966, -0.29241452566553516, -0.10309791462428675, 0.032211889639158525, 0.4356482536146012, 0.17673420665723838, -0.29263225484831656, 0.032024793000792334, 0.15692107960805082, -0.20954990055686482, -0.03722827867503119, 0.2605402306310305, -0.23185734355155674, 0.10192894112848896, 0.24284881325265018, 0.007770436586664615, -0.16506371860009827, 0.2875752463267716, 0.1481009909068918, -0.23336475567391152, 0.49220259625010493, 0.09616145772914975, -0.1793562680497013, -0.047226623393272944], [0.047947351777898925, -0.11891963683387137, 0.3443668091706506, 0.11453628864476831, -0.5668131424846222, -0.44572705616859, 0.036997809075767614, -0.6570617131441472, 0.562585393455265, -0.051482508822244887, -0.09749093713458376, 0.17343954778114073, 0.20050605224230994, 0.3381870180099176, -0.2770443127031298, -0.12974420809561227, -0.22519814670483534, -0.555967376583282, 0.6680269208797778, -0.570630666460853, 0.034036244113736555, 0.11726080272958925, 0.4700419184975731, 0.2960311708153633, -0.1613379621831781, 0.310082192107903, 0.43718110099895247, 0.007493888548847879, 0.3863314755021132, 0.10554799905492214, 0.17640175786080262, -0.20646753183979374], [0.0248176771852334, 0.14999162252530623, 0.1465805604130292, -0.4131466879853476, 0.008726111594578539, 0.13258915698690252, -0.0175367542700845, 0.5061378649666068, 0.2864750294669383, -0.0651696157144209, -0.4638313303626292, 0.4737761836892622, -0.08573515684059349, 0.5229628669408867, 0.2148787979902323, 0.09684393582378112, -0.13590242422769258, -0.21563132848950659, 0.04893735940002971, -0.1216762347135053, -0.39886786472695934, 0.4602653145242429, 0.4353706974222488, 0.18644114576676296, 0.275960143144668, -0.21816111042321054, 0.5751358779746687, 0.3256616554025737, -0.15617299611531557, 0.23029829542681227, -0.2282716313896516, 0.0328697925461345], [0.03348699579320131, 1.0291241935559432, -0.18361422853157572, 0.35766528728353675, -0.1068551930392615, -0.1667006022136319, -0.2944486760830434, -0.09533272709266066, -0.012554348405026453, 0.25478924601670877, -0.3820061524278089, -0.27689057624947566, 0.13457983915836078, -0.21799528191192985, -0.06359001916802194, -0.1169506287464386, 0.2174174527536956, 0.13682759770176373, -0.42861443136269506, -0.5915848306257889, -0.15404265023479666, -0.46695390921846325, 0.027318642725566427, 0.08747054045628402, -0.1846592205161395, -0.09289075503519725, 0.4591310204769962, -0.5545556354139767, 0.2589855012447973, -0.10625859059804783, -0.27603836985078, 0.09324990545434891], [-0.31436250727768245, -0.15903045378487476, 0.23580556229158206, 0.495117072541901, -0.11494315977858609, -0.10836193087407935, -0.3183061096262367, 0.26858600719711573, -0.22002094762030133, -0.04699477620807226, 0.19335572221020425, 0.09528546580517464, -0.4029173001598727, 0.18160301731450912, -0.22536112214086002, 0.13398094788839054, -0.2103731929579074, 0.11437364137626468, 0.41371806011318246, 0.21942263361306608, -0.24143408183111822, 0.43701634663194944, -0.26442121474745756, 0.1622827010211064, 0.15005021449639766, -0.5058439363689639, -0.3177693992111977, 0.03503262734200922, -0.4213314522451505, -0.12125225373068751, -0.13198670146589112, -0.5628831870001394], [-0.19731862932846275, -0.299183766778104, -0.5833785878235169, -0.5666219916621531, -0.32857012024201177, 0.818780159950887, 0.2555681962698746, -0.07997505870674082, 0.7654843723475364, 0.7242887891733845, -0.21194546419634552, -0.2467776520278373, -0.3616357507034235, -0.016169113236646705, -0.5037208792225213, 0.8392146908509072, -0.6423688454478372, -0.20640532448654453, -0.28339808903089775, 0.19674437169845127, 0.06864091830488371, 0.23305184026965375, -0.3596867436874364, 0.32983252763625215, 0.48395393726183045, 0.62310829849128, -0.27057456202508784, 0.6394576418233506, 0.7448608322456178, 0.07318986226714012, 0.4281918338539897, -0.6195230151615662], [-0.17996247581438243, 0.21362918682709917, -0.3045655117743528, 0.4956362502186915, -0.3292575935869965, 0.23873571612238445, 0.4445971775135771, 0.17939894896749964, -0.22612680052424755, 0.24527478688471732, -0.11774362396528858, -0.13465758187263177, -0.06872897050017694, 0.08398461815521728, -0.4790770936822577, 0.14240747404963125, 0.42647237925884607, -0.27453281801884405, -0.7029201091657367, 0.4266759772919819, -0.05288453362900926, 0.15683928298383173, -0.34332136558578696, -0.41452170080478806, -0.4273200378271237, 0.5354107334605079, -0.7435799273467047, 0.20544188187231027, -0.4544360391354553, -0.3550743879082555, -0.1170099361163348, 0.14654558325491576], [-0.4434971775319136, 0.5963938378927222, -0.02546498973156943, 0.44609653418895767, 0.46822003172169696, 0.10163008208914702, 0.2407509879446283, 0.23418025372165277, 0.12436126531813925, 0.33806464570536493, -0.03214855898378127, -0.15244206876102334, 0.26396551670761603, 0.16709398384149635, -0.4513611468778448, -0.13931034743315626, -0.08020317956187373, -0.18098197821118822, 0.9763545184138368, -0.08060672193242163, -0.03831368852033172, -0.49538941746971676, -0.10220803715999055, 0.5358874671303558, 0.0728671965247129, -0.2634342693578216, -0.43298134789988485, 0.06285225115724141, -0.9707392243844083, -0.030555062503101266, -0.3071840107265572, 0.768592068061175], [-0.4553089208600251, 0.7500038423186276, -0.18224112683518254, -0.1309081282448792, -0.03115244169785726, -0.2688033238243263, -0.40988066314856875, 0.15924970279238349, -0.5541780714320881, -0.3037784196809512, -0.6457171005163009, -0.05722884176119788, 0.2053559799238493, -0.4103729239162784, -0.23254423372829405, 0.14601741765616044, 0.2921936268083784, -0.07454984680546592, -0.36049217918118975, 0.6492984246707689, -0.0019230436831145846, 0.28613201779445285, 0.364203186572322, 0.24329135962266119, -0.09789428807033895, -0.7314135776805436, 0.1816172848037184, 0.449175827374823, 0.22098145887159498, -0.17364273508330025, 0.12924517160071478, -0.5524398316472308], [-0.027997435219561405, 0.2257833894903608, 0.20586866698098602, 0.17249678840373084, -0.2809736197022804, 0.13179377146926127, -0.557663145037107, 0.41132962562471753, 0.16738329374849506, 0.0006533692306413278, -0.48347819281065585, 0.24052972164761172, -0.10654704357019033, -0.006351011128213914, -0.5619160786484806, -0.18810041611755912, 0.07697229936300373, 0.37315311270398327, -0.3077534972266789, -0.34005533982972985, -0.5537728566197426, -0.4865674433198426, -0.21363727693149256, 0.08875092992430851, -0.8064567481110033, -0.47400961432458594, 0.28472766042206615, 0.3326606082714066, 0.4283657408827988, -0.22152534909958654, -0.49992118945791425, 0.3533042832459781], [-0.26395037389351195, 0.4565147052655805, -0.6699385237147142, -0.20611666838649984, 0.28848145459191715, -0.17603673804705125, -0.10963700912669967, 0.11673512919829648, -0.2905385216178383, -0.5165622939771384, -0.8242238408010342, 0.5015043181468382, 0.5309044229181936, -0.37502241426603533, -0.10482537323955521, -0.4781789419599823, 0.12710192074202245, -0.6554390377257528, 0.5227962028167864, 0.18139888621646605, -0.3015814153604792, -0.2874236683260711, -0.15651694903237404, -0.2801262358313594, 0.5056291622142752, -0.10717876283709285, -0.2770052983423484, -0.4553741069637314, 0.4830822607356017, 0.21254833890711233, 0.3366770915594351, 0.2186842884108426], [0.18479727258158685, -0.0398633743145857, 0.5832387944763571, 0.28548295668601387, -0.1071805905519449, 0.1909797062582187, -0.13787949793343157, 0.013351797527076065, 0.11435684851880557, 0.6936577554206398, 0.07941550399600032, -0.584960414051583, 0.17023629301566756, -0.5280750293355776, 0.6282583908739862, -0.22965388361640526, -0.08664601072216047, 0.5157505713875973, 0.09144824704963198, 0.19203685009006655, 0.6019914909267864, 0.3065073491366276, 0.1808603359864483, -0.043507158483750995, -0.34911600901699064, -0.60465612689496, -0.12616251005883128, -0.1228884106501053, -0.18551110117548592, 0.13104966642329371, -0.08356507940515731, 0.5737793768617987], [0.11786962608127965, -0.5324048006148462, -0.015722112114760312, 0.07689045661745406, 0.6296477381012976, -0.5965757301352606, -0.05725929337279626, 0.06871562667902045, -1.0197919968104427, -0.32867943613767514, 0.7949966521513447, -0.6571839381730216, 0.22013662710241338, -0.42096770281094176, -0.4428945882648186, -0.5722413054414475, -0.924582325930215, 0.0895145646803683, 0.22809673656996507, 0.08510002968124071, 0.43701470169760814, 0.4970088958433591, -0.1112689030925223, 0.35907501388819013, 0.22222999120872083, 0.6242504727234971, 1.0625448544725766, -0.12133667947926448, -0.7622428068921724, 0.06256790750286427, 0.31774498704987086, -0.9279640473529147], [-0.5114776948296363, 0.24934970515842036, -0.02612058908804332, 0.44784075886730534, -0.12271677769323303, 0.0962904543538262, 0.41531157397631197, 0.014731076516863235, 0.21600604974311885, -0.0973436990072797, 0.47686659230812045, 0.6402811041731367, -1.3039940252868412, 0.03352602375810665, -0.6042205024696858, 0.0805264823507269, -0.5213554273258022, -0.32192470901738407, 0.32258790632721884, 0.3769338851147675, -0.30803104896475303, 0.3672737459252494, -0.5871454060127123, 0.26024784102818727, -0.9441819460776277, -0.24928723712852197, 0.31524419581180174, -0.5846680944303714, 0.2116458043876363, 0.2607765195811704, 0.48697690482537825, -0.5356706755775048], [-0.7313858106569583, 0.4465751596526738, 0.31613375459133236, -0.5514618235808754, -0.08516516269008738, -0.5229627581715495, -0.4831204386139552, -0.4379683592212428, 3.242292223792032e-05, -0.06660078857992703, 0.13820500911288255, 0.016176817184237413, -0.20849734146775012, -0.4792348245696649, -0.6993591823852674, -0.004976827340944861, 0.0682504257296254, -0.163666872838477, 0.20661295586293096, -0.01706712164283478, 0.05336453559202529, 0.5194168096126948, 0.22670636931932317, -0.009525839285338511, -0.2871067106182165, -0.30949779981758085, 0.30095047756058824, 0.3054703261590969, 0.05919184192140986, 0.062226870098531076, 0.12570086463586225, -0.292646666427093], [-0.49213609787858026, -0.5022062945473533, -0.2213641343927651, -0.24327507170785026, 0.47945336002632166, -0.10690926139414009, 0.4236620015644709, -0.24414378433126463, 0.27561847463677913, -0.11906415629697883, 0.3662709121797256, 0.036850529901420494, -0.12014445815428079, -0.5877661504550232, -0.04523572717932114, 0.24590390575206778, 0.41734237858186096, -0.38832819233192534, -0.23604120281389848, -0.3352705052669717, 0.40643330097548497, 0.3359652225729198, -0.24619153867367966, -0.1514368042352524, -0.23124366193191725, 0.12148019144800835, -0.17064084580588146, 0.4210367729933114, 0.413550412271496, -0.35190516597752247, 0.19072816260192357, 0.1234349470860308], [-0.47445275619422056, 0.06332780630303542, -0.08585573674962836, -0.060250248741952235, -0.2025721807007242, -0.1731910266436457, -0.18143983309538445, -0.25111907324560045, 0.27125104776405484, -0.07298167374130472, 0.020239883226717, -0.3786677987753304, 0.029922441653108534, -0.6992223326664817, 0.06822827048128073, 0.31143559034533236, -0.10432954053446174, 0.26412841722927355, -0.059003457011710524, -0.20691436364630622, 0.02330222725781232, 0.24361407574569585, -0.04429793420228844, 0.17057210848379642, -0.1955348491647031, -0.013234317071140715, -0.18486631430442402, -0.1597265975234406, 0.4624242919290333, -0.2791776469030424, 0.029666935262470395, 0.12998974389026038], [-0.25095971334804723, -0.3540762290612897, -0.15576836311287984, 0.14672001448208877, 0.010291926821409983, 0.20790642491668762, -0.19181880244077648, 0.02226094042968941, 0.19666250948628305, 0.14123284344257295, -0.3985008761372517, 0.07753019642716263, -0.543449886039423, 0.6128929040219299, -0.1912642054889073, 0.224248535758185, 0.2650067012795753, -0.06264097126816257, 0.07115093660868196, -0.3938157476387146, 0.25521995126703906, -0.14514709913833576, 0.0913093335728397, -0.4918298134087833, 0.2228331899891361, -0.11300678092887344, -0.4124059883049726, 0.25870859638341565, -0.32495031006060254, 0.002387189765044609, -0.19913353333751513, -0.2305630273467267], [0.1497483477860282, 0.3822353294235501, -0.2963752861801073, 0.11981677915800232, 0.8362945358801891, -0.2857762802417332, -0.3791142425711376, 0.14147268369360516, -0.42690734907642347, -0.11216928630355268, -0.30934453519069827, 0.15077453538659427, -0.09849051101792185, -0.10952284015997234, -0.40896062184918197, -0.14823561645338132, 0.16376211940999516, -0.3036295635358505, -0.05364393778076408, 0.07633665264668661, 0.12935064590122722, 0.13535666667282792, 0.08794922685691807, -0.02384117709829801, 0.13256032949868346, -0.1624427052311016, -0.11645102037644989, -0.06332199606938625, -0.5049224531517201, -0.07962616333992187, -0.35562702521992895, -0.18061654681624026], [-0.3329058749740345, -0.46978514658348824, -0.2606171111467587, 0.32107618631498663, 0.24349151135348326, 0.2508216864729713, 0.24367847173782659, -0.3200087181971533, 0.48547599452879114, 0.34887578228165356, 0.201154864869297, 0.37340849017520833, 0.21398770722161284, 0.25555912006054177, -0.5171467811890945, -0.0480290264002976, -0.05345344400515661, 0.003589861080944511, 0.5346675010627814, -0.2014367681194566, 0.1605315094787743, 0.015892434013804656, -0.26198969214915085, -0.20599408575358294, 0.10950536605924333, -0.40505041846637285, 0.016836672752640138, -0.08603417914585298, -0.38930604014671694, 0.35855750063559455, 0.1972848854771039, -0.47068296020756384], [-0.3806700724595416, 0.43213545893277044, 0.26165641002617224, -0.28510653086750043, -0.7987662283366539, 0.2567202685947424, -0.0896102413915682, 0.02907104760229334, -0.41316431713127133, 0.292835573879961, 0.27533570894152976, -0.5404185797336108, 0.23893528710191508, -0.13976359829274163, 0.3351777816516437, 0.47094089893989644, 0.36408016064934373, -0.3974662797231923, -0.0375594286728291, -0.42740599539995666, 0.24546979730205154, -0.6343227877901009, -0.04766263519917268, 0.22630033854255432, -0.5902145597519689, 0.12687728830705147, 0.5725215680415812, 0.7851391453851245, 0.6862218195013305, -0.29060686384875895, 0.1504817244396476, 0.5238543707476591], [-0.28415419907720546, 0.6028944174228316, -0.27289733850893494, -0.30099555161673286, 0.04058428089803677, -0.2477321067237717, -0.21472269177569298, -0.10454262072620778, -0.2546140273598975, -0.15032413419481605, -0.35195502867421785, 0.13238805163726533, -0.15838103789404318, -0.6106068940638332, -0.055240051246710206, 0.17255016159560854, 0.07940347159918365, -0.10190686815159311, -0.22281341638896524, 0.25264720366449894, 0.0834598349834745, -0.07834071951199947, 0.38640130116077054, -0.42462956807548435, -0.13470113681759271, 0.26969303249284493, 0.4148043637586432, 0.03019821427487796, 0.42013074736908845, -0.5971020612885155, -0.14700212872572968, -0.33653848481843696]], [-0.18787480353936883, -1.4547447864560086, 0.8899791589849086, -0.18445934698497204, 0.5378385110177213, 0.18966131465516145, -1.4616645495615963, 0.9341407966689647, -0.03325671826892528, -0.1203994281627043, -0.6707948050423225, 0.5598447339485436, 0.022043931086566913, -0.4399444767591658, -0.10260434174655966, -0.13650363244072714, -0.7540504870064415, -0.6237029723245054, 0.24987454528529582, -0.12622406374871772, -0.7370606031856274, 0.00044514248144444647, 0.17117418908678042, 0.37622726833951015, -0.3028996251797461, 0.4437209815395942, -0.03741686068412695, 0.8629991868574308, 0.35956710358265564, 1.137655335755567, 0.5262130602739501, 0.6969515970074096], [[-0.27856999128173404, -0.5301139198098546, -1.4468792690996852, 0.6376317578119308, 0.6858804863209513, 0.9448418932206304, 0.37960632926111765, -0.3987432068749378, -0.4192385436423079, -0.21680664975769084, -0.5318137070366339, 0.04757944201921636, -0.6862270769530389, -0.12673884098456834, -0.7298663498216399, 0.7003689561377573, 0.44275416534552386, -0.8824489842177503, 0.6114326453856869, 1.1492628002350305, 0.7074346558075982, -0.21483069671940302, 0.1077421092146699, -0.26051849041062836, 0.06052299634938062, -1.6399147823955706, -0.5068140004902818, -0.47611357515238545, 0.1417536491202927, -0.7912321349672011, -0.06533889214454905, -1.2916114831066625], [-0.23027581589166407, 0.4961043401541465, -0.7102115809304198, -0.686193894553856, -0.5628546102066908, -0.3392773780216227, -1.1112016604487127, -0.2415969231934645, -0.00683366568265126, 0.9065242894961253, -0.7322536781235921, 0.9626329430415466, -0.7736449590242617, 0.2740626695894787, 2.2617625819290974, -0.42097448826804035, 0.042524807280005565, -0.3937778662262781, -1.6795115123305622, -0.19781270884422256, -0.3632015819723459, -0.711768283237651, -0.9562128670829478, 0.7436466587367528, -0.10174938637298969, -0.23692608218482733, -0.8665136779444867, -0.25507637315137366, 1.8111952655953198, -0.19417884291327933, -0.08922334698106084, 1.7487821233859813], [0.1889776727021519, -0.7721361973195219, 0.33345235473148943, -1.0741073682859474, -0.8827489831858472, 0.35816324469323696, -0.1707058041608823, -0.04208026671022677, -0.3778201936125026, 1.15425534335497, -1.2267784954255447, 0.5471460357896352, -1.6996772344530082, -0.40679437312433453, 1.371533495779975, 0.37263772475587137, 0.2127592584130693, 0.5152758990050762, -0.20186323199112827, -0.10859519934622976, 0.05346563425969329, -0.07862950929147024, 1.1649948374185972, -0.1251092550315278, -0.3697001342713509, -0.18550401319441623, -0.8879665000853085, -0.022072023170615518, 1.7871897078862136, 1.0157040501783186, 0.6653502543417138, 0.7346770131877114], [0.5660743930019447, -1.0699517518145665, 0.7949746460449855, 0.5653600549725881, -0.3976563547513434, -0.4208695950399231, -1.170435117165467, 0.038785599073468305, -0.10613431105287321, -0.6033740905903591, -0.8016858148094085, 0.7728893211479414, -1.5944023536925902, -0.7373332349881445, -1.1090007545414236, -0.33619534935422124, -0.799536965368974, -0.7933210167130784, 0.4856493353912912, 0.7248310895862664, -0.24586297168662916, -0.635326537931309, -0.48085927451957994, 0.20154769120298405, -0.023392056306510558, 0.5234969440283321, -1.3188835157161682, -0.305358489596752, 1.2259779012138283, -0.2865436989026972, -0.23083168913630464, -0.8107102859266535], [-0.16852700818908312, 0.13558466934909227, 0.3439536785244722, 0.12284551067233097, 0.10882580403749557, 0.34944310781803506, -0.178357201907546, -0.1628051200376596, 0.5877342167553167, 0.19399316712450024, 0.01829919937713815, 0.1888904669338274, 0.8322310904389834, -0.13453958321086698, -0.5661630487207773, -0.43401900157632833, -0.6094647273393785, 0.3123666199370401, -0.35989152549573983, 0.7324477410380028, 0.9728257241695012, -0.3012197995833202, -0.1960813132712907, 0.09693212641228521, -0.9072326872037637, -0.6656258503382783, -0.0837299014961333, 0.09644609351642615, 0.26638935064698216, -0.26166842750938524, -0.22413653073229312, 0.33619821088567553], [0.10956414326243016, -0.9231074677376838, 1.1436180321443883, -1.0444739794777746, -0.028137960610526928, -0.026275989339357916, -1.3161109188562854, 0.05567268812462597, -0.5095438278653884, -0.21452433884807698, -1.0922532580853275, 0.21279370698077738, 0.22573409502911693, -0.22988299309148696, 0.2769762424953974, 0.6151137523809255, -0.5652975652185526, -1.0719143004706633, -0.13454966105181884, -0.38500105195061285, 0.3077903150445351, -0.0033844272058057476, -0.7029464129890157, -0.20926335915205077, -0.389722467484988, -1.0057726623576888, 0.6696627182024061, -0.27899919539909535, 0.6067629875001762, -0.16871401079612422, -0.2236733944390339, 0.7297508209156133], [-0.453092908766713, -0.7676318545142309, 0.4028496229212277, 0.6937311347694202, 0.2397778901057884, 0.22785478914841523, -0.1687918415505693, 0.4846183288399947, 1.0709868129046158, 0.09607369253408168, -0.5967215954149873, 1.0569334857749932, 0.18012391441205766, -0.4532249334218682, -1.4472271250071294, 0.3333218210394027, -0.5469080672069182, -1.479334413017383, 0.9905631458514603, 1.0977362882012522, -0.7130791292951894, -0.15679693710893605, -0.2632126842191177, 0.5591673784801494, -0.6494747242111436, -0.14827832242660527, -0.24215099244255173, -0.3942905978321471, -0.46724474316826464, -0.4562115451019024, 0.006844175615669642, -0.39156539705322213], [-0.5357853833791386, 0.15265512532182726, 0.6124391118271082, 0.2774598321102428, 0.5738430546928842, 0.7347130981831039, -0.19046493496591452, -0.6414362496862199, -0.3504678425336589, -0.133115895455143, -0.8128513865201951, 0.07083098162467447, 0.28099066184173027, -1.5701471479606084, -1.2017762422884237, 0.6006458017192339, 0.9367534144839694, -0.3319942263101313, 1.2567844297973092, 0.778177337663313, 0.30477199346659706, 0.659833498890069, 0.5911399677142357, -0.38961430455444973, -0.08311155858239849, -1.5277439165378213, 0.7641243532178713, 0.041627354588756015, 0.015294582490476485, -1.307298451589905, 0.5376642850946799, -2.197465857416215], [-0.3636043742370271, 0.5389169262707824, -0.37954376942792484, -0.780556151563979, -0.8048692779453483, 0.9072966999106025, 0.11730617617052348, 0.554384818770516, 0.011224144548047313, 0.9489915341038335, 1.2044019699029895, -0.14139422889327713, 0.9473031775756962, -0.3497868307873933, -0.9527422648991264, -0.05492732369350897, -0.026913074370777026, 0.6974967153641262, 0.30058804605191863, -0.9284296480720463, 0.06792545820508951, -0.08177230712376511, 0.5349776547346266, -0.07245960772427221, -0.3079842023187237, 0.5957625294987867, 1.2955216023097798, -0.2903091198184607, 0.8072116618215286, 0.5141390058476775, 0.7309886373126666, -1.612562302777322], [0.651634277181139, -1.1021571633520362, -0.6341299573259459, -1.1846044043501154, 0.8107145989676252, 0.25682665107585323, 0.6592748383449768, -0.5503097355468384, -0.06236751926662405, -0.28104509625497964, -0.07271505858847632, -0.30565953323820816, 0.13785727965158825, -0.7224446661176069, 1.3850277031249785, -0.07100989360561927, 0.10790471178514578, 0.05277355889534793, 0.0957594078295715, 0.7654860940977952, 0.5711241900427153, 0.2827706532912315, -0.04408758000760831, -0.8169379337064467, 1.939353898969397, 0.22383030733596948, -0.07457017166651667, -1.4040489338066413, -0.07669341641527447, 0.5743737818958425, 0.1988025221565734, -1.239169359590018], [-0.899152626871792, -0.4805091641986936, -1.3499224224839557, 1.1740882816456413, -0.8666054000991581, -0.2238543088246769, -0.47669068173866563, 0.9343406774921338, -0.36357515926418205, 0.031157571848442825, 0.7660137201260652, -0.08575899201250275, -0.02743832696062294, -0.7523118654023752, -1.9395025813774263, -0.3125629092345412, 0.47852924253040563, 0.3874007532621253, 1.9734626607269923, -0.9612505566677443, 0.24165340243946343, 0.6395792355574437, 0.41525721645444, 0.22704579798290175, -0.15594168666433458, -0.7810257513597342, 1.2044057443561822, 0.4588314124693092, -0.04207137157620506, 1.9009729398275284, 0.020842639416366195, 1.1137354303589102], [-1.3331530166076546, 0.8885430380787251, -0.19816993258786947, -0.8168681280134383, 0.2572688015932641, 0.5497388165713056, -0.34155918705988353, -0.3378763352226922, 1.4317123288158793, 0.9046163012336647, -0.17944619099768205, -0.03577532806225102, 1.6680361239745725, 0.12175222920534125, 0.3633307542955904, 1.3648268304248619, -0.1848285158988583, -0.32945393412645, 0.060633269329700534, 0.6099103783094003, 0.9748447917196595, 1.7151543437479015, 0.4829130433725158, 0.5671801056355605, 1.2993189302866741, 0.82558798868674, 0.6268264497698014, -1.0897604407325479, 0.5449275500483216, -0.23156191983716023, 1.0405536470812047, 0.09879494185257862], [-0.737864546899814, -0.6009980330884725, 1.5597008911437398, -0.34130191266913323, 0.8485658566592293, -0.36051098096904427, 0.6705450259975482, 0.1981368543268635, -1.013113439950408, 0.19956851399368009, 0.45501262201397963, 0.09287451139606138, -0.3161393463226931, 0.19693531777926185, 1.2137120498496614, 0.3614318345420807, 1.0878538634055683, 0.13870026763713766, -0.04582656718383244, 0.02842153047542645, 1.91284695050298, -0.3530999108058668, -0.5647477400486001, -0.013243954829155113, -0.3217708623189694, 1.352252118627159, -0.2335139375750631, -0.21371211909003465, 0.6154402559982972, -0.4859836187176916, 0.49717101241564626, 0.011899864615301946], [-0.46050621841539063, -0.4226380062533347, 0.16517648003419852, -1.240749635277195, 1.2799317087468514, 0.3012035917459893, -0.5509063875633868, 0.6353911575980324, 0.8562371749643131, -0.06316808148576063, 1.3962440924199109, 0.5564087708386677, -0.16191987360771107, 0.09874806728016113, -0.32308631959750556, 0.10713368364347367, 0.4694016852667093, 0.05164037923071868, -0.7801782266682791, 0.9181766652981901, 0.373036954298931, 0.6531833709716748, 0.055881096255027185, -0.35231687655046806, 2.1214466404705634, 1.118080694156723, -0.8505798609598451, 1.184214217419411, 0.3263328881668571, 0.7576862419718549, -0.6724345994658041, -0.1259495364032301], [0.25079145558541915, 1.4744285613873989, -0.747554379556101, 1.044147633123365, -0.06178195873482854, 0.720597762689985, 0.9008177421829588, 0.4354370740431445, -0.218836611286743, -0.4231955439361897, 0.8899046596123077, -1.2219942033212836, -0.10797954319675947, -0.8732253483279859, -0.012080113888186007, 0.829301552915957, -0.19675095590475028, 1.0044299748730778, 0.40607496084613043, -0.013536093973661267, -0.704942355429527, 0.1583137933658671, -0.04191609772835493, -0.06836011717733531, -0.60407712441806, 0.1711985667894217, -0.05041927940711791, 1.2374841478615282, -0.8550434645696364, -0.49248926893535183, -0.3004337300136008, 0.4429653098520317], [-0.8362425470228284, -1.0347753139750488, 0.4778933686867551, 0.6014639307812041, 0.151803336810035, 0.3911045021688058, -0.9252337040344994, 0.31756946395158847, 0.04697670614241963, 1.0083320281545933, -0.7925963957273385, 0.5962553438444705, 0.5331056333484646, -0.1781597378305925, -1.8798920802208319, -0.1352792497836208, 0.5215889334897632, 0.37343172684545345, 0.4718319974936496, -0.0654843951783146, 0.30962844999585193, -0.20028124838954015, 0.5695753484410276, 0.6605581511902419, 0.5550390914252109, -0.10537298776628361, 0.46632325599942664, -0.1850959653793123, 0.5811181919387438, 1.6216778908363672, 0.5642051347286631, 0.08750613005073861], [-0.15308179365237143, -0.3145306899806547, -0.512502807734551, -0.1820305618361328, 0.034004809488260394, 0.4366761623731416, 0.14429223302183092, 0.02844873562329689, -0.28871689872939116, -0.17395309187011196, 0.14006650663138098, 0.7492899698827832, -0.43383448026223437, -0.19319402950775783, 0.07873050586283556, -0.05393968059363789, 0.05941404970710488, -0.4563677738241046, -0.13764980554863102, -0.29098529980897486, 0.15929114791683738, 0.05709673153330391, 0.4635806478631061, -0.5179482479456345, -0.47490775434637517, 0.502713967549093, -0.7064762538505971, -1.0007372057587014, 0.7593264070933834, -0.6500741692074993, -0.03717308065577132, 0.4227904028179269], [-0.15976118341707973, 1.0638871269813304, 0.40317987630937063, -0.7212804605923188, 1.0011390006957193, 0.43028898224136286, -0.5356067176805797, 0.5385322388485141, 0.0055742060699927095, -0.4489400386136807, -0.14381515656789784, 0.16367104575665928, 0.012796894004092752, 0.10823600233800139, -0.598238822437557, 0.1307649084096539, -0.9631942272900508, 0.290874252760179, 0.6600145540234542, -0.08389733949743645, 0.5939356315185668, 0.3291267093764439, -0.0696041008590034, -0.9019411766397729, 0.8192420226162844, 0.37460598489288416, 0.015960641051869128, 0.25796905381517854, -1.3119438077931211, 0.18407949824114683, 0.5751114221875353, 0.5423886035644336], [-1.6914109520291045, -0.7978390361223261, 0.2895153735484277, -0.8133261567650586, 0.024334269177253297, 0.8820523969921137, 0.39822809040223767, 0.4439853562638998, 0.8745473426221938, 0.4498195265831209, -0.2603504985467814, -0.8324170659406376, -0.02593500167750846, -0.9507211449313675, 0.53378034460487, 0.8427631094093719, -0.29807408475844915, 1.2448498681764582, 0.45066380942392237, 0.33851044938372116, 0.9516316992198844, 0.6342906568608081, 0.9939604632399965, -0.39563095459523795, 0.890745221151693, -0.41703785279946937, 1.0029406315377272, 0.48085250188583906, 0.39611333289218265, 0.658641665176805, 1.1149792932810068, -0.6757651191151864], [0.30121467511632105, 0.39272112830417893, -0.5296508128965478, 0.11222547735194345, -0.12262566514860838, 0.15503167798935102, 0.2196705045484675, 1.143112619784311, 0.7927131683469556, -0.11312414091399052, 0.4119736686039792, -0.3139611569888976, 0.3763604494356148, 0.10455351915365287, 0.957744149391546, -0.03104436987834131, 1.609795545641928, 0.4207781176234671, 0.5027274923935138, -0.30192004441811127, 0.5339159158707485, 0.36666524777122406, -0.2755643512172163, -1.67107658120755, 0.9098868374472301, 0.6937788343309003, -1.6703180317354365, -0.2583404988457204, -0.3589501860539484, -0.020649239909449363, -0.3552561188482134, -0.3458253871387006], [-0.007655661887636157, -0.20201191237071606, 0.010481327368688955, 1.4533403379533447, -0.2469901980668668, 0.9470706900813727, 0.392513041368016, 0.000244895863525178, 0.8240149411357169, 0.11117754187387824, 0.8007551116985808, -1.0164985186700586, -1.4605329397294666, 0.1558947115119429, -1.3403986799960437, 0.422746633408987, -0.36308844715625715, 0.14313095121039723, -0.713473931311704, -0.15328387361446213, -0.9114185015898377, -0.789758975362355, -0.04873329580448564, 0.8626191451923201, -1.2589699128039238, 0.13772045270301697, -0.3164798406363504, 0.8377722034386113, -0.47305199391734404, -0.9159035735921448, -0.3288975363555756, 0.13807572101128365], [0.12657871106542287, -0.03558270403818474, 1.1469010034866016, -0.766339045193744, -0.7962927619512923, 0.849783463277113, -0.05901804288772215, 0.06615284081319686, -0.8536744091899368, 0.6906484536984953, 0.12357452861635837, -0.1006206675556957, 1.3548890434981193, 0.019052879261929494, 0.45393825701329993, -0.5654068632948399, 0.4757210309662769, 1.3717686224140089, -0.7309449328225323, -0.6448785509324542, 0.6446021386703936, -0.5570858563153968, 1.2648562037978153, -0.7701795681149668, 0.2706405665819601, -0.3835480362167149, -0.5552248747772743, 0.2867213425649301, -0.7404331044763269, 0.007763713774399583, 0.042454519875723865, 2.006049427753626], [0.5814206049016586, -0.25181266514841527, 0.3624838772476134, 1.5149612677189548, 0.11177120197630233, -0.5583996803486683, 0.5143261630368817, -1.3591420771787632, -0.08036011491256147, -0.9343587499528365, -0.6546979480522551, 1.119360690742148, -0.8529629796162614, -0.12468188006124814, 0.42636728967654264, -0.7505582796450839, -0.6185696620843543, -1.3794498402348288, 0.6476552472215832, 0.2418563119556944, -0.6275722967401561, -1.1217543824526062, -0.2375625123876309, 0.18137973904504273, -1.1246629337852023, -0.3393844450274983, 1.0335916693245486, -0.9213144615570776, 0.9250206392121885, -0.13855269093377565, -0.5699072971794142, -1.6780880872062758], [1.014395766550664, 1.3760657275256787, -0.017885228266711902, 0.07371416469724473, -1.0232496598845517, 0.512304016611375, 0.09083478150556064, -0.44722669374743756, -0.5091300035079246, -0.13931907814843014, 0.0331425432831427, -0.2505827408039479, -0.15235441140786615, 0.3867259188773445, 0.5947678202598613, 0.4141003504575172, -0.5338514898142439, -0.9250047475248705, 1.1072589980182672, 0.9907690260035708, 0.39192772560019645, -1.0105378271329062, 0.37341090639536734, 0.059049629227017994, -0.6258177623840739, 1.2080351581542355, -1.0890405351814387, 1.2660112259619218, -0.011151088955968126, -0.15492650762356924, -0.46591454944902744, -0.5801164970572712], [-0.8797854065755908, -0.8361877275767194, 0.8762629598526567, -0.7666248896412885, 0.15647521112918816, 0.6794809308903024, -0.8177358688904355, -0.4849451133615743, -0.0882070924286815, 0.10355549447087395, -0.4275968777435511, 0.7994274229245141, 0.7388472620225697, -1.5937190186886088, 0.222156760282206, 0.4534964302057491, 1.1895206077965041, -0.10217779280631606, 0.5175320669451062, 0.7324265570414364, -0.0208800640913818, -0.1231367328042424, -0.37337556036197345, -0.8574276252608867, 0.08119185185095114, -1.4450337782416443, 0.15719477733198292, -0.9590820264474968, -0.2438224850910263, 0.5341630534996968, 0.8418337372714483, -0.11732070256977557], [-0.5611357583150345, -0.8326395661373356, 0.33004295334332207, 0.23046071553182199, 0.2042691555842179, -0.06344856708232013, 0.38739787163183187, -0.03791159123376485, -0.16375507553434857, 0.28977672495114404, 1.254723348417844, 0.41372284530425213, 0.6813082315182637, -0.5585961655837578, 0.06529879819095422, 0.03249141373673475, -0.6552957609749075, -0.042378637146160456, 0.08818653863589393, -0.7551284482712797, 0.07149587102106829, -0.3214128094824041, 0.08482484840658822, 0.6690977809246798, -0.3124053846642539, -0.8524104941129569, 1.1568524761938, 0.01870708153716756, -0.8549208896099642, 1.3349337734664921, 0.040429838937794095, 1.5876237749941253], [0.039892327553930115, -0.0432468355441721, -0.007536445043469329, -0.9755559857936489, 0.5226939939314712, -0.596762872005383, -0.5337692673103971, 1.3151185583536322, 0.02486918126800496, -0.45425520755690224, 0.17344204629675125, -0.06356694804374562, 1.3426510471161746, -0.11997603451723575, 0.567300258184864, -0.5920293584345615, 0.07505357042569817, 0.8259917863179969, 0.1529408061549267, -0.11382273074292548, -1.6565336200528662, 0.49504930266212205, 0.21936740536350427, 0.05269274277915321, 0.32238564538079123, 0.0912582392287393, -0.33813855146114247, 0.42354859709284065, -0.3910306630763989, 0.8409111368738608, -0.5544806626193791, 0.7611978361534724], [-0.4329388160409408, -0.6411545022422102, -0.04098304052220102, -0.7917970467324077, 0.10428383516956334, -0.14182131003714893, 0.08532721291778542, 1.2080629466284003, -0.6639329164248533, 0.07898838145492924, -0.0375017579382026, 0.6581454586075609, 0.0043453298278471894, -0.075614829446906, -0.6778604410476013, -0.4080247413852105, 0.07356802375859084, -1.15131272083967, -0.448968065709005, 0.5080997556972119, 0.5216006505671806, 0.06753131320818316, -0.07462994598096775, -0.5136880579037664, 0.2726537627499487, -0.6216351432126821, -0.6441183203892528, -0.3299458894374761, 1.1623076698177557, -0.42991678850935605, 0.9657221174940716, -0.6966526055901642], [-0.982486076027316, -1.4516699314411783, -0.031166393701110445, 0.2284584927734069, 0.7857242141847484, -0.4105431843388518, -0.27174387030884156, -0.4775944360100776, -0.1936379458608434, -1.1317332326113259, -0.9121759037663095, -0.49320153771457975, -0.7838656836038761, -0.6427867309531103, -0.7821511720883952, -0.5046330045183675, -0.13856780503279836, -0.7180525633820005, -0.12381940216055229, 0.331488107169119, -0.6087845460031036, 0.5217821432491934, -0.15819612995178722, 0.5526290890721518, -0.713164531307401, 0.3609778173292856, -0.017660533687790872, -0.7306205965041007, 1.2035093027066943, 0.7483011856675119, 0.39628106413125197, 0.30271222362325456], [-0.5664741450217122, 0.29511042419403705, 0.8601205877387937, -1.6564955834494306, -1.0174432795805255, -0.7361898783005735, -1.3061467820072934, 0.16313573357961997, 1.1416562198702638, -0.3313443887797838, -0.5075086131861641, -0.955597438364316, -0.1099526692238356, -0.36875096803285345, -0.17276890257527536, -0.960312149496692, -0.8511673410668695, 0.19111489749961624, -0.8514549138985231, -0.6316116227925341, -0.1838236933719707, 0.3104621009458646, 0.10865506319731037, 1.0570621130243, -0.4150224820191729, 0.8574769020874448, 0.5167393680351753, -0.25230127850343304, 1.4525549820741723, 0.2529164578149819, 0.20671814666830712, 0.22259978122958515], [0.6492499757834592, -0.646155651569405, 0.05130590461629005, 0.9443736157149493, -0.9587636442979717, -0.31295826365471063, -0.48315506253410495, 1.1730411234859908, 0.33192338588978826, 0.12203475115615564, -0.19935322420390797, -0.09498504834361761, 0.18769002843933097, -0.9273767979666863, -0.4803898245346047, 0.7480197453822094, -0.06208919021250888, -0.170353717776998, 0.677429687023257, -0.4731576171355375, 0.33023240941365806, -0.519136058734946, -0.07667227895564431, -0.38298224952578236, -1.2688171791351792, -0.1788177922547413, 1.051822351959239, 0.027319902778748816, 1.5165352625746402, 0.6188874107767703, 0.34057470899578535, 0.032916941228235734], [-0.10533630630204986, 0.04455014580642279, 0.2568733984259816, -0.9615007989124158, -1.0528773514741994, 0.7252735940784474, -0.5651188921900887, 0.08147094217242112, -0.17690971608068032, -0.5360932091234631, 0.9376242973579885, -1.024425333930668, 0.8905812152266805, 0.14451044688671222, -0.27490255274182596, 1.1416396640872537, -0.590338527111828, -0.008820689263664416, 0.2688217191230267, -1.2493806879794636, -0.3094363345451767, -0.11830949646591349, 0.45304650613849384, -0.4895338292411067, 1.530404319042384, -0.7392047165497778, 0.04230685294010556, 0.999993833516546, -0.9872796738731042, 0.3020737124217818, -0.6487202378451108, 0.6709760464939794]], [[0.2647183719035563, 0.6663197494872598, -0.44966864936171114, -0.24313595435354285, -1.3472174595425688, -1.0425891566654655, 0.277016514235957, 0.6303480862888847, -0.2758857241067465, 0.4789457497075491, -0.25769065129803453, -0.07958402268619236, -0.4279260324186823, -0.4513989821892851, 0.11233554260212135, -0.7254989154539314, 0.9245544682261267, 0.13131384650704464, 0.010585553769763102, 0.7646175226402794, 0.3933381370109624, 0.15700722383128782, -0.2017012566998058, 0.7222918568466696, 0.10732866913549932, -0.08863395301786682, -0.12629914387791819, -0.023333022867108717, 1.2479733075416741, -0.11717096579409979, -0.08826066007387888, -0.06806904063312676], [-0.07100921126672988, -0.6430445544268427, 0.6657680264413678, -0.043184510658654404, 0.5024741477386205, 0.17758060124782973, 0.18595465677296288, -0.14826687809300101, 0.39457342223414843, -0.043152881914876214, 0.2169167475726161, -0.21095052210798104, 0.2583370542141141, 0.27584747123977643, -0.49061099723423024, 0.26723548884034615, -1.0610072138226765, -0.059594336366507815, -0.04776260589693873, -0.7457940039221038, -0.2979358180130189, 0.23685079937403591, 0.05929076861508808, -0.1271545128038393, -0.5919935530490883, -0.35649770891321747, 0.1630445913794822, 0.056420329862425726, -0.3130002457369082, -0.232248040199293, 0.010892445619194216, -0.43305829540347046], [-1.0418954643393314, -0.5737836643023265, -0.20464894112503496, -0.6740198055066924, 0.012917532388347062, -0.30964916173799034, -0.0906391811887627, 0.42166434845453055, -0.29453747082552323, -0.17636247154442433, -0.3116225333609883, -0.13254298306992507, -0.006468611546040779, 0.6520201193600437, -0.0815745423790058, -0.0997550148439904, -0.9898736804333294, -0.06344027063708357, 0.7970198440640541, 0.5171054479600686, 0.1340907360520936, 0.8680142854812722, -0.40102829335374285, -0.27319405772104605, 0.02469578414968591, 0.38260854338430766, -0.07868831688367872, 0.1503233405902833, 0.09012856833075847, 0.10290679534301926, -0.41332545795164016, -0.052902433960657975], [0.5266058300852411, -0.5715512555551728, 0.2129637232508404, -0.3220955925469614, 0.4916487468734639, 1.0561215905005026, -0.019878128320890476, -0.34336287898432843, -0.03509732905776673, -0.21555166152646504, 0.1294144397698878, 0.14406177249263913, 0.15409147892188105, 0.9199589015666784, -0.15965451071862552, 0.060509185292957436, -0.47319264643566616, -0.21017322874426428, 0.6037588808458332, -0.32653203304555084, -0.05528003328390674, 0.04654390430877085, -0.36870910335912355, 0.38559655614465344, 0.38795947384551965, -0.2039249723382137, -0.07062820118396353, 0.06623182916369826, 0.581293667661856, 0.36889546758928177, -0.15390558718343028, 0.223084705245636], [0.13194991136464282, 0.3225724342233741, -0.18110466767188935, -0.48824642891931064, 1.7991174573598903, -0.7290835244764796, 0.8646526890650773, -0.11533535158728664, 0.4830048181203098, -0.16295542146236988, 0.37750924024515115, -0.7160279895898429, 0.8771324298479038, 0.6582026130195917, -0.11190764983346155, 0.45897643287258555, -2.2538573343028756, 0.528923005422478, 0.7270576974218789, -0.5939869245697664, -0.5714394645436544, 0.24867745011060896, -0.3842053226851615, 0.03778366964171247, -0.6090529266182743, -0.10288420134076179, 0.6745904889219947, 0.23608246900142937, -0.4119417028386535, 0.07147391338127028, 0.11334839675003926, 0.001828416676736823], [-0.2768790231488017, 0.6027898428150642, 0.13051503118367497, -0.5074368086429881, -0.20854796758759192, 0.8601987791787412, -0.21473116240760373, -0.7513470735660049, -0.09322170746204143, -0.453341446604323, 0.027145860011866984, 0.18919471484343844, 0.11925618130442417, -0.21446988841127, -0.2951231721238146, 0.33977981841516774, 0.7199218705244431, -0.17604158499380973, -0.16841439849281745, 0.10231679222706565, 0.18020928297482455, 1.5753518668633817, -0.8340197286019806, -0.07945453279304486, 0.8721639126033288, -0.054935599311483334, 0.35963635159490015, 0.26533606139116334, 0.5784078070783678, -0.25669205429249403, 0.03126473228858247, -0.493034242003022], [1.2794952244779174, -0.659175566697061, 0.29195943232601373, -0.3688653330210763, -1.689346416459699, -1.1499541586787938, 0.17108221662493145, -0.318132069959226, 0.19607540015785613, 0.2282382069285312, 0.017596018162429332, 0.6232827459418369, -0.17588226988826483, -0.19208338533592798, 0.18229472379968686, -0.3464655405315752, -1.257373686154584, 0.6125887503434144, 0.5415600068494824, 1.134634553910563, 0.16107133737391835, 0.5252592406253184, 0.047879871939461534, 0.34561242976472517, -0.14804351712741998, 0.21755312347863234, -0.45188084255570465, -0.2942074741526123, 0.08745634618757096, -0.13403165533656372, 0.27381900676670967, -0.2758882322888762], [0.4339376931963232, -0.03168232569551747, -0.8150604165350445, 0.15917464003968582, -0.6127888655908119, 0.3601197145855759, -0.1286766443255944, -0.16464414844587197, -0.016216033524498494, -0.26787340833842316, -0.017377746730429477, -0.26401532113836623, -0.29760340769263394, 0.08375371350968742, -0.28534304642195507, -0.06310509881170326, -0.21275306406231315, -0.2139959747067297, -0.13408400756936778, 0.35207283827280544, -0.41257820468616097, 0.438840480957771, -0.09134101632587349, 0.011433048964168894, 0.40684707399736253, -0.29010162251996036, -0.12448514796468825, 0.1295123890446781, 0.06424551490941291, -0.12651410394532464, 0.2447167180570556, 0.3691718341724539], [0.3432652598161322, -0.2931482731949045, 0.927002183193606, 0.549468790974248, 0.043194156114128295, -0.010077116611628845, 0.10515055901379909, -0.6842713212034293, 0.4530281019670253, 0.2923302516621085, -0.0891137747357622, 0.03657094151160672, -0.0035258689051679277, 0.30612151879036537, 0.12760331563773364, 0.5205436926557607, -0.6948619711987941, 0.2873145145940588, -0.010116703789309709, -0.15473650585817283, 0.18428405264063613, -0.8535849666558376, -0.4424494044335499, -0.34219796686408765, -0.0037869366622703487, -0.4375915139109509, 0.28077915294987144, -0.6086024035657382, -0.7372061822826029, 0.44114131491112163, -0.06290826952445643, 0.35592716701434896], [0.3247876268254753, -0.2196250758119472, -0.4789948426171948, -0.5916578291743602, -1.3373066916387941, 0.5530430559054099, -0.8684805574527129, -0.1922657753245512, -0.48868431389178735, 0.7276831972894154, 0.10332224811487951, -0.4511844600007969, -0.10554296724981162, 0.25914676802746234, -0.2223174971738652, -0.3480794860458542, 0.26926462724105055, 0.13990454089841833, 0.10194612409792275, 0.00978996703805298, 0.1867816264902819, -0.2762363542686369, 0.3156849687346, 0.16008804086832282, -0.08254908873630622, -0.45248640042057064, -0.27693306674374457, -0.1597084321886618, -0.11206310538150986, 0.26405135742950103, -0.05496545608139413, 0.08574603811432298], [0.2136921496836881, 0.23577955162831862, 0.4078068066872682, -0.025643726011978674, 0.26543837643707197, -0.16310792903747218, 0.6027827082366911, 0.7263309236412064, 0.4287299420202015, -0.4005223550163869, -0.15084198786018857, -0.07484424813162238, -0.14288848422210612, 0.6694474749268691, -0.305926904055568, 0.3601896986575294, -0.1998048304123129, -0.5723927264200689, 0.4039502441673013, 0.06610065087902332, -0.082118062269836, 0.3327140980355876, -0.2887619662672817, 0.0802657851130319, 1.2712187233618109, 0.15828831281009542, -0.27328783154869557, 0.5280514052177678, 0.39363479090316755, 0.32619935893526464, -0.2548904035963926, -0.10209101139575798], [0.4625646532674641, -0.5756131929688149, -0.11677667096250852, -0.1905023343447113, 0.12692246502801663, 1.1994471842713248, 0.5734879385840692, 0.24614086699393262, -0.006453263819135571, -0.17959089926207755, 0.11662140060464278, 0.16011108681266706, -0.0769049924245231, 0.7976610562681746, -0.15370296642911022, -0.6207317380051638, 0.6200525004081108, -0.2559632426581443, 0.051073148112363374, -0.3876327394910868, -0.09487631343037378, 0.49187643395710384, 0.13454689387282745, 0.05400617688220774, 0.0485444889359956, -0.003202125889804088, -0.6844870006013916, 0.7010492269565284, 0.5554054599438893, 0.08756569004483292, 0.0035624583963358367, -0.2820833102966499], [0.462121325327791, -0.6147859857220928, 0.5472201776861014, 0.031021582868875658, 0.7354888439383681, -0.7582251883493449, 0.13097121126355107, 0.31447098031426823, 0.2050493470551735, -0.5563897024898768, -0.28872633556016986, -0.1880706416273622, -0.4156612731358649, -0.389629360061069, -1.2551639000904518, 0.49852875751320136, -0.3951754086667002, 0.23789252312152556, 0.655277293869671, 0.009657117898727715, -0.01708073413266837, -0.03987870637666607, -0.5118950604440613, -0.24074744745694115, 0.5727288232726975, -0.10416814231463001, 0.30902524026380046, -0.5909492213640345, -0.19233515590799385, 0.11963756712071216, 0.21120980825362587, -0.22890755960621986], [-0.24783864076000034, 0.11113975158410763, -0.4313813192875621, -0.9723260805682356, -0.5565511116389154, -0.43707486039686344, -0.38962188413684784, 0.4820857904384195, -0.5647531722116805, 0.14405548094405932, -0.36206609512874594, 0.8765481119820605, -0.26614133000541473, -0.5989556681369804, -0.4807386764950133, 0.046549235662047043, -0.2510658351473571, -0.2774296577943656, 0.7883691210871742, -0.1880627416242471, 0.2773359926199034, 0.3153086062050018, -0.019273178540180003, 0.4323744524566624, 0.3169756110726196, 0.19171541964554434, -0.30696894182396367, 0.2270185845998079, 0.3719650054226994, -0.4729276704961523, 0.2748742378203711, 0.3718004601709894], [-0.007456184779563189, 0.21265029166804197, -0.19319938211071291, -0.5385811764102788, -0.09863217027125092, 0.12096579035300549, -0.4060692302144807, 0.19597127509096482, 0.016460158465161898, 0.14284867527065523, -0.2133271967730508, -0.1532457756664279, 0.2453031885562859, -0.40768091555425656, 0.3075310635034163, 0.18830929202272934, 0.2782294673898733, 0.001159426910940732, -0.4545747693103751, 0.6491737809478614, -0.3259945704918725, -0.33435775449943234, 0.0301836629721235, 0.19533167779406102, 0.8800132628354056, -0.036646902342112625, -0.44258124403374305, -0.0701867372359529, -0.14538139258460395, -0.028495038386993035, -0.43668890719530906, 0.2414934357007558], [0.23187344924006928, 0.580741786922009, 0.7122329084153629, 0.011444425636230063, 1.0041554891873354, 0.8192065817777646, -0.4457000165174536, -1.1999664231067426, 0.19366484482565482, 0.10382192518386205, 0.4847610599017378, -0.4813544358533743, 0.316818429944707, -0.20364692224598727, 0.6127822117550045, 0.27474472361509533, -1.6108796953314097, 0.06095861429492814, 0.7932031782234166, -1.1547665888690062, -0.5009082617239614, 0.49222458075579345, -0.10986392067259898, -0.2828691118939932, -0.2872821757017411, -0.8337266837546817, 0.030189975036671694, -0.5754615383277125, 0.4128444766472709, 0.18963990400519937, -0.04809564522511403, 0.18246580266852322], [0.14974231528389273, 0.11286029858798495, 0.6453801506637404, -0.20875018903999237, -0.7091304662974217, 1.3111098554302143, -0.8980732117163049, -0.5395156102920462, 0.0950085682104973, 0.40211876040191025, 0.635118699018827, -0.14133307348137847, 0.21112890577629995, 0.14586932341852535, -0.45951709684363096, 0.2525486840777933, -0.4329137426738508, -0.018467723260227914, 0.6323190344694749, -0.890868103520849, -0.29657358249866395, -0.06789148095199493, 0.18227068338667274, -0.5687645428285945, 0.4508955657205067, 0.16616540460715734, -0.2787555636482981, 0.45730756876918444, 0.9207105725697775, -0.285521019278382, -0.3460980428144309, -0.04769622007608176], [0.24092033071392788, 0.26282105844011056, 0.4930910011509036, -0.46147818139946606, -1.007323136837041, -1.1534624943593306, -0.03976543740055053, 0.29885474463766054, 0.34853554632821737, 0.9357685734168497, -0.682942775540675, -0.6076315234422369, -0.6784111854151438, 0.1785270555958809, -0.07631940175839318, -0.33351239607837163, -0.3443079351654526, 0.5055413718506855, 0.46005584888334633, -0.03377290507624089, 0.4091512969930541, -0.25025175121507326, 0.3955027927446982, -0.33441479674483787, 0.14239517372090646, -0.07277603477973565, -0.4587035476301713, 0.6679650530382117, 0.3913107679078727, 0.23774941979765446, -0.14316539172101544, -0.8600152619647778], 