[[[0.5552721337312635, -0.007433161107499204, 2.381671097836993, -1.3013734430758255, 0.0031517532413916716, 0.10556118294992381, -2.3547877606185854, 2.1186380013380366, 0.7829025130925401, -0.6434934187725093, 1.0866211443969824, 1.4591757954150102, -1.1962299821028237, 0.23627653442151555, 0.2863605409025005, -0.11346443590602946, 0.01957266644178128, 0.35893320161937414, -1.7951304122539762, -1.1335689655259622, 1.365794382417386, 0.3836692571517237, -1.5459395998262229, -0.340888634733934, -2.262041344573109, -1.0487278138113316, -1.3037865297139863, -1.2215815334321711, -0.6148433427154317, 0.9128118532206712, 0.3436700690369762, 0.534585968201339, 0.5315879172107089, 0.5664466932844376, 1.122012196085788, -1.2229356238516542, -0.08751804485083975, 0.39303606146499714, -0.39899557354919, -0.6238846994023611, 0.10390515235470875, -0.48084151537220937, 0.8267904548745697, -0.5596351313539206, -0.7818881485648553, -0.928522654692006, -1.517557145756739, 1.9292359946028594, 0.2557330569292151, 0.6989864351386881, 0.4101534626110629, -0.13295075682625515, 0.7996410168274316, 0.7511550220093646, -0.626751168124031, 1.3238135336168064, 0.8362553117645174, 1.07114368041673, 0.07818902296674488, -0.7331293476292586, 0.4916467652992524, 0.04668994628333055, -0.03209086770395633, 0.19786030880567218, 0.014664226321224725, -0.4618446514952575], [-1.2719692271087042, 0.7025654761300294, 0.10409756167193869, 1.1333213743748114, -0.0068717216211872595, -0.1485846919360611, -1.283254110666627, -2.3272888018684226, 1.0717755452856368, 0.7806459263467843, -1.1945681109589097, -3.516291461647363, 1.834072051279298, 0.9569796137212178, 0.4569368994741637, -0.28462745852718446, 2.7184539941989105, -0.43036666735431917, -1.098932894812786, 1.0959957709326884, -0.48148059427897283, 0.07051762301235523, 0.1616738252552432, 0.5016786472838094, -0.19736694454256612, 0.680462660352708, 0.659975339514013, 1.4176058561212883, 1.1599878101410614, -1.5302546805765649, -0.18143025963985218, 0.3953497104549071, -2.0774481406034537, -0.48064519230739744, 0.5245051764047336, 1.013715162889328, 0.48766046458231965, 0.8041730884770859, 0.28640369827179835, 0.12787174295757525, 1.2104094231923892, 0.6985482220574372, -0.9611755234203941, 0.33678088438714715, -0.8318616969217102, 0.47816269600294825, -0.40344701585630915, -0.31868086072394425, -0.13858281358496338, -0.3355682555096737, -0.5930148584867251, 0.263236921480341, -0.32508968023132734, -0.24703713535764985, 0.3208551462800898, -0.8776837267411424, -0.9267798198719052, -1.1287409243491389, 0.6772566282932593, 0.8433093044214746, 0.4803320633823805, -0.010266075321832402, -0.18919327553386114, -0.477006417850239, 0.007306997315380628, 0.8350949798710182], [0.9962355655878725, -0.4206695526065073, 1.4348130883012205, -0.1365295481225765, -0.02742147158879302, -0.9711498309575959, -0.3757508739192328, -0.9115209455615978, 0.10712062817638439, -0.3541606668359466, 1.0603105069252734, 1.6698302480937395, -0.7602362105141626, 0.4401518081559316, -0.7486958345475506, -0.5834262314941601, -0.3616695846886769, -0.788922483363688, 1.3415837625231504, -0.9072276061395332, 0.663571518595328, 0.22492873288349247, -1.7441945227851205, -0.24521904151180474, -0.22202086845205155, -0.35024030538366624, 0.018587043128743437, 1.3102419924994906, -1.4504990544557275, 0.3599972859067041, 0.13324173870330752, -1.0815689695722446, -1.8635495437334948, 0.23925077748703458, 0.3654092772601915, 0.5305142977953923, -0.04202595749014468, -0.0006566226667423871, -0.05295559934392513, 0.22165669921316716, 0.7503017781654993, 0.342525973784571, 0.0665053270056776, -2.081256044686693, -0.18716009136996536, 0.037973624991567624, 0.16472444459418356, 0.29201021591732884, 0.11742832773536183, 0.10519958537573126, 0.464178561935377, -0.10310383244025152, 0.07096280606400361, -0.8467478145575449, 0.42979919418138685, 0.8701267301457399, 0.5726672354524307, 0.5168821831723948, 0.08245241369529928, 0.0364693240969556, 0.3775519636095815, 0.0005109636251485173, -0.11502865220350054, -0.06751790790152813, 0.008399170128661194, -0.16738664447482124], [-0.8692769052269391, 0.6782689573164122, -2.4544611514991583, -1.9259432458145127, -0.009236996518644462, -0.06289493939727084, 0.6926024215274503, 1.179562210773378, -0.5074740434814501, -0.2138934911550328, 0.9381543402165097, 2.0308611361893645, -0.2460555176382141, -0.7490276799713883, 0.9224935003085803, 0.5184227436746979, 1.3579258211795322, 0.2769059028253304, -1.880512025901161, 0.18272996988003917, -0.9994604444540616, -0.19208070276302386, 0.8089337598557899, 0.28520829424483474, -0.9632411112631849, 0.10005525321227808, -0.2689671836595389, -0.07060399357787871, -1.0641844864731937, 0.10352241556796599, 0.030971713004129917, 0.5536525323461211, -0.37424840337629006, -0.16020829940588432, -0.184671691369887, 0.5774062728670186, -0.3274296686770585, 0.2664782907635696, 0.4811021430123034, 0.04244636652417189, -0.22356022977387546, -0.46033965407233224, 0.043118772996607234, 0.8643658322080822, 0.26643686134213734, -0.5597782125417878, -0.9479011178649718, 0.9533702299934149, -0.021442510806993623, 0.5264773047212534, -0.3393785744313587, -0.14079934782296574, -0.07417251361799886, 0.30855595681311515, -0.0800418319924899, 0.2925264807307222, 0.02073851982930869, -0.27959075107888476, 1.589513480185202, -0.16401158588590872, 0.28974327734033967, -0.009663116781391798, 0.42528145106249554, -0.029200319447375136, -0.013637107427893293, -0.1245016673435867], [-0.5691505545525937, 0.5417082131737437, -0.26444384372606217, -2.1680681186237036, -0.010232538152126772, 0.01957427879259076, -1.1848508395750441, 0.44063537670313085, 1.140810002987483, 0.176040137161697, -1.4877904445936423, -1.0991876057532253, 1.6560773869765812, -0.6482658348045971, 1.3740747374990878, 0.7166663198072515, 0.15860474437204036, 0.2510899318944961, -0.3666658189661198, 0.45285686312421075, -1.1393640115958232, 1.144207696309067, 1.610466968495514, 0.31681282228289576, -1.115565772871931, 0.6244445216811082, 0.042479369724396907, -0.47884616406847713, 0.5997960367267743, -0.3853893335715213, -0.062434707127253276, -0.17448241986286459, -0.46000878349217134, -0.20312711683883325, -0.5212470868318105, 0.4707615078580105, 1.6469550156994983, 0.5809060558599258, 0.4474160022944651, -1.3074979301243488, 0.03789917790595665, 0.2644243288902916, -0.051102163176192816, 0.33382442937223206, -0.23439765936499787, 0.20890174410520362, 0.5474568294891297, -1.0330213206679024, -0.08622590481655677, -0.22430603606285116, 0.2985553013271395, -0.09889793072277009, -0.182650751248168, -0.36237828916338805, 0.045574768838679586, 0.005747931412131662, -0.5411943058626236, 0.336349460640724, 0.7373825869615996, 0.12128067432868565, -0.53503785786341, 0.0048403389106063165, -0.05309070731798508, -0.2817503676988341, -0.0401111531469709, 0.28022265501509314], [0.032397437206752346, 0.048638994382708564, -0.9668933597196142, 0.43020445847163896, -0.08464619142856059, -0.23554787989071618, 0.10271249863622486, 0.29073830679690743, -0.6426378356620689, -0.25266088236307527, 1.4132668956017802, 1.10732453807644, -1.6959896319630603, 0.8511217189143522, 0.8432465038423427, -0.36220575219755985, -0.3496919641864631, -0.2997618567094068, -1.4342154618205947, -0.28936894788250395, 1.1911312178568498, 0.5700432446138488, 0.21841959060818322, -0.4867974138924858, -0.7439763504658665, 0.19894591520516355, -0.4830625309575877, -0.42941193572209146, 2.129337536278952, 0.3769445779521885, -0.08618534385118591, -0.5320054228015929, 0.8492822634619245, 0.3111803762959057, -0.5764732948650514, 0.34628982552608223, 0.26939760335676105, -0.23097674300510004, -0.11313627928181366, 1.070892552070732, 1.021180808321889, -0.2129188212686884, 0.016965176288778624, -0.2009757544563037, 1.0500618141918692, -0.26030785738501344, -1.2224479204983119, -1.4655369037715757, -0.0810054832186988, -0.3677971965879828, -0.4990834315689829, -0.2643298015590553, 0.39214356782215526, -0.26484158068919894, 0.05425070394543542, 0.1858256449704368, 0.3207754912366368, 0.27261020332781566, 0.06572177754643499, -0.9243020629192524, -0.6377024518809504, -0.0031822465556434736, 0.25555029064393436, 0.08712586284623293, -0.009307451604669417, -0.1370746033868519], [0.4686731215718814, -0.09263601954089597, -0.5148028224154753, 0.01749848071025482, -0.02618069452210039, 0.6209558622746902, -0.147697255839854, -0.6171706472269956, 0.8989862576060142, -0.3189256424122739, -2.3515349668955943, -0.28913267216417615, 0.44441581039226785, -0.18729607340253346, -1.0318117101390338, 1.359169358784431, 1.4592491559985084, 1.1337081296831266, 1.0158405042499785, -0.276654761292428, 0.275479206739281, -0.07172353215129121, 1.223446041802202, 0.005075385665350318, 1.2956755317438275, -0.34027282994966596, 0.19744611595098902, -0.18704997357220743, -0.15132304819551357, -0.134151021695424, -0.08244644096253868, 0.4123411162113102, 0.19907408584241948, -0.2449091361350551, 1.3262898326297163, -0.8474073996628693, -0.8427203504053061, -0.04258739128685825, 0.2902663349122907, -0.2186495629126043, -0.5116224630725145, -0.2732485937198323, -0.0588403496708309, -0.33527848813528155, 0.7736210805777064, 0.02521647761575474, 0.48759845880450503, -0.769093684394904, 0.20528325204712566, -0.2850053460365881, -0.12611105273418896, -0.23168797501408694, -0.025568989073215698, 0.2723755852338661, 0.04075844268174298, -0.3367737601057238, 0.10123886238171777, -0.16260897926842618, -0.9275551165933272, -0.2806729310207723, -0.3782049905092581, 0.00030643443907521256, -0.3235605222491408, 0.06230738718554823, 0.02990316441942644, -0.116220075784668], [0.41468998233151655, -0.7358932690602487, 1.6826752460602261, -1.659351096811655, -0.01309654517345944, 0.02607939489242428, 1.2085368692397722, 0.907253958766129, 1.3688777450286809, 0.15579702294390424, -0.8812080544990732, 0.301965918647635, -1.2340770237479195, 0.47121827793130944, -0.7350690180631572, 0.5849912264581739, 1.1773036611234948, -0.32130159784085655, 2.4108173365759487, -0.14593319749002281, 1.6050231150384304, -0.026582401118706248, -0.20826079403447595, -1.4709975558110882, 1.4812459404456713, 0.12755383869948947, 0.27123853088118155, 0.35406918599199855, 0.7451030240347101, 0.1737322155159164, -0.0004089998538582618, -0.19667435956332452, 1.2269000086805897, 0.2196490354171978, -1.2375264977156892, -2.19967431569743, 0.014470165611500095, -0.4211800606188714, 0.10293106787721666, -0.973877705805377, -0.5691499240701062, -0.4630919914334755, -0.04438213007005683, -0.313847929604956, 0.07710848868951645, 0.15822658236089765, 0.45090611128519315, -1.413998999359866, -0.06261312822053505, -0.690428908275304, 0.7802569015766908, 0.1332852672829013, -0.2484250374968242, -0.027851279893063303, -0.15409793280810008, 0.13011478302737114, -0.27510189879269265, 0.8581990911953817, -1.1037050401440405, 0.2079143499970057, -0.7914956734363979, -0.0532457763180012, -0.013036085863088492, 0.06206959844663433, 0.03178966887011982, -0.03818969998728693], [0.5387315634513378, -0.08334741918293723, -0.0663574079379443, 1.6313852140110652, -0.012057273424519621, 0.23535840025752827, 1.6859803128762882, -0.4489300848149362, 0.14254492400434665, 0.08595146964016263, -1.865897105436353, -1.7977897556655895, 1.2516767971242637, -2.102299994402298, -1.1867391319164724, 0.3304713301692283, -1.0335019450827092, 0.7664163309998677, 0.0037552268959122758, -0.12592201858010663, 0.8390224460541327, -0.022357948711806748, 0.11032663629936092, 0.8078409590976957, 1.8320459093313102, 0.3302568732056803, 0.3096938161188235, 1.0341957392392598, 0.18854552326517082, -0.36652754547359256, 0.14933292145472063, -0.3721622527720856, -2.111609168819347, -0.30822064716476044, 0.9089529346815036, -1.1169567742147946, 0.5787573289202453, 0.1966431676114751, 0.5596067350051631, -0.7304495972602787, -0.6839102168066382, 0.5428649257989578, -0.012858131960030782, -0.808389235222142, -0.0492391930128836, 0.4031312436258952, 0.5589853009443729, 0.06852353313311263, -0.023227180071074525, -0.04183988781087758, 0.020127845945220654, 0.021112511334537856, -0.3143851962463561, -0.7073070607836855, 0.5495616559966222, -0.40329368316885583, 0.09939620443676245, -0.707915584223492, 0.2351747360900155, 0.4590803654922377, -0.10908210248552234, 0.08377898931229308, 0.13067238841472825, -0.30469138343718394, 0.00744596244153665, 0.18425835188139264], [0.36897361692967895, 0.7699179718338183, -0.6491266384250308, 1.0827760247158502, -0.025048738668077317, 0.46566157363896127, 0.49400223614914396, -2.6287398260940407, 0.20639729670838955, 0.13897265193815192, -2.4928166647824055, -1.7612371980526267, 1.5558142531002397, -0.6303040516985708, 0.45358535235143516, 0.4611289839715788, -0.4172926574171049, 0.6476486069659692, 0.8223303282749811, 0.6320913450835804, -1.4740467246116473, 0.03415369947725653, -1.6876379893407194, 0.23175264120687425, -0.10050346168690831, 0.33142232759364965, 0.8229169902353486, -0.2594665084792154, 0.4710408130976955, -1.0163998877935427, -0.03558022859950494, -0.3409474455891398, -0.41028668109919275, -0.42862366476596003, 2.3895783618858055, -1.1314747902901687, 1.6688814129762277, 0.9463996443902365, 1.0665948766141804, -0.0943184445773664, -1.0794888430523526, 0.7536746069005955, -0.34656556138176003, -0.4076456969036797, 0.5199426369439321, 0.685284235266818, 2.510517483012217, -0.2841097638665382, 0.03916847984003662, -0.29273673791179894, -0.9070069841638063, 0.06272274989328294, -0.2631137150025495, -0.7388689745350304, 0.628478405035811, -0.7000540464455565, -0.4037920056183245, -0.8995523251943854, 0.3050667898237418, 0.6264879752587332, -0.2665240465996961, 0.018732757263524753, -0.2154414209443024, -0.47616688763282994, 0.028241867813079035, 0.34531056100354895], [1.0981369947436725, 0.26859629539521174, -1.7840236116018888, -0.8905902798664017, -0.00028812526457557436, -0.3352417021123476, -0.9999441816178829, -0.23833222554623457, -0.695705373546498, 0.382183838972216, 0.8617259699841066, -1.8179085838948115, 0.1485901607951861, 2.9507165008732312, 0.030793002930594372, -0.3053555200230861, 0.6895138287839733, -0.37871453877222105, 0.3000833090005244, 0.3290957630612841, -0.9839356530993624, 0.021460290288048793, -1.0224022418941043, -0.09002720645688876, -3.019302007103358, 0.1862739594188133, 0.09160870085148902, -0.019558463154071126, -0.2318411442218401, -0.28281901692161326, 0.09252962043507428, 0.43630741475366064, 0.3121396270474497, -0.0472414282712455, 0.7554164402881091, 1.4244074022382571, -0.334068500965565, 0.11428605406323651, 0.8040377441547393, -0.633301425017953, -0.17585528170655074, -0.017442028158660073, -0.24808911757403607, 0.7667357014560947, -0.027995084198192455, -0.04598894139897976, -0.4507531563543735, 1.7211944754221167, -0.05716868123744728, 0.4291608672776713, -0.6372428194386011, 0.3042191905554476, -0.4273669198505552, -0.07261209728070395, -0.166650564609942, -0.09164911794012204, -0.2574392829212187, -0.5311693862949509, -0.017207198809683407, 0.23465328579527123, 1.0930267642649494, -0.03300188026897237, -0.13486911667360194, 0.03126882086402104, 0.004245246088051538, 0.25854345404167195], [0.1329772633886124, -0.33696386574066456, 0.5348555344786153, 1.7670615854536698, 0.013956371514153472, -0.315950681401277, -0.21172695631769117, -1.160154287910337, 0.007594906004965858, 0.505303196657964, 0.2890012270824352, 1.5059006581875267, -0.7439885818765409, 0.5489848836464823, -1.0579426362121611, -0.4445236536309441, -0.2403052672611454, -0.354697940988266, 0.7390677702080642, -0.1570711540479406, -0.13675194675521654, -0.955698210907839, 0.14994269492558407, -0.540598938823163, -0.5066798005262199, -0.22846967768647378, -0.16883008582756084, 0.43822350241603053, 0.1354453313743745, 0.14010191245119988, 0.19627064070027994, 0.4352939688952844, 0.5397601507887159, 0.35418370842248376, 1.6218938997844978, -1.6014830777638127, -0.7132571751042495, -0.07618381033589905, -0.11915191191792943, -0.4768869939774727, -0.8729008842440221, -0.39365712299309774, -0.08480890314311311, 0.6335664287950001, -0.5399546002254881, -0.052801696285736, 0.4837779562344113, 0.6803978538192414, 0.14312375786762152, 0.16531892024907016, -0.3110713858954724, 0.3301769526896864, -0.2783941287473753, 0.0604914808250412, -0.2578371357229031, -0.05145888156339083, -0.3196731666219523, 0.0696162144788914, 0.37337181132255753, -0.09331956823574125, 0.2127133738768747, -0.013163148400561975, 0.11333180334182992, -0.001314219786168892, -0.019960079745137835, -0.0688018985878563], [0.7527362661217576, 0.2822370572085388, -1.094910185239292, 0.4411636956093947, 0.00918987687113528, 0.26040344549295474, -1.5374623413944786, 1.4831507145862468, -0.639343649868425, -0.44395761388872856, -1.0712390069302786, 0.030254403643909102, 0.8292126686957871, -1.4427501145555128, -1.179285655438692, -0.9477926091631843, 0.08835584116757184, -0.5059072693113427, 0.06313592687680396, -0.14588722895835904, 1.0655209749945365, -0.4015850975180175, -0.7304242681891562, 0.2199688788434363, -0.9196373282058922, -0.5818546480730525, -0.339623205589147, -0.6567855036963333, 1.215265021141654, -0.5608254814353495, 0.17803332678092318, -0.983749195030345, -0.9004332297252862, 0.2714359164453476, 0.8270143047345364, -0.8982498949337493, 0.4764728882167923, 0.5697481101730444, -0.41775636929846993, 1.6580364611632579, -0.4874232476101871, -0.21294623336377283, 0.556102481010139, 0.3861731576449261, 0.5749156423833319, 0.21243720875257593, 0.7695262409900506, 1.4498697033489691, 0.17194620653930473, 0.6779558487025857, 0.32391864359316075, -0.20706473770024533, 0.23919582748045956, 0.43764517068697995, 0.22470478304834587, 0.3198948062690044, 0.32301538081260917, 0.1875458021423544, -0.8182071894627784, 0.05229129258047482, 0.686522472630293, 0.03728067364450951, -0.38248335109286896, -0.18249689346454714, -0.014504675278501451, -0.27046077410211383], [-0.29914951497330233, -0.09051605736331195, 2.5324331718978756, -0.7579915513308363, -0.007959958586368015, -0.5472664489366834, -1.0194195392765741, -0.9030734859300819, -0.7763869811016498, -0.25793629134987706, 0.052554191347650464, 0.9339305875734955, -0.09708112564117549, -0.42008637076137345, -1.786989119883497, -0.5056294688600129, -0.18992451143639047, -0.5736868916366978, 1.5666406442698995, -0.4903474384149344, 1.6853406302592746, 0.42409471245766656, 0.7578261466947824, -0.6089014504198144, -1.553437585074645, -0.500617240919232, -0.3976289676490339, 0.30166485538322735, -0.657170730778932, 0.6340903711783835, 0.1556466686969365, -1.3159664341653339, -0.47085088047893525, 0.4009669964226334, 1.1475918781466683, 1.265419769978069, -1.1506180959100736, -0.038490468851944945, -0.24067422714114656, -0.40288096742294605, 0.5359972296894494, 0.001571215758889944, 0.21057238156972846, -0.745887516367727, -0.012617237094130235, 0.013200177002119864, -0.31657169145409786, 1.0503526967563908, 0.11966302568124769, 0.5434282706507196, 0.2602635176814965, -0.03646095237837827, 0.2806943297891379, 0.2874670135477775, 0.037630982608763595, 0.8261271847517709, 0.07692611724818776, 0.9433059414563431, -0.4138386341953399, 0.011223469178629304, 0.5005829015565264, 0.04539347234491415, 0.5371879030720492, -0.1584902064876428, -0.017602283669206284, -0.2744042000587676], [-0.590072417124351, -0.6012620097940137, 0.23625103934781091, -0.5226722163274863, -0.05374970334071751, -0.017499587524454695, 0.11877018088440007, -1.2303743370650138, 1.1627633573968363, 0.3169012948874574, -1.4248310550924665, 0.13962251779219156, -0.6809996747046878, 2.4058681191720903, 0.08514263132677038, 0.47826401376071054, 1.7064448742581186, 0.27070227157644694, 0.8915520631993438, 0.36264154161172346, 1.0023843034333464, -0.04172110144142786, 0.7812361412178903, -0.4762576301478051, 1.788725013132456, 0.09292685329564679, 0.10244568823680922, 0.3952926150411148, 0.43975810555067774, -0.2269536357685317, -0.10778801619439989, 0.05545897601366244, -0.1229559325405858, 0.003754942338014453, 0.48598859709586406, -1.920739624327263, -0.10443489114017637, -0.19199962738375856, -0.05615734082433923, 1.4685127089002403, 0.39980489195570745, -0.22308696025462427, -0.7596522781512455, 0.33284871131180366, -0.1557861882352799, 0.28046854300109986, 0.15560001052498068, -1.4585203530251913, -0.019388142204003776, -0.8482285704745132, -0.7361480772639242, 0.14830908085588185, -0.14499215534763601, -0.0863127083772571, -0.32235964104635934, -0.4806651351424728, -0.2263614396849151, -0.5336413564033725, -0.6865482752905513, 0.09315928210511917, -0.6729054977256108, 0.02230875864945787, -0.6567128338774676, 0.0409060202623389, -0.013430171570492616, 0.3202592006200501], [0.07116366134626263, 0.09465186805621383, 0.5217794529688135, -0.867719738819809, 0.01974729684540871, 0.3437321837964872, 0.09557359637143883, 0.11340389212944066, 0.7645763722544067, -0.08628627252791331, -0.4376841136457576, -0.8663126344260441, 0.071593315431481, -0.5939144147661529, 1.0013453890149426, -0.35464340823064067, -0.7029723195903995, 0.35868706852932725, 0.2926822984343506, 0.4916264699028772, -0.2766454626770771, 0.19692703269922526, 0.3587954227331011, 0.06060717197782868, 0.8766314874482137, 0.05774515834584357, 0.03818284747535201, 0.10601588504788931, -0.7809367578720866, 0.07899213711282092, 0.0710438712674421, -0.0795978238129347, -0.9531637747100381, 0.25646804135465734, -0.3681003905962641, 0.4117030273563462, -0.0007695554663390137, -0.121191270200438, 0.028920868597312285, -0.42510573857019895, 0.22533925678355898, -0.053180307135749484, -0.09063356972259606, -0.20219837422284037, 0.20012788898034076, 0.1339593268154845, -1.038678009876457, 0.03473095513105365, 0.04173817702388713, -0.014349057024922892, 0.5455095168945819, -0.12382359744116109, 0.021180770109430782, -0.18394088993385976, 0.488686875634368, 0.012072520016417107, 0.002347536485845677, -0.14481364788765938, 0.35525501245198043, 0.16785196661005283, 0.038354038301598656, 0.02811886018802183, 0.09534550607349351, -0.03876073626553365, 0.02369504061854306, -0.010371482008550016], [1.0736721839168044, -0.2838809565025925, 0.3868170425970393, 0.04044313378662046, 0.002921647279566629, -0.4666398031988321, 1.5964674290884202, -0.11920162854598727, -0.8730532672161089, 0.28261686427416766, -1.0937370198760674, -0.3437688576309317, -0.6768466243876827, 0.7439068427783915, -1.597981428135202, -0.5501535947386414, 0.025889076236390852, 0.03978519251563614, 1.217837657794581, -0.10175787138220851, -0.8911732540144476, -0.8696615351800062, -0.702101119075912, 0.03642627001933319, 1.267231074538263, -0.2314634161805162, 0.4117320237434049, 0.16629637543132852, -1.5970816788865358, 0.2020008117664292, 0.08711468147715236, -0.09076114922275502, 1.5986133000199192, 0.2661765072123808, -0.3158510317791997, -0.7655015619507157, -1.504052014922849, -0.48616121913217586, -0.14354085274783657, -0.6868281039083788, -0.3396740960451338, -0.39594244084360536, 0.3483182634789381, -0.06444666792283335, -0.1635694678176273, -0.035820271768269046, 0.28429393158854027, 1.3125242139555153, 0.12142418243698877, 0.28492799136670627, 0.6887861913859641, 0.3867350747018503, -0.08671070865162815, 0.153008559443044, -0.06671514148480882, 0.25919765209902323, -0.11507419400439999, -0.002254906760241862, -0.42434167914837645, 0.21533991931465984, 0.7810773501318583, -0.041841642158620886, 0.09091290775553001, -0.056424958416287155, 0.0028378859336762752, -0.12142392564941054], [0.03759515885374245, -0.1017306026966813, 0.25751176539301635, 1.166971761531558, -0.0031683244771492113, 0.4212246983433812, -0.32055538239467435, 1.8584525431270658, 0.4531920474643797, 0.16393120191603203, 2.371656953439045, 0.429564652494481, -0.5001225820460428, -0.5695689898798516, -0.861872235449911, 0.4257311203223929, -0.9392785042088717, 0.5462246735565208, -2.3097310236479602, -0.30085082405780117, -1.4317644359904125, -0.33507615197195306, -0.08250680274464312, 0.2271823397172771, -0.16059375876389395, 0.17863852654208873, 0.2944628698779579, -0.17377004258794287, -0.27996692944845564, 0.19086827205795637, 0.05776998359662604, 0.8696830815354835, 1.5122185932620948, 0.1383128936515238, -0.09610893425796099, -2.0510525523336196, 0.19539309077779815, -0.5091071176783597, -0.776737979711517, -0.9197906534548715, -0.8400913420905667, -0.011853531661809623, -0.09570606943259974, 0.9599099477121984, 0.1040807418847945, -0.34124562184398094, 0.42450498665702946, 0.6953630003350321, -0.03326439194292192, 0.013506614298905826, 0.03975951978322442, 0.05675757915281461, 0.0549445236382101, -0.046203580491075244, -0.26709061244176485, -0.28532394499334485, 0.029384390821291694, 0.003979552262704858, 1.1420990084612679, -0.2849138918898099, -0.18975304387273226, -0.03458646191731995, 0.13491385525438812, 0.16913878781226574, 0.0025453030179963883, 0.16361623145903623], [-0.7494564594787717, -0.9799221199704343, 2.0855169680267176, -0.44835923039982095, 0.03159972220578289, -0.037796282328181684, -1.2475487518199864, 1.012274108794519, 1.7071678232348995, -0.16246362481482116, 0.5665716999805442, 1.3106079561232518, -0.3779251566817904, 0.0790912117268239, 1.706249396547309, 0.26737238820381803, -0.8562024816949124, -0.21162675871988548, 1.6145205156652642, -0.6067972767866066, 1.57080407448527, 0.11480850413290948, 0.1837292723526623, -1.0752553156776332, 1.379703674708663, -0.2957411763171549, 0.16601799727507704, 0.007604036280395598, 1.5145181169162718, 0.5642159370025648, -0.02036912113818497, -1.0570763561314762, 0.5709672346185852, 0.46566658857743115, -0.5315880170469834, -2.267480983777702, 0.7886723051921168, -0.9586175667277288, -0.9794152047940201, -1.0007354602394087, 0.3197473476948776, -0.34271044702544995, 0.4335133874108593, -0.12432381440640605, 0.4238651499728235, 0.20324329581890785, 0.30376406046230187, -2.200592835387568, 0.058551775973268605, -0.9099772279073159, 0.21273496974171074, -0.07389431876291638, 0.5557870608228338, -0.33655490803379084, -0.02264038592123292, 0.14269547617296804, -0.1029902190113256, 1.0456187267628265, -1.2674358544741469, -0.38343801753324336, -1.0385059290466419, 0.002855247048289885, -0.35143309649296794, 0.16119061225287243, 0.009567653386267638, -0.23182380382907336], [-1.229963486275969, -0.20883797189629963, 1.277017150451866, 0.929948402967668, 0.0023995706538114366, 0.8917514299620432, -1.1070538174182443, 0.8167298502664523, -2.08871335265668, 0.10240699452580053, 1.122425803865264, 0.15009918776447356, 0.5303568473786539, -2.5407299872194526, 1.1326066313970244, 0.38189625789816073, -1.3583315834848755, 0.5942927772197353, -2.070348212523523, 0.46598564165024364, 0.6859549272862662, 0.07137819830127189, 2.125350750744425, -0.7718045281602535, 2.5472400086247493, 0.06499897704328025, 0.06415761544635122, -1.1103511006190605, -0.4899006906982365, 0.5648380713154671, -0.07290272454201677, 1.2778598136763455, -0.3851834076008929, 0.699642670180073, 0.8566875464465221, -1.696913905112918, 1.114964188878621, 0.31864277595238266, 0.6519797074445144, 0.17999778579266332, -0.9626769757828327, 0.04470937500142472, 0.2746848454719371, -1.6098841351407023, -1.6767035242989656, -0.005058435237990529, -0.2117427160357062, -0.9928639014439977, 0.019062901584142523, -0.20670004949564988, 0.5483423489689072, -0.16425372116481993, -0.21481434844431693, -0.07457960425846667, 0.0013182676137023447, 0.6693470489386858, 0.16719081839260097, 0.6924068808797313, 0.6773549762329929, -0.08097736799128327, -0.9777857370909526, -0.006960989091098933, 0.34602359074723055, 0.19139465891735594, 0.053319315532936305, 0.16066727301458752], [0.29353453548042224, -0.09056876400872643, -0.5459585331601744, -0.06781580781822037, -0.007450821738579158, -0.4197230998329108, 2.0240424631343386, -1.7744195714981803, -0.5956723955324431, 0.1242115469096819, 0.2584898590596884, 1.143107144994826, -1.1228564646300916, 1.6843591070746011, 0.637045841169591, -0.16418337818635598, 0.5447948614637491, -0.5320922609320945, 0.5824538736326895, -0.06456735767113236, 0.5255296232943646, -0.1375162633254198, 0.33758624947277766, -0.37711534631569144, -2.0672560816141057, -0.01943454738444531, -0.12118087060297436, 1.4459684868706772, -1.7764552514025322, 0.4464407557688067, 0.01294425442324213, 0.01366970644473952, -1.4653813076457392, -0.3908308171347273, -0.23847967012559154, 1.3122651722132783, -1.18341521543042, -0.04294385838349398, -0.14314025417735587, -0.37019737754571824, 0.27413190057534786, 0.1809886892241083, -0.13462993783800487, -0.3380697146249946, -0.21117768955284807, -0.263068884360735, -0.613925228154064, 0.7011311082838532, -0.18734177969012691, 0.3305949344750653, 0.110794415215586, -0.0242967504391721, 0.05916174925782641, -0.11030297492902189, -0.1164138671764264, 0.17767869605718625, 0.10300203439501923, -0.20820808553292933, 1.2180214637493978, -0.09764052056344555, 0.46948478303400937, -0.06596767573145215, 1.1218729746199099, -0.03108124307551358, -0.016155205700833685, -0.23037024228767022], [0.18238882818667101, 0.9742007673372599, 0.38427635780906483, -0.5228947045233074, -0.009211034476926047, -0.2612779290601318, -1.6092110766356147, -1.2129901837662072, -1.4915892904538792, -0.292083989439919, 1.9268051616689839, 1.7842426532187363, -0.054292968227308926, -1.9606846679612773, 0.17952921425935567, -1.0146337130927472, 0.24567703139472535, -0.18755058550489023, 0.6658744815075947, 0.39238827942357424, -0.11238386094069958, -0.04892103651736684, -0.39977296528998263, -0.10593723910169989, -1.470650608264295, -0.46720251391495377, 0.2264192223635304, -0.16037661637175574, -1.884290443111774, -0.026720698216672955, 0.027618939110972122, 0.5875645472569073, -2.11639088657086, 0.040929340270604686, 0.9902755717653777, 1.4370131831555373, 0.6700915267687365, 0.5483526781011955, 0.09625320350231911, -0.14880176796847544, -0.2791507827455898, 0.028183428477074647, 0.11539322826965974, -0.5688446762216255, -1.0611372018355787, -0.1430516484537528, 0.07265629493335482, 1.1781845840502014, 0.09685790961735531, 0.5457125270117974, 0.5780156671905694, -0.38774306771720757, 0.2962280125725301, 0.14101851887033973, 0.25656485626070336, 0.30811185387343354, 0.003580722206968773, -0.02196726111667808, 1.2938823131768364, -0.22104018443079398, 0.6826171867558906, 0.028956400360134596, 0.8371220674171554, -0.22448575991379363, 0.022763347103597113, -0.08003532167457686], [-1.0462948781582464, -0.401338698483229, 1.6899827764046, 1.3729290059429788, 0.007829544392012076, 0.3122862435807639, -1.3914992485102338, -1.2252167664459162, 0.23910044450914528, 0.7318660915944452, -0.5439433158194412, 0.09670180922978834, 0.12794012736737945, 0.9024498907303041, 0.2609874692548443, -0.5444135194458825, 0.4499915214400655, -0.02215485455029891, 0.9910103000707018, 1.0509972097382678, -1.1027661329273046, -0.10366603991660321, -0.9079259782149551, -0.06620666985472534, 0.9159532279932018, 0.5413808597608494, 0.41131012747846507, 0.6432192091230311, 0.46370615001137955, -0.359878372364154, -0.05407213016378322, 0.20759976197662247, 2.088979811018305, -0.26486478106485845, -0.26212631508986245, -0.9313225784659491, -0.3646890955304852, -0.7902788537777522, -0.32899647458037307, 0.6326174662735162, -1.0428247674541598, -0.0928111957937444, -0.04118537525393468, 0.8673001184032151, 1.4059516783948627, 0.3853292296701408, 0.7525063955659708, -1.3203657310458796, -0.11042963908325285, -0.49132517696595274, -0.09827516359941445, 0.5314425998258546, -0.37557000294866316, -0.10768919907727074, -0.06756922606705454, -0.6993003332191459, -0.8699778161974178, -0.14227033251119006, -0.2769298066063129, 0.55500097025847, -0.46751277349079157, 0.027684165950628198, -0.5781854239813352, -0.06187478897931739, -0.005055387489724281, 0.14333734532627423], [-0.9130565122184217, 0.0646060894422561, -0.1098233464467984, -0.6116631782473783, -0.038292506362869246, 0.5363078654651215, 0.8158496294271692, 0.041740031445087235, 0.2512889580797125, -0.15644093850630567, 0.06050459886613783, -1.8847483980137116, 0.43676610739918326, -0.8048015880499517, 1.5903490320442664, 0.5900513022410699, 2.3988309057735715, 0.4485148706585028, 0.5244724698048477, -0.06977422106550805, 0.9082469697780164, 0.5173854521888531, 0.16829500047903065, 0.4063724293536197, -0.4068436099748684, 0.16608030915191097, -0.34456105274437654, -0.722294129392694, 0.6571464511639422, 0.09604938919699946, -0.008550787802160228, -0.1742294245168983, -0.30528533497409194, 0.09084927518610302, 0.41272901779427634, -0.5621341428567111, 1.4561729762561686, 0.4157203036051718, 0.46967920923806933, 0.3934933148528772, -0.8527361890937308, -0.3397083692845738, 0.2995920110430393, 0.10356670765635352, -0.9715664103105021, 0.06299777795728749, 0.5344067564907579, -0.9870882993763118, -0.06263422774054596, -0.30084709152855665, -0.4988878992184119, 0.006577754427662317, -0.027238008286860967, -0.1927479119628469, -0.20447384096093843, 0.24991466728761091, -0.10046146342408203, 0.075585034237987, -0.5583242828619265, 0.15834719594758115, -0.8080445089860063, 0.009329944524468777, -0.8702212055268045, 0.047888971596125034, 0.010548645496905753, 0.15624492135724985], [-0.3953429782440628, 0.2504298865209211, -0.7342596350648933, 0.09972476371090253, -0.02276485114327663, 0.11506259778753948, -1.0916235751736731, -0.016227189988888648, 1.1465254782254881, -0.12332681095264704, -1.8795262989638999, 1.0640681426877903, 0.41781067471952854, -1.6020447472554649, 0.9269593031532831, 0.03974831864450993, 1.7851039902471413, 0.08122651743091079, 0.29428099529065904, -0.12553587510159034, 1.298479774225943, -0.3611396029989907, -0.5497285115732086, -0.14266989815673373, 1.1752465539945187, -0.17047707030443565, -0.01639463122998811, 0.12365413629588273, -0.3541801154818733, -0.008300116505151212, -0.0870477053454794, 0.8569915201197552, -1.0715208242601915, -0.13796249861350082, 0.30875349666653457, 0.030344110323718327, 0.6946012686523348, 0.6115706380510985, -0.6636386358615827, 0.3949110010713243, -0.2798592771891542, -0.006742459775201916, -0.008523147715737948, -0.5017891071966316, 0.3208065029290818, -0.08916892560732094, -0.3337687715742982, -0.02457708768456071, 0.016323499028649716, -0.17386593518031146, -0.2850508206704525, -0.2612018945196012, 0.0073709702946425865, 0.07541325552323622, 0.036096010624106, -0.19287330810185682, 0.3983377054819043, 0.05722315986386526, 0.09472076929774448, -0.1844267175458074, 0.05548113421194694, 0.048831657984501266, -0.8099769069548876, -0.027521607195960283, -0.015510882492032745, 0.04151153060633828], [0.7275974763621761, -0.22764054702067238, 2.1853477048169254, 0.0842608814910707, -0.0006112838859349697, -0.30371031130191944, -2.700318001542271, -1.8164641938371997, -0.7603610967182447, 0.36475498917614885, -0.00013874181860760377, -1.1605901443586293, -1.0520594905224212, 1.6440793057787229, -0.9254840065959932, -1.2367919520182733, -0.05238243878083537, -0.7408716029775394, 0.5240621113375578, 0.45799778512444994, -0.7348613674965555, -0.06601681318127713, 0.4937838389494557, -0.36136484941414376, 0.46356587140388067, 0.089417811489484, -0.21019254435507786, 0.012562342170280164, -0.08115571409737408, -0.28644798114326686, 0.09500714681366769, -0.5886440391646581, 1.32661063033355, 0.05852287059395839, -1.144761063664954, 1.109460792597378, -1.3618031167290554, 0.06589643145333546, -0.06314619155529962, 0.8555292660456993, 0.6066093413276805, 0.13128992088864114, 0.07643348266737549, 0.5002140194859536, 0.5259997677003304, 0.21558168503879008, 0.004870547393180585, 0.4261069059480024, 8.350257243925567e-05, 0.38841465656610524, 0.48538741300086463, 0.29505330780259026, 0.023933505248288255, 0.4153528231318648, -0.17390785399848063, 0.41840177613132756, 0.046860702495333056, 0.213946076754187, -0.937134628924093, 0.03460140799638354, 0.6222109922429163, -0.004479919093446795, 0.030397863204819277, -0.001055863749906041, -0.006553047639669313, 0.06298142714802606], [-0.0708447805709631, -0.4685604011922083, -0.42822751031622536, 0.7584605549346393, -0.019188013629172943, 0.34688040475054205, 0.5520293201276503, -1.9108343198102695, -0.44821780544294254, 0.28412732994269424, -1.5228716732398966, -0.8563555377933816, 0.6397953823348278, 1.345026624831946, -0.17822273410774792, -0.24496294768823182, -1.4485111794096834, -0.27156903931916293, 0.9745125104386385, 0.15870563337265703, -0.733778340766917, -0.25551351292676605, -0.09467488598682632, 0.03431295302550064, 1.2706470678265327, 0.5086863610580548, 0.5296999298283819, 1.2660060695911262, 0.6646026623764321, -0.7498859695296577, -0.025018037074834965, -0.29655280962767416, 1.9756777460124422, -0.12026558368144775, 0.3009228438933586, 0.6741012079732442, -0.9379815642167908, -0.18434741909859015, 0.10094696211050846, 0.1510621622249187, 0.5785775449166172, 0.5532543565682952, -0.696909943440913, 0.3146550641799745, 0.609194237135377, 0.33020157617669293, -0.12411114988060394, -0.550407610885913, -0.12613180786815498, -0.17531821779392195, -0.38422298038488145, 0.18111374753790185, -0.4789526021388919, -0.6469773659457654, 0.21075766395609066, -0.3584776415486666, -0.31898236503212674, -0.41814318382517246, -0.2770526076824105, 0.5610461294019008, -0.218773901585711, -0.021147834352262463, 0.35290332297669674, 0.013881987117095979, 0.011159283773826833, 0.20227731897150805], [-1.5003214059293977, -0.08709558110804219, 2.7295223248889986, 1.9491225229425237, 0.03481423311758058, 0.03512682118618111, -0.05414412412308608, -1.2496688395152127, 0.16326532244161227, -0.12965031109950534, -0.9567235367522465, -1.1938915510592363, 0.6844550095037836, -1.3921776928667462, 0.8180246832825623, 0.1451780297263088, -0.7927711945914319, 0.11125963186259456, -0.9031231041805298, -0.5123798130517254, 1.7077031495243993, 0.37451571122505595, -2.690259985782656, 0.4310949179521821, 0.005419909694055826, 0.5062712754219634, -0.2161569391971475, 0.09458728959247628, 0.5060679179093962, 0.39967525082085426, -0.13666713740812003, 0.39366537330739815, -1.1481382475260702, 0.23403662121000607, -1.4187166343379443, 1.0467387473055838, 1.9090902410308617, 0.6610801717061293, 0.043806533368325164, 0.7667553986434421, 0.2597163687292195, 0.6657489666369365, -0.11403482118039693, -1.1230328867078785, -0.8056060145538352, 0.2957046592386353, 1.802916603400803, -1.561106300227078, -0.11805260579758312, -0.41984974666485686, 0.34674758235228964, -0.4692511395276632, 0.1324841232605162, -1.0873388878357335, 0.4026752288098953, 0.05337319341115221, 0.13355046880413168, 0.1845204225181428, 1.7128159579606705, 0.45518998751863404, -0.9482720884384911, 0.00775291807591517, -0.01592774368413553, -0.04563648864605018, 0.021440773881217314, 0.3635805068933736], [0.5633195529461029, 0.09371575308197069, 0.17627761723625887, 0.5040410152474842, 0.005019303168402216, -0.5119944835363017, -0.7089059448564485, -0.6639195206069084, -0.3898121204003355, 0.3245544298524053, 0.3360736107726815, -0.36995665311811055, -0.3881225527949656, 2.0185029564236867, 0.20034374033560234, -0.1489823776767493, -0.2665799590292094, -0.43389379089091606, 0.46073193941491936, 0.020629424964198517, -0.6548225399514255, -0.5089050513346698, 0.21480064357919157, -0.32497384728522705, -1.2539923305683, 0.1962789028080773, -0.15367890644155227, -0.4399001154541591, -1.266588676591396, 0.0809935549432539, 0.02804810450444687, 0.7684244733286704, -1.464024527867107, 0.3567533354719537, -1.209581740997642, 1.2675490161997252, 0.35585746486931774, 0.631126622713403, -0.026146032849867655, -0.029420597351101065, 0.7012056384428518, 0.2968645439251239, 0.2886744742139111, 0.16037536354171036, -1.2428675280325352, -0.13183510126042272, -0.5916690296484107, 1.278197444391616, -0.07364381137267842, 0.36819378838707445, 0.5032494768434912, 0.144032431406699, -0.07923880715902307, 0.3426583495223842, -0.23637721465998388, 0.05848006189052727, -0.04497638980576536, 0.332045845549242, 0.322151832377363, -0.41810546997601356, 0.6851186824334822, 0.0072024153094251, -0.21357477103646874, 0.053630932254239365, -0.030078466851421515, 0.0020125811480766922], [0.015559346812257535, 0.4103394333692176, -1.5352155274216495, 0.5163047652041557, -0.022404192948184257, -0.07168652203356952, 1.9384393123114723, 1.9439965520309312, 0.7886934770547003, -0.2066795990626458, -0.24804324974859893, -1.4447319957524938, 0.7337988915437287, -0.34429731219561477, -0.815776571388939, 0.011052733851359183, 1.7893685633382928, 0.5908845840858612, 0.3620624713013416, 0.08124199203635606, -0.6643897295854496, 1.0836360755789185, 0.04774736731342474, 0.7517618597408379, -0.7494843581811995, -0.2743040089476341, -0.2929572421093389, -0.636217073992564, 0.7687042010870452, -0.09080647685969172, 0.02234923278659988, -0.8606759116185283, -1.1312429385213807, 0.11109729751116826, 0.7785665160876066, -0.6459166762942774, 0.14013922515976235, 0.19597399033749457, 1.17628232306148, 0.5300948977461019, -0.02316172764311772, 0.0934228209295522, 0.14596265321887725, 0.03410715944709165, -0.942859722355251, 0.05371935031696823, -0.2917694889193411, -0.3993193416577789, -0.046526093450876875, -0.028311265235295424, -0.7004419550373993, -0.10211186572968449, 0.10918836919537565, -0.3091979393461957, 0.22087105298331006, -0.18640901029942455, 0.0344387772601714, -0.2548069193423535, -0.9704566962226165, -0.0291289648530821, -0.26080668230980525, 0.03970534228527053, -0.19510535926272646, -0.050898095839902395, -0.017765614800045283, -0.0541914078890263], [-0.18726426619110492, -0.12035094083278183, 0.15225350266305643, 0.4127675437033583, -0.009568419318781865, 0.49404070301526315, 1.7973222612864073, -0.5691389064710457, 1.093072982121214, 0.11393338007992497, -1.1087180802362264, -0.664261684932641, 0.32518121873310485, -1.0009711834636215, -0.29227426863129363, 1.616266683537724, -0.3399853787372742, 0.3030663691103102, -0.6241549062608388, -0.08359132043644814, -1.0073849064166132, 0.08670787460753884, 1.34752257175253, -0.20572598055541277, 0.9692282737012969, 0.19147193907096516, 0.5852485467227061, 0.3618609373114629, -0.30041690165059104, -0.016823980456993248, -0.019768405732181107, 0.3363026519924863, 0.19023262218681383, 0.07248354225499339, -0.13199926425764996, -1.4789424715529884, 1.0968213136587321, 0.08288038504295657, -0.021328638288941007, -0.5196168700244606, -0.42472589927674115, 0.43283069540051256, -0.13671998415395498, -0.085861968621421, -0.7550056039871691, 0.08898643425415326, -0.005192487166449783, -0.8906199790731177, -0.052683125409591275, -0.14220162625233926, 0.02258363055048526, -0.09999443421793675, -0.014800051582094418, -0.5967777460036694, -0.02520759639185819, -0.3986441581534603, -0.3240164772070982, 0.10488588258000676, 0.15229741921047174, 0.37879872550682875, -0.5211528534191576, 0.0067953991891507425, 0.2529080068232802, -0.006176367526380095, 0.0005451260755115667, 0.18886687314957173], [-0.030630229018097324, 0.26477828330837666, -0.8824258468417183, 0.45899516253666606, -0.019682065983270228, -0.30562045313734076, 0.5226483954733062, -0.904233478738564, -0.19675224126665056, -0.08668550297937169, -0.303937977425082, -2.407622505471235, 0.6487008141501239, 1.1140866923583472, 0.6286181766093074, -0.44690274880887526, 0.7433931246691394, -0.28901501280021896, -0.4171602648177253, -0.04861278841791832, 2.025668191421427, 0.3044835929213302, 1.0834724601206651, 0.20537183522453417, -1.1951830074691774, -0.08985911833108164, -0.09911501808095151, -0.191497612013064, 0.281555031569736, -0.41313966962610316, 0.07567261837874521, -0.8295347160521732, -0.6559359603092071, -0.42288799758396434, 2.006111470614851, 1.9858285481167437, 0.39080321687277, 0.37715030445741543, -0.2670206943983185, 0.5669732354668718, -0.22637731129261185, 0.45749479339353655, -0.045910455804184985, 0.0438911972117708, 0.4789048087719538, 0.3765371445519066, -0.33929983141005576, 0.20617014307297668, 0.13621957016976388, 0.10182872839487521, -1.070567134328986, 0.11553076722875945, -0.015883300326066014, -0.46589111893351143, 0.2251700524693174, -0.07135185233317089, -0.014884314154369858, -0.8650107008024597, -1.2849716093966732, 0.24106370655930254, 0.29712664448420295, 0.054560016214093496, -0.498673214654339, -0.11702800909560525, -0.0010230517602392963, 0.0467656774723266]], [[-0.6675608500651627, 0.5708234642888225, 0.03716472191759645, 0.22734728656597677, 0.16356196313087107, -0.09491471576369717, 0.053937886941855036, -0.19795704180747276, 0.17785917055928085, 0.10530095872178784, 0.06228003361427493, 0.08189171080543436, 0.09638580367433786, 0.0027821976158621496, 0.045358092677142935, 0.07973235825437683, -0.25797636772082444, -0.17117343029540724, -0.37027339914845075, -0.19707179354916357, 0.35938543701367187, -0.02067209248096662, -0.0035155859431435744, 0.06615801562424305, -0.011251281224117941, 0.09591033878329053, 0.21972558464027833, 0.0061155865782507035, -0.06425340205006976, -0.012518223023801891, -0.13446783239523957, -0.018677899508265382], [-1.388116490935426, 0.07586568148831002, -0.05236807807023718, 0.6218762963766602, 0.3557245411984999, 0.032159664766883665, -0.10995309945251629, 0.0950006475354591, -0.2317974774087185, 0.5604795871292589, -0.33967960249773665, 0.2626199820275198, -0.13915619585254263, 0.1614122714869326, -0.38794294590663386, 0.33625370710766483, -0.0007813175073364895, -0.05694457874894864, -0.5467980281964359, -0.08478659535822723, -0.17986501174743263, -0.11670608775971543, -0.22281598764891583, 0.1473864431506692, 0.2386333240197229, 0.08481756620480962, 0.20532836811131638, 0.14972940669155502, -0.1253902212241033, 0.13536422197595846, 0.180449543791786, -0.02793561976853558], [0.9059884925498013, 0.5041672396678187, -0.02092210336919416, 0.493745725186106, -0.021931501828818898, 0.28285710085155585, -0.23511921209523254, 0.09306254873657117, -0.22502363724162203, 0.37825864743384224, -0.0941994642195763, -0.09202395122201802, -0.6028447323329106, 0.20310985528049805, 0.24339065313638805, -0.225203969982064, -0.2872678712847469, -0.36780372022058117, -0.3516819112151318, 0.30072694335087197, 0.33196367437377483, -0.2332678988193879, 0.21460248710092414, -0.11969276306823369, 0.18566027790855355, 0.16866904308597683, 0.030591893572172037, 0.42975276428096343, 0.5668439853882278, -0.36646557481436004, -0.11129920860176495, -0.30197615428230595], [-0.21232264922488855, 0.052137130098978204, -0.13028641315404013, 0.37218027861752667, -0.027383460987925854, -0.15272771042115807, 0.2752287278336663, 0.25207465307279114, 0.17776103464094353, 0.38494130036990587, -0.03417668657887921, 0.10365103804629507, -0.2447608945185945, 0.011518719178024137, 0.23793224336282037, -0.09145523962351862, -0.18717887002519437, -0.358042456806668, -0.43173870836564454, -0.20128245304821799, 0.3214017713717137, -0.05871556249350543, -0.3002040694589855, -0.3426248380483728, 0.11871259888641623, 0.06342176568487262, 0.40793214341575046, 0.4659070164952048, 0.1749331503508502, 0.1590340137761934, 0.10840150991273495, 0.05358089337671265], [0.5785975410467662, -0.498424042750296, -0.35672759633737156, -0.510806936013159, -0.5978345056152676, 0.23863054327281996, -0.38226707491159084, 0.23286159370741086, -0.16052027247993034, -0.8628152726151869, 0.4249036371288403, -0.013386080148900513, -0.4255632787181793, -0.12834988776440992, 0.40954076816019175, 0.08967961807702254, 0.05884193231902513, -0.3201497177786709, 0.15244858491299548, -0.5264489700885987, 0.20121044959495663, -0.5044744334231641, 0.06041831813941581, 0.26910292032611366, -0.16253030444942154, 0.17829962404904376, -0.1930541592607925, -0.7077678942377942, 0.055679446074368, -0.2215897412040453, -0.26304941281022065, -0.05921857083639379], [0.6328731223251417, -0.35676450936198234, -0.12296846166544226, -0.17232227367600378, -0.42473091856322887, 0.38756380687594016, -0.14027675134513465, -0.26149429893331744, 0.454472862859918, -0.3090577794363043, 0.13597454066166884, -0.020589806455485346, 0.31876532382902634, -0.7476268588607593, -0.18983046419992775, 0.1656776009367091, -0.01499496479141177, 0.04713243185634148, 0.23042798235616943, 0.6729739193950078, -0.38237525333393846, -0.7602856575425018, -0.7568245175143817, 0.0083386967012729, 0.4228727387660242, 0.19489784829293957, -0.5214209617691182, -0.11507894934536761, 0.6899715379025477, 0.014957856651329782, -0.32155348626084557, 0.4495042125904408], [1.0388307043220142, -0.6311676234118355, 0.6251758237193001, 0.5459076366465229, -0.23282046505711074, 0.5117068505946774, -0.01315040691403893, 0.08325395112503223, 0.21626142761848535, -0.4856140387730324, -0.5300049287143579, 0.15030331961915175, -0.2662735087193431, -0.551687660572589, -0.013757997277676211, 0.266803900763641, -0.7218908724865567, -0.05308100872195412, -0.22739737352009554, -1.6394838820608824, -0.1278788034517972, -0.46914610641185805, -0.07677593747905082, -0.12455484076451985, 0.09750410060904542, 0.36420264665056745, 0.5619707976474747, 0.801044668069592, 0.6477846156710683, 0.2680727045972831, -0.16577818445539508, -0.8142148717335973], [0.4706852338676148, 0.13387291142638438, 0.19164864894430625, 0.09483916817499029, -0.002157813623754668, -0.0455179112747708, -0.0314572372312646, -0.0082757557563705, -0.17891310453417095, 0.012320348734917925, 0.504179865117583, 0.19727994846342808, -0.222390291023145, 0.025589739541522074, -0.06327203380070667, -0.20369712695478534, 0.13646498590160178, -0.2645363506365158, -0.7059227903300153, -0.28293109809632716, 0.013435010174301544, -0.04275358221376251, -0.33072438965969464, 0.389945883713004, -0.3884012248291136, -0.11252719492391966, -0.26093779889835417, -0.3704602791653574, -0.18921530948378157, 0.7429460957174213, -0.0806751071153582, 0.15089889171719187], [0.3826933071816794, -0.42886959679431585, 0.005510235302574219, -0.06869645313486197, -0.14565498058362314, -0.014528890890712328, 0.4273639000077267, 0.32267660490168315, 0.4814821085110008, -0.22172593152071618, -0.5751193205170322, 0.174613704568577, 0.4080635914170873, 0.012277820900161399, 0.09393999398212807, 0.2605195343148134, -0.10549208480132534, 0.07754675948742228, 0.39924968972292113, 0.5615407070664847, -0.52455301165005, -0.4187990694753472, -0.995851013001342, 0.1520716847131262, 0.3975995490409142, 0.023911343866482554, -0.32533701484478633, -0.041979106290757115, -0.27920386506739503, -0.05334881930100629, 0.13293030572260242, -0.7025042630462635], [-0.32542658543256575, 0.2616056653760541, -0.11070184170373315, -0.22536380998118608, 0.1618796399254269, -0.07162295957681954, -0.41124473544935847, 0.3361441604334894, -0.281719143539671, -0.40531867392425985, 0.5069564653675258, 0.10132549765854985, 0.047446450916755784, 0.06902179923567063, -0.3155890359354711, -0.0564855039083434, -0.181612084951106, 0.05491566411514572, -0.29898307340160374, -0.4209946457819369, 0.1151354296204884, 0.03927082483017469, 0.054965249935856414, -0.03200649700929561, -0.09143433676896268, 0.3317184076489347, 0.05219420648453729, 0.12857862842776932, 0.40213500317973894, 0.1648347231724559, -0.13308271637380764, 0.43343450520050275], [0.5963150923824279, 0.06779742092859933, 0.0007305832992309333, -0.26501239967535933, 0.6599430414737302, -0.11779205312732702, -0.4903384447661306, -0.11418808915563625, 0.23556052863997431, -0.6274450743628877, 0.2068109210364876, 0.24043825708622404, 0.745668621045738, -0.18954772287617005, -0.5615611695108182, 0.31124442983682604, -0.4692945315508494, 0.23272841861512436, -0.016968924618771627, 0.45964883392343464, 0.06364748121381968, -0.014306202686446928, -0.1868884830236226, 0.050375228902572074, -0.054602500545540306, 0.28789008625832546, -0.08909991452539742, 0.450729557208063, 0.13251609581956636, -0.1830687805832938, -0.5294367524127166, 0.0994142889066601], [0.22796882112445366, -1.3660553771540644, -0.46049051825143966, -0.2862270273543685, 0.1280554627133097, 0.4344571808404727, 0.10862217364449003, 0.8312683592884391, -0.2720958170416367, 0.08367717086710383, 0.02307843427149572, 0.2535513061309392, 0.8464754522180117, -0.2642336734636778, -0.7061614369508898, 0.873306958913625, 0.1523611168354769, 0.41489667663627394, 0.3231867321752772, 0.23890263220101499, -0.6961995508819481, -0.33506997618736983, 0.0793929282069445, -0.6739458004589742, 0.08287890950948669, 0.22463277911004315, 0.22263016490728155, -0.8778645192937055, -0.06648407826946559, 0.5040925978912636, -0.48936516853250933, -0.5759948966643578], [-0.011631858033914933, -0.1116037104098089, 0.42394918066230325, 0.30074495510065485, -0.7470374524507776, -0.0778890207273661, -0.33187079261930186, 0.49318627941797205, 0.14358162084246504, 0.16125054050181215, -0.4004744334569294, -0.04642530555209093, -0.7137832525392506, 0.2854413587454002, -0.11043282877436661, 0.0748730651536146, 0.1758256616639746, -0.3766238561853875, -0.1347625610360162, -0.19149114712400364, 0.2661001771233129, -0.1984695066121054, -0.3826620013815029, 0.08337490123455664, -0.19849322463965244, -0.4257889360019096, -0.09292703669306952, -0.07250548162971929, 0.4473727318172799, 0.13606299317743364, -0.26625969186348625, -0.22883747836680451], [-0.06401242219929747, 0.7236442111734168, 0.22577215532043984, 0.014361951472086689, -0.004653347025915002, -0.14980457731256985, 0.14932952153474613, -0.7089537902852558, 0.04954453205172218, -0.3643960326274495, 0.37524518256259526, -0.06520296413321969, 0.5825242262467724, -0.4939918661841911, 0.15322278394026778, 0.27256131643783865, -0.03533894368870399, 0.08572786318618705, 0.05120057882352125, -0.2494697249581642, -0.35188844411156656, -0.18308929856138326, -0.225200532283017, 0.09505289691118585, 0.05757345786552234, 0.4056623337811071, 0.13144638715611465, -0.12295113451074298, -0.033350308077992996, -0.01102191490848059, 0.23986090832152915, 0.05500126084086177], [0.15929856782052623, -0.2823892072454572, -0.5348249387632682, -0.005800239991842548, -0.010251468547137125, -0.3456445700303032, -0.12183718328211911, 0.16626620540796072, 0.16669673370661858, -0.27535378077223144, 0.1327726974690462, -0.11677829402071956, 0.1944922787358063, 0.028617211920505075, -0.366188820056255, -0.011290152102496202, -0.04873135670396505, -0.20088849719155596, -0.028153063933037202, -0.4295739738503963, 0.6511285355419739, 0.3022714087162562, -0.07236645720756617, -0.18961502415687564, -0.04092877835396434, -0.014369385038561725, 0.07778351446949472, -0.295404639109435, -0.37821304523923616, -0.2661443511984249, 0.016959240333805057, 0.07404354745401934], [0.03572011515363747, 0.0955673131489488, -0.011962073601448131, 0.11979571630140298, -0.015115283763326317, -0.21413027751094038, 0.318121454064644, 0.2500480010526514, -0.009370092778502636, -0.3691530736361156, -0.7115677465569474, -0.13155177760732206, 0.2897850910034315, -0.43000530988718194, -0.23399667787841166, 0.03420776925449093, 0.5652857917843604, -0.17615348970990116, -0.6172470087929992, 0.7144801800398843, 0.6322467926933042, 0.8259652297745438, 0.36806839582045414, -0.5095797896197332, 0.8187362567024283, -0.06980168529475518, -0.2573854911095124, 0.14299023754090218, -0.4300422390627612, -0.5272490870904696, 0.13642141957476447, 0.1772997984088306], [-0.9519992859684603, -0.3927745528148394, -0.21466738608744948, 0.4609838797764651, -0.14363592997336333, 0.4934093164041738, 0.122150278906139, 0.14199271643651556, 0.19832922878741116, 1.2246556913744153, -0.3856247679601894, 0.020991391300593982, -0.2455747210675938, -0.23594988431185118, -0.14438202660944607, 0.21866874513253054, -0.17787683618897873, -0.263539955938565, -0.32638189555624914, -0.6408381385236585, 0.13022228884663437, 0.3144006909252048, -0.4476503689526439, 0.30416609212201096, -0.3354384310856096, -0.0904167679215985, -0.1517072629165775, 0.1488350585091637, 0.19469149596601912, -0.6038350465494899, 0.04916039156632055, -0.11955566102781212], [1.0108667042673773, 0.6416219408285043, -0.47067674821947275, 0.5552380182291046, 0.42901692375756356, -0.24447877548414482, -0.1929535678737416, 0.07549992710987855, -0.6307778623224725, 0.23308279694015424, 0.2968933100776687, 0.06741581344822777, 0.17054543434257738, -0.17301994200124082, -0.004611841290903107, 0.05267655625259471, -0.3323724288379975, 0.12822309930221062, 0.3484585990827593, -0.20385926060982118, 0.10306181401310267, -0.3437111339206772, 0.4413546982839811, 0.2027973744514752, 0.2704872452165974, 0.7289484578262503, -0.1445945611882537, -0.5692965049179314, 0.005180622092694374, 0.23557230768067616, 0.3830635395418839, 0.08129091462768336], [-0.3298162349803805, -0.19003701254234048, -0.1361984900791012, -0.17472512890600242, -0.12134273563183788, 0.2515710541848487, 0.21160067397545637, 0.24760309213557957, -0.23994230955298923, -0.45086286939522785, -0.2120684361675393, 0.28135914308763427, 0.022019013915948137, -0.3990277030352091, -0.09170291439684607, 0.009335188364369931, -0.3092332085250002, -0.12687555065341316, -0.3161772542355722, 0.2506723220305387, 0.14853613027779233, -0.118709891269161, -0.2487406695684022, -0.3208323128331242, 0.3202895209891332, 0.11242066533318422, 0.25610141938424974, 0.2803569335185384, 0.2737327483995157, 0.04506507526687349, 0.08790237126111308, 0.09339693201228343], [-0.7200220179683176, 0.07948619485845541, 0.30579585417410526, -0.11691103075322817, 0.09528586434238175, 0.07932490864645966, -0.02596932407181711, -0.35434935665259515, 0.14922415255415294, -0.2862064202781479, -0.03959279811608147, -0.05523494610225436, -0.16992090397364873, 0.05599990183493819, 0.5280120992402169, -0.25223363672091087, -0.05952990777694851, -0.1130535241786477, 0.4549413867113162, -0.5243167277111848, 0.008867669464600771, -0.30911272994773414, 0.27668572959636395, 0.37653947501896945, -0.08693133863576666, -0.3575774110540591, -0.20773805385057578, -0.19462475389258727, -0.11655950148450277, -0.2882201325094974, 0.004645169609346627, 0.3477006074067384], [-0.5704054089289159, 0.1034230249200852, 0.008487129134638229, -0.7013289900872074, 0.4197793593175009, 0.09175279763092142, -0.49599979668019983, 0.01914421037791773, -0.3155892272331439, -0.1934703684714942, 0.2721489755948336, -0.365646709054907, -0.30314301524006826, 0.004779621686370313, -0.6056423402364065, 0.3349989924475092, 0.10519594629262466, -0.25793457782493795, 0.4981106473860884, -0.4421781909987313, -0.37630223639528537, -0.170114556045148, 0.1273654504686617, 0.4315400044859765, -0.37986662507816965, 0.13241926016659758, -0.2904848048027647, 0.06404961107615674, 0.30620202635635896, -0.21191687180875945, -0.2038636510016194, -0.09468319571399066], [-0.4233863401303327, -1.2681475110007752, -0.1641172324962736, -0.09565555906854398, -0.10841307298146474, -0.5095004870202439, -0.11134141613724378, 0.06292347446396117, 0.29636408064206116, -0.4865279778737142, -0.17754292381726572, 0.10713766832339619, 0.260764479633873, 0.2154304808887226, 0.4123903368374294, 0.05199418142288309, 0.6393731778186341, -0.4959646930727451, 0.1867516969148517, 0.33320816533098174, 0.20444562048129278, 0.047712828670972866, -0.5035989620412618, -0.19711094707424107, -0.45339750673136353, -0.04907072261645559, 0.03533897620949764, 0.0652283031783134, -0.46817647908474685, 0.11084434204796408, 0.5010040402492033, -0.06025969884839055], [0.23378669252833792, 0.2082443711542894, 0.5363315865799321, 0.28219437622870097, -0.19728570171881388, 0.2965846659625438, 0.1831596849784153, -0.03988196711766467, 0.5644591612411781, 0.6941115032090807, -0.7588079817927257, 0.07911507546156663, -0.6530311079742064, -0.086856405551678, 0.7257951948718526, -0.15076255276681053, 0.3823210833233088, -0.7724672334699672, -0.8782009591643392, -0.4388568566867834, 0.053736138519866916, -0.1274572872844304, -0.14727745201863385, 0.39387242662238525, -0.2045897062974334, -0.03593120047174473, 0.12377469371130466, 0.6415265663921702, -0.19302075205652533, -0.3838900728711224, -0.07003093911918955, -0.770042261402938], [0.17593708998574775, 0.01898602857358939, 1.3681258060673576, 0.19719329103426025, -0.19837354976200677, -0.11677210784289116, -0.180254049149282, -0.8470411607955999, 0.3233122855491195, 0.31180029449336943, -0.9146401198058542, -0.23038459747954496, 0.09558592093638649, 0.6563678441635846, -0.286983603404955, 0.09147067093263528, 0.31195710336729815, -0.12523262301956312, -0.28748716161836224, 0.47541265951762235, -0.03431486517307431, 0.09610421461021029, -0.4679718117135663, -0.2088654947299871, -0.5093777348146079, -0.29438308649905554, -0.12357078438634671, -0.08949125002736547, 0.11625908908743111, -0.2403456890847936, -0.19777641094833243, -0.5334688003697453], [0.05408205313016181, -0.1131092861588251, -0.33763878325033764, 0.3342987732867157, 0.14400676648027647, 0.022862286417127904, 0.18793601831274606, -0.026400897484612083, -0.13064622668845793, -0.41770395067271554, -0.14499410755265046, 0.12365903037169426, 0.8660419298643119, 0.2513732096015141, 0.1844369736361931, 0.41005083603357856, -0.4732543376612633, 0.20617900575137263, 1.0725390824425955, 0.12345103910878712, 0.06584982193779476, 0.19346884089828081, -0.19977756228870328, 0.34543552089777624, -0.47905936311133107, 0.13803234393968197, -0.5837859971358558, -0.2818418550177189, 0.12762949572326898, -0.29695740971838297, 0.08364111964857142, -0.0717905923032098], [-0.028651841081385784, -0.08578442236056633, 0.22147137401298322, 0.5066084951707239, -0.29473261813701757, 0.1723365111461572, 0.05790481947653428, -0.30300703430555437, -0.013909656895001688, -0.006434048646050586, 0.07565235926955516, 0.0011648926794797303, -0.5729828209596624, -0.7558971825983543, 0.3727105213349522, -0.37832666293544187, -1.0599340306625316, 0.1018490246291154, -0.1990441589632624, -0.5199365558936423, 0.709605719863742, -0.20796090004801676, 0.10819798288785641, -0.0896400991309886, 0.17124030584848235, 0.3358499098310594, -0.13773113586494448, -0.3798947419459097, 0.04726432435067078, 0.23954140040756644, -0.15240716534334403, -0.4250942792302574], [0.7491380596233365, -0.1681456551773412, -0.5311423634672621, -0.21666069445261268, 0.2808622029448309, -0.14397747981251285, -0.10202240217142386, -0.30741488279895524, 0.15818947585049728, 0.13674940271142866, -0.35240941276271337, 0.1956813183211536, -0.07280416333411616, -0.010025099105084647, 0.19632811552712978, 0.262087979686619, 0.10714733476724762, -0.6251351725983603, -0.8452867990197769, 0.5873929797093731, 0.05514341278909572, -0.12201820530981719, 0.1712293794581133, -0.7270743938453359, -0.48710018519362885, 0.9651899054716306, -0.13206951416397775, 0.2884466510394707, -0.011104501097403949, -0.22908426466862325, 0.4616736779376901, 0.39912438283025864], [0.0356877212164167, 0.39266120744456456, -0.026938412602965624, -0.17126606759012797, 0.20916232998767237, 0.0016489030133520178, -0.2985153242437531, -0.15194297002875465, 0.17372888676557735, 0.7655787215938786, 0.04803633131476587, -0.031201187957591626, 0.2878317872571873, -0.006976275194522595, -0.2630509356480219, 0.10112816730421967, 0.03005300496852245, 0.02400570930871785, 0.07667349668094692, -0.22895855659691117, 0.00036267279134153784, -0.3204411275482709, 0.19502873320144037, -0.013727185304518032, 0.05411611399138253, 0.3948919406769698, 0.37276515057825704, 0.2776637576858528, -0.022669987935773253, -0.1207221950455165, -0.31049502023903147, -0.19932996307815468], [-0.39069097346300996, -0.3631550198732155, -0.18216995831860344, 0.6154978134740632, 0.18594848268157674, 0.22466689242811025, 0.30200898882955296, 0.5630387113826651, -0.017742224518895, 0.5700334813214691, -0.054277286370811945, 0.5780384311259034, -0.288922919358229, -0.3948405767639251, -0.6894634492523037, -0.00751489577486923, 0.6506626800327002, -0.5379707214673889, -0.8212732944666649, 0.18574909184762176, -0.5200571345704311, -0.32976738081090307, -0.6419795857463152, -0.18951516525506018, 0.007304692616189055, -0.7580436858109115, -0.7580466578541928, 0.19526467700801653, -0.2770823906486402, 0.1374846515406153, 0.2114322958042268, 0.3869622519916249], [-1.2253676633189734, 0.26373925840342166, -0.23922052328837215, 0.40199941406845635, 0.1915303148188461, -0.35061996443661797, -0.14238040838614346, -0.6149076168743534, -0.1271839291730401, 0.0068152052866460935, -0.2533752876318118, -0.27958237025699445, 0.20837784593072997, 0.015853460473032675, -0.49189579356632884, 0.44761529332646643, 0.09505819207619033, 0.41120024918861126, 0.6150024854996118, 0.02683983014687618, -0.04524180447602835, -0.314388322314107, -0.3180780925513735, 0.34406836824129255, 0.3205032134112045, 0.14136577699599634, -0.04703158654710616, 0.3091501014704151, -0.030148676921556445, -0.8281745364877848, 0.053631525553550795, -0.45833859971185675], [-0.14637488835216556, 0.08394126030592343, -0.0718226380382682, -0.3576663222572557, 0.22558047496884898, 0.3459147541539366, 0.07046476992260707, -0.6099347453033273, 0.1853174357783471, 0.08721715312220106, 0.3307109821413366, -0.17488116215217517, 0.24237734257640997, -0.511277576457182, -0.5746762565856466, 0.057875014368930014, 0.3539556219696221, 0.5307764660253087, 0.4906614769993977, 0.19960283664444578, -0.34176915675182984, -0.1689910824100944, 0.38690636745065765, -0.5501356687632745, 0.7375453595461662, 0.03809119973540968, -0.029316715683458512, 0.005695000861011046, 0.16874194819872235, -0.11972995570029349, -0.2860707979769012, 1.000033509654085], [-0.2667726310045868, 0.2001493120766507, -0.057268551151802564, -0.4445412549229286, -0.3687563034270329, 0.33939097225568676, 0.060686228134470326, 0.18963896517775838, 0.1883276758608247, 0.6951943305725844, 0.04693980214663375, 0.02911734648881882, 0.3325398628819233, -0.46692605484940497, 0.06081695763667342, -0.041355704827460794, 0.1620369622871314, -0.13916847683760306, 0.3127723723100932, 0.552601329316347, 0.02141089192052721, -0.3536084439068924, 0.2501498207638568, 0.07635322228528298, 0.4205907416088133, 0.11966906127876793, 0.033276402305790494, -0.6363652521548562, -0.38785536848075036, 0.7594583229015932, 0.4074573759335547, 0.1256188758237236]], [0.1691937368310142, 1.519387660534573, -0.8839107739077549, 0.7680090017298369, -1.1149488008524358, -0.3144432722019908, 0.17402106537883597, 0.5970539713581972, -0.3056991680305989, -0.5487757587589022, -0.9683192790898929, 0.9473147157381315, -0.6936976096818136, 1.110256332037763, 0.02533258105399076, -2.4041389482880295, -0.7063775381489669, 0.47836213846482367, 0.09114100346822174, 0.6399764473153183, 0.5102346163541651, -0.06550351815182837, 0.4472293760572909, 0.6412044935191499, 0.300580709913897, -0.6084489140212873, -0.15766570153236698, 0.8980127412625396, 0.16468505476795256, -0.7276341570796717, -0.261226085548732, 0.5129776273256226], [[0.4436952386397408, -0.9251477669483228, -0.8358356213377152, 1.2865108589753167, 0.6980168182727005, -0.5818933490878311, -0.712064958975397, 0.054561877408075735, 0.4513037712923491, -0.9107344847179337, -0.8857113668871087, 0.6004232401237589, 0.6426756476011956, 2.0197660368420194, -1.3459981436680224, 0.6315017808224624, -0.3877606648242869, -0.6237267455945461, -0.4739114255889691, -0.36224740631354346, 0.7796243244131165, -0.285876472684494, 0.36238900163400223, -0.7741725924132837, -0.13406356858661345, 0.2699179641066937, -0.9038173945527095, 0.11387387189081334, -0.16572527411679852, -0.5892428914105072, -0.11982045581089959, 0.18343850521284327], [0.25820299991341744, 0.4624559055797407, 0.7936312983238967, -1.0433957809559113, 0.002466702363371577, -0.7496887618488781, -0.2668500620456373, -0.6406262968146469, -0.02019211529660725, 0.6047137589937797, -2.0156714010034094, -0.13630415132870524, 0.6396631753174821, -0.19306188414609823, -0.4199436645769404, 0.5253943163825356, 0.5322956473321441, 1.4052117987178936, -0.21815955381019192, 0.6926009138019538, -0.9107987199754863, 0.6250762482955425, -0.19637046295971144, 0.3522528349287179, 0.12639295957790567, 0.3482632137117101, -1.1295061975656269, 1.589483199840754, 0.6003411644196112, -0.5333542289502784, 0.3463441418180464, -0.5044035991194586], [0.12183007414724248, 0.6660668148352067, 0.732918951072563, -1.5767858358169247, -0.7151920089072753, -0.4236940249874449, 0.16204470598880497, -0.16281289626175274, 0.5741708151676812, 2.1114585840804327, -1.3647663859978354, 0.4770762120493435, 0.39885502244775006, 0.4013274534068003, 0.9021639143762535, 0.13541307472605615, -0.30024747287902653, -0.43495105802904727, 0.9548286986863243, 1.6902423000866158, -1.0491560418604042, -0.4280615957999453, 0.29613717775800524, -0.45368570835672145, 0.3347307386778816, -0.5881917707797862, 0.17826020657992256, 0.9504073708321796, -0.4439174367318328, 0.2961352830576723, 1.089626986584596, 1.954553513114492], [-1.2021575853400015, 0.7740936710187205, -0.7142324076620711, -0.7443575746933438, 0.42419789192518326, 0.1208048760678785, -0.7846955572417376, 1.173395909796195, -0.6030548274373229, -0.36280469790783476, 0.07133209987162263, 0.3112950671402387, 0.7103242961958384, 0.07578048316896761, -0.5652429217406757, 0.292871759198619, -0.760487495266395, -1.2392892992664144, 0.8757395631065346, 0.5616998605477901, 0.0009481978861517865, -0.7471622200962492, 0.4262380596969985, -0.3833901883703341, 0.18583829487656858, 0.8886112787275259, 1.0472968532530105, 1.1685386926946766, 0.4700102159669677, -0.7446299171582947, -0.3546005899641444, 0.024145300384609186], [-1.0407722004082365, 0.829622034166963, 0.9296388900887808, 0.08077073745390845, 1.2204537379298566, -0.5197313962343127, -0.12199477614291199, -0.04761898012394935, -0.1428232932144631, 0.925600339724623, 0.7927264756044119, -0.26557334404592436, -0.5015795864256081, -0.7467073417637423, -0.2722704515074913, -0.6379161647885797, 0.14000278358576798, -0.0606809709433072, -0.1321483136714155, 0.46278469885962725, -0.1657911205985502, 0.5722321634180307, 1.2921086046713568, 0.4860148476619509, 1.1061881802640465, -1.4379522772020754, -0.9654829660008774, 0.6374863562854907, -0.28812857037072365, -0.36245969650208437, -0.06787559156029298, 1.1873238582339227], [-1.1555093000240526, -0.44532206622610454, 0.6846245153249546, 0.104672063683362, -0.3179639829237332, -0.7643015483885415, 0.3093479287489942, -0.15271841809396997, 0.03138110182001079, 0.5309644783896955, 0.8662698867281793, 0.02983766169338349, 0.23495718751719266, 0.2144539483731249, -0.6136731852455424, -0.6533118445717785, 0.4600636966745046, -0.4093550594151284, -1.23346252822496, -0.7945394082993754, 0.3468404982847283, -0.206644624181506, -0.19176730588039034, 0.602213824704068, -0.22424335568911352, 0.37670264907353035, 1.0035638630997639, -0.3042787404634724, -0.029867441173192743, 0.21700935117356107, 0.18405035752622675, 0.36464364377841774], [2.264486882334809, 0.06585985391708704, 0.6471670043442572, -0.23721504364749837, -0.7336611045942579, -0.2868854653368266, -0.8522677836827032, 0.19957096872620195, -0.3101294221196095, -1.54941605881941, 0.5440990829896247, 0.8247151351508148, 0.10712410864134331, 0.17009316426040225, 0.9538775993331918, -1.4045648282358043, -0.6085677573293035, 0.13743960897241914, 0.035509684599262126, -0.26698491496614074, 1.483240632779271, 0.4207932105074273, 0.6743495457396759, -0.7320266165288968, 0.014732236830526057, 0.22620531973079228, -1.2272086732845031, 0.0710312651001941, 0.9478228248414402, -0.6491651892384392, 0.5547104259041525, -0.2930759650925382], [-0.238619664908665, -0.491427153432828, -0.11620670670374458, -1.2227128648741241, 0.4443379858774948, 0.5160304279137538, 0.6553381642298624, -0.27731306909784675, 0.34288707598714546, -0.49571024400634, -0.9396127997660418, -0.36480605075086003, -1.0086439548125554, -0.9237883533180785, 0.8847982534605894, -0.7902968571736422, -1.0571276142100954, 1.503156143185769, 0.6686430236360763, 0.45450812957735914, 0.08864941937928869, -0.0853220799407952, 0.3521072830873855, -0.05591292840525059, 0.3550248336854069, -0.6087642207499464, 0.5643475769927554, 0.45780846010798437, -1.508271676233039, -0.19155827648976337, 1.4096621703330718, 0.34216073899181326], [0.7996203244069439, 1.70041577202619, -0.14013269592292155, 0.1960796071101512, 0.06578218619288163, -1.0496725088170626, -0.7086660003947372, 0.10474988719671022, 0.6165519463668171, 0.21130575505548882, -0.5830640697967286, -0.1044631315274767, 0.15447534757704456, 1.2875791463550499, -0.7304506372858995, -0.04064222322326746, -0.924677989813955, 0.24413124038240433, -0.4233699159721509, 1.578509406481629, 0.4546400438287775, 0.3608917275417746, -0.0955811887194861, -0.6389183379229707, 0.18537709849511944, -0.26496952888826897, -0.5602115761304449, 0.9005942221128369, 1.0656956138435314, -1.0656652817348133, 0.8438806672003593, -0.7742725097584015], [1.1244309542596518, -1.2070677575392454, 0.3708990149888323, -1.2640343630522766, -0.5299346663471379, 0.783293166480114, -0.4429358736438454, -0.3537979695579053, -1.1655180085624663, -1.5365435482739094, 0.28792623725467775, 0.10444905479184148, -0.17196393634498874, 0.24865183658902948, 0.6606171083674609, 0.15949611066696556, -0.1775712668736946, -0.06981991146146942, 1.599218156719419, -0.7534618013897334, -0.6162424140388492, -0.5455915257275511, -0.06799215362775674, 0.23617857347223944, -0.7996888676296436, -0.4244808577616743, -0.814968781166303, -0.20291969950925806, 0.4146773697846716, 0.42426303469938154, -1.1685723935382308, 0.6802435491607228], [-0.36645208764702136, 0.341095686934616, -0.09015195612677322, 0.7557420446216949, 0.4201678629067477, -0.0987026024680331, 0.8013486723682752, 0.7113504840018194, -0.6369689722971166, 1.0007241390515047, -0.2596517341451647, 0.2672058972225542, -0.5158455291641999, 0.39365260003091185, 0.08461952711288696, 0.30434793664818466, -0.8433405240343452, -0.8744186196071305, 0.28154894211709275, 1.057795565302952, 0.09769181601967898, 0.5165718202516719, -0.7098891336376412, 0.024419988673522904, 0.572350595224465, -0.3166283855174958, -0.0200744368509984, 0.22656645840842715, 0.06573290858034365, 0.16340210581522346, 0.3681363243994141, -0.09017376991185025], [0.012115425227659953, 0.0033573338119649997, 1.564279124179249, -1.1592597732350385, -0.7109094949517837, 0.5058373945758414, 0.9107202751341911, -0.18158847202430062, 1.6118699344342282, -0.5410435205643029, -0.1324547373726401, -0.9880753368774217, -0.6605566929741377, 0.535336872270397, 0.8633106273528328, 0.29625296256172196, 0.39573500573966885, -0.18461640173169305, -0.008743714728489093, -0.4275829692030172, 0.6129367275334515, -0.4108001848281032, -0.9574331127527275, 0.23846544510145862, 0.8806437152904228, 0.0009008325807532299, -0.49498038247429743, 0.030325728698956698, -0.2726906480859588, -1.0674118574723623, -0.6114934363876936, 0.600644020976211], [0.2900700973647338, -0.4669331038733605, 0.8030506640762085, 0.39740392175710865, 0.66654714697482, -0.34729485179954056, 0.3898985049460617, -1.0161966081883693, 0.6977677130810424, -0.263210829687981, -0.3788240579003103, -1.533563270567774, -1.06506456090123, -0.2611579344145501, -0.8312854948552055, 0.2610048487104629, -0.4284192389173289, 0.17707563949744312, -1.0155854971303533, 0.8394199116035038, 0.3395410894214323, -0.12180679559079206, -1.469377259949687, -0.039886043419084534, -0.3868157624879936, -0.07522396693541777, -0.09640154105734672, 1.3358217001048744, 1.310737489202715, 0.5599562715439429, 0.04529145594373443, -0.36184813686077943], [-1.2063435686035846, 1.191315580264846, 0.062458615620503026, -1.0876772954130036, 0.2272648383642074, -0.08544597518166792, 0.9943000020440536, 1.3741499036154816, 0.8490883615380956, 1.1718967693633322, -0.767016743141329, -1.302941973012071, -0.35423653767475327, -0.3912665475474723, 1.4504290679898664, 0.1427811933647257, 0.02438677322964491, -0.419318537275404, 0.7850232681813422, 0.41682908935473917, -1.24392182321945, -1.0670484996259364, 0.5257050996673847, 1.2398105541200666, 0.9503645752722857, -0.33253147700386376, 0.7108343811986563, -0.3493063602916366, -0.22654433075284536, 0.10081909251617337, 1.0938336844148233, -0.04759443025450803], [1.8759794614123306, -1.3407328392130484, 0.42170801937937663, -0.24501326344683433, -0.4075132486862094, -0.13292752376499123, -1.0248839773817664, -0.010627873206620009, -0.26208323846964393, -0.9680647528214164, 0.21609598310763034, -0.022251802180608488, 1.2042932158547333, 0.5215380711519688, -0.9574729465758498, -0.2579452810479617, 0.7583961668678829, 0.6667152855877528, 0.6290426107426706, 0.9590332643527575, -0.031386147352303176, 0.7280289258126106, -0.6508673485210834, -0.23396208115681355, -0.03863898162514128, 1.3680660199606725, -0.6912844636798536, -0.04389689211437425, 0.7724612453929975, -0.3902713000537632, 0.1859577323687153, -1.0228528183556784], [-0.3551816924061782, -0.20145038451220762, -1.2910782958489069, 0.2233269177286916, -0.05960632537474864, 0.2160974996955866, 0.9096711476285659, -0.400019180135303, -0.4487972620330688, -0.3671793937245508, 0.6637644311165509, 0.5124056479565102, -0.043059723370984876, -0.5531840053274396, 1.3573907631834912, -0.1993063615352715, -0.1700141434201476, 0.24137771284055723, 0.1641763142950677, 0.22184130902066368, -0.3707816873777022, -0.32090329935186446, 0.7531523061558604, 1.174011648026377, 0.4085944526314477, -0.48478372035785466, -0.5643981165164506, -0.046702985174435316, 0.4260950278034543, 0.08419696843277362, -0.1315729554789642, 0.36087530229968173], [-2.0786028174188838, -0.52497332703327, 0.6253634837048305, -0.0974883922438014, 0.18319956434640403, -0.4153543947420979, -0.14297044897001324, 0.6554684370590459, 0.14332756650467576, -1.8652586957405746, 0.6935634265776691, -0.04231765434175052, -1.0791956215692486, 0.21833286738188928, 0.738621344384019, -0.4803118573013467, 0.30695972756184103, -0.7787309037192123, -0.3660380384683235, -0.26274315360142986, 0.8500821175852602, -1.6087728174362266, 0.15885828469458313, -0.019209507468626295, -1.5001568662124491, 0.7474323875315003, 0.1010892593413903, -0.6283211602418877, 0.2451435433693203, -0.6575738739543168, 0.5783140671059583, -0.8737733758163236], [0.35460808680852246, -0.06877192783512286, -0.3766107082919193, -0.5956583899194782, 0.49339284171949516, 0.052488752571229154, -0.1189693220996778, 0.9855411215668884, 0.7299098301102334, -0.6033849916816929, -0.29842365788095165, 0.1383627121986916, 0.026623763743312847, 0.006827686489923168, -0.2960014640289655, 0.7683511350091086, -0.05372399460078617, -0.2839923578101368, -0.4882573955401132, 1.0597855690177316, 1.0023426013847114, -0.6641897869925818, 2.059790144799786, -0.8868747072518286, -0.2374952924908476, 0.2917441857919623, -0.7774981341980202, 0.40436105103277054, 0.615969601950053, 0.5779431794742574, 0.594304936550697, -0.20545244801628718], [-0.9583739493616441, -0.36575723504940777, -0.3722700968296426, 0.901127493867842, -0.4426054655566335, -1.5005994395173448, -1.1060035328145223, 0.3779590323367749, 0.6470646584968485, 0.8273435620775023, 0.8264191178878829, 0.683185496518691, 1.9810600534233842, 0.8454304564521149, -1.067702596172638, 0.7270978436639369, 0.987212415368826, 0.02281116268271485, -0.6569793448153355, 0.21361491330680196, 0.7117358101277339, 0.28117868721319955, -0.520090830294535, 0.10340376813823485, -0.7814120191069657, 1.2723796232840148, -0.08768371474870879, -0.6373929247347161, 0.07926892445490595, 0.6038163484850817, -0.716799064325348, 0.5133570379378112], [0.2841583539612983, -0.13105351961219425, 0.45480980390924847, 0.32648150525416003, 0.7055100394806553, 0.6958529804066109, 0.13988323912442258, 0.6902687383453456, 0.12875835365150373, 0.03355886687285139, -1.0299013169072797, -0.5302053958221148, 0.431755715107504, 0.11315943632887997, 0.5153094979010472, 0.4217548034084564, -0.7062214286938925, -0.2400259343842941, 0.6317818846464534, -0.8079934972592236, 0.7760995242631019, -0.06518063134494542, -1.2963669139157517, 0.9531385345072487, -0.1346267614160222, -0.3541010922119734, 1.2815452389984663, 0.3219834223756801, -0.6639952211262661, -0.038109809810854725, 0.9115174259373544, 0.26880528788704017], [0.7717733784194117, -1.1514637035538111, 0.18402921087662213, -0.6239789225050145, -0.7573953225380037, 0.012045649964899556, 0.10950192628570576, 1.5207937516269818, 0.6636230676148814, 0.698891305568579, -0.8590827726556651, 0.43016387232535314, -0.8543187080450324, -0.3089889059024644, -0.17297098046363954, 0.18495070306633152, 0.3273869673625424, 1.4878020005692862, 1.5129307381121482, 1.6124750495869395, -0.2273088100534382, -0.42698351110112126, 0.2656263921179721, -0.2613575484532866, 0.09575273123944374, -0.308954863762734, -0.06831192396345609, 0.5217699294226159, -0.5177509591871492, 0.11318545587011676, 0.4342382280940326, -1.2703293554941273], [-0.9108769744766857, 1.3154955314772436, -0.10217165553069081, -0.016170107762391573, -0.28875971163895897, -0.13883770394463843, 0.21797979332869016, -1.5608802815526381, -0.6996977500680452, 0.8196208675623887, 1.0535297325310273, -0.21963814256696723, 0.31028947323477485, -0.5596048349203919, -0.8935188839218932, 0.5796355670836755, -1.1523675608419328, 0.009923707959218037, -1.35257368369769, -1.3444396193331525, 0.8364709041679607, 1.4683781200478219, 0.009641130697091228, -0.5508204537430967, 0.7590516891217702, 1.645474548396559, -0.25196784665461974, -0.11638883416238861, 0.28073481827573143, -0.82636054912851, 0.35689143675311735, 0.42964742466993633], [0.5657744871211995, 0.08769478684073237, -0.9353566688434327, 1.2508011700703558, 0.3735723504858144, -0.557757524565143, 0.6633379679068471, -0.28557520928078267, -1.62214526989978, 0.16352999408007324, 0.47867650528042227, -0.2869802484881456, -0.4563154345114345, -0.49353234156989884, -0.613828967805458, -0.242667248486805, -0.6429303829908817, -0.12255071155992325, 0.8671524466536692, -0.2658235045019722, 0.36078073961400486, 0.8795153311912024, 0.5081497133924793, -0.1807386999151049, -0.12382498208353701, -1.1157939762589837, 0.4165263690946796, -1.5960675760366283, -0.6020323845686838, 1.0219833267023228, 0.27590298061784546, 0.14242769895445126], [-0.6385811471428472, 0.7895366545980198, 1.0911783300814228, -0.46527377067956865, 1.6260027679425795, -0.6658879860898872, -0.766866824690118, 0.6937974430341551, 0.8330338049910764, 0.020645851350732422, 0.0818260314337588, -0.8439417815132562, -0.3053396018751227, 0.8297269531003392, -0.09205440662696876, 0.22916714552004822, 0.7115869313151201, -0.4125880596003096, 0.6736532107995694, -1.0570822774514903, 0.10939209215677306, 1.0641528443316288, -0.32041179824703975, 0.3489638318615714, -0.29698553830501895, -0.33210162692670936, -1.2897325977187561, 0.5645980693605074, -0.070043034279939, -0.824519615431725, 1.016460013807895, -0.06787594698231467], [-2.6181845161381654, 1.177012855450737, -0.40213221402700233, -0.30921238003984874, -0.0913995403863078, -0.7347539675579399, -1.0184039608439537, -1.1296826641681872, 0.23404308749326797, -0.17608305212715392, 0.5144235472951614, -1.1615953375426136, 0.027373866547966495, 0.1471233208519483, -0.09124571272033496, -0.42286804294213665, 0.6903613842752063, -0.020440473846397668, -0.06896309328658655, -2.3569888758538204, 0.3539550516339148, -0.43172932854885465, 0.6299682451079889, -0.26768534299614916, -0.07801520771474052, 0.6833955336890621, 0.800908641860243, -0.4932456113363135, -0.09075480676226629, 0.06408211888259187, 0.036500511110234515, 0.22777099023294609], [-0.3132508582653469, 0.15652506729155832, -0.41169896113153553, -0.7907751231562505, 0.26792106123826376, -0.6008460024285625, 0.5613498127989583, -1.2312186362700308, 0.5868286032714135, 0.4842269897278802, 0.5828410236590559, -0.3900877666726914, 0.11580306002071329, 0.47831525997456675, -1.5832178778318482, -0.48512298811656696, -0.0644429050252249, -0.6799710426740497, -1.3009417083905517, -0.8296110244148082, 0.3602828506209081, 0.4718290544140883, -0.8243631342846378, -0.9191149046038394, -0.7967909301732904, 0.4770900610537192, -0.012591070107903536, -0.2688055153345225, 0.02361025570295467, -0.3360159875401446, -0.6332293672207295, 0.7537348447218594], [0.2734057711688311, -1.1451342756475602, 0.248850335608818, -1.2314962694087401, -0.6167466580209118, 0.6492357656703963, -0.040222987276812144, 0.6471243392302884, 0.11114873243042982, 0.02371316120789282, -0.387726780625745, 0.20660772279232248, 0.04370605914731018, -0.5349958213912593, -0.8714905646255416, -0.0595501658700861, 0.20310877267298, 0.7741966028012476, 0.26490620932171705, -0.2788472053203198, 0.2875613518681103, -0.6923906751338622, 0.21940450477863477, -0.23804148027985617, -0.2701472886228354, 0.5192651352884466, -0.2658721697329193, -0.029799248215314787, -0.11123279597203563, -0.5002561519345567, 0.019557965614568382, -0.49399123277596235], [-0.7053833903728607, -0.13200864587916994, -0.3946995524010722, -0.24057831336352184, -0.3580573128565318, -1.3631947120187486, -0.3599645110757512, -0.09451053210689199, 0.5532849285204281, 0.7197076222724224, 1.0571221179333115, 1.8024771070989944, 0.8771471517317045, 0.41029405214256687, -0.5329403606655757, -0.9644132438094178, 1.4067483189456367, 1.2378088625483439, -1.2330942197013468, 0.9516831192556033, -1.2593003147030293, -0.8251716592468115, 1.3910493873353724, -0.36031482750625626, 0.3317055661671547, 0.09513105076919434, 0.16425940590111313, -1.5849029121414318, -1.161541326902765, -0.8746233636471934, 0.7838457928936186, 0.7688169876130954], [-0.17368728408869197, 0.05451807610461714, -0.7745382152316275, 0.06135399003273975, 0.6526994996901407, 0.6019139841881259, -0.30519299905084274, -0.11669079503387415, 0.2982686501046178, -0.034948994954937515, -0.8002747230284286, -0.03366713560644333, 0.8423984859095814, -0.9922796400631786, 0.11005297464867557, -0.15545354319125673, -1.2694416108915616, 1.3424928915599204, 0.6482754195656486, -0.15202805833423075, -0.08498775040399065, -0.6620900040011729, 0.24979626141788985, -0.2316675971548991, 0.9736943584439058, -0.6156327621078709, -0.29852888920796355, 0.6688492704280331, 1.0786560677755717, -0.033448292394502754, 0.02345901848219964, -1.2768545996120364], [0.5792539044577194, -1.7461495500108317, -0.1468513286140202, -0.2217512990634174, -0.26434321187434967, -1.0385104880239895, 0.7032874752774141, 0.7797960231351725, 0.1200038345002516, -1.1760856490156195, 0.9815819116574336, -0.29369015549682354, 0.6679220203878038, -0.430688001619274, 0.6579689876617845, 0.07772253640071879, 0.8135310970731273, 1.5761342453192435, -0.022587988447460742, -0.21085979537412222, -0.3535172202512129, 0.0012233617693911615, -0.6113800189575861, 0.4634588820453332, 0.40749024081407587, -0.5889690012006177, -0.9095315760925657, -0.08787964077627639, 0.5402163764650575, -0.4322550975150528, 0.6181174986671074, -0.6532479818100484], [0.7012919723202915, 0.5964128879854238, -1.3255222960248592, -0.3980608139776733, 0.9936176285904695, 0.5668558540901786, -0.8852099550495542, 0.05843052202457416, -1.1829787284064037, 0.10256199927732965, 0.33354557671848506, -0.43702408102370877, -0.14017134948908497, 1.133934355642697, 1.1972435536827555, 0.006871900898276446, -0.5936929106635398, 0.8248609550255839, 0.5231169082486296, -0.3470973244352318, 0.040624062095141994, 0.29278799641200703, -0.021696517098611135, 1.924849336002892, 0.13388159466026492, 1.0670072119603173, 0.1870074236529593, 0.568430029986052, -0.32932701860588326, -1.3747896766924548, -0.8734284150857842, -1.0918241483216633], [0.8030561919784898, -0.8449085337093223, -0.7699224208253419, -0.1322845420942742, 0.9137271245776287, 0.19956642819443607, 0.8157005799074689, -0.29329002246046226, -0.13284950031450019, 1.009288401360819, -0.4570531130256198, -0.5173792371707321, 0.7377478634142111, -0.5028446864289925, 0.2175315617052038, -0.5743031421494877, -0.42549535134868477, -0.07954337603081736, -0.7863147279678677, -0.6399131865905197, -0.9898164005339246, -0.5184224261120458, -0.19092179115854155, 0.9410246040471514, -0.47441862466885704, -0.20714849968340127, -0.1651514513379873, -1.0765785094240234, 0.01932483964348432, 2.2148621400729045, 0.5713387071718705, 0.9337476659217026]], [[0.49285961703356196, -0.4947865838645316, -0.2048488822570632, 0.39545453622495413, 0.9234381541779048, 0.2755170362380683, 0.050890819067254074, 0.22067490733140302, -0.013073860768639887, 0.2979682857930407, -0.283403412986066, 0.5031578723452406, 0.20847025439760847, -0.9555540486704139, 0.38000853907011023, -0.3573909209086015, -0.7349262353409697, 0.03999340052462567, 0.07747704912419746, 0.6400086305903901, -0.13945824640710508, 0.21922864264270123, 0.0521437957614725, 0.07331323421337965, -0.25075500420700064, -0.0033607321221728655, -0.012369935874068158, 0.15477238497641077, 0.28774657742278625, -0.3907168401873836, 0.019344910210321444, 0.3313099559016893], [0.16190993503320983, 0.36614210489831006, -0.31564700199111595, -0.2558256332190778, 0.29211355177465154, -0.555196479159836, 0.27232677110503395, -0.26933671314889573, 0.23765435560223858, -0.007533098386343338, 0.36302220966071946, -0.030148014082874788, 0.33050233035789567, -0.23458262247964062, 1.8821756643117669, -0.06252569506477208, 0.4203910869262142, -0.2950233227952835, 0.36243986186841537, -1.1674822261002258, 0.2067076926214884, -0.18234921195521475, 0.18755790925782656, -0.2680199018830961, 0.06316974769245733, -0.8055497084201299, -0.45942163711208234, 0.016415661922238662, 0.08498079907849972, -0.21202276068368728, -0.1488327987205008, 0.06744031614885143], [0.1990406635526799, -0.05823359774119738, -0.21561428343685418, 0.33950055902342824, -0.20319317074583493, 0.3933149300167059, 0.17826670561179062, -0.17937280189415414, -0.7513337335630463, 0.5857107003027394, -0.33358047694352916, -0.5736552673896582, 0.5149908543250833, 0.3958038815926731, -0.4057784435395067, -0.02445853475764764, 0.20060537336385065, -0.21484177768678425, 0.11284720870499465, -0.1772433543140805, 0.03075863976643116, 0.25015392974674727, -0.16455898306553218, 0.2599185438443223, 0.32499006125056323, 0.11994527238683088, -0.20484200485608758, -0.07338931067210522, -0.1895692311117684, -0.026586843459992505, 0.2601086574036962, -0.2310692545831785], [-0.1508888974150032, 0.44308042855412144, -0.08322773168477109, -0.5777581484845842, 0.22678831517056186, 0.026805388594243203, 0.2139461551431184, 0.2169764659553245, 0.2301396613678602, -0.20598896998464522, -0.708992842995133, 0.098101324839641, -0.06485031880980448, 0.1578155646412852, -0.03155780454961556, -0.252819588798219, -0.22042279650770555, -0.329806453443277, 0.1969220407447367, -0.6366035606284334, 0.021485478317391893, 0.3660839319008615, -0.2611466957222551, 0.04174724223773636, 0.981734357611397, -0.5501186170498646, -0.44251686766847437, -0.48306668449944123, -0.10271386666186703, 0.1358794628034944, -0.5810689770993677, -0.06603689446373998], [-0.058010334015360585, 0.39288538820623126, 0.011242244535497143, -0.1827532941693861, -0.08284878652599521, 0.07666142342236827, 0.3082071000279743, -0.13393374170848443, 0.49748433871383646, -0.11847717898755869, 0.15470273687187414, -0.18058994499034178, 0.26422579659806833, 0.42077549806759496, -0.8849457890705938, 0.14398474236321157, -0.11837025445175392, 0.642531430076394, -0.06774105827636459, -0.018188637310878768, 0.43774044187502476, 0.2999581404604763, -0.08663450007000795, -0.26929172507264215, -0.48966862675541684, 0.05829739003953546, -0.14438278361364326, 0.39099380090882235, 0.014897713116177554, 0.04586993926532627, -0.3783937951669468, -0.2890350522122795], [-0.16796541890834848, -0.7261579060816358, -0.4474508788741374, 0.11390735034475315, -0.3583590783899748, 0.025208558717206456, 0.07274577068775182, -0.10710105672955395, -0.16409197918949295, 0.8575621610366944, 0.5349845804506231, 0.9008340910484065, 0.12169547602367088, 0.22161663435017553, 0.9816506903173746, -0.5221060141498463, 0.6413386190525173, -0.06897994333441423, 0.36374007747414244, 0.4300848668830619, -0.030272337435768654, -0.2996711653499059, 0.9222793669360252, -0.21378216806347364, -0.7959425887558927, -0.550151790949889, -0.12136014821296405, 0.6013674323166551, 0.4037115047329834, 0.31900170518962967, -0.5233285516490049, -0.5051783224100361], [0.3099143127691077, 0.6562404645339528, -0.355164961462188, 0.025985447598160023, -0.3596046117625305, -0.2518878101928078, 0.3000152537309342, 0.10683147984099509, 0.14006447497039926, -0.3704727459976851, -0.18360272387281898, 0.9899927912379051, 0.06994731563701256, -0.3183303946938904, -0.055841054079064895, 0.661460965653286, 0.11887182953053023, 0.7619780462723196, -0.2749124775438304, 0.19832959122137322, -0.30830321184850745, 0.26747893722775823, 0.3995272184355364, -0.5750141037398746, -0.9406100209026191, 0.05141593051574673, -0.3521189193693819, 0.10448189020198817, -0.11060182761414375, 0.02436917834201094, 0.007805386066113737, -0.05582318919445944], [-0.1136630102391669, -0.4207171194251195, -0.47763685216343316, 0.49653002940337293, 0.19449105420840299, 0.6147933354777841, 0.3349717359183224, 0.6552435234503138, -0.44035885294331734, 0.6782963900501109, 0.4044864766982159, 0.08750002374202721, 0.042052010008647056, -0.3303215386457986, -0.17545846997261633, -0.09256845056095417, 0.04240164118917606, 0.3573113893934458, -0.11458486540657889, 1.3694247706290414, -0.5413794572401561, 0.5400123109780323, 0.011668173131589835, -0.13142594750681755, -0.4880323879219389, -0.01802555610383061, -0.03351438641303681, -0.07074777085601883, -0.21214149635655402, 0.1599415794334875, 0.17249734007319734, 0.5408967990342627], [0.17000517451804525, -0.681442693448112, 0.09226722986058043, -0.059008470464233506, 0.2654083410700858, -0.43314480463413046, 0.13685106086042478, 0.5367079008952699, 0.31336273380680857, -0.6844788945233732, -0.4219044159895368, -0.16417218895945818, -0.8234851824057874, 0.29269805663716875, -0.7263021986401207, -0.22368433029156357, -0.5785737476710563, 0.39004029963004516, -0.022752387641891574, -0.859171868656524, -0.7161290319854235, 0.12856463777583893, -0.04097391343460945, -0.10431625473081656, 0.15495463511961619, 0.14245137146072143, -0.04282625460116141, -0.34310165130275644, 0.3953562915879154, 0.36606452390787675, -0.22512999706917164, 0.23313038121441423], [0.097049122847024, 0.060919427501477906, 0.5145888178004023, 0.06189301149278248, 0.11658799824533765, 0.35203977594551433, 0.0361310198799337, -0.12058437340138907, -0.09008968313293172, 1.1286530234204106, -0.1823559282805824, -0.2260694684241703, 0.28167793341729547, -0.5698798690371834, 0.7109194345799796, 0.2030362779908814, -0.158959036880358, -0.00353071188914873, -0.3433568055138377, -0.07201965878817568, 0.07405292938953427, 0.16028134898151197, 0.27875426990757407, 0.3464180092450623, -0.276897783217721, -0.6899850896354969, -0.3110108553416104, -0.604281493993776, -0.316750546464954, -0.07870094161979713, 0.43131840080085143, 0.04253387098509275], [-0.10661974072026566, 0.49288871115094185, -0.5518866291513569, -0.4634203657158361, 0.29813982798337885, -0.49273972542631905, 0.3518510926633203, -0.5785765986498344, 0.44244486381961223, 0.12125691725899689, 0.37432632574056923, 1.2132906431455688, -0.0490901353494632, 0.1394598054804196, -0.1587481012670558, 0.6586905423320786, -0.4376070452308498, 1.3341142669978323, -0.21271870505624305, -0.2527718469622959, -0.47428024341335684, 0.25165581075139865, 0.32012846766328357, -0.5777037419398637, 0.05102482927144575, -0.5390858899265063, -0.10724857197852809, 0.022820896273074386, -0.03270982192387815, -0.06217619574093203, 0.0940829335329592, 0.19615010223025145], [-0.522681201439806, 1.2199600193775664, 0.13988386606652983, -0.8406721755573237, 0.4198243281571158, -0.4770313099257931, -0.19638363763721461, -0.19643604604331036, 0.641436088810694, -0.8137524164253214, -0.252602396505864, 0.007258756297510924, -0.054522611596023535, -0.09463457540487642, 0.1321823748840472, -0.35087129680730006, 0.022522616826118013, 0.9918069580897075, 0.045538614433705445, -0.6729541276698042, -0.032967612611229664, -0.04351996474042974, -0.46957705546713424, -0.0015558332482015237, 1.1017140121768054, 0.13497005570719436, -0.2187719357229362, 0.271941817090063, -0.8230725401235517, 0.25971361348765326, -0.47323982267422227, 0.0518387023892363], [0.6559598885335688, -0.4000760968652178, -0.21697126321744206, 0.14240794763678055, -0.7311287121056123, -0.16170881747993787, -0.3631542085254448, 0.0681909475355704, -0.33778596520467324, -0.5830896103275605, 0.8278727059967651, 0.04848221750497622, 0.6920268205941937, -0.8674440603545862, 0.14165006456485313, 0.07554452574507801, -0.25779718205452623, 0.38077560727993454, 0.45918596246500715, 0.3786801941204142, 0.19221764793682813, 0.09548297084091534, -0.07736307522058389, -0.2763496961320884, -0.09031499110143412, -0.12580750883057792, 0.06854217111880309, 0.5197371332674131, 0.05565121313189642, 0.3335248017689876, 0.4987190337803124, -0.09697393451622038], [-0.4616143306284548, -0.2142580505053826, -0.6799269354365322, 0.4728558395107204, -0.30832020600656007, -0.3711331458268322, 0.07458890989245798, 0.2065403632643092, -0.19156435333473448, -0.7441412533645775, 0.15388319024765942, -0.2187325953381891, -0.17763670852441374, 0.40574241275593304, -0.2602834863444038, -0.17210350724438642, 0.08414682561257836, -0.08506831908665188, -0.1524892615558793, 0.0440541859353274, 0.2584675586115824, -0.29387291496759205, 0.2630483740487156, 0.33996181428220734, -0.5179935713029861, 0.03319679028546418, -0.12333952203740094, 0.304667888901411, 0.03833202021832082, -0.278663468321797, 0.06841187954658555, -0.11212846314352663], [0.005168178297874294, 0.3588474127262303, 0.44102729644142935, 0.048343130634761006, -0.4749442030634933, -0.026735927479657837, 0.08672873368100023, 0.5038128071636081, 0.02925716254217849, -0.46577931263973943, 0.11024516942714074, -0.03191635833455318, -0.07069340103102273, 0.940801489332107, 0.24179967262865038, -0.5680125073747387, -0.24507359858211, -0.02308576696892718, -0.2557294742047747, -0.5625918224582829, 0.02227227100097469, -0.3338541303747886, -0.15344810402205922, -0.12089870841558206, 0.07839958862858303, 0.21847796519262463, -0.1824844547646042, 0.3054197559732037, -0.03571236585114495, 0.21727999748078938, 0.4276263648964197, 0.0487831969047519], [0.8484017022786305, 0.08717766857312913, -0.08337063724306563, -0.8991206148506236, 0.35845421067132244, -0.12708799472508048, -0.3886842816631637, -0.11133333521381138, -0.18186566653292477, 0.29190027854585, 0.616210718534606, 0.11902606502061584, 0.641883321511607, 0.8932812506207313, 0.257198224100212, 0.25901969075192, -0.21720543726222286, -0.02937031918599313, -0.522594674580643, 0.6732788813423208, 0.43472200697442626, -0.2813111711777339, 0.4270847506957132, 0.6114052592935765, -0.13371308159860157, 0.05954061026620576, -0.15860080487092082, -0.4804663726956393, -0.251892267143116, -0.9234216727949391, 0.5876811878797917, 0.7822016114945339], [-0.1696152825929707, -0.42897815981667153, 0.15840387312403362, 0.04710459898530919, 0.290383793781859, 0.43537479563376164, -0.6804685005848059, 0.08661447571543483, 0.13296715909199736, -0.455953661422321, 0.076479006443331, 0.10390058745619814, -0.04581858453192898, -0.4780309093849925, 0.6839204605997738, -0.2604524009115586, -0.4813854532960753, 0.13639890378557193, 0.15426888933413233, -0.24196854552100544, -0.1339119143179576, -0.5664119999777952, -0.6392060445473676, -0.13716014695933565, 0.22004427494170678, -0.05176351184152874, -0.4596826404694198, -0.18738985211757803, 0.02938950758126334, 0.05740497480185933, -0.20360846278629896, 0.13756894869089012], [-0.2045832466208652, 0.6510783678046357, -0.5608374415654926, -0.0839664442261045, -0.5234400351837487, 0.3833373186095307, -0.13718309950707783, -0.8109970885881618, 0.6295277274884039, -0.36629297024328356, 0.04307727225227358, 0.7665451852806524, 0.22060653501200692, 0.15318242042919308, -0.005209491583982904, -0.15857807563201495, 0.030459793365196722, 1.192841966738318, -0.2529000143639686, -1.623470820560914, -0.4583265309372048, -0.3840502062433494, 0.03813118642010653, -0.13335190346497028, -0.5273703101135832, 