[[[-1.0858648875048347, -0.5755219498217249, 0.5382010661895696, 1.4265831856904057, -0.019374707714986707, 0.7398579939309764, -0.07520925079334854, 1.5640117908625462, 0.6605949041343554, -0.4821564958599217, 2.4175849631455564, -1.6224300094140587, -0.584774795687957, -0.6572787995814005, 0.2662953414546409, 0.694842011893583, -2.1544683928323125, 0.654920539788627, 0.17687055713235034, -0.5359662806932302, -0.5251924110180889, -0.3211526132927792, 2.590424884746072, -0.2510135402197692, -0.7759220492258206, -0.6823933426902343, -0.5725570850301961, -0.4310645375388432, 2.2405656964891287, 0.7126295430570885, 0.7480079773698628, -1.174968297520859, 2.0274298450847335, -0.9064379737250058, 1.9164727271528077, -1.567033906671854, 1.650322843098471, -0.42290697100008523, -0.045148475876395006, 1.1649490993519407, -0.2398370751118236, 0.1134790324253682, -1.0153016824165964, -0.2641213123255427, -0.5287661686827937, 0.19750015444828942, 0.01096459029662742, -1.6691681489921895, 0.06543333222913307, -1.6498657666966154, 0.0020357177308125795, -0.06171661973467349, 0.24884056635436333, -0.5852550873642725, 0.44359843686915146, -0.12417339039588667, 0.13495131153918224, -0.1242407583863471, 0.29998562347447405, -0.15649122348220038, -0.4605910184634511, 0.21451626697763013, -0.32967042566670723, 0.3147797595257935, 0.16926251904587966, -0.046091148362305066], [0.7753434819665893, -0.7420796815096791, 2.1099234667393474, -0.7629909759614563, -0.023414751488770816, -0.2869818042615885, 2.754822484753113, -2.0732252977825563, -0.03326306080455453, -0.5434428216458539, -0.21278610356765304, -1.4378447681892392, 1.7264255844079754, 0.7154428363159638, -0.8310039053307675, -0.5411728021315174, -0.3564039481504053, 0.5490442376021518, -0.27377540992442456, -0.1898919473429493, 1.8000145562481493, 0.6790566597645806, -1.3223393995592827, 0.09508078895358228, 1.2608919042289441, 0.3671662567445804, 0.2822513538842472, -0.1112328552832512, -0.7402905995988348, 0.17540655990261256, -2.5303319982304977, -0.3123918190946343, 0.0011953442977001138, -0.05723809749397022, -1.555121488557068, 0.9630694200552293, -1.4233702318029873, 0.28236888505958807, -0.4468507194721096, 0.8014559479436348, 0.26997811192280463, 0.07839017439565135, -0.011993250008675842, -1.4529099786914765, -0.1296311410070633, 0.06383866099717438, 0.0333937141961556, 1.2242276895948685, 0.33567223031396937, 1.0742891225012092, 0.653930150236601, -0.06414550813627219, -0.7922145928658659, 0.14152375725588293, 0.08403483977067987, 0.0175153350745699, -0.0139114764236319, 0.3412297159314582, -0.5141629012781233, -0.27628317560337656, 0.15881209441053756, 0.01178103989783776, -0.05688842256587226, 0.006704708758831051, 4.8926115953639714e-05, -0.037354895996521684], [0.5349305796137287, -0.03157689747517286, 0.8749267278672833, -0.9827973845574398, 0.025620647446418638, 0.47029120660176893, 1.396421741975821, -2.04322637080591, -0.9101700264819998, 0.8263384529624881, -0.9127470551352105, -0.19450167963265974, 1.0964471693062467, -0.297992036440616, 1.156976893141371, 0.21311180930314608, -0.4418660819134372, 0.43971335327687355, -1.9411575673223032, 0.3542159773723658, -0.382230749395119, 0.6113734233390494, 1.2949332357459735, 0.12973284684803887, 1.1408354998215948, 0.5058784839246487, 0.3089095080947613, -0.31739636140028304, 2.1506496437116187, -0.6127836631505424, 0.2992659240659597, 0.5747752641151286, -3.225786017006001, -1.214663360899291, -0.4087042041139279, 2.6607647846892406, 0.6204381163664577, -0.2912423406007911, -0.21956694466146634, -0.09852141729636961, -0.43719534435175045, 0.059955959278027965, 0.23385554338057857, -0.3182174253227081, 0.4857863881587349, 0.3387855475602177, -0.68444499225645, 0.5707416902280567, -0.10952782534043252, 0.07592953596212848, -0.48189446630098437, 0.08020144629824615, -0.6605655240502645, -0.03507829139303646, -0.02468827830243418, -1.1871830799089347, -0.057122233345350645, -0.7211935535074837, 0.22396077854436777, 0.06136606208065397, 0.26608165498221975, -0.17430586833495945, -0.09005342330153061, -0.1792615616781249, -0.021916812316262996, 0.00315279448902075], [0.04605678583079881, 0.3355473095044722, -0.19673872241309878, 0.8323794612333688, -0.020931977430301726, 0.5616640780856873, -1.3442362801054974, 0.6246538042344411, -1.2316334983248576, -0.3797826051065951, -0.13912469025605, 0.21801010221857442, -0.08232753403000795, -1.2683720109297667, 0.5084591606068043, 0.19839275811641038, 0.17318291171452554, 0.7847515521001789, -0.6831379573799762, 0.07651227984455743, 1.6208178346963014, 0.7283788614807126, -0.04379270398972427, -0.31457688164939684, -1.5028136717634573, -0.10258291039530358, 0.6128864573700089, -0.35378872051388605, -0.08209029625821732, 0.07540290604849091, -0.4938472333319886, 1.030560539985701, -2.2201007448108316, 0.24494019798378697, 0.29043926281174376, 0.36386840810198906, 1.6110599132313688, -0.060654137180492215, -0.19259158268065107, -0.6519903584236407, -1.0723230987265957, 0.1629453308479162, 0.04571122797663603, -0.47261731539010354, 0.12352064680521571, 0.02400582930295294, -0.37659641882985684, 0.30072170657506364, 0.1001264549484807, 0.45702932856236045, -0.1219321206277107, -0.11740342408604239, -0.1523022729981719, -0.27295175529723315, 0.06055987132876535, -0.28155466934181267, 0.20178239420724547, -0.22536191513226303, 0.26788149185241344, 0.27833375060541543, 0.22964651423520613, -0.14700545323137063, 0.28643812787750894, -0.21647352194308794, 0.034576533698871884, -0.029168872113840272], [0.322891027574806, -0.697546894608677, -0.6096555433582728, -0.09915451605569968, -0.02870089120813519, -0.3407022029374136, 0.17041221426419645, -1.0207097685376256, -1.8988998093726177, -0.908876253652209, -1.0210298189722569, 0.05878204876097394, 0.6596193251660292, 2.1887566371784444, 0.5488719132796273, -1.1608487896676492, 2.604012359373013, 0.586473084000299, 1.190896029912978, -0.52509993288708, -1.7086011385538027, 0.5179621457838531, 0.029417882261029087, 1.2284671610490794, -2.480856115770572, -0.5225178500117028, -0.6228213935293453, 0.9916456580576112, 2.021915536040669, -1.2180515168821502, -0.7422887665334029, -1.3927422524532438, -1.8587128683802805, -0.6618119111098372, 0.5630869490114416, 1.6472948776208782, -0.9174516239391706, 0.8358319334814592, 0.6751479249661098, 1.2910767150411264, 1.2446020597333025, 1.1334392097469266, 0.7895316725118248, -0.48143859529893607, -0.23291862093346508, 0.1982497767481165, 1.899826199053806, -0.9125271032514416, -0.34548336745062436, -0.6611459919351721, -0.2412157396922002, -0.13486878099790692, 0.10324569567302769, 0.26987187858030287, 0.6622600199642822, -0.5978047625632603, -0.4942638717794933, -0.09760557283257859, -0.3285977874044494, 0.04590618412692883, 0.017612439451968886, 0.12567736668058638, -0.2171269565403994, -0.15139347378689727, -0.08519071057576429, 0.015033347679891082], [0.7403503432274727, -0.546836986229329, -0.3321059965328068, 0.11850592335226177, -0.03955193039302823, -1.4491556300294626, 1.3640561799828639, 0.5942441756487752, -2.986448380812469, 1.1692943133671858, -1.604769749306534, 0.4620222500230074, -1.6697174974836777, -2.0859692929534703, 0.5047343412133529, -1.2839281235523643, 0.11347013073371938, -1.361686173460126, -1.6269858179599608, -0.22288946427571138, 0.3978139595183251, -0.5855449582567146, 0.5098345324741087, -0.6066532106563246, 0.7866274071767915, -0.5888684658917757, 0.388026687882822, -0.0665941339356275, -1.9736231005253928, 0.755591828316405, 2.6103603047398223, 0.10337222994523979, 0.7153301805964708, 0.6811326845994683, 0.7265181488215398, 0.6054526494453353, -1.437042598699791, 0.27160970647421445, -0.17313209191203308, -1.0228394556755371, 0.8311175678249072, -0.45399345946099606, -0.014077047428644017, 0.06153467699017296, -0.6531024082024264, -0.34571452412163856, 0.7333882592642856, 3.360651961707597, 0.6048200621572379, 2.025340561923301, 0.06638134965990536, 0.04025898652373588, -0.15880964275976528, 0.3679017066715055, 0.054056294628633456, 0.07913200201082894, 0.49294202409493626, 0.1054094088520557, -0.35324496378227305, -0.21392759748356385, 0.6206475494040925, 0.22135017921725642, 0.008697582149260226, 0.06225837040682414, 0.22160800857180507, -0.004938338604841455], [0.17332683531528165, 0.7147064885163896, -1.8032086941141066, 2.2086170952862583, -0.005526061373053708, -0.7309822348175662, -0.24125678838106787, 0.2134780140596453, -1.7775529072854919, 0.956919090247835, -0.688886970909904, -2.059081533838404, 0.08984982998313477, -0.24195237380921641, 1.0844267909650378, 0.09372474459130435, -0.2556937869754144, -0.2831814480493713, -0.2910184035833017, 0.5182298894664503, -0.7541266811180072, 0.3243203359073549, -2.129211166575496, -0.06264568215875896, -2.1814652108489248, 0.13573791794971668, 0.5650383379838618, -0.2793182007336526, 0.83374631849335, 0.13479996554298834, 0.6111921398944751, 1.3939475756791033, -0.5937374756026471, -0.8864170504450051, -0.07926776997035434, 2.3211583428815485, 0.40492986650568225, -0.01889443331808882, -0.49010352462693374, 1.1758591417024844, 0.5751789019158354, -0.36373071513167493, -0.41996651788012196, -0.6592375959748735, 1.1748593842652513, 0.27538922560938256, -0.49823608040104767, 0.915448929695621, -0.1918297153111117, 0.8447540364859291, -0.26650572825053936, 0.43550069199221547, -0.3616314787668306, -0.3957755779729494, -0.0056065987326861305, -0.4932724443776935, -0.17322090481611885, -0.22848282525222385, 0.8077361165181269, 0.028043791473357182, 0.4038470716028601, 0.015407353699134568, 0.17003111159916984, -0.06085885943284817, -0.11340450219380976, 0.009654540438969291], [-0.41932983681353425, 0.4764490192159289, -0.9928948227223418, -0.7030307131999406, -0.004258115274839974, 0.6719971433626828, 2.1159166115413353, 1.3357900976953203, 1.8487400403351275, -0.8360158524655213, 2.8673916167961746, 2.1105778979586085, -2.0713566788802624, 0.4563916905736255, 0.23132525477759275, 0.34946437486084536, 0.3484374747699008, 0.10947087374762281, -1.2977114456024386, 0.007622602767825131, 0.6459620025955323, 0.44339917904765463, -0.3806140589217875, -0.1551516222014071, -1.8322544232031783, 0.24379886885187263, 0.39292045446514146, -0.21772402340853952, -0.762854703041511, 0.6005563865307457, -1.218640808429445, 0.002708736658520377, -2.0106478039321476, -0.36111392154072663, -2.3359686146465544, -0.6060764863619214, 1.7478814418797435, 0.19472315500588108, 0.3827561229847692, -0.41622633738262027, -0.6047943666949718, -0.45819684762873414, 0.6450674916267713, 0.32542295063656446, 0.09114612920994776, -0.3355666231340829, -1.323541156613145, -0.14445011445807673, -0.06427966748227638, 0.22936312697985428, 0.5572098309123847, -0.1834592892032767, -0.6661014742604007, 0.7720007220077032, -0.41607415230850303, 0.21961584841633655, 0.29999812000411563, 0.6043634279882643, 0.5095623846677524, -0.5021128646497279, 0.10401732328957063, -0.33046753191811523, -0.06544088992791326, -0.12574730450246766, 0.20479633930577396, -0.018966659261484203], [-0.97587110757147, -0.6096377721865791, 2.7807542340849296, -1.462434140016503, 0.012786986631824312, -0.32710505809966156, 2.3657910538888127, -0.3049533626469048, -2.401179676179595, -0.796607087315019, -1.6474570858107211, 2.387910341029605, 1.9313343004084935, -2.0660425872175914, -1.5538455053678892, -0.4197901696446221, 1.7758702456796176, 1.1272159027190625, -1.278629894148719, -0.7969075134207517, 1.737595819392988, 0.8030803887502872, 1.3349960180799874, 0.03070404914284666, 2.199475910403765, 0.48910438768511005, 0.7355232948014027, 0.31283387235279597, 0.37226916194515397, 0.3049966406470558, -2.115365247103059, -0.9905500957296671, -2.0898788031034035, -0.5790808226569303, 1.4680303745843037, 1.8253333396127125, -0.6154253532386648, -0.15031024053009667, -0.38267220468049107, -1.7307426622444815, 0.9198083728165372, 0.7009817768840879, -0.6782815162353331, -0.7649604917162306, 0.02591813399548707, 0.42696068718620483, 0.41194238332862815, 0.014664214163287335, 0.2987116761838858, 0.008345895687382218, -0.441854811020554, -0.21226116456578134, -0.6844557427774408, 0.0710003881118529, -0.030824697617397732, -0.31980011819327764, -0.19957299960225908, 0.33778084629322197, 0.4481923418067812, -0.3870512828481336, -0.33864450539092167, 0.036413549970268494, 0.08513059333214792, -0.01578695673342499, -0.08777442690682231, -0.020130086789089275], [0.42544088785276496, 0.08351840919800614, -1.8363074793537395, -0.3206533246450227, -0.015460500627554082, 0.1690145832983168, 0.749561134837731, 1.2900827901944287, -0.48294780884558597, -0.00574058213446432, 1.5152321770325587, 1.882519087025921, 0.2772546177562352, -0.08917520477261348, -2.1989628871855285, 0.29475439394532155, -1.9713276449146981, 0.37475575315841714, -1.461809700837832, 0.2279496942968085, 0.6589482948094377, 0.01662533167837749, -0.5151472129498093, -0.09262146304006778, 1.9673566545046557, 0.14864605112279614, 0.06507380724930492, 0.22082726094090996, 1.0236515493168523, 0.3845322145781106, -0.24452189491895468, -0.6115627214258558, -0.6764195819445533, 0.08112184771910562, -0.31013411886305675, -0.3206951237716929, 0.781858613760828, -0.1085078104192402, -0.3380494022128851, 0.35266009965745376, -0.2163003403582905, 0.24512488392264334, 0.33364609840159437, 0.4395343339715325, -0.03581253988918839, -0.09908688934574407, 0.9813588774797768, -1.529102566986128, 0.5889640001948054, -1.5698831485194453, 0.36889937883873586, 0.015121237532497368, -0.05822799821039938, -0.222115872369271, -0.23749135775827573, 0.5691614233803858, 0.12689076305189048, 0.7403705566758265, -0.6003576371785345, -0.00496759281702991, -0.354692784960591, -0.016934671191326398, -0.0690464773828137, 0.13124127403011912, -0.11930930144219275, -0.018647341705200077], [-0.4683703792226594, -0.3953589744841965, 1.36734994662445, 0.09614606558133286, -0.0011741474894003928, -0.07653494678691844, -2.275404035819421, 2.4518268388174724, -1.7847113106949322, 0.10743471998501182, -0.28025893801814644, -0.8412678869248046, -0.48245729175635027, 1.5935398337066462, 0.5664014517200315, -0.17229113625054127, -1.1604781722408617, -0.02692175294739101, -0.6306215264583238, 0.18169652748282822, -0.9576449625424602, -0.4871674447259525, 2.0988935300156957, 0.5500523048487136, 0.899309862686708, 0.13111801214297897, -0.09468854468242327, 0.6812351454307786, 1.0524137021565316, -0.2718020481581602, -0.4333386316387005, -0.0672748001995238, 0.9015421331594218, -0.178346285361233, 2.5631098159845727, -1.6103737172365886, 0.2670610007972773, 0.1515505826317098, 0.12167896235941796, -0.3545964147725726, 0.07969558772677736, 0.0709719875900448, -0.7014621253401084, -0.42317089991645257, -0.5503245390626905, 0.050073587962687724, -1.1655357407383515, -1.0025242052020622, -0.098975239954705, -0.7751778145049322, -0.06186132575202447, 0.069463935489686, 1.3637703586521341, -0.633821769702607, 0.27103394988813045, 0.15586629551420977, -0.13602614207243932, -0.2149287339123399, -0.15385775496616044, 1.4563231759733055, 0.010187265483591062, 0.0718437102990939, -0.0589631022942649, -0.011861910048029655, -0.012500166023314732, -0.013120957370605351], [-0.6840625978365262, 0.6496903421772189, -0.9008283727046752, -0.7768954531784306, -0.007275048413309927, 0.9185067269377327, 1.5279993771546336, 3.7310271125669483, 0.03302578008582319, -1.7065789544136647, 0.6834515356791798, 4.128908287525301, -2.1745010841531585, -0.1697782308476502, -0.691032662804725, 0.686729476701042, -0.5992570604385359, 0.30596679481175093, -0.3797814079366739, -0.2827999941421532, 0.752173907619989, 0.19997790774096819, 1.181781797265747, -0.9585035644834194, 0.9307744292051385, -0.6363528618837052, -0.2313756518325966, -1.0832405880595821, 0.48297532387565495, 0.7589133536773105, -1.4582815940263958, -1.484834939943721, -1.8705173629162337, 0.6992168325908724, -0.8140378236654262, -0.5813903694768697, 1.1718273102885222, -0.6238309466840605, 0.12829467773250333, -0.4158099205837242, -0.6710990481984775, -0.0213879625057558, 0.7903101014744466, 0.2981337586010142, 0.44071576965084164, -0.8250921512355627, 0.07365098990739376, -1.5953840377971564, 0.10146797890341287, -1.426816337039263, 0.3933302776192136, -0.4684272118079445, 0.4282129031650149, 1.0237479525525228, -0.9306287124337052, 0.9368247480219274, 0.4434510244141321, 0.7588670639877017, 0.5831426885093142, -0.7049757247080428, -0.24963669010884684, -0.4194569392500266, -0.05618278637648366, -0.0673333010036564, 0.2789142431559854, -0.007548539298191021], [0.038576842962413135, 0.11743147961388956, 1.2368559091057914, -0.7344654880523442, 0.01953720988193636, 3.963017952849848e-05, -0.3359685678544621, 0.18244076245745716, -0.18927146154087, 0.055787641153413, 0.7969051298859654, -0.5836094683518279, -0.14027431229083237, -0.685229764246913, 0.537714603959943, 0.18983283817442895, 0.15919705921636385, -0.05150836332067754, 0.24041241175567432, 0.05404956112417676, -0.8813709795032362, 0.023563486162239963, -0.13914719423259522, 0.08068293272581996, 0.8746602594344036, 0.0718831434091915, 0.05047244345294785, 0.0051070079158505, -0.24522203491261446, 0.029307245522097007, 0.025988589265502675, 0.004797620617919784, -1.125179889476831, 0.0022524540187958977, -0.514721356752222, -0.36489778533565664, -0.17062974549814108, 0.10620904414939246, 0.1889894961174697, -0.18814132106732961, 0.01796510127886797, -0.010038320041222031, -0.024480775348443184, -0.09000943067464917, -0.10548786128435876, -0.006308392944326831, 0.11743067747087557, 0.6271314462313929, -0.026682853006684833, 0.15652322325029885, -0.00669840696409973, 0.004885314628733205, 0.13941046901285897, 0.04968817526268252, -0.024984028894865822, -0.035673250998299454, 0.01722517402397665, -0.11917917391498095, 0.08487394755923383, -0.01986618646779854, 0.15277482591085545, 0.02664215507919861, 0.050408495985630714, 0.02323302022050511, -0.021280891885511913, 0.007572421589271656], [0.1411923244264716, -0.9164723523149837, -1.451809267582017, -1.0553326201760362, -0.009134367113238125, -1.1169045339587906, 0.6133332542478062, -0.0964801230497744, 0.372540749027474, 1.529998654655382, 0.9342870890996795, -0.06537818748190838, -0.5954236004043664, -0.18721601693672255, -1.0806003718441126, 0.07068767838623839, 1.334666714342804, -0.002430522606154982, 1.6534345144916365, -0.5793455729744645, 2.7409971938753417, -0.07571953823585588, 0.5748285660283946, -0.2279230865408394, 1.1759196301889574, -0.5584224000875512, 0.0732339132847487, 0.2987103447891384, 1.2027680307240787, -0.22387441155291896, 0.02543986405251865, -1.4711252589295254, 0.17839764194403568, 0.2620494741830513, 0.3435291217972238, -0.6642956623532571, -0.1670524278152976, -1.0508354692536372, 0.18090239510686468, -1.441937995509967, -0.6717511889205008, 0.5535175453382232, 0.9383638755911474, 0.5878786826287739, 0.23674574205867965, 0.32155711218002353, -0.012054176974084901, -1.3375321104018094, 0.058506174612769336, -0.7571847804636187, 0.17451435151188477, -0.17576365993767992, 0.2727478955929063, 0.8586364753607, -0.4734741577946445, -0.09396469050360791, 0.21256712984965967, 0.23974246840941382, -0.3666011455262297, -0.47742151465882865, -0.22960306496789243, -0.3041160277741697, -0.11162792121369605, 0.13543603474774987, -0.07902314320834912, -0.007054104642285095], [-0.8096237513439002, 0.609935033730701, -2.9188928716951463, 1.3728738037548542, -0.016153889780793965, -0.21670986490685087, -1.1436403407947795, 1.1119205435598012, 1.3181435814450726, -0.32512045472991413, -1.2730043089311291, 0.02122256892738485, -0.223318649282887, -2.5476840864376737, 0.46701866816373905, 0.31188282092745084, -1.597192988317246, -0.23109115774609412, 0.010078039713937276, 0.5559868047087195, 1.229108445310259, 0.8129223321217972, -1.6596948962062634, 0.6239079713258446, 1.87843019941739, -0.6125748851536927, -0.8021037259831847, 0.13044611565314515, 0.7002906659997324, -0.9101082768549361, -0.11359177696233429, 1.1969213488348338, 0.8333401502375346, 0.9028095730383026, 0.4463044905426128, 0.47482238174048613, 0.5804901451134938, 0.668996856155191, 0.1954047430610263, 0.9514193722903901, -0.43159129382662015, -0.37426059916704923, -0.05194866572497244, 0.1404012470175613, -0.26550354954350175, 0.37604463368239854, 0.8431894198404389, 0.989377384884849, -0.09764910780682841, 0.7826989685563125, -0.379055502438435, -0.48001690051584356, 0.16996965193874783, -0.6358650753762491, 0.5550100426433908, -0.8848804030643889, -0.3536082117748751, -0.4325189040362817, -0.5253794364769777, 0.4361333503157104, -0.120169537261602, 0.22509168236237045, -0.31323414772223984, -0.30540293333218665, -0.09098108677767565, -0.02568533702631664], [-1.224758880271827, 1.0627757039190247, -2.1760234000759606, 0.3330286628275701, 0.017680867387135007, 0.6218820791501976, 0.2266816447753165, 0.3211142756215716, 2.796548333586535, 0.8438879945942026, -1.28244991557832, -2.3740081573639102, 1.2622605720013618, -1.5784622257247691, 0.39139498110715204, 1.0303460643837203, 0.7997596896931346, 0.07482573509057808, -0.311606063952367, -0.009606710950545239, 0.3710770549170178, 0.03327418644701667, 0.7079901898890458, 0.26010870800950814, -0.46176111321260704, -0.008739698684975745, -1.0815866162435366, 0.6121679890281941, 1.0537860546899314, -1.3598057362540774, -1.0524287319076628, 0.9242295569770502, 0.9362190554145782, -0.06208471504492731, 0.9276448140990813, 1.8579368173455009, 0.1279914693451097, 0.5458641809252065, 0.7694773620998572, 1.3895543921590388, 0.25090874962738724, 0.16343528000322222, 0.4587822483906766, 1.1420389807652145, 0.33629130992401174, 0.6036873533536973, 0.5780179710898575, -2.6303462788268543, -0.5667828641802249, -2.069381935228779, -0.49389229782623545, -0.17789340413758073, -0.42679200605913853, -0.9127996525724882, 0.2833132912227521, -1.1478392027185538, -0.5863223843491119, -1.3148469082316159, -0.08183056032298293, 1.0712138311555015, -0.33484301512196746, -0.07806404261537549, 0.08984300534236761, -0.2363212166618759, -0.21217998092881127, 0.012375934936183648], [0.2551865228945078, 0.6882577963139931, 0.6813636210948197, 1.978010916067373, 0.01286835168447526, -0.3737642025859051, -2.1643708752565227, 1.2527120796808493, -1.477009749592847, -0.5081511800648784, -1.4424784445249932, 0.4962142891839131, -0.5857217767625663, 0.6377534912968478, -0.2604652304584129, -0.8490951364157334, 0.7654147414135681, -0.6007798411853006, 0.6532690869163239, -0.2180477966452747, -0.9183485256358145, -0.10426522470618306, -1.3277499964969255, 0.1064004354496317, 0.07959972012278772, -0.2770981572301589, 0.058086203499746636, -0.15663983746216056, -0.21743903364746173, -0.5197782310736453, 0.10269420246839, 0.15034588639088672, 0.015430206980638742, -0.3060862515136283, 0.8420615814076629, 2.0942780302637773, -1.7167272728166503, 0.45020123463764294, -0.4945403086595529, 0.9639178299773793, 0.41960584951491153, -0.031165251573404676, 0.305277245406687, -0.1924711369842074, -0.4009503608635901, -0.16353696788178787, -0.2777214321593707, 0.7986690702305882, -0.1721155434092015, 0.7542258671505215, -0.2082637813716363, -0.011236867042684305, 0.003728967132739945, -0.0064370616602117976, 0.12621660858400924, -0.2052509084406523, 0.0012032055942509505, -0.1838275160230399, 0.14316627914728286, 0.1755916830973767, 0.15266505795248686, 0.08254047016776281, -0.10132184178803663, 0.04058571891787267, 0.03134916869633489, -0.020186202290260007], [-0.5427340193746636, 0.11428517347620014, -1.3603445464430004, 0.786342035717309, 0.010785194903687458, 0.27886408062306994, -0.9516192424112473, -0.4576373607486903, -1.2794313301807307, 0.7177531845192642, -0.9224630783986262, -1.2159254858221191, -0.7344432906848286, 0.8906847236554639, -0.42619497567987485, 0.5118026760734755, 1.6848010146473371, 0.34236002820926903, -2.7954035470800296, -0.004818847146180266, -0.3795016913817401, 0.48824676738572065, -1.0623267389655342, 0.4003315751554503, 1.5725656729419348, -0.0890693259331298, 0.060414073865902564, 0.11225325187783561, 2.5500205083061394, -0.7571847156759688, 0.7442446110942769, 0.9010815993382977, 2.3585522063389863, -1.3488178124171644, 0.9843493522111931, -1.412663240336404, -0.4026308128400804, 0.33753171588248065, 0.0690094445422573, 1.914425165181596, 0.6733532405923381, 0.18654265234928552, -0.2605431899364397, 0.16464848370243818, -0.3851616904386767, 0.6414160495374388, 0.5737138631808995, -0.046724820300342335, -0.07727734151171141, -0.08828563808469493, -0.5144162621669182, -0.07741439300527081, 0.20444426621068543, -0.2896106498847548, 0.0030847050507024185, -0.5274255190075454, -0.11728033347179401, -0.6695939447370137, -0.23870697728102977, 0.20236833251479083, -0.020638518479059002, -0.19525840360067598, -0.4324518049539306, -0.3000245931543355, -0.12549772881120438, 0.0018521336250481326], [0.21192478996464878, 1.0262091109829694, 0.1983221633668523, -0.23788296122266195, -0.008375800495238263, 0.10008783131793612, -1.8781239269098682, 0.802342493975193, -0.5560529060601354, 0.03513462244451775, 1.404888844275018, -0.009418465936088805, -1.8562563509136356, 0.014084746501530255, 0.5035841124090874, -0.58708785158421, 2.5929606756610393, -0.6122978980844018, -1.8873210269983354, -0.07657816492434831, 2.037916028968616, 0.5427815918861626, -2.482830901778434, -0.7928807905442835, 1.9467711405247983, 0.04744952913907772, 0.30150638182794204, -1.2968185993539263, 0.0977429672878842, -0.7294418984891963, 0.7408909157800883, 1.6537247948669433, -0.27995799584874903, -0.41286920174460684, 0.16625157762009193, -0.5689134616383689, 0.15431707943610154, 0.5240963622661787, -0.6891661704531906, 0.7238890173994406, -0.07261313234757692, -0.9038878966866496, 0.10786057658709204, -1.056833261242275, -0.6226972078325366, -0.09549095409129178, -1.5904603774611838, 1.1609686577652618, 0.4804010131445859, 0.9326070412136712, 0.14460343745819237, 0.23622630537982195, 0.022138893018684862, 0.961327275872015, -0.1964895427352079, 0.5251839723456351, 0.03533528235580422, 0.31526110791855166, 0.061171091473269365, -0.28728872635752484, 0.03651412303217204, -0.05599894395291862, -0.2607248083675734, -0.4999533009108475, 0.35979806720380986, -0.029185653756465122], [-1.3685196569981752, -0.4740576236799886, 1.0415781972783857, 2.002230576713262, 0.031147195677314648, 0.14220913658594228, 1.7044641051960236, -0.9181152305658061, 0.017511961672332602, 0.6998828420862654, -2.1742711799127274, 0.7442532887257082, 1.3918061754660902, -0.34578870310052706, 0.661947833248333, 0.038626375019888665, -0.10467471663374947, 0.5891344419544329, 0.7951980605850126, 0.5308464909039314, 0.6766801274409321, 0.21035490755170752, 0.43061924574465477, 0.33177739713762594, 2.215102427552178, 0.5802481529687565, 0.1450063775297604, 0.5842191327353056, 1.557393471189049, -0.4606554747984153, -1.1964709815983223, -0.6719970711338628, 0.49940379151882885, -0.7898664278770512, 0.012228473831290606, -3.4878828658230567, 0.7969452127504831, -0.009595815771028094, 0.08163339526818154, 0.009878501824899237, -0.26035309096807174, 0.22980301297477482, -0.9786109552359055, 0.755788476198741, 1.133995222201397, 0.4195128121756338, 0.40823914941136336, -1.7140119480132485, -0.08392718712090701, -1.8937381891115133, -0.24763557110820122, 0.09148293297626306, -0.03653584875665122, -0.9503097849882678, 0.06085548158002519, -0.6630457328445328, -0.11544976427277841, -0.5577314002221772, -0.09366441981026134, 0.3349240942651585, -0.42544780544627786, -0.015442932635688614, -0.1512314640078082, 0.07926383599884806, -0.31497635489707565, 0.00969061117197194], [0.46034824155295406, 0.3856996092938875, -1.9803578129060155, -0.9647406346347183, 0.03223602392231538, 0.046822570324399036, -0.16442636131920063, -0.5253042677915873, 0.7870690641241868, 0.7235107442854887, 0.5214049309801255, 0.36576689417534164, 0.9216394640509298, -0.014497181185504564, 0.6151392664121248, 0.5267841903772543, -0.4106275643840889, 0.1805093885223692, 2.611686329486642, 0.2332832182453928, -0.6738884722211376, 0.27892309455947134, 1.1320516153786226, 0.576335203973063, -0.34511648810705015, -0.6466740693737895, -0.579962531728554, 0.3779300600293314, 0.6014616560984694, 0.04744761565111527, -0.3040522488336126, -1.470101228186871, -0.38730913584893106, -0.06470325484302646, -0.5634333977171342, -1.3994191624497778, 1.4200499537411944, 0.1637151230866864, 0.15427241417258056, -0.3312136135538501, -0.5961545444083223, 0.27794168441858624, -0.03738879834963386, 0.3396011511911105, 0.37264076691882125, 0.010333858050005933, 0.027964237560072765, -0.5806037361050274, -0.26943841609901564, -0.42734803515786596, -0.19276783500981545, 0.015858908974768177, -0.020135050461348288, 0.25001295771029836, -0.25814958124498094, 0.15951700891531329, -0.05492067527487453, -0.16141125765748723, -0.055311688202564456, 0.022621768645490682, -0.06813897186161949, 0.1033171304645347, -0.049292817257991436, 0.10943692393427887, -0.1480397025872666, -0.009453741447514345], [-0.829611475801448, -0.3610227339874169, 1.5854065964373176, 1.4597345964320614, -0.013277877942542999, -0.31651087178560383, -1.0083792523467814, -0.3447386715603168, 1.0520990488047857, -0.6398041495498292, 0.04237512639760365, 1.0602927596184977, 1.7817861311084013, -1.3679740717046938, -0.7939768367542618, -0.7525872991117437, -0.9574335756672505, 0.49561173387056057, -0.006660602242515605, 1.213760933867157, 3.4232111279354664, 1.0668438549029184, -1.5322773001635144, -0.2759905940078267, -0.9076306713663181, 0.08109022642956312, 0.2457061523787491, -0.27703361741349813, -2.240122590049724, -0.3857960793758158, 0.41666156085922756, -0.2296016331655475, -1.2634472774123848, -0.03347085635518882, -0.4334766260744955, -0.17397857064066616, 1.6015645164375785, -0.11794755875589207, -0.6453315564382571, -0.5056967509620783, -0.5228761686130471, 0.37911494589401085, -0.3667123201211909, -0.23590864493712024, -0.3893568235456421, 0.43272309372274087, 0.6818134506225214, 0.6757196292533476, 0.0090843614374812, 0.5202782148625321, 0.7590249268313336, -0.15683224106245827, -0.9869980632718548, -0.5659394555733898, 0.08767281400915801, -0.07827733939820018, 0.16045634892643093, 0.02542973720161152, -0.5245690621136355, 0.2748418151938396, -0.04276168920736847, 0.020170564947786192, -0.0887397402337665, 0.062055493213157245, -0.10064462510486173, 0.02623027610233307], [0.14644866878773447, 0.2724684387221356, -1.9303218267594027, 0.7678046928840352, -0.034298391659607734, -0.5262023650779245, -0.7327337331237254, 3.5446388751596585, 1.943727189387991, -0.4376894969335488, 0.2854781875069993, -3.7642500488999437, -1.7539572467596398, 2.5757453113246562, 0.49349873512871767, -0.24840536686422265, 2.3835886786648914, -1.0987326733710223, -0.13801831889271585, -0.4686208791874935, -0.518753928934403, -0.6181577638322806, -1.2715401952727758, -0.42210543215708746, 2.5407653133480834, -0.5617656390519912, -0.508279488206697, -0.5201734501335122, 2.2814151978058446, -0.7882949295282026, 2.1817891330472308, 0.7042483502318089, 2.2528843318659506, -1.0691531847411258, 0.039510677892314536, 0.9500154693280389, 0.43503317089128024, -0.7872123037166611, -0.20541950112324692, 0.9194331003045296, 0.14562230577831123, -0.067551346170628, 0.47498057734021326, 1.906110863420951, 1.6812876636995364, 0.3668196597023083, -1.2737955307071895, -2.4888155669537406, -0.13122651073533312, -2.345271529650723, -1.388443951928177, 0.22618004092514404, 1.1062715105680003, -0.2439663758859219, -0.31840153635475127, 0.04550511677470122, -0.16157940637164725, -1.345233947732654, -1.3977665924870069, -0.5017116983622769, -0.1550461697814435, -0.2516395286356613, -0.35453885927997575, -0.20839329338960894, 0.12423324700026141, -0.025893592303069257], [-0.04296310225990084, -0.5261498462172096, -0.7845394207661935, 1.0199661650487464, -0.029305913098967056, -1.4768146936030937, -0.49369164252685244, 0.5396913535323575, 1.0285660522710043, -0.5750666328627198, 1.536937841861382, 1.3224269986081205, -0.5714867662535713, -1.6191324014394572, -1.082979516328163, -1.8160650530595772, 0.3509915731943041, -0.6661933024055767, -0.26127557881435926, 0.171301040914608, -0.05053588599138296, -0.6975712826193571, -0.7324712804235876, -0.1383413695078418, -1.4641115767276391, -0.015423543243149469, -0.2805534825163535, 0.09897915473958484, -1.016731488149596, 0.36416627114870737, 0.6276287307541746, 0.7422462459370339, 1.2815617439747362, 0.6706873582831576, 0.875865761134905, 1.2118628085187677, -0.9548129315611341, -0.26329987070659827, 0.2061433615104553, -0.4049113233061882, 0.3772804405320949, -0.36582163749643914, 0.02288291105389134, -0.011869931117718984, 0.26548874422337093, -0.6517294862672229, -0.09092556023256576, 1.2120392328991716, -0.07054394827142771, 0.7177767854504195, 0.026642478012732354, 0.13118372151169969, 0.5070148207718917, -0.06860003999513778, 0.26706023912694593, 0.08954770913800462, -0.018705955704129168, 0.27056373383260235, -0.13901567865229625, 0.09211752071455125, 0.09930416443988062, 0.20991379600582896, 0.04214392318169475, 0.17351504515036134, -0.03581001697765057, 0.012358947629568117], [-0.9299400881433384, 0.39234629866594606, -1.5668024995780916, 1.713246110006724, -0.0417208482193718, 0.03332491707827534, 1.2672424606207127, -3.2177395999773717, 0.561198740605135, -0.24886546596375014, -0.3870629816437927, -1.2988979340524938, 2.435191048163963, -0.577129413325444, 0.06030918125921075, -0.5926762290773725, 0.9229643629847695, -0.0004135528912995477, 2.6288643913548584, 0.7583716465216889, -0.5685494599743635, 0.9196179843982728, 0.19496933016555185, 0.44464702038525605, 2.4673772203867834, -0.09171193950008122, 0.29649612952893445, 0.6113756328585168, 1.7767123619916805, -0.978971492144801, 0.23821182395628646, -0.7259057463796322, -0.7005601662436517, -0.7342693317637732, -0.2760874803960547, 1.3989535695414, 0.6778619304551737, 0.4974950306895679, -0.5672372967324587, 2.230140872261792, -0.7256306622960089, 0.3759582531282682, -0.22535296982569303, 1.4847134549516694, -0.2007789036311791, 0.8892152808118072, 0.7332404166405827, -1.0383468051840052, -0.8048125844255672, -1.3544208294786846, -0.9869777586507932, -0.178248837758258, -1.5857800578926893, -1.1346888260187589, 0.18256568995020261, -1.094977594578351, -0.15798077575079042, -1.344819482651922, -1.1928602252229799, 0.5866431970869063, -0.22588023295564577, -0.22997910243908457, -0.12051484217248935, -0.1906685832934496, -0.3716260332014654, -0.0025265651433907816], [-0.12751086639604992, 0.5021522128220537, 0.5565145171798197, -1.0154251067250686, -0.004857183911347332, 0.46780641246546695, -0.7784787676244557, -1.6243574762514705, 0.1693544039783192, -0.40113111882336905, 0.028232493388153354, -0.23930534956968896, -0.8193478306029498, 1.0557860530366425, -0.1578847636070308, -0.07521146803494848, 2.679506124637872, -0.0045076252484528845, 0.9358090585271308, 0.35330732387751695, -1.0204453931347426, 0.11077693530983834, -1.75424969531125, 0.6262742760264748, -1.511851883395087, 0.4156695086345467, 0.40172897842864563, -0.12989123752452222, -1.2105109748165057, -0.20579476204959793, -0.14802468050919187, 0.6579157536917676, -2.093240276538424, -0.10276034418916681, 1.0440155815657832, 0.6995518063936991, -1.4038347323997804, 0.2841445487599121, 0.15252981815361583, 1.8889946098818249, -0.1309480812041735, -0.4216994659825323, -0.36596504279988973, -0.44181197423095153, 0.4283572997722305, -0.234045790784607, -0.05602547796168297, 1.389663511390815, -0.2036834350386287, 1.1093227659619433, -0.07011351844606938, 0.050650302519363255, -0.09221336897495445, -0.13400854307941545, -0.07208600943908167, -0.45199006845675466, 0.06933129127406996, -0.005206204319899187, 0.4830918386800005, 0.23905047293678466, 0.15376322437552126, 0.05705267233889916, -0.04421344379250441, -0.09148103915044231, -0.020177869408705362, 0.01380659591017241], [0.3913998930230069, -0.49055985486071724, 1.2963522247219452, 1.6563262674695576, 0.01513534060437098, -0.10313912938082515, -0.35085485310542175, -1.2296395846250636, -0.8380275457171806, -0.8556441850146006, 0.2906295999969518, -0.10389872128503401, -0.4782761625017286, 1.046902986083076, -0.12589505818799487, -0.35767584752222337, -4.60217417599019, 0.051216509388033335, 0.701526614945937, 0.374087026583044, -0.8349319008021465, -0.7095665479842286, 2.5990744552029534, 0.36179524642062244, -1.7886255254271943, 0.29093089424429397, 0.05164976789818126, 0.7637188676627501, -0.7794373907422745, 0.08060703482311808, -0.34879296588741837, -0.3328524572270214, -0.9252835253290094, 0.8581780047705637, 0.24172218535296947, -0.3504522919456706, -0.15252034109211707, 0.1847760686075755, 0.43451454709113313, -0.38071402387593556, 0.7036660148789048, -0.16064328551349383, -0.01924930078583375, -0.6937209216163219, 0.3415632796295964, -0.5776194653288907, 0.08572763244547217, 1.0945207172004017, -0.4074144211905481, 0.7064560537547105, 0.29508809803619607, 0.14477260452538646, -0.44342706442034363, -0.1376404495180526, 0.323167754478594, 0.005789184667736554, -0.1715251111807308, 0.3931926610579612, 0.42635418655445745, 0.5220621015691108, 0.17841397200414383, 0.25646149662267426, 0.3160810379100559, 0.11690941354133721, -0.04083729825980012, -0.006439067601577385], [0.3309250080912139, -0.25670766890111635, 3.5224621961774205, -0.7208413187749829, 0.027244954725603003, -0.19302867036817692, 0.6404881730418363, -0.8466679994370375, -1.8919879863059774, -0.3096544897261357, 1.7062508321916001, 0.5049539387247228, -0.12392612484211937, 0.02660661779279933, -1.6516752118618785, -0.9543981432675642, 1.2189867625344801, 0.7327356365640205, 1.2954206582774994, -0.4479318053143525, 2.104364755497857, 0.5113876058228156, -1.0948357987685613, -0.052740010360804876, -1.827690945084872, -0.2277696947527402, 0.0953904897859622, -0.8841717791838182, -0.9992133246336057, 0.23070134784766821, -2.0058310241305377, 0.6021624714074483, -1.1162649240992326, 0.6916124611230899, -2.1042722299109267, 2.3308791044940977, -0.3889881300473192, 0.054156610427002795, -1.1815290955486195, 1.5105142904025792, 1.110105552244423, 0.4998404148295587, 1.0292506871609377, -0.3106964217432678, -0.3239059922860026, -0.26964633349941947, -1.444323755433252, -0.7914133853577577, 0.3880707928885715, -0.3615770058837163, 0.5325844685129243, -0.24700306114704781, -0.2582271900615729, 0.37035954729665777, -0.27353703802244417, 1.2419298451990073, 0.0759375063594325, 0.25083039778125005, -0.18899848606122066, -0.2553154935239336, -0.2573509973919614, 0.0678494638785524, -0.14545460696400297, 0.22668391102604038, 0.16701100419776924, -0.014962976380007396], [0.9834030409701702, 0.10331984936574996, 2.80862480431085, -0.3838145431717466, 0.016511503381770744, 0.10793529845388997, -0.6386060670609094, 1.2147987021822988, -0.8723149679540179, -0.49599174450120875, 2.3589076278429997, 1.939096822574795, -2.9742921304769054, -0.635613684532447, -1.0214862439334778, -0.06608367842173685, -0.6007196448446496, -0.09459522395706133, 1.2054845694877385, -1.159890243212953, -1.1948907156117394, -0.051746619514219404, 1.7651286480143002, -0.35399147867088876, -1.7338160671387495, -0.5113161974043516, -0.5534570865320458, -0.5367188077774484, -1.6983038397870314, 0.7214071148118817, -1.1184656359956056, -0.6238034832982488, 0.20295963963638575, 0.8700355034197078, -1.2545475861408268, 0.3638795273980474, -0.8284294753056578, -0.12891137252252377, -0.16643579308596898, 0.08630501854105149, 0.42661019424921526, -0.000629532113607358, 0.7713104944793883, -0.37205769178389414, -0.4121195474196956, -0.6079315858935392, -0.04800697151041123, 0.7741458276846792, 0.20165049878620062, 0.6738110059854174, 0.5359686082981852, -0.27536432930899735, -0.3652419465538775, 0.7458653297451275, -0.27277685752410163, 0.9768854529940564, 0.34662756350390456, 0.835077345785904, 0.15746523625575076, -0.3551853488542377, 0.15111221184103976, 0.07714066230402895, -0.17846890773230797, 0.26634942771946224, 0.22274815226926664, 0.011366267225904437], [1.4414040591089279, -0.21108258062412408, 0.8370582090804275, -0.01717596404359634, -0.008882540097242373, 0.04540953159095944, 0.18432442415876837, 4.019924447872976, -0.2611027074404185, -0.557854586835776, -0.5933626259605097, 0.5389588059447792, -1.7005530778293552, -0.9011768773860794, -0.9717409650268558, 0.21579843066247192, -1.1844009694868858, -0.5027382457680467, -1.143314854069882, -0.4954834225100721, -2.3137517935725316, -0.7804664018074678, 2.807403373273738, -0.1117683409865526, 2.019454123412188, -0.4686123850420992, -0.5093907436334312, 0.3743649653568042, -1.2871890639593342, 0.6554653605112196, -0.39487883918901734, -1.2767695383026032, 1.4033428348409709, 1.6259997841692853, -0.539295950368404, -3.23560971932516, -1.1337717426202394, -0.33879577027932994, 0.26720240662228445, -0.08808010037080792, 0.1040595854154973, -0.26922512886695227, 0.4295911335014028, 0.1628015479267808, 0.44922169226957476, -0.6168720889879605, -0.43798506824081007, 0.560456380595935, -0.3044898472983119, 0.31547096943022934, 0.3723638326343556, 0.0037406011462723793, 0.5671546737770866, 0.22270516692309358, -0.13675025031573004, 0.25003858490328174, 0.15058906885270107, 0.5263652636150687, 0.6417613635538002, 0.08401174013628446, -0.01522758803466668, 0.355054080344179, -0.06363641013817019, 0.5944381503611983, -0.021478417313268848, 0.013956146321100066], [0.1261951881959119, 0.3815259660192018, -2.8700100538154487, 0.9297001681623108, -0.004657096542817591, 0.06113515937078363, 1.1558813702569355, -1.6426073454168573, 1.399391260792801, 0.5326624595481344, -2.5029537122081393, -2.7772696585462984, 2.3086983679947024, 0.49934004668682264, 1.1166539294262547, 1.311873196957901, 0.10144755195435111, 0.3660335819886234, -0.31626047078628355, 0.786170125363624, -2.6240413033138927, 0.5439673101694341, 0.836203993223243, 0.7104331349057068, 0.2455759525136297, 1.0295099001905372, 0.28046922603899965, 0.7749206767550174, 2.4460364306612106, -0.8638244213279219, 0.6833455002772764, 0.29033366948437056, -1.546578997182163, -0.24584042518883098, -0.8279116995750346, 1.548505198973254, 1.2981045378090528, -0.051223206997477955, 0.8674578069325642, -0.7228742250638861, -1.404745667698504, 0.2871758675193913, -0.9100833402247701, 0.6445410161563443, 0.8849116865852881, 0.4285437652144294, 0.7861453433662898, 0.34235147963094764, -0.8280905924093107, 0.1923424083747362, -1.0621019745448022, 0.3246661530798129, -1.017812315327519, -0.21270328104174044, 0.22522236896222697, -2.0486533710047405, -0.28790181947161314, -1.6760621182803563, 0.7687699882822372, 0.5919630053868968, 0.2912042329026801, -0.13493360528971338, 0.46639438975597064, -0.29837419036277957, -0.4336930239468002, -0.036314076218317], [0.6022179226021807, 0.43884293246206024, -1.55273006008732, -1.4315643174390744, 0.03494692681231121, -0.4720213130858868, -2.4510832816151416, 2.4085895501377266, -0.015435944348960007, 1.055638642252406, 0.2739694874707335, -1.545520332498647, -0.4003934406468328, -0.09338708232448296, 0.5215391686823616, 0.08336611673959071, -0.37933458763108985, -0.6607185098369925, 2.1675153248678116, 0.20280165424002905, 1.839365114059554, -0.10666352807018827, -0.8817392192742163, -0.6496889860869063, -0.5463149403950885, -0.41228892102006054, -0.07362870058227611, -0.4303376552624094, 0.6264778925108172, 0.4236122849955286, 0.2978831365309799, 0.5627767383105154, -1.461553628249732, 0.733197617375068, 0.16548263354784454, 1.34623508955117, -0.7750532851932148, 0.057974870875122646, -0.33760793566922015, -0.7877943682914973, -0.3323671608150378, -0.38388991644464554, 1.0476976065940062, -0.34305773682220875, 0.43262865238715154, 0.12169379175568228, -0.6384855589417067, 0.5982174169238366, -0.07782471982073516, 0.3712308351744764, -0.17339131701355556, -0.12490900990993117, 0.00605651103956629, -0.28520689653410386, -0.2456014405145161, 0.11015097291564463, 0.12185285788320876, -0.21193505886798983, -0.0011030234504529146, 0.00042786357004988724, 0.21460868878879108, -0.13764247634408414, 0.3418331980448252, -0.21843201653718144, 0.16280049348842338, 0.0033981104292919056]], [[0.7180783775257942, -0.2508869972251451, 0.10115246901217916, 0.8690122807021039, -0.024110170888606203, -0.07000563182193653, 0.4378228182499473, 0.5292456123393955, -0.7696394934617737, 0.0764346390182027, 0.9829936581136349, -0.4437418500527435, 0.044818677801881764, -0.2703049400036754, 0.33289548945221953, 0.1812766619328631, 0.6962613995729982, -0.44960876072183315, 0.20424941319975864, -0.04842342339187153, 0.14659617369771566, 0.5243986387070818, 0.004789305518386564, -0.4719664260965001, -0.566467132432948, -0.40537555845907053, -0.005550587409642235, 0.13343946874911622, 0.10107310788419284, -0.1749511615796437, 0.1279341759909344, -0.17390590871165507], [-0.5884825943483317, 0.5207177811814893, 0.5999108856065063, 0.2476171140904339, 0.09232698227675983, -0.8302988755495972, 0.8268360338415952, 0.16583352006206564, -0.6683290056936907, -0.1745815138241999, 0.7809832040318866, -0.33594300621193823, 0.6044445930623593, -0.02053124351987147, -0.2773954654129472, 0.42764046637942865, 0.30652502101350393, -0.3409917140313834, -0.5883347741713817, -0.11890582160159387, 0.23218470823077705, 0.5910361378068193, 0.1029475260551089, 0.2954242522229201, 0.011550293152470081, 0.4002461316288581, -0.010860605170757404, 0.025341528507979084, -0.656140443427579, -0.18502437394341534, -0.32268710882435653, -0.20456458745907732], [0.6638739371355002, -0.26076518013135963, -0.09713510607782107, -0.0034646915468170315, -0.6219892097410115, -0.4389697729118963, -0.09156366896747557, 0.006559719649186079, -0.1939650743751279, 0.08382448955370797, -0.4229001431608087, 0.0397105075088336, -0.19396442050902873, -0.5580544366136273, -1.0570925719156696, 0.06661606541242891, -0.3368006657317308, -0.13821940199513894, 0.35327566756984785, -0.26181482561241154, -0.0615988635799859, -0.957747731695633, 0.6578030991138523, -0.13680561768681263, 0.004072860761316877, 0.04342840948339111, -0.3397888625594705, -0.22953597046953803, 0.159857235308394, 0.043616209033840156, -0.28683186920378584, 0.1725394559807231], [0.567674273466984, -0.25759316021067385, -0.24179307109844264, -0.8528776036223734, -0.11441338060992477, -0.22895211988891254, -0.5284410259990124, -0.1282096467236627, -0.12549875014675227, -0.0143233226086894, 0.32467630711375445, -0.3406211200368694, -0.7351120364385493, -0.4090609244560049, -0.6497011308859496, -0.2874665494692392, 0.053788799470958756, 0.2056170442681254, 0.7624111206522641, -0.10379533810277967, -0.23619618718495433, -0.22113319360397812, 1.0830077659875441, 0.8945100791886411, -0.6590020349654973, -0.3180199116928094, -0.19462876301779455, -0.3637643001374512, -0.1713430423635568, -0.32191712863117883, -0.6442082628729314, -0.5604178135691081], [-0.6717957853491946, 0.060967925048733634, -0.7947479274476982, 0.3085579722276029, -0.7942225351351163, 0.6988237437572097, -0.2401522709925499, -0.20813505180708392, 0.16837038581087133, -0.02706043074174742, -0.31207929735095513, -0.25735304574879075, 0.43831850490289126, 0.43904172062597074, -0.23306063399277438, -0.3595160886753477, -0.1327286479367562, 0.15378939296176222, 0.5520241207604315, 0.07095754931550191, 0.3304403072968416, -0.9236778496307401, 0.9644247726007193, -0.010270282071247595, -0.3777955767472379, -0.0551079299318317, 0.25838841734947915, -0.13956011734767262, 0.15772992625751697, -0.4505294861731249, -0.3933110257037492, 0.3204536462348278], [-0.739671112525095, 0.30616682998383543, -0.0016874467992172627, 0.4086957720691096, -0.10719611236623272, -0.14749641891526014, 0.516058563795643, 0.23815362749654245, -0.5635878853706383, -0.22041435551113644, -0.12558862099637091, -0.31326550277669574, 0.37979700419115725, 0.22603618295632985, -0.5461846720604943, -0.20754996898267053, -0.15194406854729306, -0.9821827833283868, 0.5008345534230686, 0.0756065143707589, -0.3094425491773392, 0.13918184611816098, 0.07590381310608771, -0.5244393086372952, 0.031498591497485545, -0.4822521046178551, 0.14527065052319452, 0.07484188785739859, 0.11199511831910021, -0.21308252266451516, -0.1920224819795365, 0.4155667310079502], [-0.49428083697757264, -0.1388706070397157, -0.24838930724458205, -0.38955156949453495, -0.5842760450076626, -0.6146725385634578, -0.3524728263729481, 0.03725374500682716, 0.258994190896259, -0.2498003432877518, 0.21640131022791884, -0.5847357286945046, -0.22440438663388854, 1.0851625822065714, 0.6279667721517402, -0.48538973114159345, -0.1355230831311111, 0.0880905314124393, -0.2605152601499802, 0.10707673939167704, -0.6336246767242145, -0.1678922245163046, -0.8613491461277808, -0.498095297274556, -0.4910841717629657, 0.13960866169963568, 0.04223918903277409, -0.17587163474427173, 0.4341229039230688, 0.6689621329933311, 0.672487889717083, 0.2598437284571207], [-0.3315145655787992, -0.1073512307265693, -0.5596312506471591, 0.38292879262422946, -0.42656069336904506, -0.9634271442458456, -0.7269293596402029, 0.03739097825455437, 0.3668803875883595, -0.637185102190907, -0.730174650492359, 0.43213692307006324, 0.20915840164427624, -0.4175370282876694, -0.17257620050153208, 0.48261110306873956, -0.02691327935415887, -0.5890111394766561, 0.5170643950805669, -0.41107719427004624, -0.21124227975938104, 0.4216943662974438, -0.4469806986639435, 0.023355710229684256, 0.5161495002697783, -0.43034933826353583, 0.04164688274349852, -0.7844432566700886, 0.5754907728741757, 0.6149624698233284, 0.03535560969382643, -0.19974096684681034], [-0.060156782802131784, 0.3440195908302567, 0.012449811637439958, 0.13647918382845217, -0.2914442645433177, -0.10701705861483712, 0.21995374400068252, -0.5417725486942984, -0.14339170236900656, -0.5116754505641163, 0.6984438598773995, -0.274187119580364, 0.3314641574664837, -0.08844152951943217, 0.8306239684617321, -0.3041291465512483, -0.13872306367344475, -0.3783788131127409, 0.13445624421791483, 0.23072077873069555, -0.5687589704366918, -0.11216422986389149, -0.7055720322667797, -0.1245964657655289, 0.12595802628567307, 0.2392452572704146, 0.15081264014478746, -0.21649895101861058, 0.09405570657867546, 0.301236261325192, 0.3886579326402953, -0.00498722867403217], [-0.9823287904293805, -0.22523791425017722, 1.3216720508449917, -0.10364601118538025, -0.28633915708644664, -0.41491673406231383, -0.23708500693827747, -0.07888351855757446, -0.2993519978988553, -0.23813608029162306, -0.14453310467231203, 0.5969204506883568, 0.27700569513394524, 0.5507690072071743, -0.4607025929226045, -0.2131074923697971, -0.47748807573634583, -0.024713274474111317, 0.03981637369225272, -0.8725462095237352, -0.6859330176181421, 0.7131830274292559, 0.43761472896111736, 0.7270402748484021, -0.40581815867871696, 0.4136949975523949, -0.1654462680594317, 0.24717082500505655, -0.17002590198494527, 0.03993428477947219, -0.17209762863643924, 0.2978188038754498], [-0.030633890394841976, -0.46418559594156494, 0.19251879454994086, -0.13437632964912197, 0.48410996072226953, 0.23993165994462956, -0.14131453233254848, -0.7384176962521452, -0.3218871936168065, -0.10152238081091079, -0.8395887860222521, -0.42999970601918797, -0.2857452810394536, 0.15342896064377734, -0.3397748187803275, 0.39272368755356596, 0.1466550133426185, -0.8764810759007603, 0.8485080671057523, 0.6533460515228705, -1.1193762520826718, 0.08583903155500508, 0.04381563897805626, -0.03883847700907244, 0.16607948591324118, 0.487858729780324, -0.35966207813934165, -0.605180986140352, -0.2985849064063405, 0.18932776724010278, 0.4569006803073398, -0.03886083154254076], [-0.3969579375424549, 0.258632105024241, -0.3441625032370269, 0.25971389217090046, -0.33482171056337395, 0.4399640963891642, -0.2405819828285724, -0.4678511490859617, -0.5502226386521192, 0.09874627606498451, 0.40995530877981795, -0.14488209959835174, 0.022814801929611463, 0.2753332576043787, -0.08485684324398485, -0.2582653169168044, -0.20916161791800805, -0.25574467620801894, 0.22206706234960005, 0.010796942948146305, -0.2927167221105532, 0.4007773671126603, -0.2435959755703775, 0.05332458461572505, -0.9357588424849931, 0.25532745315382877, 0.523944201948882, 0.375397939649743, -0.09260818981169573, 0.14072230811372236, -0.9911770990876179, 0.6303857045913648], [1.0987382269586494, -0.22478127387546742, -0.280334748510454, 0.47207809036287585, 0.023752230161771866, 0.11207505096618187, -0.4075542787634936, -0.7083680638737028, -1.0810294182112516, 0.30088753681309316, 0.4002126248675208, -0.5552939451517536, 0.22502881701162902, -0.0782701996162275, -0.36751727924085126, -0.49886931784166, -0.8714686991528293, -0.15428051098271212, 0.38738397346482195, 0.30913320609895995, -0.05733720966504166, -0.11948227130652851, 0.5318541234773088, -0.012771818909536594, -0.6541274891526738, -0.6057610366179678, 0.26890192940549135, 0.12486399976791418, -0.07131589706048219, 0.5431951938899655, 0.6456171991464494, -0.08054153428535167], [-0.0605679310723641, 0.9189483422223453, -0.726099502943921, -0.7439161274238636, -0.020257249412674323, -0.018051442135835795, -0.5536317708372824, 0.5097369063430811, -0.011609155973794366, 0.10217820911118786, -0.04830448595191843, 0.7937233868144843, 0.4765397341166607, -0.1413224452341419, 0.3082835845171998, 0.08906205144998816, -0.003538422929208568, -0.2512007555325221, -0.6104212178547794, -0.038740632630239386, -0.3105804674454561, -1.100850306416011, 0.5062358546524115, 0.3772218621186463, 0.2910720931628581, -0.36914664203442565, -0.6654875528210752, -0.4893994239411176, 0.664944227809225, 1.0367074207694522, 0.4817283309018882, -0.6632431078635859], [-0.007283309152471122, 0.3235956267510888, 0.29491372644477404, -0.24737989603261437, -0.3171871729431031, -1.0866634172525416, -0.43134224656614545, 0.9632271136768916, -0.6213301621316882, 0.5521962422353227, -0.8017100937296573, 1.7498884134609312, 0.6954603226392805, -0.05448045098080549, -0.6921618277761464, -0.207750475826008, -0.3195337580206308, -0.12812807581921862, -0.05016537495949578, -0.004712140957441902, -0.059651722828094535, 0.06448256756245546, 0.381797961585827, -0.7731677586183885, 0.346594965168189, 0.31311555451191037, -1.3659245248749468, -0.035527356440631944, 0.4635551070061061, -0.7721607918375476, 0.14547398279812432, -0.4681385967797939], [0.3862046889313603, -0.5608577741464177, 0.469260415997479, -0.1085787754535265, -0.3047791423240608, 0.1000111247834645, 0.31412279556384826, -0.7338288220854584, 0.0021259303508019576, -0.5617555306119764, -0.05674018023683617, -0.06625957097438576, -0.027123419526202234, 0.15803807827978147, -0.18963126354805485, 0.44002117438902344, 0.39142137297023283, -0.00023561457588147354, -0.009854610817088098, 0.6861612909625115, -0.11792228357977076, -0.3380031813542676, -0.2655560398966615, -0.7226150095701427, 0.2972148196296037, -0.04476040417119828, -0.26254593633247736, -0.15896100447498618, -0.49481562554936237, 0.1745217420253397, 0.03136109430046682, 0.09402388126159167], [0.12467318957116963, 1.0428643878442434, -0.21299347398449278, -0.380369294141548, -0.550168932336176, 0.27552670876243907, -1.1206959853359704, 0.21841721906869174, -0.4014945383986821, -0.04059274351211341, -0.8282340365808785, 0.10582282256064528, 0.7726677573206095, -0.22586178644948307, -0.7824931135682371, 0.17551078905795114, -0.30889329512727043, 0.2842025131690708, -1.0974764091896618, -0.19588504670338933, -0.12172847814850085, -0.35883314598058963, -0.26935881522705757, 1.0564496445771618, 0.29110119860686823, -0.21337385316660223, -0.4780262855900218, -0.44854168793418164, 0.9871773794159318, 1.049460029459829, 0.17230007033158504, -0.4952537402738974], [-0.08652358043683289, -1.0878843145557548, -0.17320738656002949, 0.3093467494430257, -0.5797605248967843, -0.460149846415199, -0.0561456390860385, 0.40596763679841663, -0.7545347566601819, -0.009839717921259448, -0.6036077343595667, 0.31035932727275284, 0.46115657536883875, 0.3987233276479932, 0.3773295755849815, 0.18158750969466084, -0.09623823887859909, -0.264272690030479, -0.5938321090483479, -0.5281319550542056, -0.5140930615001889, 1.2502476040885737, -0.4829384880546077, 1.087279089439817, -0.667049414788787, 0.6567569351835563, -0.23689848361766844, -0.6258539961193842, -0.26633532841423785, 0.3838155074566677, 0.3912040241041327, -0.5001355822358282], [1.1993573335138399, 0.837978360785408, 0.29741522448970126, 0.5831512387693117, -0.2336490020453383, 0.23206238878990318, 0.10561351560371456, -0.2859482857955016, 1.5973722902423573, 0.4691818563498255, -0.3183406397157165, -0.06880875420267657, -0.3841114531249177, -0.043624105115554576, -0.32834473840382566, 0.4332867960818432, -0.18204121578839172, 0.4513391840351231, 0.17852715490582147, -0.010249168982915705, -0.0010952889945429613, -0.4138981638261472, -0.33783461618860483, -0.46084475824468646, -0.16664426806911228, -0.8899442576246575, -0.024227769904951884, 0.07609920651465585, 0.1696914747513587, 0.724644842278276, -0.9336971913906094, -0.20461197931301076], [-1.1897286917154533, 0.4080502143309377, 0.5878238023690877, 0.22688068112182533, 0.19054731880508985, 0.12584628313834065, 0.03167024449057749, 0.2833002031003154, 0.39183391058628014, -0.4575919044897655, -0.3645538902474618, -0.33233088750024026, 1.299854097787588, -0.13682089334903294, 0.16799413613977973, 0.07836166158812048, -0.4393704746302839, -0.1857458084086004, 0.4108064225724682, -0.07025960502941062, 0.10483432124043696, 0.052152192415888844, 0.3940750131111423, 0.8410412806754043, 0.07978445722185151, -0.08465485357405397, 0.04411416612775815, -0.07782904050329867, 0.14525624168538032, -0.6249148606291365, -0.3012888911243978, -0.06879898932616899], [-0.43634478462845055, 0.4871852893826028, 0.1374642767380219, 0.1454038368646349, 1.6636603355915411, -1.1301293922588487, 1.016255911720278, -0.4669154860178142, 0.9692254744056594, -0.8531747026348466, -0.18246593620886004, -1.4035400656938146, -0.4724058219017759, -0.7976531284149005, -0.6024061847089461, -0.5634238174432261, -0.38345128442558263, 0.5404936814402893, 0.45826435867351767, -0.21914607162620617, -0.18337364050248384, -1.0049043515093725, -0.3664795845114113, -0.8439034357676052, -0.11213362066527534, 0.8149455121673492, 0.22166492542356905, -0.7368183256050755, -0.5774047422756247, -0.4042050073991019, -0.7800759697101247, -1.1118932675368527], [-0.11891543713159923, 0.40176852053920054, -0.2722571032465961, 0.947496056544161, 0.17348213253585265, 0.20866229610429637, -0.4032756684442951, 0.23784003903951442, 0.30731064925728513, 0.4233890985833301, -0.15879728598628612, -1.472493122232463, -0.24577090566940568, 0.21089865456952867, 0.9844804857252791, 0.7492823498531835, -0.4238756437497046, 0.077592135720372, -0.9102928770937768, -0.16447560204830827, -0.15784072674466362, 0.14259195813153358, -0.10872892474304255, 0.5700411176264648, 0.39977091884842114, 0.1436504759686837, 0.6609836593102534, -0.5715114317933987, 0.3601730088512454, -0.10148608065926742, 0.8427950804136273, -0.4670488899350484], [0.31779002606418527, -0.18643049254707458, -0.06254685318890829, 0.025673554935973227, -0.16964324722419752, 0.2118326034328, -0.10567052850685014, 0.24766110650606313, 0.5614540573914418, 0.022165600766502057, -0.15046477426661956, -0.3974780225554694, -0.4388162311238494, -0.09461624585472869, 0.2241081231883167, 0.20939681709005045, 0.06048148074706627, -0.02192873514119982, -0.2318326363153313, 0.07515663809077283, 0.6714692815406536, 0.058763272736777825, -0.3060816263358163, 0.5791751895087315, 0.039720243285406714, 0.006942018104643315, 0.19433240002984567, -0.007995962529057684, 0.11624888622686656, -0.40509210766582493, 0.19653392926077753, -0.20494471911658435], [-0.380499378887383, -0.23536260946816093, -0.1987509798726284, 0.2854852437854943, 0.0592102375138646, 0.8121487786151365, -0.11951503601461338, 0.5583292817509835, 1.0677175458851458, 0.0795153887741409, 0.3105053955430213, 0.10178862895919864, 0.36851964315941205, 0.2301169600365105, 0.10228754729989308, -0.23797816301752034, -0.25569209065951204, -0.17692822155447832, 0.48063527229371317, -0.3787386432115838, 0.2623579159667409, -0.8247588844600923, 0.06775128447440049, -0.12027209871388202, -0.6061730584426418, -0.514722394177205, 0.20565504224770834, 0.31563722723629867, 1.1305160157714131, 0.4370734208809951, -0.9794976065946337, -0.8281845083539107], [0.0975488647985018, 0.31809973109031087, -0.42669789670978625, 0.44856907185470574, 0.08611890486599424, -0.27398428439945427, 0.1858157488770398, 0.46668778558684415, -0.3450608020768659, 0.136759749580711, 0.07060754480400724, 0.008753404990875869, -0.20036955383754046, 0.030635938198801272, 0.25839522531662273, -0.17131421324622997, -0.2044552266769425, -0.7049198244747976, 0.3769677499094581, 0.1963460685971184, -0.04876590932964859, 0.030289097078532293, -0.40032939952503754, -0.4648448479855854, -0.5735462211817334, -0.23210833060312236, 0.07204860275323793, 0.191838905309323, -0.16922460212146118, 0.12303899073463968, 0.5766306828135979, -0.05249774864581162], [0.4572781749714015, -0.4237511059171912, 0.7293273611495009, 0.12972917624914895, 0.5842006869024017, 0.0905731573383783, 0.5771034763209634, -0.14361715170264866, -0.08894621852135359, 0.046566644176785174, 0.12802447680250395, 0.018126890693198842, 0.5549007124266859, -0.20013426877659996, 0.40159358457370486, 0.283649852680229, 0.19086337481482704, 0.14545335508222917, 0.18094067547039053, -0.29153735351234084, 0.25771658394369834, -0.11738561562728309, 0.039583295917290054, -0.13941949269353157, 0.22017095226746608, 0.322680032797044, 0.11400002585570601, -0.0303127240830545, -0.5864092162110017, -0.4539026506704916, 0.038465530174416986, 0.3781919442309137], [0.5719875030152086, -0.653590451044008, 1.0687855993678181, 0.12164407862795411, -1.015229383111684, -0.1462274623645425, 0.15554349355442978, 0.39844614220783403, -1.3839691131970728, 0.06602330843883202, -0.9254992935712099, 0.616662427320996, -0.05003818199123165, -0.1578522829314022, -0.5769047431740647, 0.41087458898289725, -0.34112063985022245, -0.13815018443784383, -1.1035430855614585, 0.48131540012210094, 0.2033130719872316, -0.2952181951484652, 0.1699516407239107, 1.2995424785785281, -0.023531377157530002, -0.03535399916265855, -0.650706353040466, 0.09632450148175943, -0.4851699487751243, 0.24859341480676764, 0.8469189386845436, -0.12988202753092543], [0.3106743821130451, 0.0504834285952403, 0.10706340429072604, -0.11357527214723417, -0.33009321076461734, 0.5223168091820968, 0.3937491815320308, 0.6257034875406569, 0.6008402077471217, 0.3780033659469439, 0.5317121721476228, -0.3264526973470695, 0.4283970240168757, -0.18868653411551636, 0.8245488700947822, -0.04752496477346279, 0.040197508018229466, 0.44895287424470237, -0.4755049943680531, 0.11356633351552478, 0.33660653316702493, 0.18271696162074516, -0.6083337976112886, -0.017156608274374135, 0.01837841594312869, 0.404350162153826, -0.1306525591388629, -0.17136028558345082, 0.06624178836178024, 0.5965771744248703, 0.06317934470584848, -0.35776444558634923], [-0.31984513485725496, -0.04268019750513549, 0.23243801507770614, 0.1132180198259107, -0.056896571249579274, -0.16463216091916524, -0.29551071780884064, -0.08473965276561626, 0.5971229959635079, 0.27801263090095, -1.3608688112749274, -0.5671060931673196, -0.08565467021384306, 0.44788140135151433, -0.03999393317065091, -0.19970633487603962, -0.8410239285065032, 0.2632243073826562, -0.24692177121787753, 0.2876081008365386, -0.31161900286647487, -0.2340977251417935, -0.8038503755120879, -0.3936345245047152, -0.6724738656741975, 0.5252682339091868, -0.7337513725790854, -0.894098483700931, -0.41675763281501493, 0.2996531608384991, 0.25398337542303373, -0.8231672952152052], [0.3383625697902665, -0.1267771030539952, 0.029015591213940217, 0.1500114950128778, -0.18606764064331027, -0.4626234660476652, 0.0675962910336595, -0.5077091332000976, 1.2660562061521163, -0.13120572183788942, -0.6757836922543927, -0.12412593619660285, 0.5366539405008547, 0.2873523320413771, -0.13481038954917082, -0.5558750710054847, -0.13942766808343188, -0.12042899520365864, -0.3689046757623171, -0.39658670752637853, 0.0006067984359299141, -0.45840764813134516, -0.2319649651930665, 0.28317054387725993, -1.0148361424521377, -0.08367701804667119, 0.3637485256467913, -0.44949315772805665, -0.10595592981472349, 0.794254786446086, -0.7994257397913145, -0.2749166195874046], [0.4578739890955416, 0.028933033741816397, 0.005388888621685031, 0.3216542851748424, 0.3079772715864866, 0.533271392310911, 0.01106073186605242, 0.21241357667662455, -0.1375653966853702, 0.6093788029290759, -0.2880824831490592, 0.1547900506181739, 0.19179925984325927, -0.026819385804417863, 0.05458906957372378, 0.13966623124459393, 0.4065496269559615, 0.22969938386956026, -0.9370974942385081, -0.27908733938720637, -0.08704344035362659, -0.10690985910030633, 0.05766261999730063, 0.18991144419255634, 0.5603041617882369, 0.027517769060759294, -0.06545520271776567, 0.22257081830673742, 0.21284891515103796, -0.15118398612337625, -0.09519235973029817, -0.14345016958385895], [0.709932873880225, -0.9272206888628602, -0.5848860703325244, -0.19582594797979677, -0.21029805192084566, 0.013783891174017847, 0.27421678962819707, -0.7198273821697629, -0.3407206908724546, -0.18711147920061463, 0.5895427914432555, 0.036093581892323964, -0.21840453162297857, 0.8101375969704847, 0.5440684939728037, -0.6135214609186544, 0.4943794132754952, 0.057020954690096604, 0.7044382690034909, -0.9634237879448792, -0.656776510185795, 0.21619146175022366, -0.11155220400027221, 0.1375603185364474, -0.5817363978017859, 0.12370214929564771, 1.0788166966828299, 0.049001232655347164, -0.4069404170897624, -0.9668427345078972, -0.46052358521330927, 0.34161399476699317]], [0.5568835855736309, -0.046538179159421475, 0.41621315854353824, -3.197777571902432, -0.7393379006620947, 0.44909840417273716, -0.47722037495726005, 0.6142670431281089, 0.4917080522910327, -0.5401633195827827, -1.1112859012759921, -0.0832409919128578, -3.126252389201443, -0.9963181152744299, 0.45589015044729936, 0.20490807079012943, 0.424410437045122, -0.7974309033592227, 1.661028356950275, 0.672838303359902, -0.4293590790324373, -0.20291503461011062, -0.6982792181245154, 0.9946706905876032, -0.17390382592525813, 1.3501363917940061, -0.6641492919774076, 0.15976508679759868, -0.25405116030993535, -0.503210839291776, 1.1825591816579368, -1.4977895847902452], [[-1.643787144194997, 1.1928268135789557, -0.2867331581996708, 1.4976597897098722, -0.2913197059810225, -0.17915165829591453, 0.10390883531458188, -1.0982546961343553, 1.9180998527559672, 2.215683118254463, -0.5184705835284659, -0.36667087025667416, 0.7505072535308865, 0.3767286427461307, -1.5412960517612682, -1.131187705289757, -2.2064354617845767, -0.09590052497989433, 0.49150719758136446, 0.3395654466530333, 0.5367664055939215, -1.3851529196030277, -0.007802897314350131, 0.9430265269176047, -0.5570884652672413, 0.11329271487370027, 1.4696345284896866, 0.12859390624782172, 0.8840000018137112, -0.035793956774157185, 0.08401780647042262, -0.1794771176387113], [2.5488857205398014, -1.4927930200690656, -0.05467228197219004, 0.15109144760879628, -1.357867980053376, 0.026280493234564748, -0.6659799359104339, -0.2342742702976034, 0.35854117946574565, 0.6711480687363217, -0.9714700323410933, 0.6745958745094098, 1.1886754670409783, -0.05639931684111477, -0.6249594280852361, -0.23821967889538814, 0.3884953497753143, 1.019586793567906, -0.6551316448439031, 0.4410074836849502, 0.783404032727567, -1.0511400556326131, -1.0977716532485091, -1.4247825696400476, -0.514369774713376, 0.4564887296284477, -1.0397169116897678, 0.011551940955037863, 0.6716527856813898, 1.1229676101139656, -0.33730444482207783, -0.3217887005024781], [0.5639302533283304, 1.1781031248104146, -0.503419348199104, 1.2394488442605833, 0.10141400232219988, 1.3603181224736056, -1.2826192047248341, 1.1984472826102956, 0.5962631804253715, 0.10442223182826865, -0.5938256804964074, 0.48585196198900577, -0.03979972348142228, -0.1076418870441361, -0.43659209781769553, -1.5813162624379196, 0.31249448915056094, -0.3712623705708443, 0.1602816827859536, -0.7798461589093, -0.34174377533033434, 0.14083652746666586, -0.5483047090151747, -0.579829537052748, -0.8757898038525566, 0.24376181730188398, -0.7226484673598257, 0.42988367064742555, 1.3019105917056573, -0.7733318123405545, -0.12349464251810924, 0.4160703991747589], [-0.8882327742689872, 0.609639186994528, -0.052527932939185125, 0.29457691778886314, -0.017353144854585778, -0.20511002484623517, 0.8660694474695203, 1.4585827888676806, 0.7388379759519533, -1.2263355350767302, -1.6935419148994253, -0.039365904143917496, 0.42164870915321456, -0.30577187839549236, -0.6306547065200083, -0.6142844692593888, -0.7102197747454868, -0.17291421378540334, 1.2845694889217862, -0.12246431356219512, 1.2975790536164342, -0.010388751024911515, -0.15757211466691248, 0.6356068170542549, -0.12442699638743283, -0.518371779225697, 1.0302283415064117, -1.8287978984625546, 1.2225031664742856, -0.0551781610681146, 0.6885580103521998, 0.8829455129510041], [-0.6002242100338083, -0.06532868590741137, -0.402856956049473, 0.3965801766239865, -1.3052867788309845, 1.0304313469519315, 0.9194245736603351, -0.2972796793666883, 0.489888546533676, -1.2721291323168096, -1.2942684583868016, 0.16688283474794738, 0.570877007752617, 0.6649068079135636, 0.7724439653368422, -1.0413798711417128, 0.0261519048656377, 0.7442521199710106, 0.26807493473750643, 0.9773871933617851, 0.5444713362741698, -0.46390712984852234, -2.1958423391262953, -0.19498393355829408, -0.0935102497665317, 0.8716534965762485, -0.6525075449867082, -1.1283620176017808, 0.6766542835330509, -0.21017868580136576, 0.9368640782519719, -0.008347767948366792], [1.232962033455443, 0.15863822733847657, 0.680278855206959, 0.7847692146757673, 0.19817208585941573, 0.11031506347076242, 0.1395728942323884, -0.35985036363853384, -0.13556505372234406, -0.3328200937818172, -0.4669060243522522, 1.0276956400945363, -1.0640598355650623, -0.48525689882922773, 0.7936702494962943, 1.2350460620017745, 0.6252885865939657, 0.008426089960877368, -1.940431220684439, -0.08491187896829834, -0.13011972097202754, -0.19479633417894301, -1.9811761574452718, 1.3626017777859258, 1.0229702506419442, 1.6752138846019824, 1.5597767976771646, -0.07243092795951994, -0.04072181706914691, 2.212612740342587, 0.4899588676924839, 0.3227678799075819], [0.3378308651199851, -0.14826142916289442, -0.17652764229334514, -2.399976793853197, -0.3506128897456577, 0.2519186041459339, -0.3226511064217406, 0.8850005656733493, -2.141511372980219, -1.2450851175106386, 1.1746646386672, 1.841370160654082, 1.4347512433922787, 0.5292637633225569, -0.3727444649395641, -0.034658865166978775, -0.3756821082184352, 0.9830913611689656, 0.3835632574883546, 0.3266668637320269, -0.30507193034771546, -1.0612986819277046, -0.18091134810195708, 1.2320589151453096, -0.4563874833656005, 0.7516685556254846, 1.0282975400379897, -1.0480312428153202, -0.0912341365320921, 1.2055412835180044, -0.29363138463142585, -0.05270426626567112], [-0.18167301918433537, 0.141458203256091, 1.8395457222876168, -0.6185982002718817, -0.7804195107300065, 0.3047496058382278, -0.5104696606675714, 0.3310295395709615, -1.5639104678428652, -0.6187968339286241, -0.5884347635986718, -0.6496593294094002, -0.03653412048397604, -1.0298030826980267, 0.06903154553755325, 0.7297579782127739, 0.5556171416465009, 0.3132498262646744, -1.7617343913936345, -1.063515418019254, 1.3469705995240306, -0.11113728018098323, 1.064649842610035, 1.0195817545638506, -0.422527702873788, -0.3785664643650155, -1.4118328777015303, -1.215820490608822, 1.8898387269253567, 0.8600487592208491, 1.0414978524194536, -0.5852391678561918], [0.23028993833879569, -0.20268136076752602, -0.6650521851791792, 0.4984931988160512, -0.23961207702181378, -0.21627299639390093, 0.6387395381796631, -0.824631793617293, -0.3490758051038685, -0.15765398520437732, -0.31314131787617216, -0.410062260209714, 1.4571579504385637, -0.7796781232418126, 0.8753369664910852, -1.4371314503061576, 0.4459058240769408, -1.8331094814486344, -0.41367821194775833, -0.8925433153543026, 0.8293530110180777, 0.1102270650717655, -0.5573749010258797, 1.2429843454131413, -1.3245548966681076, 0.08982117623541803, 0.4989913845275023, 0.46659510084002886, -0.26388853105925353, 1.0180943771442936, -0.38442436852737516, 0.820673240145079], [-0.41653247092689144, -0.2979887608685719, -0.1472544902673751, -0.47610864186580937, -1.3460452034462824, 1.5969456644444935, 1.4302035356536609, 0.23896214025497622, -1.612859758455575, 0.04563321499573333, -0.8641299361666513, -0.6831950434744198, 0.7899294085110777, 0.37518022331476925, -1.3037820911812275, -0.3297874887859624, -0.05021045435425836, -0.818506393441165, -0.720096989218077, 0.35251865743195454, -0.058163545416338426, 1.478017892825122, -0.9106170993973867, 0.5088617653755172, 1.0709163801942385, 0.3543560423698554, 1.0140546270437318, -0.868032531317842, -0.709890852327336, 0.015090344548541964, 0.5031760187394614, 1.2036025101836894], [-0.04048637711371747, 1.6872506376822052, -1.1074856464289444, 0.16627831928526005, -1.115444416630871, -0.3258264676578772, -1.2999829183966614, 0.04121513570668714, 0.5104803418233907, 0.008884905300563292, 0.032640044873968356, 0.07749716732029524, -0.6986277715705155, -0.07368077194479232, 0.46637603685306017, 1.0785862585917474, -0.272592411427072, -1.9319050741111146, 0.01482384537048903, 0.5595817514181314, 0.5804934660202266, 1.235053682790972, -1.5683237471416793, -0.0825425404402666, 2.2281637022885428, -1.7711852073372227, 0.8710819966347471, 0.13826549136164523, -0.0019201569525046452, 0.18580211486358286, 0.29647494933429014, 1.3317853517770026], [1.5041939671300006, -1.1599250684014075, 0.3714531338326891, -1.265582434800711, 1.5102971925253446, -1.6616725477798981, 0.09596543162782124, 0.7020713733685221, -0.05422662966739526, -0.2588801430094841, 1.0029176860987776, 1.2841862033348304, -0.7822903349941304, 0.9617889769322693, -0.7010786417787791, -1.0477936387875773, -1.5117804792670066, -1.2643206360604333, -0.7825702471373139, 2.3678802786480486, 0.5114396672876496, -0.850990782818057, 0.4928161011852258, -1.6618673654786777, -0.2102077851849541, 0.14512283178640248, 0.9092428695510189, -0.1424805368463589, -0.20692032719920872, 0.619092154711489, -0.6556811241714318, 0.056855623365080904], [-0.8034443386112499, -0.7757503887032875, 1.243148223607565, -1.0988635530824038, -1.7102635560083754, 0.5442745047888926, 0.7201298184753887, 0.04870059460575124, -1.171108867891232, 0.67439175234949, -1.0167066139779033, 0.644368850828675, -0.4379592333683556, 1.2862331681143093, 1.5114531215720715, 0.11775504562744674, -0.5693768280296827, 0.3434689762960796, -0.31249145618884355, 0.48612766810727087, 0.384454912655631, 1.3360135642630375, 1.3099609632165923, -0.36164735979594675, 1.0179296004318836, 0.8709048727421075, -2.791656578659782, -0.12302988057329484, 0.6018767724225127, -0.6611937750495064, 0.6831122316811201, 0.6875371285682075], [-0.2104312456205, -0.07349539461946283, -0.8116815287446593, -0.17279179125567312, -0.39891396329709367, -0.1285474250037635, -0.8684448572468262, 2.129808484917449, -0.6748123520894536, 0.8405852433121489, 0.5888743413359682, 2.028564214264117, 0.5962619016867972, 0.030464488512865054, 0.10633111904862715, 0.33697670854141104, -0.9823510827044472, -1.0118505905634996, -0.9843143007088734, -0.48308920326020377, 0.9988028576193095, -0.001594428695721118, -0.7249316890413652, 0.1875940250865578, 0.7070034007538517, -0.13382564543641037, 1.426185490657094, -0.0009811443836159903, -0.28744853497491135, 1.0819708582622123, 0.9469740579838796, -1.4411656406146587], [-1.658097918434162, -0.24549166061772637, 0.6222707412070977, 0.19899771662470273, 0.9095473389069725, 1.8581400211382109, 1.247106117694571, -1.070269136121746, 0.0462029091833751, -0.2555817989857238, 1.2000292659580087, -1.5163976260772074, 0.41003911457432385, -1.105935288018152, 0.48930692663300274, -1.0772946274419068, 0.5020650071169952, 1.1168604733743512, 1.0992708699203912, -1.3316999652763997, -0.0027874254145418566, 1.014677130576366, 0.2845553546365553, 0.421516277824255, 1.1615496895898685, 1.4770418706247668, 0.6032336341397115, -0.023990645648345597, -1.2100900850431262, -0.33363611190949416, 0.9567340527529, 0.408872068180324], [0.6497790865099728, 1.0242587079513357, 0.23152713558078095, 1.172249191405778, -1.3850496531034273, 0.2590579682167149, -0.32228902070015997, 0.2996688209528322, -0.57725696025283, -0.3131854342759135, 1.540959700515842, 1.4368473789559741, -0.6160511742364994, -0.15053293858782646, -0.6859527629230376, -0.42739839652005424, -0.5909826673087784, -1.1421717535417766, 1.8614497487550135, 0.2689536636801143, -0.016329911866847263, 0.849183102158406, -0.03362159593466503, -0.935964770988382, -0.9308610102712284, -1.5347030384588292, 0.4543029613732855, -0.46378183782854276, 0.5457366521826507, -0.4864426158927436, 1.1078303636480125, 0.33229851370545765], [-1.6668346782274883, 1.6857107769666375, -0.23332625341860483, 0.6563658195231068, -0.18428791113286425, 0.40584137203481513, 0.7358285120808514, -0.15845241868708057, -1.0261493103314066, -1.17223243456658, -0.2158855764519522, -0.6557542507237509, 1.222446501540554, -0.04463276979237921, 0.21942451910263996, -0.6181887123699599, -0.581786565506556, 0.6476817311194212, -0.09092105744437841, -1.1250392937671894, 0.46345293148445027, 0.04203981227941048, -2.663154465006094, -0.8825336260779686, -0.37703908436523614, -0.16367333195777262, -0.24975993136258878, -1.1487138681436246, -0.0012270074997818572, 0.7231514452156366, -1.1529305028840724, -0.45315607069541486], [-1.264825265942161, 1.465853969929931, 0.8267378123245315, 0.6172611124981053, 0.22730118948172648, -0.10597978650624108, 0.39170629111135397, 1.4140088885779059, -0.23169014646074879, -0.2679425449252934, -1.4857097007774709, 0.5576876382484278, -0.5803636302713057, -0.6308549182792319, -1.1326040104447297, 0.6119777812139404, -0.8329857869386479, -0.5036376541566774, -0.4943918926721905, -0.4412522941463785, -0.1564627409110583, 0.07023539767321653, -1.4844029835300152, -1.0808344092936328, 0.36174718647852955, -0.18651153879459587, 0.5946443431803089, 1.1143359001068178, 1.5574879352823776, -0.12857232072563482, 0.6753086053142485, -0.9667967839181517], [-0.6783804219853868, 0.5910883689478325, 1.2309665847432802, 0.9814660252082404, 0.02625248905848421, 0.6633834257740329, -0.22932095212077738, 1.5653627290665832, 0.5115468026961562, -0.9721259006547734, 0.013734682423028456, -0.9142010794096612, -0.32484563528336335, -0.19159721469407603, -1.754802054464387, -0.7326521540231931, 0.3674641216167963, -0.5964740170096178, -0.531428689817722, -0.3153050559170262, -1.2970722656712386, -0.576003432246718, -0.41959589719146045, 0.4334001668210647, -1.3755934267352452, 2.295402609202949, -0.05646344084753457, 0.1210116868769036, 0.912442826885395, 0.2995722325281794, -0.8830536843407731, 0.6373047671638765], [-0.6355932978871708, 0.5130920114337728, -0.811522174241171, -0.001795718160405813, -0.742203081590312, 0.7135899385256763, 0.3073718316800428, 0.8759796519061864, 0.09343140570813209, 0.10303022511248487, -1.5826532109545022, -0.14578105900637015, 1.0258482430704716, 0.1472444565332455, 0.41450879748248365, -0.24577074312786065, 0.6368763178649234, -0.3792432451857619, 0.25458418204575844, -1.8778060246619683, -1.5129200584072338, 0.9620691232743942, -1.0436955504976317, 1.5829982719035265, -1.2876127994006414, 0.9277222534867707, -0.4677832489013126, -1.4817176944803678, 1.4585897910178853, 0.04956543461153192, -0.6480045811820415, -0.4981916179522224], [-0.27868347210389066, 0.5942220694125606, 1.1780598817761072, 0.6105138403836584, 0.06259724038930384, 0.9469737609004253, 1.0471651672382056, 0.6384184918786905, -1.2279519495721243, -0.6846378214782649, -0.8041110698745576, -1.2903057771130266, 2.0056183347492484, -0.6577717366419662, 0.5953742005020738, -0.037868396127531616, 0.41652137413561635, -1.9579142223542048, -1.3562604487794794, 0.7518671403533238, -1.8409991967635726, 0.25080668259176475, -0.9707064183448539, 1.1352731672840701, 0.4315673310466749, 0.2372272491165458, 0.1130437958086203, 1.0558397740211394, 0.22746055672820054, -0.5676333011007962, 0.1612879523873618, 0.32274098345613605], [-0.736107180445179, 1.3592185933422225, 0.7508766604913463, 0.27545800457448255, -0.4460054645898268, -0.1080716272755186, -0.2711056899012196, 1.0173046856724304, -0.11522575386772962, -0.10541849545061995, 0.9307083566146025, 1.4529276628361465, -0.9663439318641601, -1.523414328876478, 0.0018211809902201003, -1.4047553377607713, 0.1978529937618661, -0.5898460888747172, 0.6537866541859352, -0.7663521435290533, -0.9162851635491728, 0.2422422606951253, 0.22910564139877654, 0.44985972170483157, 0.017553299940081004, 0.553565615317825, 0.6705275572385072, 1.709114184159633, 0.05785263282444304, -0.24851209305018, -2.0002068149390833, 0.31535532877251465], [0.40838719161219217, -0.18323332312049237, -0.38265936335052336, -0.3774507560739407, -0.4982658597384444, 0.13578911719167283, -0.2146947808287226, -0.07654508358608954, 0.9233352239783672, -0.043308977314056356, 0.7570707285752623, -0.8226638766406504, 0.016796046792847713, -2.0418855248911156, 0.8729404381519268, -0.3807380429981192, 0.07367428621023187, 0.7747244088850932, 1.0509262112922901, 0.6011738653426171, -0.0979076913137604, 0.05759639020044008, 1.8921679657072978, 1.0549737320568555, 1.5834371610579243, -0.21106128917320502, -0.8777873754356578, -1.0911013186431375, -0.9309114171424187, -0.9626968173241632, 0.6191757915675511, -1.4934911025718558], [-1.6422525030292219, 0.7428667814203438, 0.9185654959859764, 1.4637137985398865, 0.5037386952321606, -2.0867836871790764, 0.05394764378045886, 0.7096306376793886, 0.723568061510424, 0.24178426504595746, -0.24209900209103546, -2.043653668886314, -0.19316133043903302, -0.03854922997643162, -0.08065696492447333, 1.057462172496325, -0.052818198288618015, 0.191608590878756, -0.4695091733383377, 0.9421336566742857, -0.07427587064279721, 0.23867837873996403, -0.11974913930345736, -0.13941288637499175, 2.5694488313118544, -0.11217126537098827, -0.2877781958753347, -1.1898759645567383, -1.6035341568390453, -1.061030942115093, 1.2360455866424966, 0.312966254796477], [-0.21469692829700768, 2.226648505398069, 0.3027533645170811, 0.7029546804772948, 1.0799897192163386, 0.7511327737625546, -0.6837392234197576, -0.6663063143746325, 1.167509927330165, 0.006429072729646745, 0.2543180126440394, -1.7703220666915729, -1.0306430188582487, 0.6660426205796868, -0.7961915988870578, 0.10298126583609542, 0.39932193832834606, 2.126993169023723, -1.100070226038378, 1.2188203040858865, -0.027364582730496186, 0.7974866789967915, -1.2870359153526714, 0.4165372470812431, 1.2480805331005749, -0.08539788567072679, -0.4906052416370551, -0.2606677690914091, -0.5517053773202745, -0.8144106676521665, 0.1560556412246503, -1.5272919528458464], [1.064974085405374, -0.1492898181700245, -0.07673614902941447, 0.2085800191912436, 0.7308048246280894, 1.3610546349221504, 1.3414766227796737, -0.4961774328757935, -0.6016218049118127, -0.7644272412141578, -0.206518312769378, 0.9669723546631037, 0.2691912652416427, -0.07305940255706127, 0.047979763170569546, 0.8601375191875682, -0.49597030784024015, 0.9761259946361892, 0.6995193713514366, -0.9475485165996952, 0.021411471406758743, -1.1619204309650222, -0.05158894045204452, 0.4823665586707086, -1.1086544741144486, 0.5302965379194431, 1.8172062418556982, -0.023245281937143435, 0.5673257898698147, -0.9654619942415211, -0.8134478045291005, 0.2692144797728101], [0.9694142379717684, -0.3213759995825985, -0.07582889716117626, -0.04719126971661023, -1.0625163774848323, 0.3340587761096274, -0.3504991119405783, -0.14582434274901154, 0.9785718792092791, -1.284504173350359, 0.0161638587240166, -0.3033520682368467, -1.6856394330295927, 0.14230608298633332, 1.7465454691923468, 0.47843640364716544, -0.7176498944828282, 1.4338214602798132, -1.4991360145675838, 0.8048026045541505, -0.7326017815059921, 0.6403336513429244, -2.5186371894905673, -0.22678544911106516, -1.0307557785302233, 0.23172984083749165, 0.02653174871374614, -0.28077070287494316, -0.33176282161641174, -0.11219554248623187, -0.6914769143858823, 0.3598655407903311], [-0.05631754722084642, 0.8129777665618346, -0.33382902023145195, -0.9071400432926432, 0.29381638106349905, -0.04596340285224558, -1.7596697361011868, -0.11637559945310987, 0.42391792960672275, 0.07500623659543901, -0.45230719162347277, 0.2526625576996939, -1.1873524441133492, 0.4972366642138445, 0.011505452674736948, 0.83551190228711, 0.04907256291380574, 0.5535390003140581, 0.604630482095242, -0.5730287508668479, -0.22242923821891591, 1.9200288951412166, 1.289487631722437, -0.6196057156364277, 2.5488696985875983, 0.10465180793011114, -0.190655411736981, -0.37120291556320545, -0.4719834806039481, 0.17404328400151847, -1.8130659171026704, -0.4243998186386116], [0.26690607186384485, -0.8078346277367531, 0.786546880747774, -0.7404778583122151, -0.051904814047372, -0.043130368724898234, 0.6934246379619223, 0.9598022842899042, 0.30928623623289575, -0.9902309347331701, 0.5161150836050448, -0.2911889841557433, -0.10383655345933596, -1.3022969049329614, -0.6722921584852823, -0.11555982300063676, 0.9015590534355034, 0.7868631392113328, 0.5855387208053356, 0.9910929725042283, -0.8388489593288289, 0.370750596157957, -1.1394046346577034, -0.6519150975979836, 0.8997088705340052, 0.4378551672792809, -0.37764723484806323, -0.9965076709111704, -0.4483766867302451, -0.8930571977955263, -0.9136594671457282, 0.588077311248988], [0.26592157567413854, -1.1094526438875385, -1.882894407821265, -0.27614651184013334, -0.5532354786370128, -1.584850533782418, -0.1739049754527434, 0.007944540374329567, -0.5929351183426245, 1.3685181850105443, 0.46962846901766453, 2.7071547757530823, -0.4338417072086526, -1.1068833983556523, 0.6104513218997145, 0.9145035936381063, 0.1622355795871664, -0.1410152858509845, 1.5537199722161619, 0.9227279084021143, 1.0630798092083689, 0.37459405413939956, -1.0513612089554587, 0.5348582096261513, 0.415857771246465, -0.5128364517116067, 0.0066039631815244465, 0.7217936736870808, -0.19590936941986922, -0.20745701302223743, -0.2440155277640604, -0.42296954788187924], [-0.7708871485907498, 1.0973868609057604, 0.7821637761247526, 1.324713317444239, 1.6567689747083905, 1.7887267265690594, -0.11102562500142736, -0.4477681026108129, 0.7446648114514567, -0.7270707823506383, 0.15626121541891078, -1.5699056742520978, 0.798249368191538, 0.3895515159643518, 0.12127457821450757, -0.9166037303845794, 0.023901770716509257, 1.937888892999508, 0.0750812403722003, -0.12211158706159607, -0.4397619027364724, 0.36546845268156575, -0.7354943701821229, 0.49284157465668543, -0.4728482034241304, -0.47816327195153574, 0.03827502708768104, -0.6531731585032582, -0.7943625289711543, 0.9216180993731142, 1.367595289992227, 0.11261955932082647], [0.09732351054396672, -0.8198464979935914, 0.03091016397630725, -0.541058771966618, 0.7045196942678298, -1.6413649147451523, 1.1781071582870362, -0.20701238444149864, -1.3443095364704096, -0.20573299405276463, 1.2176291675544682, -1.5802194443766866, 0.5659020003481579, -0.5018107822739655, 0.7942042204452021, 1.965865916184059, -0.05751921364967401, 1.2650104090527743, 0.8371694724710437, 1.631290654055559, 0.5854687240270213, 0.2255437632508371, 0.7882654321593096, 0.3747319077673966, 0.7689819859374237, 0.9231189394401242, -0.8676429481814457, -1.8160142304636242, -1.6988225479536003, 0.08004030373941057, 0.5497409555234906, -1.525339291690738]], [[0.4846974588757976, 0.13324790232886038, 0.02359937222477375, 0.6557258974940191, 0.6767039449037044, 0.1687307436528087, -0.30429254164854463, -0.21865430854930687, 0.13905420886916883, 0.568441742124124, 0.401655804543408, -0.28324897733887355, -0.31360230830581026, 0.11868868918751628, 0.9717095854066067, 0.3756049498287096, 0.18525038723579448, 0.6579173085482467, 0.24415162183641806, -0.11930386300898568, 0.8832595983113727, -0.3263504505909336, 0.07517194031770023, 0.42077388208897076, -1.0640907146361207, -0.03543121203233706, 0.1360535992313072, 0.05975213059690791, -1.9528246440421941, 0.05977145183412561, 0.6509129881618375, 0.3978258009422826], [-0.032306600707547, 0.18353622870788383, 0.10520325254994044, 0.40604465830649095, 0.6041991191081862, 0.07105654199702086, -0.5656414752218979, 0.6545164270881495, -0.548714672604675, -0.5129915257067876, 0.03415068843142448, 0.5395588142838224, -1.088768895894228, -0.7450437678738633, -0.7423523327435793, 0.25673720502066977, 0.1806690187927982, 0.2006616917839656, -0.45475751114379365, 0.6344019283196106, -0.4961852982380614, -0.07864180511591201, -0.4721248220213587, 0.5274021506498277, -0.6005256695045633, -0.41525249695131866, 0.4650786369524243, -0.1880951345611373, -0.4505508903545574, -0.1729016472263974, 0.1503707398427529, 0.8176315211485881], [-0.03340822331562035, 0.8532629567420207, 0.5400425322618906, -0.16658385652473176, 0.3603852931763821, 0.1685326627245905, 0.2482427604013751, 0.08591576232496916, 1.5729212748256554, -0.185006791679026, -0.23046685399908415, 0.01194918563414669, 0.02593511605981354, 0.1067271932347695, -0.4548809334315011, -0.5383838830697892, -1.5909003862556037, -0.7991984418171385, -0.023286016090964937, 0.3823553579099083, 0.18315055756322077, 0.017589426974733157, -0.45403175384435085, -0.742180919070547, -0.7811505374461427, 0.136457564887731, 0.27386256497443934, -0.05205418383608912, -0.3685522253716249, -0.23525464875153326, -0.2822641530092445, -1.1030083267275854], [0.08517059791785724, -0.18760182404366443, 0.2646245421235528, 0.642182595100738, 0.3744894036532007, 0.45788180300593845, -0.18930210723977284, -0.14038673514512873, -0.4609593914560011, 0.40196906070051086, 0.3603360372051165, -0.806962144138927, -0.17013548750833962, -0.24857115802406043, 0.4454104632769491, -0.16203755532241593, -0.8338397509862852, -0.03161676947491803, -0.40998442207167907, -0.506937677891763, 0.8790397462252282, -0.675705037026072, -0.20696042240437867, 0.770881154559342, -1.0892580997340915, 0.5155733993836685, -0.7931877166686512, 0.5572576083204376, -1.4481422011238523, 0.42742709376420457, 0.7409069181500584, 0.5554895961717675], [-0.26704995663591513, 0.05340782746263492, -0.4185148869008147, -0.03369750861252085, 0.4826634243317062, 0.16495865475362875, -0.4393686539185696, -0.3061190996845594, 0.08495035268810566, 0.08131590052573946, -0.13296627993989182, -0.20644864228433105, 0.2420263822942303, -0.36109647331446026, 0.7273339511198333, 0.26977186751092935, -0.6673808216292402, -0.46259542035873163, 0.5277048563482301, 0.1964605931736935, 0.6495260617181177, 0.6319505578092818, -0.26939141250520166, 0.23357579185192626, 0.09509851020248904, 0.389957671144721, 0.5661305544492944, -0.7875659265624864, 0.3741956052813187, -0.3221605557058736, 0.27229760082038795, 0.23873860175780592], [0.3071016243603385, -0.3478347074286301, -0.3864159230869164, -0.17002196124159497, -0.08242034667279867, -0.11263928778644752, -0.4024282263663879, -0.10584930119330438, -2.955076443834727, 0.35802718522263116, 0.4924351121515768, 0.7742937289921723, 0.3150025803362918, -0.4339162471787537, 0.6878322199482205, 0.42274990326573836, 0.18164301765043964, -0.1544294875263136, 0.19135195830022073, -0.13737164884127034, 0.3017333094410957, -0.3043353509243039, -0.36219111943701277, -0.8753138822207887, 0.518558445735483, -0.4519449825154074, -0.8443227593988978, 0.4454258840662118, 0.08720973800624397, -0.17446056193008957, 0.5221084585924864, 0.33885467367421435], [0.1690245726479933, 0.17956534652635922, 0.14400569402444816, -0.2037247453082674, -0.12517094658988837, 0.31779526184578744, -0.2703661817246489, 0.4967630044895253, 0.532341421843781, -0.09724564302221748, 0.6671386030365325, -0.26976861785708584, 0.8259331006159379, -0.3301818981043566, 0.40996857816417565, 0.3252244241120298, 0.4044345246861531, -0.6144097841236954, 0.5993685541574895, 0.3187454931548234, -0.5735093494151041, 0.7465070802211048, 0.16975441524557142, -0.34468672061782235, 0.560492933839886, -0.12320935380218101, -0.03186630198339422, 0.013308042947257261, 0.6201323703554349, -0.9432416625383888, -0.38761905650876416, -0.022079870580425237], [-1.0944782194472793, 0.04672855185266522, 0.06057469821240642, 0.028009661513892448, -0.05011096965307675, 0.5932812168837165, -0.10380663420849442, 0.4713286029695191, -0.12570518045244358, -0.10169368726395225, -0.6405204892795919, -0.2935598975831041, 0.26577970437588144, -0.24177823390706873, 0.38789699693568813, -0.134707448569354, -0.09809960071867542, 0.2709742085851894, -1.1238634455495704, -0.07427647844999799, 0.10038348321433345, 0.5392810602349981, 0.6278674521871739, -0.3358021320387456, 0.7792952512953341, -0.2198700748827189, -0.7179563528833465, -0.06758784702767262, -0.224927787791802, -0.14035388089543144, -0.7946577062038984, -0.06540918857149325], [0.10504877360544382, -0.5084331923803674, -0.651602390169812, 1.0012910637223367, -1.1986697489797484, -0.3416828098664658, 0.06839008559037794, -0.3765198161170026, 0.7074460419462845, 0.6209113734313105, -0.21774660253930386, -0.5280766170346636, -0.21049747599744892, -0.2828591832965864, -0.528929838092711, 0.4045219939000756, 0.26546446087370923, -0.11424382233935625, -0.016891449590979206, 0.8221638764935818, 0.5806392653189755, 0.4843818491971137, -0.6871155999346917, -0.21494265576400856, -0.07935620804622805, -0.13457377586875602, 0.01972866019234375, -0.10163353756279568, -0.6166661273111129, 0.0034292901116613978, 0.01509061927507385, -0.1850966765456018], [0.1774633707557692, 0.8213868173508831, -0.11692391807946884, -0.5433908372697291, 0.5938478669419713, 0.17411465997231676, -0.13136412851383997, 0.061148909108895796, -0.0753869172960155, 0.5155530777115732, 0.4063766151059871, 0.24260269822803632, 0.730491256020341, 0.7723507578128855, 0.5609011498071172, 0.6039523138726649, 0.033069265501656425, -1.1618566862607045, -0.005371927727670729, 0.9472731858512712, -0.23760442736770118, -0.18486394698067168, -0.5977481261167606, 0.5297484555286046, -1.4347827891557816, 0.44154707966823503, -0.15767557812833086, -0.06797365441187043, -0.3801811649674283, 0.2393299652519044, 1.008924698596898, 0.2270299996748772], [-0.8753973304436995, -0.09958310303140423, -0.5041061413507969, 0.5089099181264259, -0.3528127193757616, -0.2919977098734628, -0.11361989147132164, 0.0007673793911050774, 0.502532493644919, -0.08993811362574002, 0.18664715773328047, 0.7614128197540051, 0.3483350714796383, 0.663550426276886, 0.1844868428714999, -0.04557464036996314, -0.03539423684775461, 0.2681195344608019, 0.21578604592470205, 1.0349397861600653, -0.22131874936490906, -0.8204687403267739, -0.42478496319163844, -0.17016497823327606, 0.5405509308895124, 0.4889910575915032, 0.027210999927871553, -0.9825445216383538, 0.215399143160142, 0.7334124854657992, 0.626656501082817, -0.15190054297203434], [-0.8756279106047778, -0.23767201488365974, -1.215746229491401, 0.3127053619394314, -0.4956617224774389, 0.4720716239219285, 0.42991128641966947, 0.2787742689064883, -0.3286757973225934, 0.513964447413478, -0.8979796735463219, -0.4238309622941485, 0.5688737029176163, -0.4467996131496589, 0.12052576338315023, 0.5939594607188355, 0.34953896422406183, -0.7901651875403556, 0.2728385804832122, 0.7973851256983543, -0.6817360484402628, 0.9815223628411487, -0.1614932398556755, -1.294040602206053, 1.0407449950274794, -0.40504186118817814, -0.033442707508270664, -0.13560697432938756, -0.9212037442231138, 0.8514677640992899, -0.7347872827077692, 0.14060539971029956], [-0.33603078559481014, 0.02165764240014303, 0.40941794704501083, 0.16195425407425984, -1.38118447094848, 0.2722053426562685, -0.2732884383684813, -0.11687463859798634, 0.41618029246659977, -0.1954271812948833, -0.408720712830178, 1.1938603635059588, 0.2695164102741965, -0.1807441266746245, -0.1442172753177647, 0.2916647249365474, 0.1716481353149993, -0.5411551158747988, 0.8082708234125259, 0.1871510936371847, 0.043527488575318234, 0.510924913456664, 0.08786877876383727, 0.3864183000825237, 0.293555883103885, 0.08076711535595879, 0.22641837839183715, 0.40059807400254105, 1.0611557224479689, 0.34016044113131993, 0.5680445981943605, -0.3927014265382208], [-0.8143966834135368, 0.5078906833663319, -0.423760733440468, 0.1621902380174116, -0.035880617649492096, -0.573932893221202, -0.5818539021116684, 0.17415624343895528, 0.025565751812059802, 0.30225889442769693, 0.4928092744200035, -0.012612811126527233, 0.7847892778666178, 0.13298938450285241, 0.2956040573190699, -0.04551184910671703, -0.04771337440976527, -0.39566582799162037, -0.31286574327925304, 0.3151407284463071, -0.31315444804972487, -0.4293867371762863, 0.1946584317474753, -0.4872438031216851, 0.247870274341193, 0.42168306121826915, 0.09207648597747423, -0.5346544506192563, -0.2590549966445737, -0.2447802880242518, 0.5320101319952327, 0.7337854012062258], [0.3614973679077161, 0.0257541098071236, -0.29038228913280756, 0.949037158117333, -0.16908163670016532, 0.1057037932301431, 0.308401663577451, -0.28650767670049593, 0.3872750227988693, 0.05234518355733256, 0.0100606715415082, -0.6614654142808428, -0.22717400510997657, 0.6602287468361614, 0.09629366948740285, -0.16882284844671563, -0.3117780498966523, -0.7433789832332443, 0.14539883379831192, 0.3673371251881702, 0.45352573906362065, 0.7310060018234066, 0.3831238598653889, 0.21927875482431552, -1.091959468072795, 0.388258293407025, -0.12870688822647022, 1.0228404166998963, 0.08842293606061255, 0.20066809856992104, 0.5635573961800334, 0.5423589644606617], [-0.5046456086314371, -0.3489283377068908, 0.2935055365175742, 0.34554597837465717, -0.6179008922970627, -0.1409632411450915, -0.32354355413088154, -0.32027621989780575, 0.18613689975977968, -0.6288066464656492, 0.39346698230028365, 0.3056078688430248, 0.030868829616653666, 0.25541940829061494, -0.042579971188829904, -0.34536945813798137, 0.171938702127241, 0.09812904054511731, -0.545122963644635, 0.24251192110273123, 0.059678631418564644, 0.4090347933979799, 0.4025144121420712, 1.0112369614574068, 0.2968303389355145, 1.236778897957287, 0.49894909219077876, 0.15304816118229564, 1.1066550011456107, -0.7392341630221047, -0.08466914763802895, -0.2224294821334693], [-0.5400351466823983, 0.1481900586967466, -0.6840799552945008, 0.2063271392834203, 0.2992204742349709, -0.5034263027003719, -0.9117452793028445, -0.14977132083189282, -0.8739811977685367, 0.2593744837106931, -0.29272367047580594, -0.17832214420981257, -0.6957108231749838, 0.41482228113984404, -0.11930958623822978, 0.9391446731801272, 0.7561009728373256, -0.19326238774429597, 0.10555032001140735, 0.32805595778545993, 0.1970745149749333, 0.20249803248892087, 0.8746334869641356, 0.03487007777398378, -0.2870070464165067, -0.16239193517021835, 0.14059200595007343, 0.47403777499862937, 0.3141458800309267, -0.8197151615332103, -0.7292673097269071, 0.5895447400424387], [-0.0510258094202431, -0.25382273980195874, 0.4312578755225635, -0.9929896868050695, 0.6042177178487976, -0.7383818199745414, -0.48047671557968485, -0.028531269809587017, -0.4826578699426263, -0.3220147130807283, -0.26515735747793406, -0.7580097549790268, -0.3952411494348788, 0.7948653852088725, -0.6125998437925059, 0.3816335979523931, -0.6770228958882055, 0.020467104008441456, 0.1195249846969317, -0.05039604561742491, -0.29998415896527003, 0.10222929136919576, -0.3617627687743017, -0.3034721498923223, -0.3697321608778997, 0.4054339659963666, 0.6657256375837834, -0.11008152216638106, -1.4380266892223326, 0.03979825642788833, 0.19678194163278956, -0.5726899580857305], [0.4103310522389494, 0.20732495787494795, -0.2531304281511147, -0.547821997505257, -0.2615075962986107, -0.5310184152308246, -0.09071480612625366, 0.3862442279259224, -0.048533679795063504, -0.25713512301090186, -0.2681371949019427, 0.279506104948061, 