[[[1.6549403687813657, 2.607225762235198, 3.1191475680215515, -5.5921466971567995, 3.0005593373576045, 1.275846592804894, -1.2559311441025944, -2.573096314346832, -2.9127675647975564, -4.370007130109044, -0.6116054393757852, 2.294205887239324, 2.6067227204497287, 0.9245133331055009, -0.3400504591406537, -0.7543954215512504, 2.0533687713646063, 0.6664009215831541, 0.9482841884969748, -2.8944376579699034, -1.4876998491515843, -5.4769104727609985, 0.28187097295860425, -0.6778238706222036, -0.399514413385894, 0.3334265847782907, -0.2950494618092777, -2.01700259717555, -0.1370531400785057, 2.2804408709125403, 1.436853285982463, -0.78864110181032, -5.988987787333451, 0.14328581158420758, -1.9990703695223815, 3.2503865410756045, -1.1591551055316958, -0.13765964171572423, 1.8534115364760404, 1.2226048135999295, 2.258754206337745, 0.6388507561636857, 1.4085542900375523, 0.021976799472353946, -0.7518503837224549, 0.03740123652551857, 0.6441941128359681, 0.23532214812207702, 0.3502961037261689, 2.455338035037315, 0.7026203367578588, -0.027519573963744732, 1.7838512921559533, 1.4885186300314914, -0.48779862857784123, 0.039522814360753424, 2.011328417380303, -0.2310942527799887, 0.6135695070140732, -0.27307735654347765, 0.7981724386095603, -0.4486040818035039, -0.5038267549152539, -1.800564802647566, -0.0011351673873429445], [0.5190325442999234, 0.5020337800468352, -1.4770923629969657, 1.0916797204182633, -0.1712185448785897, -0.2316770164896085, -2.72695393071346, 4.559623686042631, -5.380852023674269, 2.0172950122568656, -0.0061257997019570735, 2.1865900235551585, -2.520133694473679, 1.903058714792582, 0.40725028306935757, 0.003568225658455265, 1.414514958498529, 0.7646962765235822, 0.357233887572123, -3.8900858251813566, 0.7977998371689593, -3.475611187803887, -1.3973991639352787, -0.3153378467297551, 0.9381850007401686, -0.6448972409410897, 1.0189829574894074, 0.2631996381861105, -0.573570627592717, -2.9560372766641474, -0.9505163856814147, -1.2569248154031554, 1.9509793838657645, 0.007190155247198599, -0.39780989769821257, 1.1418969956460079, 0.48860774261377077, 1.2102229012929935, -0.6165900276345178, 0.16370217106639207, -0.04145739530468252, -0.4387509952475918, 0.12694878806883916, -0.29842709524583777, 0.15587474530395806, -0.03686104594306182, -0.31794971938554, 0.8176239694786507, 0.1624667605841357, 1.3950716819620164, 0.21689101188260923, -0.011339497854624505, 0.07584773029133389, -0.6163857161678938, 0.5579183684050157, 0.1310352491030551, 0.9979484333148652, 1.70994113448429, 0.05579725848110668, 1.0968034200272394, 0.1522014703156796, 0.05906583034263164, 0.04950881100774356, 0.32732773236751644, -0.005619992914888048], [0.24961613650191722, 1.25809196427656, 1.217177472163517, -0.6043276845268472, -0.35030121702800415, 0.3563765440302511, 0.8635550415487658, 4.574468161265858, 2.9383326608719185, 3.8433821868914415, -0.21262708859547735, -4.8723889082445675, 2.141931073223348, 0.07104482737345363, 0.5099083131990932, -0.6020656344869997, 1.1613071669385129, 0.2948203114785161, 0.5188729599600197, 0.8789560267633997, -0.5736289298881814, -0.2553195585415401, 0.23138895574292517, 0.5346932492895308, -2.067687322159494, 0.3616414668329661, -3.980194489903158, -1.1694218305543496, 0.2286290870287066, 3.3668459838633864, -0.19033017355815765, -1.1523470766435309, 2.6530668785824485, -0.20657423956685883, 0.46092285065184607, 1.4723042597503242, -0.02882602850473799, -2.859602770268405, 0.3653937122264478, 0.3429721896178512, -0.7293132630856709, -0.06016533095705502, -1.1039217649510988, 0.1482252887942264, -0.42914821934345637, -1.0471289897694958, -0.08295826647032357, -0.1446420902595868, -0.055806854296436684, -3.2563620320756606, -0.14556121296564628, -0.025182538597962975, 0.722252529612197, -0.02012926213816817, 0.047085067112087646, -0.15633065833199508, -2.6353928720227486, -0.03641693161323637, 0.15528864552538552, 0.11385948534795633, -0.49073373269757087, -0.22548350720479746, -0.102782050544858, -1.164730275738461, 0.009264405240717623], [0.22895596835872326, 6.161904021337456, -0.10756757395848916, -0.6436644405230871, -1.6270212104781805, -1.3407570842635415, 5.88278777619235, -3.074812156232398, -0.3667181029134631, 1.4021407370030974, 1.417320892637868, 1.650579359069722, -0.0120128502805388, -0.10033262095125377, 1.6901446100799784, -1.9371394604371523, -2.480252166448487, 2.1423515010583807, 0.756851174026814, -3.515691705111333, 1.523772697246194, 1.5209568202830093, -0.8219836329636415, -0.30855001726408743, 1.0482659739524722, -1.01338651669401, 2.759770879348525, -0.41676299333087424, -0.03841962173927067, -1.855955865847407, -1.0689004453713262, -5.719901859711476, -0.4456495357038973, -0.40602948954367096, -0.03159270336546096, 1.2592191263494976, 0.8300761965514928, -0.29371980204205184, -0.6267047325960443, -0.8807244614863341, -3.052916015811198, -1.3762537742910108, 1.9276536684528234, -0.9628432665972505, 0.892123340463323, -1.027711316106444, -0.3953577428468402, 1.4931432674507217, 0.11193496607557271, -0.3531870182377706, -1.0470510248854579, -0.8549023344054417, -1.1395999403531798, -0.5005346195839244, 0.8096674338647986, -0.49972971660449966, -0.19170168955517117, 1.739642982550493, 0.6331908338967935, 0.1471529452092865, -0.2073526850493334, 0.2393307428296397, 0.30424900178970415, 1.4981409914929928, 0.0033351072331064754], [1.6030258822102192, -4.037167110526255, -1.7033478651165976, -4.099343426615362, 3.6874446435843273, -0.7578075795552955, 4.929533994889886, 3.2322311979565708, -2.6037684099720053, 3.1241371985443664, 2.119800287720373, -4.738732781265514, 3.129332510388795, -2.298738776581475, -1.4529764325906616, 1.8650106122013101, -2.126428846747916, -0.07492433410368216, -1.177602501885147, 3.926763353944378, 1.3300982723560928, 3.945160667973365, -0.012240087824620173, -0.37205305158620006, 0.7706262443406676, -1.2163565013468132, 3.193415448206121, 0.7355460027462124, -1.6626225346518098, 0.9300494248558434, 1.7940961380572518, -1.100880503045589, 1.23081570459407, -1.3866725347249542, -1.8658295166978485, 1.755272445855941, 0.472863645867013, 2.0494318952536963, 2.2644724461138823, -1.5921714052998213, 1.9564198415297416, 0.5748025962571293, 3.3241938844964625, 0.913718058703345, -1.2156487994684166, 2.6856178717995114, 0.5048100674808045, 0.15156044489314036, -0.7742535941275982, -3.3230590662026485, 0.6024696809037441, -0.611370347709447, -1.087384529154172, -0.6700392647954349, -3.302458960022204, -0.5790352077617981, -2.3647431230502702, -3.104534641444489, 0.26330048737142175, -2.7677797169941734, -0.17940923682737275, -1.0649369950905174, -0.02908205698894743, -2.475329846205941, -0.00651467706739288], [0.33072312495460193, 3.0425040424693672, -3.602532557097355, -3.2706629831526444, 3.529584756701102, -2.1781469061576915, 3.3409731542897414, 3.231340913200174, 1.2727900121338158, 0.5515006966253295, 0.48398654551099785, 0.45020272161946345, 0.4647935889345401, 0.9076881285127193, 0.6780937263549571, -1.4506066144840009, 0.6788672605528758, 0.6683886320272892, 0.6602846476978266, -2.6694572645105223, -2.7315098407262886, 3.888680970078958, -0.5488290640666009, -1.044309849118471, 1.8895843501950709, 0.5682745605471102, -0.23443453400634678, 0.895631100605517, -0.9890409631788806, -2.7363282983904758, 0.9730061894513234, -1.0334928602380928, -4.061574762681238, -0.13649802177243558, -1.0360625305925155, 1.2303821315336223, 0.40963796758584275, 4.258268842480263, -0.16531286681735194, -1.1436261154380265, -3.8338403572335573, -1.1383181558956321, -2.151047841229457, -0.22935632516729834, 0.31419137940707603, 0.4520103218400833, -0.7760837172759805, 0.403928829779219, 0.1917743747807563, -0.21777367240272413, -0.5525124747279544, -0.5355910825134909, -1.3278937878321073, -0.40343741340262246, 0.07116643139050259, -0.06870167727529608, -0.06406318461188315, 0.4001014393676662, 0.08247898134507638, 0.10745239773959986, 0.15926017587932492, 0.6159474316659743, 0.23989122123856954, 1.6374285389005432, 0.028628123175237597], [-0.5719390960795785, -4.973760184297785, 2.486812871044995, 2.3217237168869462, 1.1860724757315102, 0.7814419684728773, -5.583570002546808, 3.0924673619878593, 0.7601504178441164, -1.7645188466191815, 0.9666871375425278, -1.340917712138641, 2.57461581732147, -2.5814152433667172, 0.9144984382302215, 0.4888821418191734, 0.41542547195077434, 0.513038419368524, 0.4402640895396919, -0.20681511936648425, 0.8661153029923908, -1.2234757196689747, 2.148509513083297, 0.5995233047020306, 1.4523907220629253, 0.7024851657390809, 0.5893462470047545, -2.2852912149936992, 0.7580797763356082, 2.984337593116643, 0.8660443451255572, 1.6836020293984213, 3.1502027610132783, 0.6723008659579816, 0.4252679366057872, 1.6772476634789937, -0.585304084160628, -3.367045138388131, 0.33227179154669245, 0.9617074161138421, -0.5342811907161341, -0.3200973346745797, -2.139725654612644, 0.9243721782095666, -0.5064484683468005, 0.8844203606479993, 0.5563342622910025, 0.21022648807506977, -0.678573486727477, -2.6337804626325942, 0.04840734106717131, 0.35783944357902875, 0.22928494674507208, 0.6271833649657759, -0.29683966616714624, -0.08877506253000737, -1.8942005549332852, -1.615253171873672, -0.9272056125809818, -1.3690470270948967, 0.028990765778458053, -1.1302607421666824, -0.28792646042616343, -1.0881691916436618, -0.0009043192126087306], [0.6173762994389483, 2.677916081748241, -4.626120172727364, -0.40097026595459495, -0.2688505957093693, 0.5738668647269884, 3.94264911264989, -1.5271110558951184, 2.6624694951382146, -0.5371285815386135, 0.5618802351436677, 0.843064737741943, 4.872409921925345, 0.11776403925748112, 0.18120538027317404, 0.3575396498282295, -2.1140454629405894, 0.799707780821218, 1.0212127966815412, 1.0914932555032775, -0.028895059156859297, 5.534573854155875, -0.9821189298228642, 0.5153742953842052, 2.036771129238623, -0.8538122877680755, 0.9064456595471672, 0.2895302878545152, -0.34519002823331185, -3.5830884897968267, 0.5712166362357092, 0.07740166006782628, -0.8610390634546818, -1.0802011415400175, 0.027689069244406398, 2.3866624868539588, 0.8166708109024221, -3.6493796405115018, 1.1990380205126718, 0.14818341171125912, -4.949398938326221, 0.0657519466497043, -0.20983699967376568, -0.4697367074637259, 0.3884547464048652, -0.0810193346027942, -0.0062441064302714835, 0.2658953263243017, -0.19669590577366075, -4.002822790434441, -0.2721610698384105, -0.492157746469599, 1.0077702901098269, 0.15278979841370238, 0.16764921773651695, -0.3428532391362461, -2.4815398929306567, 0.919539567759851, 0.40772273456194263, -0.4347166072005986, -0.41780911017559785, -0.1132570164670996, -0.010341996495988113, -1.7044815839368281, -0.01207430338122181], [-0.3451496721898028, 4.353570099643608, -0.8310286508173533, 1.1235893196822344, 1.6178666299962667, -0.9574837947330564, 0.24864304924719585, -3.643758885527184, -3.6062714474641067, 2.2505133734016134, 0.07779888780762534, 1.3817410080677035, -3.0118884484074573, 0.8112086849690422, 0.8390100402367769, -1.4082802463899744, 0.8571159612291882, 0.6593231578490649, 0.26358529270239944, 1.5254824238331421, 0.12832442540603572, 4.954090192503863, -0.2764016858254753, 0.7192465656410073, -1.1856011714613042, -0.21751772783329457, 3.3090129146469, -0.12188885179030645, 0.33681304008846946, 4.173030063359306, -1.3378283308303787, 0.5510359793956829, -1.4440292715499505, -0.25339237327076103, -0.3902976702770396, 5.014744197693858, 0.23957928845002496, -0.18284165682127043, -0.06898927554558908, -1.0421761125136448, -0.8070797000684247, -0.37204228155276353, 2.481184734209497, -0.051179068456447985, 1.2736140858699279, 0.08996134120604826, 0.030581287176423895, -0.46066753495411683, -0.020354130610897525, -5.6036497734325685, -0.3914016085350281, 0.11264179491667353, -0.39803737220680746, 0.4103715143049671, 0.05507426355413788, -0.0769208279178609, -4.856800745476344, -0.696218817358569, -0.3436942335566717, 0.04049525234224314, -1.3124684927897834, 0.15543788892784255, 0.022782630560654483, -2.8349243737047076, -0.0033913445226924936], [0.8159906076602396, -4.068776765034567, 3.5880790757452306, -0.6320724036945482, 4.412890903128687, -0.08871076025088946, -3.8367688304023915, -1.1402626310761774, 4.637684416179871, -1.7776952974908664, -0.028262568030132402, -4.189988518964785, 3.4777159395537622, -1.514097078360777, 0.575383660526828, 1.5325009517625852, 5.364940647715747, -1.5391220014627016, 1.6937935310939465, -2.5344261807141515, -1.8207587091207786, 3.4919154918563757, 3.3633635778449826, 1.680021351190581, 1.4142638186540906, -0.49046220241063976, -4.2386095810000315, -1.4777664042083536, 1.3183004179585598, 2.701821153476933, -0.31638881211568365, 3.019465282563807, -2.276797846408999, 1.3855394561034906, -1.3102032872675073, 2.6344833661884497, -3.0384263958053723, -1.9010584904308758, -0.5132560632430926, 1.6415149016279758, -3.7705688291276425, -0.9355906315899958, -2.254184678265, 1.8091650405119786, -0.5498453024627168, 0.9569500284484747, 1.7487487067654162, -1.2490954622265174, -0.5852171058080156, -1.7482518505074438, -0.10549423091670507, 1.2425322556750233, -0.9511182820433391, 1.5027511749459146, -1.2087055336214994, 0.29762203863921394, -0.6539283687555179, -1.8335900492308417, -0.09504150261519378, -1.147780179297496, 0.12218397087765208, -0.13646103724411163, -0.7039464014903672, 1.7664245916825214, 0.009904645152927674], [2.809547006861882, 2.034018618359196, 1.8577150848474782, 1.5972595175449242, -3.903424673549615, -0.8594172153208438, -0.7113442769333077, -1.664522506011694, -3.1416918540535135, 1.6882163624944466, -0.57439482800983, 0.42432228061661553, 1.4235344403638375, -0.10897107684682024, -0.24791013280342222, -0.9552353315025537, 0.9152037214635703, -0.3191373621148336, -0.9848381417895906, 2.590753938275093, -0.5006470831573763, 2.371858183037604, -0.5577804609634438, -1.2882789798839827, 1.7054958312726367, -1.3849383401000543, -2.2451104698367046, 1.4634550415408858, -0.6104277531178571, 1.9660403872465921, -0.6935642094665396, -1.1018970502081145, 2.4452470412674194, 2.135548000037746, -0.5247145813469359, -2.3015092507362658, 1.2719626628751883, 0.6180976930097377, -0.023023277565185695, 1.0719546669271678, 1.2896085041259024, -1.3401963193883368, 1.2768885545917201, -0.8763816334510691, -0.323019600144597, 0.9378089889052278, -0.292310657332393, 1.014648698436125, 0.12872787453109424, -1.1041012741639074, -0.5423034460045393, 0.6986233276384843, -1.31305541065456, -0.1344303363632948, 0.22136692743021508, 0.23154626299272277, -1.4611078775211985, -0.09627033739196332, -0.7558075979308124, 0.021578141361619934, 0.03697604218859277, -0.2163442666002162, 0.5317715131987402, -0.09230869850384672, -0.019191270022048162], [-1.1076830399508044, -1.4492383814340264, -0.2524020365581029, 0.2887757024815381, -1.9941207301261634, -0.2914944445987407, -0.8493610695356915, -0.3750570988354317, -1.1729809762746857, -4.423567123006877, 1.8403984756251264, -5.122412271844452, 0.5074224769679103, -1.5740026851918354, 0.36718753541866755, 2.1448491897542006, -0.47984687687474414, -1.2457252005944661, -1.1096401055532898, 0.11898935178903576, 1.7351558386738342, -2.603033449040732, -0.8917728151147846, -0.29723365345315084, -0.4205238485017431, 0.05574947729378772, 1.3290884572307406, -1.2186580323238903, 1.7183279378921166, -0.23645926534472111, 1.4936062843447864, 4.154918071479108, -0.7501463193447386, 1.9758920891700809, 1.7320396780829244, -0.016864377131719118, -1.4035559030956364, -0.601880487592808, 0.7186792948897754, 1.4758993409801657, 3.4600934251447937, -0.3286077172447031, 3.151533818854541, 1.1870924307399984, -0.22134579033926402, -0.5902683258295641, 0.05627837348523392, -0.9248413465711605, -0.5009513144463498, 2.47034794708339, 0.6197930805983157, 0.20290490849825665, 0.3582368796166321, 0.31019244681319563, -0.34899229522504494, 0.31618957808759146, 1.4776373215199128, -1.7058196755882766, -0.37688143151572073, -1.57968577380134, 0.756109956529601, -0.5221723963919538, -0.19155090398436442, 1.5099966722230007, -0.002222552741925741], [-2.169543002895432, -3.7804801247022075, 1.3192196718006157, 2.40597130365345, 1.8344525741536657, -0.30139183064762626, -0.8773977214450049, -2.1426259744024465, -5.105816962354591, 1.9527594611704442, 0.8816668382889964, 2.752757052866254, 1.090840767186255, 0.9020016235605989, 0.19865389361911226, 1.5713461707872058, -2.7183975077568685, 1.458756291980905, -2.221800991956095, 2.5787295579160494, 1.8044808367036518, -5.309796077396221, -1.8955309957106747, 0.9904980419603453, -1.8508296998581175, 0.8596644498625746, 4.051330093987961, 0.7334876267377483, 1.1541253758065773, -1.0857532660904439, -0.5167977982463926, 4.655216800508353, 0.8854563817501772, -0.7683087647493879, -1.9497389377230234, -0.6153256535606214, 0.9639907310351588, 2.3311772514499145, 0.9291828847556616, -2.0943450567319792, -1.479397499259685, 1.1069826722680998, 0.6385471569354199, -1.2457141558284888, 0.21484379189775274, -1.4951443279928374, -0.7854055255855669, 1.0233886827068701, -0.18435048231263299, 1.847025001316423, 0.27969831590759714, -0.9122456965644353, 0.903517911539397, -0.1716523864148706, -0.5876874187332669, -0.687485113368859, 1.20863678033116, -0.9638796766477709, 0.28412428854829747, 0.13708248808262205, 0.591797557863308, 0.09555023393643863, 0.3767524410929854, -1.2129252074791217, -0.008235223514517559], [-0.6260166204266764, -2.451710597346258, 1.634807086455423, 1.4979977207316342, 2.1383897984095666, 0.8386191277307522, 1.9278601219988052, -0.8889133581043908, 3.028950400981698, 1.1069006820558502, 1.2092333633404448, 2.957183690006517, -0.33296338241119744, 0.017360695095420108, 1.2860076709963737, -0.5276234346205436, -1.0912218591530605, -1.221960924513004, 2.024246700037473, -2.55970785199742, -1.0863653559081914, -2.3973531169733415, -0.6979234086580105, 1.7651982640016795, -0.5171400120576239, 0.6044973550796128, 1.6044224698315714, -1.1155797584051048, -0.8428476995551919, 1.6557809946033628, 0.9117974697893007, -2.3696425135396373, -1.2225828253320352, -1.1574135821428708, -1.08754431708613, 2.116404240475879, 0.17257436212748734, -1.6905419567780189, -0.739342379307632, -0.7560913684620537, -2.930957482310142, 1.0403037263305168, -0.8145726220495604, 0.4450286578070925, 1.0451634862074581, 0.007692214620131164, 0.8718062978767634, -1.1007116954302196, -0.15087466979608322, -0.6482100356485515, -0.8237849929412914, -0.6027333891253724, -0.008149359707243724, -0.5354266497249478, 0.0513681672449454, -0.7267775211097658, -0.23816257726915468, 0.17639776818420275, 0.40929680756628256, 0.020043918060380136, -0.2946929762973748, 0.6596013505106026, -0.37684491519376345, 0.2636623989276079, 0.00553268747231395], [-0.4223880876954029, -4.376501385675174, 0.23439796218228307, -4.095493686194659, -0.675571239047877, -1.0563254606958026, 3.7844167725878193, -4.347088364926995, -1.7631926359462962, 3.4279979366418885, -0.21539549122848398, -4.075391011940568, 2.3942777629045486, -0.9580539761995924, -1.2168725876988609, 2.376801274235836, 2.315769566139407, -1.1682949688985143, 1.899534619928688, -1.7721648804070063, -1.4080319449450653, 0.917409987856923, -2.6773034846335753, -0.9791152227434287, 4.744002541237946, -0.55689858647974, -2.902922224536042, -1.157536135340731, -0.866245463392845, 3.2669144227378943, 2.3346485824578362, 0.008618673430300268, 1.5037712490301973, 1.8239331669774286, -0.45684715177548363, 2.1680748321105523, 0.6847123628783701, 4.417324869998712, 1.0245848705490501, 2.519053417724981, -3.719500034688271, -0.8177721990671252, -2.914662932686053, 0.6454842158599711, 0.24423835983135667, 2.140651608629991, 1.0619143000887525, -1.1943893247254207, -0.19509088052856843, 2.730166845005493, 0.8870336693652896, 0.4757905091287733, -1.3463430612136584, -0.6509240432166679, -2.0622420200010056, 0.43344486617210154, 2.2987600371132424, -2.0770839178045453, -0.1483860273937531, -0.8837290803113707, 1.196470490286863, -0.029622828052839056, -0.22126198614863846, -0.8316247682825807, 0.0294425807048365], [0.43585062830209503, 1.4624681682305463, -0.753968381498803, -1.9503026459095878, 0.2087778513610159, -1.5435059890483471, 1.195954596502075, -0.4917022962269295, -3.0518320559622087, 5.412968512074748, 1.2825559145293974, 1.25630695022255, 3.02424471579951, 1.4862299288867504, -0.3401549267938043, 0.3335846851246027, -3.042039111113844, 1.426719297373941, 1.4291621559948342, -0.8380839757736503, 1.6094951917869118, 1.4715691743417783, -2.1022962933218587, 0.13266769400437733, -1.7430133118159779, -0.6337176759791039, -1.3952396969540795, 0.833462266016463, 1.3221574016110538, 1.3074906680236174, -0.5788753685131042, -0.35679542404663755, 3.0904515092707934, 0.4660701419248299, -0.32134086874394535, 0.2034832983732214, 0.6291919230038612, 1.0682284588103363, -0.1719683384987562, -1.2850352845966577, -3.5912144955226477, -1.0516371757149316, -0.5124026460758593, -0.8244244740990001, 0.046192896730989016, -0.44001114863983787, -0.8013738493490083, -1.6754078250306472, 0.05300348497328859, -1.5076987538996403, -0.24340484155992503, -0.44399530605113646, 0.09383840650024823, -0.046274683861929, -0.01827720174998353, -0.45370142404488, -0.8724478600703883, 0.1542117218057461, 0.4266821654740038, 0.08541218522736818, -0.2621024262712146, 0.7715153573059582, 0.3369841487548649, 0.7523364516426292, -0.009264405240717623], [1.1904577209452278, -4.88826213202335, 1.3195767834240575, -2.878541966349169, -4.445368427528723, 1.5591528916669777, -5.555987917716366, -4.867020422010368, 2.416152983800456, 1.8974706081636687, 0.5185165615147018, 0.05177331039717743, 2.1099332060251244, -2.144452009556272, 0.758207798014213, 1.9146292025097675, 1.7493188732993963, -1.4929393229619794, 0.5003584129087596, -0.23280662190416287, 1.612037857473688, 0.597297809100608, 0.6490776801846881, 0.6026231107444666, -0.5947643576016939, -1.416443692480189, -5.508510535955742, -2.3250345661442604, 0.3592247195800458, 3.5583188752164223, 0.8180712957911884, 3.7457791939471945, 4.549557889816213, 0.5207694868968409, -0.715277457053053, 2.1685051584939012, -1.0282725436878812, 1.2212157798439964, -0.12873367454643175, 1.1509942952414585, 2.7703783300141476, 1.2301738578453798, 1.96231973891299, 0.5861839188858784, -0.5088054775192679, 1.1601019658547007, -0.05215489136712001, -2.391019006416338, -0.461018973871285, 0.10841451507362501, 1.008353042938053, 0.5414198653971954, 0.5169811123900605, -0.18340128178124696, -1.3909393080691186, 0.25371245803148773, 0.3726563586350462, -2.0637584406181895, 0.22389412198725495, -0.19788322103767658, 0.07372754969865548, -0.737467985677648, -0.5915661897359911, -0.06931157969838658, 0.01048038915260551], [-0.10619196361809373, -5.243256967194903, -1.9044905365585107, 1.2735394016880792, 3.630227150877056, -0.8446244952492648, 0.532391273973053, 4.068130342219356, 2.4738308594992495, 1.5270416476059088, -0.5306834066271733, 0.5870367923833576, 2.9827837193359747, 2.1578721292247787, 0.23248462205544376, -1.2772713659919597, -3.2935330057815952, 2.373808199592015, -1.7082709663787852, 3.4538240867502688, -0.6166695447013925, 0.07623237592347307, -0.9772529595973272, -0.2922187513501517, -4.984759412769092, 1.8515636599429088, -2.396983833255109, -0.8575680156898869, -0.2744643096215348, 3.9858637953328393, -1.012675149734442, 1.7863119260447564, -2.4824788443441634, -0.6555438752849092, -0.3374907164278291, 1.164955187678828, 0.11788542815979894, 0.03083390936407064, 0.786297632069472, -0.9034326040678446, 0.9809736491175516, -0.35506487732967784, 1.3998839400407188, 0.28665524222534383, -0.0651426858287797, 1.7165783133720158, -0.25560533785350714, -0.29233484631672146, -0.12297151416045445, -1.9208809899446542, -0.33376471327434104, -0.17714849897633952, -0.5971873275868299, -0.8374723000497334, -0.47710921748449897, -0.2204044714783998, -1.621685241167764, -1.2013501606955397, 0.030336038623781873, -0.1911114587247183, -0.11852347631698845, -0.15209734654280913, 0.22092253183951757, -0.6689586032529692, -0.0226689368179164], [-0.12514680125882863, 1.3187625352580776, -0.647010823261481, 5.955238576504938, 3.10277614426395, 1.5681580469472214, -1.521914516700713, 0.449554516682229, 0.13936076648177612, -2.9735136917295324, -1.62104272485092, -2.9870212596784795, -1.4087938376033615, 0.20498198861865163, -0.3356796085016931, 1.6239167419532745, -0.06444861526330826, 1.7453163035789934, -1.7358734369719426, -5.460995525830619, 0.5825161197338291, -3.287289781509211, -0.85763431932105, -0.45772839676577476, 0.5993042498113794, 0.3516066263489783, -1.8065653582890313, -1.2092554630741963, 0.03305277364988384, -1.7804999168653675, -0.7838205055042056, 0.9768296293017926, -1.543707529865209, -0.7132073880539369, 1.3773905957401464, -4.497307367958233, 0.06314327654609551, 3.940777014406039, -0.42067008598923245, -0.39690175434923786, 1.6497937193723011, 1.3608444948694445, -0.9878395007318853, -0.6982793497558518, -0.023922805417823993, -0.479760907833249, -0.9582977236913038, 1.2648905180150523, -0.06783345036102362, 3.0273194886862536, 0.4856487291259056, 0.16578533572446574, 0.5775488427010798, -0.11929261805992836, 0.26496053150943244, 0.435937931931892, 1.4505542936988105, -0.2918378393228313, 0.8171824565591006, -0.127098998936059, 1.0624284527346994, 0.20503456169892517, 0.12686881929776403, 1.584094298895399, -0.00424001634735422], [-0.1820089910997076, -0.56025254304096, -1.6018356968400318, -1.0159482314409642, -1.7518712417608504, -0.6614361045949941, 3.6114844433074405, 4.731724422743077, -3.0659143078591047, -0.4301982434102535, -0.6231402273061271, 3.8279684923131403, -1.518774396014548, 1.4078448621619744, -0.2890909711043835, -1.2113028854358927, 0.8705484152415154, -0.31348296636120343, 0.1650906444671991, -3.820148167118928, -0.24622857230987577, -2.2104189830160133, -0.38951758435503, -0.4523628655134127, 2.4662465288986524, -0.7285314290550379, 0.222337563290695, -0.20113004679219226, 0.16803060181352436, -3.6095146244141474, -0.53467645989941, 1.0465499231842466, -2.300895184763724, 0.11752469623599597, -0.14276676661616508, -1.1404243351734362, 0.7973087140269848, 0.2855928171338581, 0.5686108770757149, 0.11219536902291717, -0.1825132869204186, -0.7746895911595656, -0.19560922649616674, -0.15537275149195995, 0.2244390006588573, 0.043832587151995006, -0.11622201454931343, 0.20707511614722743, 0.0794888292789603, 3.2312452644607768, -0.17028591738722088, 0.2521767899760798, -0.24590391266796624, 0.3749417237020992, 0.2877145695551142, 0.3083792712369625, 2.2530344860215825, 0.6505228956741398, 0.3592403818466525, 0.8869332105547852, 0.440779516383909, 0.14430748116270897, -0.06070170303653688, 0.7130264260707329, -0.008856586574279155], [0.03624103966235735, -4.416245806654679, 3.0780606157609194, -3.5791463628121476, 3.73554506471663, 0.32571790294861497, 3.4510532614657667, 2.182187346533704, 1.4084449414667501, 1.2962346363684167, 0.8114644069693991, 1.0676894329081352, 3.0143972224347713, -2.8083359546897015, 0.5076195670986114, -0.00014591235023854142, 0.34184530750783004, -0.3636014757709309, 0.7242078080654378, 0.337820783008284, -1.649563395861201, -1.9043311282950355, 1.3259611453486098, 0.09439105459924775, 0.6345385603001207, 0.7525913306905193, -4.452005312554387, -1.5207264475707194, -1.374821228286934, 0.675191599632257, 0.7787821331399771, -1.1372982594500896, 3.4951734104946572, 0.596215730099676, -2.4965088080248132, 2.6275882839331834, 0.24881077578826385, 2.9308955002012755, -0.3453385151690126, 0.8428032724650348, 1.5850710092146711, 0.20100052377951658, 0.9038855274143736, 0.6323336716413692, -1.3037711933123495, 2.6917587289342704, 0.30199888299717836, -1.5018080635115365, 0.06487758346144154, -2.511794017491415, 0.23096362383505334, -0.2538788113923648, -2.4232682082238246, -0.04883418101145814, -1.3452251650574714, -0.24720346134305057, -2.0096469389397815, -0.6834118494980912, -0.1923126677238339, -0.8757646565724708, -0.05824261969316588, -0.48497095006524066, -0.12169745111916501, -1.3890052693198616, -0.04624809186483167], [0.2284933677485994, 0.17594859375474528, -0.13643826388003055, 0.8646801153206753, -0.7596495275795679, 0.3219214689792779, -4.129243109747959, -1.7075274254951402, -3.780737893490863, 4.2296782262554125, 0.27650295443732315, 5.0891999386008875, -2.511624601272769, 0.519921211432154, 0.03888121965799596, 1.2045117388130682, -1.2935664757766876, 0.6709784684008063, -0.8149914258880153, 1.2505200787085688, 0.9984993703403496, -1.917864326442552, -0.9591377094320866, 0.2202440525031364, -3.449266951717069, -0.7402776906162643, -0.29475267626494206, -0.05933273846461687, 0.4541262042883952, -2.625604353740176, -0.04257005804498828, 0.689426764604687, -2.3809110419821877, -1.214403122285642, 0.021177394974659144, 1.2473799643631465, -0.12522984615688615, 3.5374496813302168, 0.6323787800187416, -1.029177176928614, 1.043539121305434, 0.5461390014222077, 1.436100966558234, -0.6164132705507142, 0.13560546453455832, -1.0790475521578262, -0.9330727734671793, 0.2407974898832947, 0.05622870974560467, 1.3831631704867924, 0.14202143503430498, -0.021540388502093197, 0.634862230107219, -0.06055723578679997, 0.27103245729522096, 0.05365384459115975, 1.1959788090667283, -0.17885263125395573, 0.06820409695082115, 0.7952392559961836, 0.33497969820710427, 0.12235225825447757, 0.045479319097856644, -0.15925303783066252, -0.012519482484797841], [0.6032561992512822, 0.46249286163165737, -0.12706238220520155, 0.5969427873100349, -2.890030249670833, 0.9730323354527628, -3.591059229944834, 0.3573227722593399, 2.741604711437941, -1.524083781334551, -0.06601512588060458, 0.9408291170121682, 3.205306607267514, 0.5504078348221423, -0.13195335329581787, -2.283987294941244, 4.625884197128207, 0.7276505387117335, -2.1916387948969205, -1.9412788836189332, 0.9319964105061272, -4.05770756854165, 1.006094199635426, -0.6823831132619506, 1.5983086060634626, -0.23935018560599047, 1.1428594640792502, 0.9240845965724998, 0.8204467439492256, -2.8237209433601365, -1.990856396648004, -0.6881457689624444, -2.2956809270582528, 0.9645968683846836, 1.1588406740443766, -2.7420034654389105, -1.1573820009574092, -2.867062469765254, 0.7091188874629609, 1.286358804661661, 5.602879172860544, 0.33003907643660424, -2.7974855409116444, 0.1861144626444206, -0.7076465361604942, -1.3456904667623033, -1.334148931080546, 0.7202164914347393, 0.3601614618383231, 0.5649084841383134, 0.28935578663367795, 0.49233070756373926, 0.6857322975919434, 0.26392399760407687, 0.2892469464162321, 0.5158642452782383, -0.17554539556601956, 0.7530377905415518, 0.16189125731134682, 0.1834814758089594, -0.20896377712087125, 0.17067449763791023, 0.16725282627451393, 1.6129128885294417, 0.011251193960917364], [0.19103281192755675, -0.016183721033504635, -2.8091561964197362, 2.020933685543644, -4.521527396805947, 0.890299049034728, 0.14182386165842137, -2.6807916222121, 1.0688589670214317, 1.9475534546272906, -0.2564311736454111, 5.114916285417832, 0.29591017479909054, 0.7002112142604865, -0.2858899559563728, -1.0554967135045936, 0.4566695461216013, 0.3604730864980972, -0.7286822024879551, 2.3943977308712117, 1.6557215210612053, 2.9065892674727167, -1.1318719792703842, 0.16436746174415692, -0.4763577367746189, -0.6771061972671, -1.9209551207559576, 0.964921740297121, 0.38501960028144944, 2.573746237694888, -1.3249718664973142, -2.4128728011948364, 4.704792814905652, -0.8555080025500453, -0.2864733581279558, -0.07896176618642789, 0.34912931174081563, -2.2591351167845697, 0.1798721860707753, -0.9848559672189207, -1.1788429196648702, 0.3811986924484049, 2.4495009902248874, -0.4992209502459968, 0.2730622060415229, 0.6437542758980765, -0.7940525613873174, 0.14825434910300772, -0.028551122380080392, -2.5386910135005856, -0.10516815298114777, 0.007531332255579608, 0.09371683022243188, -0.7181769318143216, 0.15729693443482143, -0.04165580187961746, -1.681368964103475, -0.07566894231553421, 0.256034566270583, 0.3062632511795473, -1.2484175383928728, 0.011726169039844279, 0.34257419053233906, 0.15935605714209, -0.0011941575512443622], [-1.7787199183733389, -1.8384359556757452, -1.9290411872192748, -1.5347994063896389, 1.3741831353068752, -1.0143727990156717, -1.629845755352875, 3.7116289794178456, -1.8144198065601578, -0.8307406547314492, 2.2277503232346376, -2.319719335642824, -0.9142154847838538, -1.470164748896774, -0.5467607860689101, -0.912990456979316, -2.716477305938852, -0.5867835067761238, -0.768152275844957, 0.3820758789183087, -1.577568799122011, -1.2970115243979783, -0.8168094587596795, -0.7594658400014654, -2.269246808844693, 1.1676871584317474, 3.4817941627183617, 1.5799743869286158, -0.718866720514993, -2.4492193645193923, 0.8342552625678393, 0.9835257852687136, 1.802950475081983, 1.846692130637662, 1.203075346970204, -1.614155515849587, 0.989212319981828, 2.534896656191212, 1.8671810844872365, -0.10516439453468315, 3.435796072378982, -0.6331960352433901, -0.039336435720604, 0.2053987194692321, -0.2189568447791213, 0.6912012742365723, -0.21458855223975234, 1.7754391719077844, -0.16438250393886686, 1.4657445661579473, 0.300382346291055, -0.6662128260847209, -0.8646088777986984, -0.4133705195913478, -0.22982067604029538, -0.18485989330345198, 0.5982824705802248, 0.7320054445789798, -0.4077583971378052, 0.01817662647905662, 0.47463268692898497, -0.004425257071702091, 0.21975502495684537, 1.335752142684378, -0.020010840032518525], [0.22168290818411684, 2.466607991641553, -1.2063759516772297, -2.257665007775849, 1.1285880059553093, 0.34576839365874024, -3.5832123208125046, -1.5061640997681693, -2.9453013330038798, 2.471392928284445, 0.2293903130168036, -3.3633192715696225, -1.2999270131493508, 0.25986570108990437, -0.03960767748746944, 1.4020780236067, -0.19642101981595483, 0.8949903146298464, -1.8116287862076859, 5.165039943348784, 0.7125092305455438, -3.319537068692588, -0.44990726774973644, -0.39317311556487994, 1.8298904848518116, -1.5542429548326364, 2.230579477756686, 0.499305044014515, 0.42523893335978974, -4.052340458887116, 1.083946456902908, -2.98528131310233, 0.0112310448013808, 0.29170375584313507, 0.2914906520484959, 1.1643295429590086, -0.6359695844192716, 1.7736825974598107, 0.736600631190308, 0.30863580033511323, 2.2293192608662022, -1.56155290330433, -1.8562319412406774, -0.15521482615349055, -0.006531494258927123, -1.5526835728343467, 0.11628129207734413, 0.004508699667160552, -0.07438441166058746, 2.4632914235413166, 0.7691256128635674, 0.5006129410404514, 1.2006295713639126, 0.3190982351187408, 0.022655366116700156, 0.41783626467764257, 2.1300672539168897, 0.1894638149867575, -0.15361565350695536, -0.26657313888061834, 0.49688829510186344, -0.5664262326686528, -0.08938533962784714, 0.27096556419208445, -0.03558306349921472], [-0.0048877377070430834, 0.0907096510144592, -4.067502876402325, 4.336392679536744, -4.104800355443067, -0.8328226562539264, 1.2891415554062777, -0.8831333610343506, -2.2839673798982556, 4.3883776006115465, -0.7260140869642057, 0.39500111332216753, -0.10393682522525056, 2.69013327080325, -0.03509799050467023, -0.352849045554236, -2.9324980882848215, 3.278007267861673, -0.7849345469359474, -4.6820393823941, 2.3377696967903505, -3.0066704144162864, 2.491977568140271, -0.4960805406698441, 2.4422183519462384, -0.9316606890148702, 3.9039815416682675, 0.6845253000744379, -0.10117406631927706, -3.12118369653589, -1.152318530185274, -2.1198394261830646, 0.479085685241745, -0.650107689994485, -0.3539788409216091, -0.893828557947081, 1.8023890061623786, 1.1730870506890783, -2.3641884816130663, -0.6686154570531012, -2.9375313350052417, -0.7201636645414897, -0.4625958921252634, -0.7745202718225878, 0.5111461089556237, -1.1279459562771803, -0.41469497607716976, 1.9265677344238359, 0.23180832463914947, 2.562346041111925, -0.5788053079517045, -0.08603443967026031, -1.315080267899849, -0.6723559215852073, 1.5155923427394216, -0.032557965838564705, 1.9358271801141997, 1.90958288660689, 0.28105321743159484, 0.5139073530045687, 0.2681971689353067, 0.4866429922494516, 0.3701056138449811, 1.5317308967944259, 0.014586891095662854], [-0.7802754197573931, -0.02653392461710667, 1.2952854940265257, 2.477280589706878, -1.1527831442247396, -1.1167852302636143, -4.473867748868549, -1.1323604315537328, 1.3707998870936928, 1.4642290473023114, -1.4304128443956814, -6.680769333571876, -1.9963750177629827, 0.06854167235175691, -0.826518436231881, 1.9209690356612192, -2.990319299218387, -1.295998913871859, -0.528978259041344, 1.4192731635197686, 1.0928040827195518, 1.9107390521686387, -0.6482740407324911, 1.6728356741223482, 1.6065808035819746, 1.4556215418632803, 1.1232995989840415, -1.029662012399218, -0.6214366499046365, 1.6713203740269984, 1.0368672079387815, 1.5734494298949382, 3.5039257019034227, -0.9170887395616169, 2.002891587793627, 0.9770472567332062, -2.074469595162629, -1.3892070862581087, 1.8265846332529725, 0.2070668923577646, 0.6066033666436355, 1.310402691306563, 0.42798354043932246, 0.4820189783556727, 1.4134196377827164, -1.363845075790784, 1.3767543901066928, -1.3786847305184171, -0.7021119516126471, 0.8110067963063537, 0.810708845348788, 0.8919243736694691, 0.8750418006684627, 0.21568967294157287, 0.05817546295887031, 0.7058265826555787, 0.3396706922476419, -0.8624503520055555, 0.2954673282941363, -0.20020945441939733, 0.15296324335960695, -0.5023936821184847, -0.5730420360838939, -1.1700541204289399, 0.01230869096579011], [1.5883303004643567, -5.325091090876895, -2.092415448140592, -1.1569094679187544, 3.2747629424577913, 1.359611641361312, 1.4990723550261684, -1.0901683528373005, -0.2338633792818536, 4.995951908962092, 0.773114002070071, 2.7832549726153997, -3.5893553606418176, -2.035846274250897, -1.939285383655896, 1.6470334627895538, 0.8223276666115504, 1.1481181959312339, 0.4158813208155857, -1.130742790195161, -1.5193002711437749, -2.1966327235746705, 1.3660634752645233, -1.953406474557976, 3.0463719094417048, -2.0170301065055325, -2.825192455816008, 0.5759679845520185, 0.14029167723229236, 2.6646971774828057, 1.2243213986769828, 1.3377123601913414, 0.7044905308356418, -1.3298779113730708, -1.7956993628984659, -0.47639251623267226, 2.9357521618282023, 2.6814733775843367, 0.6017100773111635, -0.458497465378906, -4.0250725737398, -1.419459754551327, 0.5191284070409404, 0.31206083456511724, -0.28927358296180306, 1.372213150972655, -1.2473863689743372, 0.17622191885384675, 0.2724068959632681, 1.3134744578551547, 0.7466181580219206, 0.46701977034160974, -0.6166351878063956, -1.2406590293163124, -1.1470619164995797, -0.018410353138485294, 1.1476901081475723, -0.9203024755748155, 0.6368879459653249, -0.0027117035657670966, 0.4339706862846239, -0.9020869857870117, 0.21387791630461095, 0.15898810989863923, -0.008158536301445715], [-1.8270994887222483, 6.908767250710416, -3.8514566871312508, 6.461645975092404, -2.007481066722931, -1.5611201007579518, 2.4833696876492684, -3.9897613206502633, 3.731450193879289, -2.321542058514116, 0.514618096460666, 0.3788723367090202, -0.7602185023683404, 0.49589007958683384, 1.1997247399254878, -2.0855226344891116, 0.40127095824793585, -1.1411352363657334, 0.2130517354487112, -3.3626277871246315, 1.2734485337154817, -0.37983460118397944, 0.4909581279103993, 1.252388082035802, 4.262801219404494, 0.010463199300058018, 1.6892485967621875, 1.2378376315900204, 0.5919420352191345, -3.5162223608638943, -0.6836084514198056, -3.87613361065753, -3.1691215602139864, -0.7814191194945509, 1.4123202652995521, -2.2980580697365114, 0.5155221495833123, -1.1469783622928922, -1.2401795752057407, -1.0450882241188235, 4.333104173169793, -0.4916661496165782, -0.5429097217858694, -0.3640560247280696, 1.3236539787229888, -0.3359641730284396, -1.4902902496643529, 0.7429325547899841, -0.07805224845032926, -0.106142501533031, -0.28707493502276815, -0.4823918974975728, -0.16266215622343255, -0.4395989168753724, 0.8826077998061889, 0.13341982602130198, 0.10358183428626067, 0.7965712007575811, -0.1774024733855353, 1.3310420099444293, -0.04149762887110455, -0.46517309858370764, 0.16030344932402948, -0.6084016738180223, 0.020454052797297843], [-1.4253890031675236, 3.6496542085642414, -0.17516108369823058, -5.15741223353648, 4.688580401963857, -0.9059721059830373, 3.9608516377350895, 3.0517433542472276, 0.6868431450908962, -6.09180032356606, 1.8173206523554974, 2.6607580956635335, 0.7540091728567959, -1.800750603085139, 0.9100053145657363, 1.0748854434317923, 2.132762499029223, -1.9209770590711621, 1.8283834620474242, 2.6349256261925627, -1.8593936593027467, -1.0284079432188544, 1.874338956792237, 1.4038036156235472, 1.3332707604701455, 1.5402770189696182, 3.0217419265959724, -0.8241258990024826, 1.3275800413764276, -1.270375520506245, -1.5296549368368588, -0.5100433162612148, 0.37060440392402516, 2.052284769717142, -1.8826884735564582, 0.9729960680426553, -1.3482580933926482, -2.021189694207779, 0.9111941947717809, 1.987582536181819, -3.422492357525576, -2.0470058199214587, -2.8512676024732997, 1.6400949372464124, -0.157987173978904, 1.966083755361823, 0.981620070093606, -1.5384617418347628, 0.20368383424230815, -2.935489635111395, -0.9378469220769984, -0.00018492398003582884, -0.5187328231807135, 0.5521015875777341, -0.4628128929451484, -0.35592837737657557, -1.6186558791500998, 0.12474802840220939, -1.0651342729700157, -0.1505252299028821, -0.49652175232402135, -0.5478276860513199, -0.01952611524073234, -0.9545073642166451, -0.011740419053539787], [-0.4909458153345153, -0.46178966913799685, 1.347381527185922, 0.03207868970551497, -3.662483024280711, 0.8912113081740743, -1.9078353238815036, -4.986435375450717, -4.1843711286632335, -3.432801412508048, -1.298117341778931, -4.397582486036285, 2.5289773869682297, -0.9292275090240062, -0.4107024261486485, -0.18208314098370543, -1.0216191879822063, -0.7580934337963796, -0.9448547627136555, 1.5313468528065701, 0.5496831870363312, -1.5857295201729646, -0.029183049610509562, 0.829475886735961, 1.422525402497003, 2.379060534788604, -0.06936761709402807, -0.6382419382284557, 1.6512800933497624, 3.503676488814381, -0.673997487825828, 2.398667756563989, 2.678800160227643, 0.9822264866272364, 2.160318832836338, -0.21136117960560613, -0.5661045947764124, -2.5596887006698714, -1.0874262599839593, 0.8710896705031426, 3.1231830520754293, -0.11333240338776066, 4.884954900499711, -0.18793872932229314, 0.014256530954467002, -1.0140755781971686, -0.12063956732563537, 0.050177053884089405, -0.2816594035188023, 1.1682976935481604, -0.12435343106283395, 0.51671629267137, 0.6386221523017811, 0.1430663863652294, -0.33383671432235407, 0.07153101604248595, 0.8803051243212486, -0.4329710996715708, -0.05401258513110491, -0.1386252706525787, 0.49506488224048006, -0.20458096043069288, -0.014309706887741025, 0.30902271369113726, 0.006603948848763692]], [[-0.13682770144517317, 0.9966065420740079, 0.2608090349101766, -0.5956235775367069, -0.5912756019392014, 0.18291989358908453, -0.3727182426840041, 0.5034052363059971, 0.6183558431111033, -0.5364474272619518, 0.35934983546850463, -0.019157366879973794, -0.19973608866091463, -0.381832729220059, -0.6098073421528801, -0.5729135879340579, 0.5861551103100705, 0.5192079790103173, -0.6132467873831726, -0.585192750061798, -0.13814539444314688, 0.2507749858924706, -0.5175888778052304, 0.15303018358487563, 0.35832204664861583, -0.07145003982493793, -0.21361411097749933, 0.1863003961061321, 0.16249289306122072, -0.7122381879505458, -1.1025901804326612, 1.2856732956450438], [0.07756948147374815, 0.6773958588288328, 1.2486375279491744, -0.23844470803289614, 1.6613529593224197, -0.11871966367516029, 0.061752428303540295, -1.5460579116467548, 0.29338416397275224, -0.3221509256938637, -0.9790128486673741, -0.6051900219170468, 0.07965082169147755, 1.1973157427555492, -0.11925942885607835, -0.189450940723575, -0.3726417492704996, 1.1045921904465623, 0.18144985313172, -0.08006625365610034, -0.1303436606306732, 0.7957857449430897, -0.6669234458996522, -0.6937208516874088, 0.04444846961642908, 0.6195428062978275, -0.55587222501928, -0.1164407054451481, 0.5683568909644476, 0.08921289115602317, 0.4441687225076245, 0.17194176333776098], [-0.04225777103074888, -0.09337272426557669, -1.0570339405617704, -0.22179239891224045, -0.20098549328474227, 0.12309111861016574, -0.6938177017645135, -0.11289970704729481, 1.3451471601221814, 0.24912277315769712, -0.7409014702554504, 0.17371637749603377, 0.7553088245174424, -0.09847679536499297, 0.33985537940455607, -0.2948645936015034, 1.0311253583131195, -1.5717832424075908, -0.3226834459383338, 0.18111892954508843, -0.6630737809701819, -0.3937803285488265, -0.44915879176623136, 0.27570104569762355, -0.27475628671528335, 0.3276131673465729, 0.495546836804756, 0.04749740402302071, 0.5542860710164313, 1.0883044593888702, -0.5830604630924061, 0.629981706517591], [0.3720197038267025, -0.1402040962513259, 0.45941475573398827, -0.4162581648851561, 0.4997143505301803, -0.6933014627716342, 0.4415754766765063, -0.018560092172994057, -1.1911040857670974, -1.2321684471001948, 0.9523329750282509, -0.16597676449100432, 0.8563503778527081, -0.6261213679704449, -0.7102545206061271, 0.23006763704586647, -0.5431825470725015, 0.5816888267179395, -0.10314803617631021, 0.1198533662268256, -0.4543006973247954, 0.3331044108463667, 0.46336720942248627, -0.06412789104226063, -0.3206217933325605, -0.2894746731150511, 1.7750330146856252, -0.9775376004918783, -0.09176258735175741, 0.6734490836529606, 1.8576277571906799, -0.19845313003669318], [-0.1801455358646297, 0.18209759547134077, -0.26574366483433515, -0.38503324388788296, 0.2856925800413132, -0.13569341689573297, -0.21121179157622813, -0.785020069232594, -0.634826832657439, -0.3972182214461563, 0.27068851509195924, -0.6127797134239038, -0.07079738906177674, -0.06088571153610518, -0.07685652646755098, 0.004208073403810095, -0.07278102391792399, -0.5696644163387256, -0.12135687152767383, -0.04755257944267298, -0.002210333688049831, 0.24532725445608466, 0.19831868508391917, 0.130095341921527, -0.18847506095073174, 0.1164349942816933, -0.5106945373900812, 0.054721411228612474, 0.43171970950376254, 0.6441614305938314, -0.5221436072337348, 0.2726616833015558], [-0.8738025858071857, -0.13728423295273015, -1.6757296880392243, 0.732929290219143, 1.1420512469054995, -1.0201082693647072, 0.10686000692874302, 0.4270307686343393, -0.5346979370899406, -0.4663324273198084, -0.45365705712658133, -1.2299929720117804, -0.2595597502411314, 0.22655114433069318, -1.3085056315346844, -0.2884406918041194, 0.7825143552130411, -0.7161992182184658, 0.3586473850972497, -0.4945219581185518, -0.49736120443812115, -0.7187316121836075, -0.4249952869609889, 0.8066083685879888, -0.09436149442296182, 0.03723775922783657, 0.9166363326770066, -0.6518668306813845, 0.9571972741581576, -0.9412398210055485, -0.17199415203474697, 0.4029389119114649], [-0.1503049522715998, 0.3042005777786803, -0.12819185543399525, -0.3982504684229503, 0.8897916444179177, -0.878991792445178, -0.05356005946440433, -0.3775413220125428, -0.27188873166910565, 0.09877284848177302, 0.6535365533720721, -0.7205051928126064, -0.37229899860442717, 0.9461807411877007, -0.5116979814171008, -0.020674766343322576, 0.34132988251252155, 0.3106240597780219, 0.31132949950135963, 0.6199038680245333, -0.5224349357725518, -0.2530371193563888, 0.05910506313615218, 0.7123306112708725, 1.035138998021674, -0.09486231826284826, 0.5510335110969299, -0.0388756387277544, 0.0581076750326386, 0.061026811710622415, 0.015085112240902478, 0.035772834693620616], [0.7853241698293209, -0.7786222069792915, 0.7111447805800504, -0.25933100000276726, -0.4721238166341714, 1.0522297510085044, -0.6247984193601406, 0.5690536896295099, -0.4978531436193389, 0.5126620485665387, -0.8229053092619036, 0.8075556900238937, 0.2640722129672694, -0.17765475625199495, -0.02084287305831865, -0.2893518289190167, -0.24244288041492174, -0.4265820467696416, -0.09773102258543208, 0.2313441544288804, -0.9417023154313429, -0.723769431154833, -0.2662615964939946, -0.28827054172726524, 0.10862825360159513, -0.011435010740952064, -0.5010331403848732, 0.3773232860516647, 0.5230936997050653, 0.06915249869982068, -0.7610479213618065, -0.7359962510672362], [0.12561244492792834, -0.5354346321631734, -0.3793736314600699, 0.08288670558880154, -0.20813837812019426, 0.1724863719954744, 0.6385526331085744, -0.02240419944389949, -0.18688414788569296, 0.4884743498617261, -0.4926448789078576, 0.32030248210889495, -0.19885075383792944, -0.4010743471026907, -0.7349385406008, 0.34920092325736496, 0.4553146576051121, 0.29761428061620643, 0.6265195326568819, -0.5696638086700099, 0.6900073147408696, 0.026608604298675186, 0.6220004477699732, -0.4832493560289747, -0.6264045840861715, 0.16815908089997028, -0.04546202595350351, -0.38234668196570554, 0.005084821053731704, 0.45147520203888214, 1.0795745392763876, -0.1872108526941798], [-0.4289581472405264, 0.1372997609830693, -0.22907249573913, -0.028413035581794803, -0.29327773359703446, -0.16979499089241798, 0.4399487994384277, -0.09254373940986223, -0.7076058318045582, -0.9338462127512195, 0.6648346319350193, -0.6074002811182525, -0.3769832741074769, 1.1229953118812324, 0.6780238842012537, 0.35341644237655573, -0.443647689182171, 0.0008353532373914053, 0.17917563011754523, -0.6402351237632252, 0.5971875405353023, -0.3478107813219326, -0.21498983049939271, -0.028271481797910468, 0.3423874475384146, 0.013707236079915003, 0.5947478187328854, 0.26792965024147863, 0.18878413462186572, -0.6459071029404087, 0.43466553744359204, -0.506354976363937], [0.13937761488432462, -0.9799117110616472, 0.8209796710047053, 0.5961171225781862, 0.9487645893168506, -0.041059925380599556, -0.0693618226287885, -0.13460438113591813, -0.048086622945229425, -1.0249822796847243, -0.3315805827808376, 0.3070121737531656, 1.0908296240932815, -0.8818339399781884, 1.2979781561908064, -0.2301360662184133, -0.09828062141295262, -0.5648596390347899, -0.40649171453850796, -1.0340635814920913, 0.013580487686984761, 0.8573885803007849, -0.5086850332886148, -0.2376326962933526, -0.5518433557682174, -0.18422252770057873, 0.2804316432860769, -0.19469236293504702, -0.7532302681983296, -0.4604522928150332, -0.7289222983894461, 1.4497326737686305], [-0.3235316169047596, -0.12959399032312227, -0.2980203477647798, 0.04377771283325077, 0.7515686391260394, 0.5332092496044971, -0.6590048054093393, -0.4848253950789737, -0.5682020450533867, -0.7408508055375587, -0.9156266452414387, 0.8345403549717145, -0.5038766452047247, 0.4854967826124042, 0.1683925381474904, 0.6778361358390601, -1.0615711343410736, 0.17191320026115373, 0.6619776464948108, 0.19404917998994087, 0.6571350065243543, 0.3754015900584625, 0.20272756873586203, -0.5542291854762422, 0.045758585155874, 0.5174734097670449, -0.8764403845649839, 1.1480893537666572, 0.6492446172632496, 0.585702952984056, -0.8211572182253551, 0.6275751891069078], [-0.17127103869308902, 0.6276934886734982, -0.16930459091325709, 0.989794803288248, 1.4733113671419549, -1.3481787958352607, 1.2837363120983654, 0.6681626780956547, -1.8521153856903063, -0.4655001038029127, -0.15509085031970682, 0.16111038478601866, -0.2771645551761147, 0.5518409186776949, 0.2197609133554801, -0.34877884701604916, 0.4190294601179373, 0.9760409010133505, 0.5364500445772067, -0.282654455257061, 0.7075516819044043, 0.028336747084239795, 0.04637886452302602, 0.28049992125093137, 0.2042627902714438, -0.08627932883013703, 0.8671616341089949, -0.14058630940881528, 0.6118540894630318, 0.1767115223324109, 0.7891935269864632, 0.7091978372225127], [1.11727491304427, 0.5853286674776779, 0.302924922015924, 0.7869180210903655, 0.7091234606953472, -0.20306560546565144, -0.34459465320625415, -0.4896261769417761, -0.08737782320153983, 0.6662154185283298, -0.23404508491812068, 0.872314992820641, 0.7387621299522784, -0.3525800114308349, 1.5505238629709976, 0.8614346679322838, 0.46685606444288724, -1.2823255231585655, -0.898529975281029, 1.2767384814938516, -0.48163743223739897, 0.38944150248568415, 0.2208212857953519, -0.1265714634741742, -0.03162924068020244, -0.09328432800342194, -0.536184504640519, -0.495447890949379, -0.9810107863921861, -0.372377658436927, 2.614341309566047, -0.0816621946709492], [-0.42338553130196044, -0.34940626428840377, -0.4304150828031883, -0.2440228845728805, 0.9084870675211235, 0.8150172716917032, 0.3482014965789476, -0.10322000584415124, 0.24846591976479707, -0.3237120554887008, -0.15091691915253344, 0.6673656584580201, 0.8909697969591114, -0.13876798791047254, -0.3624364237562527, 0.24290821503601426, -0.4359996083996313, 0.35300834402638787, 0.262202681666081, -0.028577988534600782, -0.8135816408432288, 0.4906786201648047, -0.4410052785596228, -0.03262003172821447, -0.49124063406951124, 0.38340011396984586, 0.2149604075572914, -0.07035430920043069, 0.47306596457866323, 0.2689156970672544, -0.9360558986093371, 0.17740228197871774], [1.145033245627633, 0.7392514760900505, 0.4752458808437775, 0.020755976633739525, -1.6237811490975114, 0.23752334180751825, -0.8895473279655081, -0.453060038487645, -1.2524934234776752, -0.643051361307322, -0.7972500816805965, 0.7299791608696589, -0.5656457522547725, 0.5639613429360563, -0.6123979375292504, -0.3832595154960249, 0.4164758941853291, -0.629515334567057, -0.12778402593870625, -1.0452450036454093, 0.09480215769930216, 0.4051267156777774, 0.5264116295194222, -0.9295916009835524, 0.18592725478199715, 0.7221134125162689, 0.5465049504210817, -1.4236097773421075, -1.7372354107970087, 1.0053358728108752, 0.05457150158748216, -1.7485842993937633], [-0.2908214793220434, -0.46135377984464804, -0.4472216075301633, 0.18239079651358542, 0.9332015482791558, 0.16466691965565566, -0.45091531940111906, 0.7049824326314335, 0.231421139762255, 1.039997500902212, -0.8176470993252257, 0.023580835002510996, -0.029740335638890315, -0.32459490174872346, 0.044250750006135625, 0.23629607065843727, 0.2747761399206332, -0.34440240468843814, 0.12358624921772651, 0.22021683623011312, -0.3071240178052017, 0.25263940852226374, 0.26444470405386233, -0.10562591474149897, -1.7130955604476068, 0.405693932942306, -0.05830064076107695, 0.18660968230837469, -0.37164950811352854, 0.39271989922616307, 0.82613278456162, 0.19481827855742387], [-0.5925125805271961, 0.09012765954304253, -0.2823121204499783, 0.19972645377386894, -1.3036608264986709, -0.30246558511709376, 0.050980214618804955, 0.11246145025277329, 0.8320207601552183, -0.9222608648464677, 0.42703837037149867, -0.014487737294495522, 0.22603866863579003, 0.13877796665940187, 0.20284085743262253, 0.1937964089360479, -1.547624105042903, -0.41971983180946654, -0.3306462624070012, 1.2250245280315784, -0.22263705184023094, -0.055245066867991834, -0.3351538261170786, -0.5247924148259347, 0.007684816837349284, 0.13915733460749416, 0.46490841650245346, -0.01874428577191916, -0.024906787442077118, 0.506822574345367, -0.7485887872112261, -0.47448570982598337], [-0.16530597137466027, 0.24224712035825993, -0.3176929406357802, 0.2582197947066559, -0.7629538478266857, 0.3418571079720997, -0.5319239206210333, -0.24151882597039312, 0.2764255828269457, -1.4548516361650048, -0.1487536418231337, -0.37666548866290733, 0.023107615772433664, -0.13996174321751728, 0.3814985039251167, 0.06310347740153131, 0.3229256973472971, -0.9752157124540104, 0.3938019957078299, 0.5239729534915019, -0.3295926103211292, 0.6778001577271878, 0.031288265975117135, 0.3434129815133122, -0.2539560657092145, -0.31491253046155915, 0.6081841411318786, -0.8354233654496739, 0.15834007762137503, 0.7263328233290787, -0.9441500655633139, -1.437414477002838], [0.7357706799072443, -0.32551536091165856, 0.08103371272351109, -0.15701390012759645, -1.4204595414462846, -0.2646256015765924, 0.6571499188958296, 0.279210573145766, 0.12070866201404605, -0.5708138055356088, -1.0322120464153148, -0.7632197688117948, 1.6162309217108037, 0.2612699761193731, -0.9675960156631243, -0.6215446080041233, 0.5457775769265987, -0.5665186066306819, -1.3693001396182858, -0.4654959174733088, -0.2864922711424739, 0.18260750082175073, 0.551869124943213, -0.1280245761244412, 0.34470328453938576, -0.2762114883181883, -0.9281781646422897, 0.14735810705218155, -0.9593773901851984, 0.7447492388538822, 0.6395414878830599, 0.6123281503585395], [-0.27215489698427237, -0.36645647880111015, 0.4091274054646389, 0.9804622153865342, 0.022464952433143073, 0.2806368375170278, 0.22315345390953661, -0.1273135056441287, -0.4328807182400429, 0.6855726584124588, -0.28723460052815236, 0.5158365402597883, -0.45197475230563416, -0.71268447653361, 0.7149247324438179, -0.2881648554323115, 0.7560200242670653, 1.2170840271251087, -0.3655075632465617, 0.4899287404905441, -0.4788810240036304, -0.2535673004887769, -0.3610027309867953, -0.1452833279857918, 0.246691203276153, -0.48700053165608415, -0.2783272872591572, 0.9773300288183981, -0.29781127613218417, 0.524420947290766, 0.17302631497319676, 0.04420070174593285], [-0.32185937173228185, -0.08561415293404494, -0.2693605142826072, -0.22711076525657506, -0.7060359952734974, -0.1281037207281283, 0.12463151799720695, 0.04427462273110135, 0.328791370067609, 0.4072767346759069, 0.5046638114031551, -0.11250144256446044, 0.34882646478694246, -0.91616723602618, 0.3314981684364812, 0.43988636720967067, -0.5798803578799184, -1.3569252124838742, -0.27097772515485796, 1.300538389711834, 0.3153577934362334, -0.28826526840199096, -0.3644044448148099, 0.9429386553502543, -0.10581816232852567, -0.10372477993257319, 0.024245042642925662, 1.5328248768899695, 1.1171993151009825, -0.34243727278500624, -0.16647611098150872, 1.1292987840962336], [0.6685528827242996, -1.0754347986565689, -0.3517278215195812, 0.913159691045913, -0.5719559073259594, -0.20922249874511348, -0.8834327281619782, 0.9912466129561246, -2.020468423802513, 0.5335475269984203, 0.36534529584821923, -0.10713448184949759, -0.3089197681226436, -0.2257227819760375, -0.2937549580491362, 0.9770497917442529, -0.27801142691523595, -0.16434273058080265, 0.002731738645930634, -0.0988937891165524, -0.26666099670733634, -0.6908893335269823, -0.07309875191139474, 0.2498918929903337, -0.5634971782457946, -0.20420237799116092, -0.31361863839984633, -1.2699416618945503, 0.21468534734629868, 0.6315572074394046, 0.23115890864412192, -0.032541627009055114], [-1.328338317185811, 0.59976603264938, -0.8039736416849752, 0.09976794992152554, -0.023817916141852215, 0.20974302293639902, 0.9196768675826611, 0.8679206318521209, 0.1101081425204627, -2.116190358035934, -0.6793227364650104, -1.3830565869384954, 1.178376124266875, 1.1106299656427259, 0.5672461463516784, -0.3610098140769031, -0.12225893206246648, -1.0938278575237024, -0.7846040748382448, -0.2030964929820662, 0.005505180559939236, 0.022091222215154156, -1.6390487606638142, 0.5146535111771295, 0.8499759090387232, 0.38793352016886723, -0.15899316811330422, 0.788203734726592, -0.5383827242793676, -0.2913653601171838, -0.2805583957071728, -0.1865518306841925], [-1.0658110796856297, -1.135735667318832, -0.594616524334308, -0.9395089148389412, 1.3957427469433923, -0.1879019753433221, 1.129917602486851, 1.4442266839948055, -0.9774674648837053, 2.0473046567193527, -0.3733703617086421, -1.558224676974255, -1.6329178836010345, -0.8560276965508385, 0.19671599768964107, -1.2971974219537874, 0.190344747688649, -0.2275457742703687, 0.7068033851636814, -1.4439974697977687, 0.6336007040428437, -2.0341501699471998, 0.8723479223907015, 0.1586031325787382, 0.057961510190188165, 1.213810920979782, 1.0145958450499581, -0.31640991602070095, 1.0877180933354222, -1.1230093059326764, 0.4432006839084644, -0.3844550170579992], [-0.8674718326930714, 0.33003640979912646, -0.18038007831605915, -0.9060367752492281, 0.8468360767531007, -0.23727956599885355, -0.07487476610380847, -0.4941201824694275, 0.32857386462608407, 0.29312177324497385, -0.21318152277977437, -0.5679976502493971, 0.18625999149435965, -0.5929750759324113, 0.2876741547262059, 1.0122832646610949, 0.22517202459383306, -0.13826706185510065, -0.4592628611991887, -0.19074242373702435, 0.46575354598643776, -0.5954270857304371, -0.15366012440664548, 0.006647835407505184, -0.0618077171862341, -0.49978368730357925, -0.31959045331611474, -0.6103492262462112, -1.2576298814081859, -0.19771794514967272, -0.3533928555954627, -0.8799146483850513], [-0.67544327821834, 0.326148217698873, -0.04100856826510739, 0.7755498846638447, 0.9175606743301046, 0.26759443625162815, -0.28901074541893806, 1.0716295516337688, -0.01421260402042201, -0.3325361598625717, -0.5193604114414525, -0.21111769604380132, -0.12633087948984273, 0.09512418949608657, 0.5636144882111619, 0.2964947644944833, -0.39476961941296307, -0.05155960430990856, -0.2358160300443223, -0.3187397603648744, 1.0296181582943629, -0.1006859353097827, -0.5871938279953867, -0.42670552861835004, 0.5172041987142557, 1.035894854119262, -0.003941238545205373, -0.040220471543130784, 0.12788807820479817, -0.2501692866510419, -0.8680191795587389, 0.20318547166311954], [-0.39825487083386696, -0.5612704415500376, -0.08070046002072116, 0.803234383550996, -0.2258998801097327, 0.37262010004723845, 0.4286764535092609, 0.11304749735027768, -1.0793347280576113, -0.3172349367079024, -1.036270697204652, -0.2599613107839154, 0.46962089831731657, -0.7980908001431051, -0.4483363583767241, -1.4518566615119035, -0.9757465196776222, 1.4707555488890056, -0.32779740218213715, -0.3475099545483357, -0.007985056868047357, -0.022890487325207123, -0.2993575526843785, -0.6508547873551981, 0.27390404784896416, 0.3015038351776177, -0.09976158368594631, -0.5128926511911863, -0.3568776827513052, 0.49046231862568446, -0.09830729713457237, -0.03432927599258611], [0.8864145615458727, -1.0223373734409418, -0.26950011956805425, -0.1036363518120209, -0.20038589001069132, -0.7741484795253453, -0.2761695091659867, 0.6612260660574272, 0.6543230187062997, -0.30450450075289914, 1.3341168719092726, 0.5133843637207967, 0.4472533769600654, 0.14371028641611563, -1.3480432396410225, 0.2712973567548723, -0.8451503280548603, 1.6274994542877057, 0.14233951448338955, 0.4661412299261519, -0.39516066415910917, -0.05724386879942099, -0.039378481690093683, 0.32856374661321164, 0.16945694384737595, 0.0874290124796067, 1.1091788964704083, -0.1844631312379032, -0.26091221006065224, 0.5061919684948565, 1.6442367614874818, 0.36853730467245766], [-0.26901751798772516, 0.7477431992649155, -0.6203595273863605, -0.41936334470037845, 0.2154316458638202, -0.27869132495823007, -0.34733123700878926, 0.4513013891684544, -0.7217614527112972, 0.3830998621772891, 1.062662276986655, 0.2836553761847851, -1.274459312471738, 0.30210690181501654, 0.4834756114726061, -0.1452404331619094, 0.40318653150624856, 0.08865867769386737, 0.17890798109285758, 0.5464168452478365, 0.0087877947498078, -0.5413771089362018, 0.387195217940236, -0.30617706836561476, -0.3862308606091206, -0.029456252936165276, -0.2795515035965927, 0.5323496882187962, -0.40127923360911444, 0.20168630423395953, -0.44603820696839985, 1.069535498167881], [0.056752322305398936, 0.10943956613487275, -0.30089962535651743, 0.21147681589777495, 1.1873912251273862, -0.3786331721316778, 0.58535432860023, -0.2957223803347804, 0.2376460081016731, -0.5306162673408735, 0.09319893807079331, 0.16286252865172046, 1.506383607728538, 0.39099379356739794, 1.2098463137885125, 0.3007153758309839, -0.5582634303376786, 0.40542083219399555, 0.40111125784085533, -0.220103803643738, 0.37816264262744875, 0.44903229725653643, -1.294069519410394, 0.8479044735050407, -0.1561196535097291, 0.6846687490223783, 0.2119854722729589, -0.32607505758748945, 0.37175859838017333, -1.1235370261548432, 0.25697318069213076, 0.04641120446477324], [0.038840132889870864, 0.28452188496663544, 0.34262845650362206, -0.14057911529437891, -0.6256841604016029, 0.15759018562440386, -0.3633057083048727, 0.11340661075094471, -1.3885993352013746, -0.7484498278846176, -0.22458914664823307, 0.16663351468634632, -0.2527679242967627, 0.24626991658732708, -0.9763622851740158, -0.19816022927412671, -0.696049096122334, 1.1320245515054117, -0.8746715458266351, -1.027620000361599, -0.4681980579404767, -0.8590600057790528, 0.18860191571484006, 0.7196268818580025, -0.07110606256748027, -0.5878678476248301, 0.5957161414294883, -0.09317944859043875, -0.025912660194792998, -0.16723354374494534, 0.2609552033905402, -0.49692725531703785]], [0.8174557261863697, 2.4610350134685324, -0.8212382287726643, -0.6229867309356969, 0.7155857966661344, -1.5387547932743746, -0.3345361057417585, 0.9906440211048737, 1.542835052802238, 0.5801212609938364, 5.321905796032059, 0.28253892438494954, 2.862872071634758, -3.1792085119359226, -0.6898982406648588, 0.37800531089052425, 1.3495651671067486, -1.7833118944775392, -1.074609148413965, 0.7179585208766617, 1.5739449478186345, -0.5116569477197145, -0.4638220544440753, 0.9366592998266318, -0.7681876882713401, 0.9609109998291032, -0.16129975125068777, 4.189489043250195, 0.3596574485584996, -1.1507565361949883, 1.2158643612033373, -1.3596433938801828], [[-1.3448205357504728, -0.001856308887672255, -0.8148953741950182, -0.948200499716592, -0.02858894508169333, -0.4099420458643609, 1.726721850954013, -2.034675835382028, 1.2094968169630014, -1.6334258131113402, 1.357944290532081, 0.6184255568506924, 1.099438154981166, -0.629679709996731, 0.15020998924490567, -1.9271494790255665, 0.70304893344472, -0.6782024263841233, 0.05018273198849632, -1.0842139532069217, 0.8270088528789608, 1.013649338880484, -0.7932237609412403, -0.5856168495318814, 0.563630142688202, 1.3790132511723816, -0.16360516054286603, -0.17091391322741536, -1.0274229555650571, 0.8487238898872717, 0.4447095636536139, 1.0510283945328742], [-0.36708612507635974, 0.60323753382855, -1.1268221165888972, -0.7031386371834765, -1.7536646940067604, 0.4625407025708721, 1.128645303395563, -0.7664556710906552, 0.118458121367323, -0.5464251880570062, -0.5977192711236724, 0.09200825216656397, 0.23515328338820518, 0.832923638891596, 0.5512143932212727, -0.6915505590414339, -0.5349529391527638, -1.6628936423342011, 1.770587929990963, -0.36468911523583186, -1.899279197504496, -1.1114168084225313, -0.5614713456715422, 2.166347067187588, -0.2309920603612765, 0.5738017658499789, 1.7005943478891814, 0.925383517460735, -0.8323237850956803, -0.5182250405116856, -0.0931162780068511, 1.038539243164297], [-0.31915051234422437, 1.8393832108901438, -1.8401026272443013, -1.3736434106024122, 0.7489854580958583, -0.45982753318051234, -1.151003916912991, -1.0928286349660545, 0.24630033995440173, -0.5185249664421514, 0.27005478980259123, 0.5407956393713238, 0.16482168966771538, -1.6228382977449103, -1.633309902435561, -1.385466968028347, -0.8160120602160549, -0.5573572921147985, 0.6159338508704947, 1.1465958291769152, -1.0564715393804796, -0.17247200785498265, 0.7628342136243712, 0.6968410538713077, 0.8055597396325354, -0.7878152564022245, 0.6873851675768259, 1.1182312038885378, -0.7018976410527105, 0.8384432279364936, -2.8363870565216383, -1.2876365970661692], [-1.8268015976669065, -1.749875569061929, -0.42841506100232796, -0.965920305811682, 2.9757416935815932, 1.2355634500929065, -0.6361109671799474, 0.37675105888990384, 0.4977358988962039, 1.354016035877985, -2.2215107358931854, -0.6137486100672883, 0.6541883788690379, 1.7897143203376498, 0.370678738950551, 0.6662140557753891, -1.008722778089425, -0.042853224856941916, 0.887531009945783, -0.030724140293866775, 0.3351508578835039, -0.9640897245236187, -0.8504907029049823, -0.16381727324494208, 0.1033624870109992, -1.9903081344057054, -1.04048637625426, 1.0335082041482446, 0.24188122063048062, -0.08776276782085278, -0.17441133798537276, 0.4939437108382018], [2.108979009382387, -1.5050365987824028, 0.3365667951617567, -0.21188286190779387, -1.2377823963335028, 0.5330289035129397, 1.325285152351601, 0.8643945500403293, -0.008705701823971347, 1.1217697235693076, -1.3719291235459241, 2.6391395500552073, -0.582739028944284, 0.7683982193286063, -2.178834125091722, -0.3768748117197298, 1.6807693086355704, -0.7536624370422412, -0.8933476040079423, -0.3329002837846139, -0.433790254503986, -0.13495479373786454, 0.38287341403710845, 1.369318658771317, -2.382085653996966, 0.8826280231763209, -1.6356028658784139, -0.17240796372784864, -1.926617178969935, 0.5398949323216069, 1.396115984417661, 1.4174704932358064], [-1.620731618198325, -0.4724362656229139, -0.015294976029861755, 0.10908516127715359, -0.9671068050468014, -0.03833464228639021, 0.7868778351872544, 2.052313245706306, -1.3688210969706325, 0.037853420361534794, -0.4642776448066137, -0.186986894468344, -2.561609701572213, -1.5483619093753096, -1.3485321337399492, -0.10249639543512659, -2.004082872580937, -2.934159466436039, -0.5559140246989077, 0.8611412261405225, 0.020926276560354735, -1.3305497247546094, 0.9101245892991184, 0.3714928485560693, 2.3144655254241386, -1.1992390940548554, 0.9091557403862975, -0.40784941954219145, 1.153082030962851, 0.7286542145547473, -0.6278520964601728, 0.47356060906296427], [0.9474052163178829, -0.9541374952179912, -0.6217005394627785, 0.44944135240482763, -1.3435352564889755, -0.22878106934564607, -0.13304169976378746, -1.8356157570212255, -0.17164654075330787, 2.3916232789505476, -1.750709460404423, -0.1359760133928738, -0.5111294077401858, 0.7099752014748048, -0.2397990603893595, -0.9195100435783683, -1.2285852809887843, -3.475759586646809, 1.0724763401176767, 0.803483846194435, -0.15471781638123364, 0.8201852018910765, 0.3374167484714998, 0.7710977478035544, 0.21115643758332905, 0.8983509808418162, 0.8527590552400144, -0.24468798434620354, -0.2672369213126853, 0.6789199491448721, -1.1251749275417138, 0.5176231073287133], [-0.4460916989680692, 1.1240257282156094, 0.5061907623329057, 0.9583278033647665, -0.8831695088735682, 1.3823126139390816, -0.602727905292524, 0.23866176121340812, -2.1941606443897625, -0.16416250528939494, 1.5945094042661014, -1.154698685153745, -0.432012359157673, 0.008996733954374656, 0.6353242853732733, -0.8800126597651592, -0.7232997542776289, -2.1344863330320516, 3.4359591278605754, 0.11665116390001881, -0.92689786469871, 0.8622249142168659, 0.06378436860878112, 0.4531778361237293, 0.7012254847172724, 1.0515952577833902, 1.110775796860429, -2.025061094393106, -0.37801108277852924, 0.934065408887203, 2.607354050439657, 1.3324292868669623], [0.06602696739529801, -1.659720582895904, -0.80736544310733, 0.6087125833125645, -3.64994056015584, 0.6352600987794135, 0.9507735670286108, -0.5564452035445258, 2.364381204790406, 1.1599670432142, -1.0566745349197797, -0.21521478656502474, -2.7743252007811576, 1.019066454420702, 1.7557962227608128, -0.7109418476986838, -1.463772731064927, 0.9346103144052158, -0.871634497424727, 1.3350102714249859, -0.3260531217785475, -2.0926141909217137, 0.818291435702903, 0.053268634628549465, -0.9618273110373223, 0.012808394755436233, 0.00547370968755586, 2.0274922923871124, -0.6466605755572825, 1.3986668726003189, 2.3027784993810227, -0.843402457727814], [-2.1648201236201396, -0.10341118109757198, 1.8319148165263455, -1.5975141036352538, 0.4678507075908512, -0.7390703427625993, 0.10513093989385665, -0.440899769693943, 1.641652520440695, 2.1278304045742646, -0.6492553146883228, -1.5954390805842191, -0.6310192095623645, -0.01195925576890045, 0.9037497985064997, 2.3866211058413613, 2.3112723409442713, 0.29793557946849203, 0.13616232074371196, -2.248150981155883, -0.8839823581413503, 1.2385672210318057, 1.025371574847108, 1.6642019242482964, -1.2563054277946182, -0.16367882313282495, -0.3076669399489278, 0.45935413662503133, 0.9557710399766336, -0.2786509972856332, 2.234980667966176, -0.08820614581791639], [0.7560454048868605, -0.17918483000075114, -0.1897206198917197, 0.16640423228515566, -0.1906359693584534, -0.9430385649815048, -0.19839225863786883, 0.6342252785903311, -2.476397801912373, 0.5384721050331263, -0.9709738238026586, 0.5567014694020339, 0.9994409497634066, 0.7866376046686765, -0.1233235251581988, -0.16250241916282632, 0.6381156237238137, -1.010204978016767, -0.1663959709422347, -0.6017059837219714, -0.0074683889765314905, 0.8964657954005824, 0.1374235360473674, -0.887903765562199, 0.29874099344475324, 0.7277907704438991, -0.5339491843467022, -0.12689575625026794, -0.9761922994089002, 0.3174693142965629, -0.7373807141806217, -0.5189809849406224], [-0.3575085101613179, -0.7174535332818661, 0.8441942409683475, -1.0444253752547779, 0.8489947900739835, 0.16786817810436125, -1.0610069258241066, 0.589848178895958, 0.9497329942979034, -0.26692582582393504, 0.27974658023070076, 0.9442626831365862, 0.4509550350834809, -1.1206040018775156, -0.7584614850561929, 1.5734759772161149, 0.7786295499793419, 1.6306169212246278, 1.6677258623310989, -0.5197287974517933, -1.1949852640785446, 0.7146526817658252, -1.0497498717969318, 1.499296406673307, -1.1766206420967154, -0.6866363708715958, 0.7315382358313794, 0.09173555439336137, 1.2177023668327225, -0.7344518046746819, -3.9482298329330647, 1.0528441560888513], [-0.3639148877088747, 0.23090421895141505, -1.4339975298018417, 2.035896784163626, 0.22843960856230774, 3.2100305475545308, -1.4175936646034515, 2.0232305331042455, -0.9330333674784527, -1.0026840221073217, 0.8744019829639395, -1.4865528210705377, -1.5512297877484127, 1.9171209906280322, 1.177495178754893, 0.15648670963859918, -0.7297432759224255, -0.635040679339384, 0.25826453083728396, 0.3363465632851864, 1.1402775373942295, 0.09310626164445406, -0.5276480170551453, 0.6581489735780769, -0.2793782474965875, 0.8498953230087335, 1.6486843800035142, -1.9614816929965972, 1.885946746323232, 0.9236491717528357, -0.27363034696672467, -2.1792492262652625], [2.129662859983534, 0.1295500758024021, -2.0868130363125923, -0.512302011273815, 0.06723319137873315, 0.8057586864396459, -0.4616682960344436, -1.1575323413947618, 0.8633210812166257, 0.19475582745928594, -0.9838703850458537, 1.7133654032388137, 1.1116949016778161, -0.3111789915159037, 1.6942129944524533, -0.39924294886875694, 0.8178662060325264, 1.2871848617294503, 0.83088004168996, 0.35855183383760153, -0.45441009518259773, 0.3848713620479073, -0.851646728472886, -0.052862669081710834, 1.0309733086006891, 2.758604059596299, -0.7722445986133152, 1.1963016107549156, 2.394219557908863, -0.5219795701985579, -0.6208564477344594, 0.5477769520909492], [-0.40696741407998177, 2.315220782991519, -0.750287634099116, 0.6061603985685382, 1.7423107111347915, -0.9774454771754895, 2.277406449929958, 0.1210507242682548, 0.1420002139558823, 0.6156589464451134, -0.7130785869881606, -0.09738557483383976, -0.4127032992795353, -0.6134771727771589, 1.5059290048658582, -0.1357817535007177, 1.8369801098200713, -0.7322862346535545, -0.1686100784456849, -0.597886647855714, 2.220009694572792, 0.7180173066146434, 0.14848057342495632, 2.2322267876547874, -1.4151421232924586, 1.2085904518175532, 1.6270128204777887, 0.836120613402102, -0.11253767390314104, 1.0865075494707426, -1.8293648348575557, 2.3662993264124967], [-0.3383781556882649, -1.47140520182551, -0.5831253388006477, -0.6172328781941012, 0.36707551377221453, 0.6972337828343855, -0.2128882892441662, -1.0616983550279504, -2.2298443382827213, -1.014997241278231, -0.39164065083146865, 0.8521521541220846, -0.012070619890199691, -1.706952184601688, 2.5053113178999125, -0.1477177154557997, 0.6005873151483173, 0.6285967614480031, 0.7747325720371969, 0.0956093135209975, 1.60073216402209, -0.7447088100814273, -0.19086651073392266, -1.0607942392675822, 1.4434400924549564, 1.2775766258756696, -1.2322354701224605, 1.032212766261037, 0.05383008592997905, -0.2477364114081063, -0.6007910535996935, 2.4014588598992543], [0.6057195202812856, 0.4005900402463033, 0.195669240034463, 0.18083744121090894, -2.9282272135020486, -0.6268798564736648, 0.2607541007945713, 1.9529841858218882, -3.3269576339726514, -0.8260761759891039, 1.431915491710684, 1.2187866895633346, -1.2545393949473993, -0.16249458257233718, 0.8478539048208734, 0.327040803655278, 0.8865297691395413, -0.6382868171746113, 0.17538404371519056, -0.28793101515055697, -1.6656537853576494, -0.38422467173031405, 0.761776874058108, -0.8817187364097422, 0.7678080170029052, -0.19050406936897946, -0.6927991180627522, 0.47072995922931243, -2.2116658156828866, -0.6736532421094911, 0.21263283335516725, 0.6979948029796843], [0.42718544706039957, -0.48248744337625366, 0.24476162846862637, 0.6071439058578695, -0.5304821578823332, 0.07816400521983903, -2.0559245897520695, -0.9999530238773252, 0.7255375346004548, -0.9358824627978675, 0.7907474198416273, -0.46592172085588357, 0.3662965990934752, -0.5804231296905898, -0.8973809411846535, -0.9244415061750763, -2.010418777427804, 1.8017715367626939, -0.021541714410797122, -2.164522574032771, 1.5100451072059327, -1.3982699953755362, 0.33967386263739774, -0.1476688449671736, -0.935949618538654, -1.6333620772953235, -0.09657042564271856, -0.3774471677887933, 0.9124862420654328, -0.8774019043674866, -0.27707521649791333, 0.006327543114772282], [-2.9977620296731056, -0.30900740535103316, -0.9878045002818274, 0.517241811785769, 0.9296642550791636, -0.39004209997211337, 0.02649016388001495, 1.7903943303264729, -0.5666868027329081, -0.40376808895216715, 1.3633055020376517, 0.25998191516756003, 1.6926286450991075, 0.38297520269479196, 1.0007372915379134, 0.9541213009362132, 1.1239125252799, 1.1619275357491, 1.8117980016428792, -1.6168046307965165, -0.1140823527248508, -0.9170173293345776, -1.0431026874052598, -0.4232912340066687, -2.1271857427027965, 0.7455468901200525, 2.846605562996003, -0.22780952515802802, 1.982398976125655, 0.6161039036575685, -0.03751935897862722, 1.2422825411677354], [1.4164612083824117, -0.794897433894469, -0.1403481421970483, -1.9447079877107647, -1.0703519927882383, -0.2874310473160533, 0.7841573552264717, -1.32047588740748, -1.0059259927091415, 1.3844614538009186, -1.841603557664113, 0.010508871417021939, -0.8683367148918331, -1.666977750317774, -1.3548816718036225, -1.0406239639938761, -0.8282207975846124, -0.4078628038138369, 1.3067383582420211, 2.6442843016056012, 0.1927497034513383, 0.6542906497798716, 2.8169727474244226, -0.2710825437217693, -0.030831871674593312, -1.4545345477738048, -0.47587825885111906, -0.06023053596431562, 1.6836009814888413, 0.27092089339231307, 2.3249728813205612, 0.012282530933335523], [0.9643967789342621, 2.0843601064330533, -0.09396723958608921, 0.6420512277762889, -2.107537550936113, 0.7928352821608672, -2.684146185063493, -1.2844217390858839, -0.09642094583803366, -2.7197398773502877, -0.20710610125402318, -2.5081661470392596, -0.3585645604925128, 1.0571394151872557, 1.5010403326074337, 2.0158134417994384, 0.09925116281907627, -1.1930974667450116, -1.8682503596519089, 1.84414395723641, -0.4602821872137541, 1.232245099284886, 0.10995229397203236, -0.3865769122895199, 0.5585808358342539, 0.20037849719757014, 0.3603697442563265, -0.8637803722285217, -0.06231583324013258, 0.27539689797377687, 0.8763429384218647, -0.6750110031631835], [-0.3029712527079199, 0.5722808981871951, -1.5172132877412345, -1.2296889279439962, 2.5289633126856725, 0.1982850115849737, -1.8199890446495621, 1.1443778784802845, 0.11809749174556453, -0.9404495190707046, 2.6234660035273696, 0.26642444841869295, -0.5664660595554243, -0.3128691463530825, -1.1532895890571702, 0.6430628224436803, 1.2235853163878365, -0.9065677136474871, -0.5063493217735259, -1.1557251642082786, 0.09455467656369065, -0.45673434234569815, 0.550461378343943, 0.23462377473167728, 1.9481015048664856, -0.2988681184479922, -0.6084820211607418, 0.03393432464660661, -0.17971115621221995, 0.1209840932110035, 1.7449226153838053, 1.5949936736635024], [1.1754513396519302, 0.9396863107459889, 0.9848532119477457, -0.784062294449009, -1.5580622928368937, -1.0978955237900163, -0.02107652713213363, -0.4358697819822031, 0.27459860831924116, 0.6273136979580113, 0.04523512932499944, 1.3401842621565028, -0.29417475793896397, 1.2909221109094138, -1.7135282700661572, -0.48105162371540533, 0.8141913918240672, -1.162561009107167, 0.3644354419543248, 0.09018964100141595, -1.1633469621186487, -0.6849514061939369, -0.7704048780037078, -2.039910967521723, -1.6575252644426903, -0.779756522134064, -1.2773363690086508, 1.8099190679318569, -0.2776835473866284, -0.6955635771746, -1.716010072889877, 0.25881751753021837], [-0.6158351052541976, 1.0088817720095717, 1.699641542549076, -0.6498942992780558, -1.8081065822484765, 0.6587875209179928, -1.2782559238016742, 1.0406799001242317, -1.1329327905522233, -0.1474661801510452, -0.4936475478737763, -0.7905417662627708, -0.9863289468362542, -0.20647516616199912, -2.707246003540266, -0.42141151810373484, -1.6577937060364276, -1.4750213355920303, -0.11196870179281661, -1.199448755436194, 2.0386271481663742, -0.7492853715174526, 1.1357340184115534, -1.4421322210242473, 0.7928794912114616, 1.8487246803646238, 0.6504348986660118, 1.6086556383822417, -1.0200417481424249, -1.525856407189761, -0.44161377096939314, -0.12005893895504462], [0.968075575359132, -1.4808564052483961, -0.6587063405694252, -1.3790444727376476, 2.7438317879087055, 0.08004228385744527, 1.1617302068475455, 1.027988667057872, -0.06571578745320067, 0.04649836294218309, 0.2765248051782832, -1.5176326670737146, 1.4495172989130267, -0.6220375548914977, 1.5578179633599685, 1.1420737198983615, 0.3788292786624092, -0.2179162176790967, -1.297032078639358, 0.2999945600002028, 0.1892550175765868, -0.04711629509059601, 0.5187215200069749, 1.0585100535088732, -2.068935901649218, 1.1008180283682274, -0.37689192951904277, -0.5703958084259707, 0.9663853320243185, -1.2610554048173697, 2.3689048255018728, -0.30372500689874266], [1.2652834908467756, 0.061472500100225536, -0.7429417654193772, -1.2472702118800292, 1.61502375911813, 0.30380829429637457, 1.1935406895100547, -0.4490571697829776, 2.347015672768551, 4.224571793399432, 1.8038543531478712, 0.24325920745767304, -2.032554144498806, -0.6711445278613023, 0.580239561185273, 0.1997332255443106, 1.3753120243085106, -0.03415560240288582, -0.33404103380672273, -0.7683293784117693, 1.9174179892629932, -0.5383628775247863, 0.6751841878375286, -1.369384546584131, 0.16598186525980407, -1.1818625431271683, -1.1547885998851957, -1.2236413044060992, -1.0241568502506924, -2.702969943697485, 0.8902159901012932, 0.08895655632765116], [-0.1605348888695192, 0.5954755951482674, 0.1077501696364258, -1.3593380342794255, -2.7128175834974124, -0.07438042247427926, -0.513975667218811, -1.432933885890726, 0.10389300954086612, -1.642162997757498, -2.5132259581393175, -0.7196443656118479, 0.47110763509515036, -0.8486247905876141, -2.6913947744847087, 1.1326111756231367, -0.0037297073582258523, -1.1925601786563356, 1.5041569030934716, 0.0220561379071269, -1.816368701852709, 0.9026807753488201, 1.62281264867804, 1.4665051101222761, -1.7742637527588534, 0.49829320718086245, 0.07692222288223445, -0.2928344828217378, -0.3629465722663912, 2.8799968818798933, -0.250941444712107, 0.15793782598313838], [-1.3821855195775234, -0.45415743861828956, 0.08165461544075737, 1.6240327416531148, -1.6112298651846348, 0.9331344991408944, 0.9123755881418952, -0.2149857387182642, -0.6475503180912302, -2.5855136680029833, 0.621695411493351, 1.1347478401209317, 1.1030341500116794, -0.9033952546202225, -1.5489061981570516, 0.9123538704551961, -0.617531844960303, 0.046817807791875124, -0.14841843887808387, 0.8194938102091553, -0.5462020261179557, -0.03934517367167914, 1.7958935027703213, -2.112927645239963, 0.011397051657337868, -0.3953657461918312, 0.38567474220689435, -1.2291393639532737, -0.6587104823880267, 0.49522150179880897, 0.7213496507850732, -0.26019611515107843], [1.2741260036085618, -0.2046888053976198, -0.10591910815648278, 1.0221805870291416, -2.073318849661745, 1.2834689186382298, 0.21832858398559618, 2.116572065110893, 0.48158064970566483, -0.7116345923914758, 0.02071343159984629, 0.02731174543673143, 1.259299022448159, -0.5288643680947899, -0.8240328650236349, 0.8604786432490558, -1.9452779360067802, -3.06040511948089, 1.2917685230761293, 1.9593073083290375, 0.2535856524291356, 0.6429164291816866, 0.20243311813068002, -1.0226542816892252, -0.4870522498063153, 0.10881786018641013, -0.055733517760969055, -2.026924924481194, -1.1589857609915952, 1.8077955003384498, 0.961352020546954, -1.9125427471627539], [0.5227222295012726, -0.526183790938189, -0.4627402585973887, 0.08462657368874114, -1.0197464919460744, 1.123805028290498, -0.09986891800525473, -0.8577274523569771, -1.250688775560713, -0.7703494598452184, -1.5236288522658925, -0.4860437470808246, 0.34446521183595197, 0.14230362599889365, -0.43569283968773814, 1.3883477721789779, -0.02856157952809167, 0.5945332125247607, 1.0474374249888032, 1.5236706480317617, -1.4242381565848754, 0.3122852331158939, -1.4410693675980184, -0.7153445338605228, 1.5046938141859942, 1.2497948195114916, 1.8310200387147557, -1.0440604122425057, -0.01622716755817732, -1.803557787306597, 0.04130327822233515, -0.44627985199967546], [-0.7199388885526944, 1.044902595354934, 2.04483777109659, 0.7956988533057081, -0.25506769628144366, -0.7397235788189248, 0.7798946168736808, 0.8544276176893125, 0.430593600357603, -0.0759898702131353, -0.4343385105268652, -0.536017778750927, 1.1413955156302966, 0.6221507952972075, -3.0245085370273173, -1.3410090473393703, 0.7402871296516177, 0.2229591025222504, 0.6233402657442344, 1.1523276497017183, -1.8268589014789922, 1.3124169205244622, 0.996839978270547, -0.0840320281167002, -0.20523864710452525, -0.4763772099473909, 2.3102110794650264, -0.0008946685381442738, -0.7913131071368085, -0.12388415233844322, -0.3783407436415062, 3.2702634765599656], [-0.4460033422543046, 0.6959479501220278, 1.7806459057720354, -0.06782527074340526, -0.8498564894504242, 0.8970619073169458, 0.3352760992198926, 2.0063129292047455, 3.031432832420927, -1.2833251893095692, 0.7837558120817023, 0.4457821414333818, -0.4214344591387651, -0.9330854423197048, -1.8189005059859453, 0.11964105763697151, -0.6333144937403079, -0.1870050114896294, 0.9019020667574197, 1.1974487533092597, -0.7677834461977419, 0.13402118031868238, 2.0322779128847084, 2.671495365375117, -0.3203189365159491, -0.8275219573707358, -1.6839894899502699, -1.188401422010251, 0.4602242974982742, 1.9152877018601133, 1.158876779398731, -0.13545688139369055]], [[-0.45302075220389393, 0.4073217477619107, -0.26819850392343425, 0.897077528165544, -0.019575200076850274, -0.9527102003644503, -1.2880013059530773, 0.06234645965976663, -1.0698201118880042, -0.9220559314516782, -1.2375471789399215, -0.5458062290892612, -0.04419508598482015, 0.20547236583340012, 0.14808333798720746, -0.187767736068617, -0.32939921353376433, 0.9501391947468979, -0.3705439904489953, 0.07382710744184331, 1.7850893211940742, -0.1902586816337807, -0.4119289737325699, 0.08981274506225237, 0.12480732517322587, -0.7878969397118437, -0.5475609212022845, 0.1607759048140416, -1.2348875047135048, -0.7037246901325589, -0.4828117979599604, -1.4568234840530088], [0.23348888534095597, 0.45871391126930394, -0.6986803489359233, -0.21256856985649014, -0.7277587791952579, 0.9306494846865945, 0.47013181945600985, -0.7403055518304537, -0.053600835307401035, -1.3646240405187098, -3.4461473018521303, -0.035943181203107764, -0.5010019924780155, 0.6261372283523781, 0.5949830941027928, -0.18042118172349988, 1.2229662035413198, 0.08149125726917299, -0.08572486583303122, -0.3007202043367656, -0.13677251799309473, 0.02324146209079798, -0.3679204776755547, -0.15145341007906743, -0.3363277328197889, -0.47408380250748355, -0.05892500318607258, -0.29646449387469886, 0.06164130327590435, 0.2705093559807089, 0.9233262125595327, 0.28661882864597926], [0.6518133285369321, 0.14845889521777092, 2.367388675184268, 0.4220865648425191, 0.7462043009201169, -0.9305293352562434, 0.7637362259829857, 1.4495013683893267, 1.3450900506478474, -1.4430502614706098, -4.1742045766476, 0.32932257662246706, 0.34396839238156435, 0.27610883122856583, -0.674053299178246, -0.3197041723576679, 0.4448889205172636, 0.7402067098870583, 0.38715920054936653, 0.07499613861830455, -0.1480977146128017, 0.8829237241315693, -1.0851331851304222, 0.11321401191818209, 0.38057517676842767, -1.3221236931107554, -0.9821569594228089, -1.707922080511246, -1.3969570621678813, -0.4961167865765855, -0.9176905495285983, -1.1452499803268201], [0.26521095225031893, 0.47267850571876124, 0.6555540455351044, 0.0812350979701548, 0.8311642646922384, -0.09670668542213272, -0.37463469319602816, -0.5907466603208624, -0.16402640188527304, -0.4078380087694945, -3.594149191168508, -0.256734176130102, -0.3063332592337165, 0.29874137296640424, 0.3104048772601399, 0.16272598259629448, 1.3133173343515776, 1.0234937133819917, 0.22442952595913268, -0.5420102324859227, -0.944398799958005, 0.2213079469003296, -0.07311871255970696, -1.4748944153794459, 0.06296181575698295, -0.8100951488579812, 0.1933749575886964, -1.1968577693186468, 0.0861064545917255, 0.9100657999145794, 1.2037970855741984, -0.030991429913670893], [0.6800945307669247, -1.2072881100891304, 0.6626231899057208, 0.9208330707273173, 0.10672823147878198, -0.3451597222816208, -1.02373502635919, 0.4577737434238788, 0.22985467184501696, 0.1160739060934737, -0.21313590564565663, 0.16693456611530488, 0.39069732670772256, -0.4540356191140667, -0.680501332782341, -0.5143767518628369, -0.054500678211804654, 0.9957848139881806, -0.29635119384233216, 0.19982095375059353, -0.6160323821697539, 0.5015602484421747, -1.7461621422862064, 0.5053710735811342, 0.4445890377738963, -0.6437872004701393, 0.6707746860805875, -0.20425325165147915, -1.4550257680913923, 0.3010090422602989, 0.779737536998435, -1.129939688342916], [-0.583571746710451, -1.3236003748387142, 0.669382819660329, -0.5250312959338971, -0.15960636500703526, 0.49678411254222943, -0.32968690874716494, -1.2533666579571061, -0.8374679887765841, -0.09643403671135438, 2.5010377138459248, -0.323135631918288, -0.7618235677211174, 0.0372335104898224, -0.007516409207926781, -0.2164174016275456, 1.234141320574448, -1.2944572179404847, -0.6945468312409427, 0.1405543556530426, -1.7941380867362036, -0.14059106461553653, -0.5349695989818483, 0.031206767969945443, -0.5504968959352616, 0.7821081596661088, 0.7126391924406262, 1.8391825871072447, 0.3621988154422596, 0.4165632185800198, 0.16352077422637903, -0.541258750558366], [-0.5283505430363002, 0.4626255881921839, -1.0069732512951408, -0.5724423899069132, -0.7022775182241142, 0.19180261016674396, 0.10445152449127955, 0.05803168195573297, 0.17919079168302415, 1.0079368466078895, -2.5622113517470586, 0.1926591364981147, 0.12055123972526274, 0.4122293076283827, 0.029908355549790943, -0.6232045356404745, -0.06379936461325321, -1.1447657440406085, 0.5791889970947137, -1.2355955603647926, -0.7547984506293467, 0.06198701861224011, 0.13051317743983362, -0.7804483971457885, 0.11160029362166458, 0.22576186032232054, -0.613899441882112, -1.841597205767732, -0.5814790917828587, 0.03982519681172986, 0.867437291933604, 0.17840320157324774], [-0.30790805242402886, 1.1217879549145386, 0.9514756817659313, 0.4407663751614048, -0.26470799678848217, -0.12286338733054179, 0.03147868095094505, 1.382359489775753, 0.3424294766330643, 0.049954719312754484, 0.0164052499255449, 1.7549750680877516, -0.40913464414768363, -0.42939597316718975, -0.48880341012268363, 0.9120446864094012, -1.8637594116996423, 0.6460261816635222, -0.036510742777399914, -0.02599146985393571, 0.008863545209638758, 0.2839230121020999, -0.7352024339097759, -0.48173599379850335, 0.7098637284306272, 0.10591293931376528, 0.04887732007140667, -2.275340884071086, -0.7574249359944956, 0.2140983747224953, -0.9332363775006247, 0.2323284675273969], [0.38057855717243133, -0.10614087394489802, 0.5103106081238779, 0.13199221517009066, -0.5705262478609572, -0.11577206651693693, 0.6591701931922769, -0.6636364886511752, 0.8319167746453395, 0.5177479634682197, -1.4692200493653358, -0.9576644972357339, 0.41073274178147334, -0.08376748609618309, 0.6375750867135853, 0.15706946548338607, 1.116054270906754, 0.1705840517105135, 0.545242124622457, -0.26476462608700857, 1.3483943764190502, 0.19673573885053447, -0.25707457969129627, -1.1625889258929205, 0.7860177791677202, -0.9046548351871437, -0.18386359006216108, -0.4604168421518791, 0.6570449284343879, 0.9375031876147567, 0.2294539621688389, -1.020295759752149], [0.4335122408934618, -0.9644319600752229, 1.0962737024723825, -0.6296958857854286, 0.13882373856785127, 0.21350017520511977, -1.0051657198825033, 0.35915099212397494, -0.8889512655835253, -1.0294094238998563, -1.044279777100286, 1.4210813314579864, -0.11339145141314509, -0.5054150476842444, -0.20891171151787624, 0.2289698928401215, 1.056348303626108, 0.28081039397241125, -0.10033972519018683, -0.34102677482665084, -0.7976850805337177, -0.007208757873108312, -0.47557898958135847, 0.9340477420708407, -1.1786947574692916, -0.7434200039719702, 0.28080223074663474, 1.076379989757201, -0.06392710327543075, -0.054431894284185114, -0.28505713341553257, 0.7095946436103218], [-1.0035418003596892, 0.4740750758459548, -0.4377287872121593, -0.881550888785575, -0.13975086958702446, 1.1673333476288572, -0.3967454610097598, 0.819047889162766, -0.08182403228861206, -1.3485956201559237, 0.17068486622892518, -0.10621574029208485, 0.3953405274099548, 2.038629807476118, -0.021260931879003887, 2.0805171486957907, 0.9630326900302296, 0.44076785429070026, 0.3018418337299602, 1.088442324325877, 0.4979446592494276, 0.17061405889285852, 0.12261228655921676, 0.16765506115250814, -0.9267321631695381, -0.5451623337252857, 0.587772068830819, -0.048747327022854926, 0.2559285748794389, 1.1206363731588933, -0.27394774072937816, -2.147244060048119], [0.7020880838930811, -0.12933621366269263, 1.3746712833397952, -0.9877912477355502, 0.1602276440529642, 0.24482639750969462, 0.6232294105526687, 0.3421317865434368, 0.38682107431911583, -0.30590285367661346, -2.1743488846375034, -0.8502461496320479, 0.17243421103696446, -0.4710256591201141, -0.27306304165568623, 0.3072466294469714, 0.8109286658999169, 0.3244019890748112, 0.06726521416475938, 0.30419279750903633, 0.5529978050653409, 0.31394655535755817, 0.16600759384481717, -0.4102375722707453, -0.9696327378817742, 0.3849087576019914, -0.28177287474369933, 0.3963195496011822, 0.447155315235896, -0.26086721992174783, 0.0027081508787645935, 0.21285534989545515], [-0.020598250903171893, -0.5696873630895313, 1.4767575413470115, 1.0395563538848103, 0.3530831387481809, -0.09579596869317034, 0.18985573099725553, 0.5551741409135537, 0.46643292445315143, 0.002036917244043638, 0.08021423943424928, -0.021329263600441364, 0.722137959876092, -0.45000759869245327, -0.008663355685101187, 0.07185896578809506, 0.54887191259822, 0.6536920780935873, -0.9080126308230234, 0.5094491205380736, 1.5178773278332516, -0.775283006548653, -0.25477392525146547, 0.6792506040668684, -0.30518675044868593, -0.39421058074826915, 0.7350374293753599, 1.1589512952127474, 1.0428790044887701, 0.8455290015294685, -0.22117142917907992, 0.6145871201856178], [0.7790614971799031, 0.8866573318956893, -0.7522442385847109, 0.03595883383630087, -0.05779752091303358, -0.20744382294649077, 0.4195028000132665, 0.1850125358193728, 0.74388053865262, 0.03575367924474081, 0.37560087731902275, 0.040182426200073715, 0.5091232194391577, -0.1591440614389092, 0.9180905177328637, -0.28080547301122777, -0.0061989075896113155, -0.7782101105167866, 0.34912855830171713, -0.33398442113321947, 0.11685213747039985, 0.5062417550606356, 0.12231447608427506, -0.41019870867006003, -0.177790200249508, 0.06779544339343196, -0.7715403618559995, 0.12642685280641283, 0.397439055600488, -0.8008321396847785, -0.04406028969951954, 0.2645155235590062], [-0.6275607794751856, -0.4847358746867517, -0.6318875346002307, 0.42766390455036296, 0.5922956687179531, -0.38903451678047496, 0.3773570004219302, -0.6770127044974047, -0.599831975241768, 0.5759225205787344, 0.109563115929961, -0.40229879179766265, 1.5804302237842809, -1.3231022122654996, -0.2938813694458712, -0.5060053717826647, 0.18082546172511108, 0.6895670185248997, -0.2680055868568424, 0.28177916636008954, -0.42128870807218605, -0.705535576076206, 0.11639916963768773, -0.43899007664815304, -0.4663470845543053, 1.7918017968597617, 0.14215889998881015, 0.556435086080382, -2.7208276076399205, 0.22207229395231096, 1.1900880382302788, 1.4011511164272517], [-0.22476582641719897, 0.10080499508463829, -0.07271320396664374, 0.18991437669945227, -0.3954072951699385, -0.8474059384133769, -0.24855962771490164, 0.9124669405858551, 0.9246802559165396, 0.7194135372364012, -0.3201397891424838, -1.3100369667690592, 0.5187130642560348, 0.4862154826350789, 0.7056492476116613, -0.6297551378961916, -0.1356505317119751, 0.6197054385650654, 0.8126119907096645, -0.1838293544962293, 1.7430967430765727, -0.3480936264409572, 0.3602698032455624, -1.097266288612824, 1.4690472684567504, -0.5148245419988169, -0.15676062352386821, -1.602159090553246, 0.9081577288540956, 0.6009591704599845, -0.20632800603505544, 0.5585199899872575], [0.5154919365800396, 0.9706608185037088, -0.07290509579757211, 0.16607611407736636, -0.6016779333689509, 0.3224588176600766, -0.038672379802855344, 0.8741862622343861, -0.036497284708918554, 0.45796819920688786, 1.7790053841698248, -0.12317868346795816, 0.9681170731115087, 0.7759057504251698, -0.39142057101476024, 0.8976120385756505, 0.13058369494630545, -0.1556291971925023, -1.7549458586646194, -0.30683855818306927, 1.3550984193511204, -0.9321374252738852, 0.315296568464912, -0.567210465562934, -1.78848027774131, 0.10596145710077132, -2.062895258994756, 0.3117976892459358, 0.43925612468185543, -1.0226237421731648, -0.5642820530222984, 0.4058019780188008], [-0.22346298898675002, 0.7392732761033366, -0.37735250957529265, 1.328784164678331, 0.32922945889022126, -1.5279911109179167, 1.9315018184284412, -0.36725069016623574, 0.555047073553305, -0.15463750172416105, -4.351260105704278, -0.38647728580071283, 0.6887849687338506, -0.0986884368322892, 1.033546887470161, 1.340040136684907, -0.026986545587955702, 0.7511990981576371, -0.2798838806677484, -0.18176560916297108, 0.5643761344189928, 0.6202267526214789, -0.5167264345936387, 1.6904620475018481, 0.998326157948243, -1.1783153070422399, -1.2176905959967066, 0.26000581091364156, -1.8522992750683733, -0.028298872918814093, 0.2141198421261728, -0.17515526491397904], [-0.35585148148340645, -0.07008981198763731, -0.15369738964378668, 1.033970752173048, -0.15158729359249393, -0.25221777729580236, -0.5840841115028557, 0.8326182752061048, 0.26614034595008956, -0.26947678670326475, 0.11479572435597761, 0.6715983505224508, 1.313877440294516, -0.09808091410518134, -0.3572821577313996, 0.1479998225532594, -0.007873834304076177, -0.34602629916664013, 1.0219123223737572, -0.8792395960814138, 0.7200719031151873, -0.24718369444623972, -0.33581742252337454, 0.5791934583082496, 0.2651056665428126, -0.25393080378548827, 0.22535283084181987, -0.16473981668941595, 0.14471022183664356, -0.27980413346494903, -0.4308580673122486, -0.17442725504278275], [0.0673049047226328, -0.8409628611742821, 0.5178360871682832, -0.5211560441032206, 0.5481563952188455, 0.5653941942517168, -0.0045362749402875465, 0.5533557229409193, -0.29938576005856077, 0.050438577783085914, -1.5241294411656339, -0.2912398814707212, -1.161955847651776, -0.09645619434455126, 0.4466451455757332, -0.3098845316152862, 1.1502529244231519, -0.18294249882892422, -0.14098539609724187, 0.11181658897156334, -0.530952171401287, -0.2637561638934837, -0.07786534808844679, -0.8854552672279077, -1.5204506706111294, 0.15416327047396877, -0.7186267805705363, -0.345305776139189, -0.08118868979624022, -0.34370577189993473, -0.7124090327432939, 0.3772002405364384], [-0.31513930460667755, 0.7332486951374683, 0.6286295050803362, -0.2218889356284114, -0.8930067436311471, -0.6432400297192575, 0.6657718954625778, -0.4644464085116707, 0.2544785407969789, -0.019379069313475588, -1.5776322328728019, -0.6583911911835012, -0.4365031164830118, -0.33944050206327964, -0.18897451630281753, 0.7243324547799718, 0.822749518450651, 0.5015529252274548, -0.7337000005229951, 0.6262184615891047, 0.6060696313135949, -0.07946274429943663, 1.0255705779444457, 0.2949371346169535, -0.31463256882017704, 0.237006802503732, 0.32185285828055415, 0.8818256839017662, -1.5570058284540749, 0.4694800657471174, 1.4337731857190155, 