[[[0.6264653577468833, 4.834885724978628, -2.356901862982841, 0.22874733872226577, 0.676789444956261, 0.7677629433751433, 5.17922858937103, -1.6655200037478928, -1.2072208739381314, -0.4890646626467061, -1.3564681863594312, -3.4192870963749513, -0.0740605688706287, -0.3767205350213583, 2.660664296033304, -4.96587578351545, -1.448365502308017, 0.795042807003225, -2.963311230103776, 1.27400140201959, -0.3542177547554722, 1.4240436692151863, 1.0816178329045973, -1.1966795070233152, -0.4548476258476947, 0.010171592430301152, 0.5531403579107624, 2.053573629937685, -0.611088787550653, 0.4506282082964663, -0.213697760628473, -1.543614233122359, 0.1101129468855221, 1.1710772953676163, 0.2721308606519578, 0.7622781883199498, -0.2540734210028172, -1.1169589316009811, 0.3735354315303079, 0.6957288580918148, -0.7924409670955721, 1.0102153422115792, 0.2453711284874978, -1.0179553881746155, -1.1383619389489612, 0.9239252778369847, -2.140302323799399, -1.3125275722142002, 1.1241595312084773, 0.9654311139666686, 0.6867757298702466, -0.22057128126823666, 0.1295430825492273, -0.56235050196096, 0.39989716615143667, 0.8191197655685393, -0.32882229192864226, 0.8648451407566996, 0.2958841195267333, 0.8195026276211114, 0.117226417288489, -0.001368382665530833, -0.43799247786101797, -1.1911525774079326, -0.007388911296411888], [0.03950346260618695, -1.761422659063016, 5.756108045973908, -0.8408623224076334, -5.51012590641117, -2.148368356978691, 0.9349053260134793, 0.22514956059770472, -3.921872039144391, 2.6100380759206123, -2.116649153102132, 3.161172082390219, 3.3079489032418903, -0.30305990793052395, -2.2849615339663303, -1.2523770082638563, -0.0006026498259747952, -0.32793285269413325, 1.910019091521553, -2.4754453303038253, -1.6452915713503748, -0.6767981233502103, 3.086799685030233, 0.08306601601610494, 2.0969292469622567, -0.8909964891016197, -2.5551855217929362, -0.7214513569168235, 0.11188041836253611, -0.3061492062711664, 0.4232035978014866, -0.6355234864645896, 0.6581828793724194, -0.5946358418414898, 0.743335255404231, -0.7345317867273032, 0.1142347124663698, 0.2961326803892722, 0.8677257463887436, 2.534502705533551, -0.3301129949418396, -0.1429887213290775, 0.41245818689739794, 0.18935566893534833, -0.27813036561823407, 0.19709371807443213, 0.5118945084412068, 0.09669198991436699, 0.8297029216304211, -1.0266135065682456, 0.1671606039228169, 0.11490170526269503, -0.22094169997925237, -0.15857077930101704, 0.027703945263326868, -0.4785921534318198, 0.43845006792855323, 0.1588989590738467, -0.24582458134465648, -0.22642442183490977, 0.05445074079728169, -0.007579098419200254, -0.33663526313802433, 1.4889329458885439, 0.008920689219052029], [-0.8443510121762801, -2.5034687432175726, -4.574389334460762, 2.495850171708111, -3.8051254691181264, -3.036200189393675, 0.3151284543936243, -5.166047381412174, 2.630731461782239, 2.666338243864452, -3.778547638552111, -0.3439280398105248, 0.07901852877040119, 1.1151482179637418, 2.015750923998841, 3.930915588207549, 1.7524486572029012, 1.1170333392122243, 1.7805240420310262, 4.249392811776117, 2.8380890873580826, -0.9817877490511213, -0.41329020660728333, 1.7573874463476227, -1.9306119854825798, -1.579279610233317, 3.733519535471131, -1.4691865812123301, -0.06604415850655435, -2.0334084903673992, 0.11412799260759776, -0.4830554564033175, 2.0922158153776143, -0.17439807181923841, -0.7533682002187847, 1.1578766874020159, 1.5130993582753889, 1.690739947186362, -1.4149702233145554, -0.7989960547108109, 0.44906491029425966, 1.1293519011747941, 1.8857096202170605, 0.6847508866517182, 1.4482533601844751, -0.5026421493917426, -2.2261044863895116, 1.4454415132530236, 0.0962302265659919, -2.2088672797162276, 1.5351858923085098, 0.9798643921897833, 0.8805906624825933, 0.6634980376207192, -1.8214222794967385, 0.019395263035428222, -1.0063238298676087, -0.4469532586712737, 0.15539763656981934, -1.5966543150624752, -0.8615998600586354, 0.0077174570728588575, 0.2221441032935909, -1.893135334889733, -0.022342524577661886], [0.2148878392639125, -3.16004296923047, 1.7519684656672803, -0.4378415796400092, -0.6241559155283585, -0.601423422085899, 1.2110155769473463, 0.5624449691299406, -4.562901163065386, -2.35220645197939, -1.6476196557386986, -1.1241472348215675, 4.367070121447646, -1.3534125648060211, 0.4447371954636098, -0.06179718498284413, 1.7956501285942117, 1.7521778972936488, 0.21764492562226748, -0.5676861461253522, 0.11725638460423711, 0.3387246438931897, 1.4456378296183852, -0.28195143944812545, 0.4448486576057883, 0.02280323173985513, -1.8351067042620155, -1.1274297110041664, -0.01005445118116727, 0.20060162368127898, -0.03615013419824617, 0.04668453533635773, -0.27396974485575326, 0.03583031998601411, 0.39011347830203513, 0.051328503766119166, -0.03977442077425991, -0.5844387000195767, 1.1872297888347962, 2.464392542377916, -0.09651769956240333, -0.2546158880962944, -0.06731835828661024, -0.11574742660641121, -0.22350967265046168, -0.2702302890578345, -1.0508584114916644, -0.7874044273689491, 0.16149907956064424, -0.023112686752972383, -0.3830955191516657, 0.05660323925045712, 0.9134491427453898, 0.10602450245298699, 0.2009755142130969, 0.09052805141521517, -0.12317956931326375, -0.06467606265032992, -0.0153021414954046, 0.26303067837345356, 0.08369381134709003, 0.01836853094112623, -0.1359646939206049, 0.9184558569945367, -0.0064690580073091175], [-0.9230712900111935, -3.8696943641135166, 3.6833057851108304, 2.5802636268586996, -1.3079782694119308, 2.2162535792443685, -3.180748040911335, 4.577249137052554, -3.2757227293085944, 0.2863498596266608, -2.442743773086485, -3.6342104835955498, -3.208733164487158, 0.7158245498095628, 2.81203368473372, 4.041512558188445, -3.363877585156965, -3.811582479251555, 1.9400083667396193, 2.4214099000465557, 0.34600907700447564, 2.66297082736458, 3.0817087232012756, 2.038103359915671, -0.24306276611817054, -2.5108394981274498, 2.4764025393404254, -2.930838225133292, -0.25437320378945943, -2.5749398293190335, -0.038283012715710774, -0.5112752138442005, -0.8579519514357352, -1.6045542935574673, -1.593177468858215, 3.2563413989076406, 0.7948367049296706, -1.434783987538523, -1.3403532739814128, -2.4036821989038084, 0.8814619212852308, 0.330905192598057, 0.06583745337677947, 1.3374223431220826, 1.5233234913992202, 2.2693515861551314, 2.193133949098551, 1.7584772917928744, -0.7038785108508175, -1.2951460830626993, -0.8967268237643633, -1.1611069078427303, -0.44116313549020225, 1.2617967720022598, -0.4084108065194784, -0.6325123927212236, 1.0893780343666881, 0.21998498295907767, 0.06500887718756126, -1.3269587608274762, 1.7131380581933464, 0.0841426865782298, 0.7262750683641481, -0.9461854234899946, -0.0202165190706548], [1.1981710041428861, 2.984596775121334, -1.697055517882921, 3.2385218548708257, -3.437368391967873, 1.5157566533304623, 2.6680663588528977, -4.275472107849318, 3.4410414181656916, 3.2689231207702125, 3.19254797404923, -1.2715444022183613, -4.543851656971141, -0.15478776108205702, -0.04699327771077851, -0.8434448821460514, 2.379317653123931, -0.29264449374687335, -3.0499936818889424, -1.6801086146975843, -1.8917428900814761, 2.1153578722400157, -1.9571140590530796, -1.002718017889775, 0.41173389386392717, 1.6922938613170964, -3.2444103151222654, 1.3578140179953964, 0.2046162844372242, 1.3943384305135054, -0.05040999529317627, 1.567695969403082, 1.2834337620392955, 0.8695064228023959, -0.19399823550496179, -0.42451890386529434, -0.4569023084075649, 1.1497037317185246, -0.3569238482730191, 0.7243175795280274, -1.6486070341469317, 0.6954933517782295, 0.6345986422621853, -1.2675410097091544, -0.9722890800893288, -1.348137386379221, 0.7795602281172915, -1.6462693702306526, -0.6906648067624718, -0.0916735689454427, 0.06687892958046233, 0.5212954537994098, -1.9100720846019374, -1.5194103626956343, 0.5972266468867474, 0.36122079023193027, 0.42273840554306324, 0.41290957819532503, -0.4815391533602829, 0.6908804074597109, -0.597691017450686, -0.10967826290171921, -0.31349109509803025, 0.09069158249316492, 0.010893713567674775], [-0.9765222356767456, -2.43551284982624, -3.678651287174439, -2.897481792343235, -3.160052962732114, 2.651116203704294, -0.6300988500469062, -3.237773145829592, -3.5353221636951817, 2.2935837837083617, -0.7276128278685748, -2.3227528065762066, 2.7518047099816094, -2.1978754576839434, -1.9133870761049272, 1.8159956704888474, 1.2502036095023055, -2.444103333958443, 3.0818017825817936, 2.6553800193847925, -3.204691178364303, 0.672376840477409, 3.4507464423388643, 1.478639912908959, 1.78097920677061, -0.5409473642957445, 0.2606154211971938, 3.558753849159785, 0.15535955482649166, -1.4182921452759245, -0.019547147241526956, -1.5643850522343328, -0.8535431322277934, -0.7342292516540327, 2.036632167261883, -0.5552130086458594, 0.8984051037422889, -1.2017658879240354, 2.823759007534376, 4.1692382654525675, 0.4843528138371014, -0.7776980546986898, -0.16181527254048014, -0.6329725741927752, 2.238241195686613, 0.5563956710163983, -1.3976997335582761, 0.8911487641331705, -0.14631314872651313, -1.355463633025225, 1.0207888773657767, -0.9942303507753533, 0.11085654952414285, 2.19746686561305, -1.0272231846695312, -0.7018360090980386, 0.24838498096584738, 0.0764789881742792, 1.034008643983743, -0.56597666576572, 0.44876782610880644, 0.05519558544361933, -0.6557342987865226, -0.2730907698150789, -0.0285353119840327], [0.7873873177775916, 2.9995765298049895, 3.1227746030871137, -2.1579580951134387, 0.43022182509942897, 2.9637790697823783, 1.92923683293078, 1.0247603004511432, -6.799590285365782, -0.8516079560172155, 3.413803546438973, -1.9755967013408657, 4.158183609086065, 1.779279764069458, -5.035142812443397, -4.343434226154439, 1.182567301671492, -0.9194490336756763, -2.8899724028885556, -2.2001630203153306, -1.7343900890842605, 2.6072763683573283, 0.38268382347791347, -0.29222735042239684, 3.0406122292950317, 0.7145947257952793, 0.7307417191277104, 0.6372902471937911, -0.37669329947567864, 0.6748105626377942, 0.032988007472518156, 1.4414904665711696, -1.755375110176978, -0.1551285666199102, 0.2522834164992359, 0.41049320592299354, -0.3710134919324731, 1.5648267337060398, -0.11536597040203218, -1.1536600787417501, -0.9660004295870144, -1.089200987709619, -1.1276482789567084, 0.5058237896289258, -1.4350721020458683, 0.21832802187368255, 1.5822695124996013, -0.17500626005072187, 0.9275230463812814, 1.9373408645007648, -1.6331359198968798, -0.7874348662244409, -1.737461105370946, -0.8094926340797998, 0.9940176161385594, -0.09648112268683369, 1.3831046568586927, -0.9068021105955604, -0.14766900745131548, 1.106011082160953, 0.5920216958312389, -0.12797047626193453, -0.3552086009812167, -0.6840885302138958, -0.03061373209215931], [0.2150819705740129, -3.341377672251078, -0.11349469663634447, 0.8336535609443851, 2.945364863070608, 2.533079195656239, 0.5155134003592103, -0.21450016704742256, -3.3613069425069475, 0.3415293232929796, 1.5850827365105848, -0.2760250306371085, 0.22274447183054577, 2.960285338201258, 1.4788833499750909, -0.3385459699641565, -0.2797402160322096, 0.8950515547488499, 0.6209613183666475, 2.8962057533059338, -1.1147591088725557, -0.20290949638682498, 1.9980611685539977, 0.5375841348090007, -0.9296776511708948, 0.011014092384582041, 0.16516912445270876, 0.05700560124620059, -0.2195464378986435, 0.099759012150831, -0.040655812483540194, 0.2574969001143761, -1.7958706587615403, -0.10594453478833338, -0.5792193540893649, 0.90470089698613, 0.08523293061108171, -1.994875315948193, -1.3378502421823253, -1.9398736699116272, 0.331554439674333, 0.23553909831543657, -0.10335597032355073, 0.9500931893892226, -1.3418339521045477, 0.5696137742908974, -1.6966349397584237, -1.2935234941735585, -0.9503385721987444, 1.2095451212281145, -0.3162863812646181, 0.870806388169632, -1.1012567600649024, 0.9531751388500219, 0.18113141998138746, 0.39806250509257135, -1.196630604682192, -0.3381145555004758, -0.008862497195092177, -0.7547826534429632, 0.32278413581782694, 0.0799115741423988, 0.7742058512021239, -0.2649605234414349, 0.0163282807340327], [-0.8520830287422422, 1.0798160403174635, 4.648440170231906, -2.007625514525777, 0.050065339438845044, -3.240003703161523, 3.135524715032363, -1.9798614801855035, 1.2832804646075853, -0.0799141586303745, -2.4236127133364223, 0.5717118005738258, 4.65993411480643, -0.41242005754072464, -0.25314879632044157, -1.579192634553378, -0.5193234727037475, 1.1907782747346745, -0.4826101354165862, -1.2864755459740251, 0.3931441367084544, -1.8901807721425783, 0.4747563218430377, -0.044761996182189345, -0.07615866849649962, 0.20341233286816404, -2.6592771321868534, -0.49862483821460357, -0.34986682160829463, 0.10404952361151208, 0.1771210961681633, -1.5139793574661895, -0.06871896317288224, 0.44529929628202264, 0.3862836334396224, 0.32430807105618215, -0.10026066310986746, -0.9691085161037826, 0.7463718729388732, 0.8242388097515069, -0.8556882857637685, -1.1321419165884814, 0.6385295576694714, -0.7493026755894775, 0.2599900224390215, -1.4401356759047612, -0.8092760237026135, 0.8912806976206611, 1.1932253302026348, 1.474506905230307, 1.151945920111288, -0.41836611182866257, 1.278644741605359, -0.7604015421865797, -0.9954218835661609, 0.43462590017387376, -0.5407199400292116, 1.389323154727469, 0.6381232261734956, 0.8237883887346131, -0.6939472762812843, -0.07076931549286243, -0.8345050781732566, 0.24249589390607695, -0.0023122177910558954], [2.0516083851185054, 3.744987237514177, -0.31318385512297203, 3.7228715051206893, -1.886325711878247, 1.5007403995870394, 1.0341551480181421, 3.0494425901035664, 1.687451090747878, -2.933489625130355, -0.10938093990690702, -5.1584166898407355, -1.9642641865414265, -0.938872206572663, 5.060618363421395, -0.0589336516119105, 1.3395856274853148, -0.8929018368831976, -3.4339744700175285, 1.995809390486677, 0.11362027815986277, -3.341885129676565, 0.25297535421686806, -1.8035144014560995, -1.6378234064867292, -0.1371879755446418, -1.3986969006950565, 0.24848480045496726, 0.40916775528092897, 0.4751161475573122, 0.025505460383684137, 0.7217848307380779, -1.1080641958307242, 0.3622985661546765, 0.5566944240497793, -1.963726786571851, -0.5837518772126288, 0.8527735019144926, 0.7014711878037948, 2.1626928552858895, -0.698239694968233, 0.06336565787754943, -0.37105752768299227, -1.240820221782601, -1.8477905193645434, -0.1434932505004087, -1.6923008993361304, -1.6003531835115816, 0.7193372078981424, -1.6726088110089536, -0.6608200028474173, -1.3681936596059903, 0.6543292870351177, -0.3853293409920676, 1.938238979747004, 1.3002777266094925, -1.208875280288832, 1.8266049658978856, 0.31904870597429374, 1.4612519006948033, 0.41442401693666814, 0.09630538287633766, -0.9519714683126381, 1.5826816346851447, 0.026738864859354863], [0.44720702606480756, 1.1680692069529777, 0.5891924777550794, -0.352871416444786, -5.253881972039609, 3.8364550681626897, -0.9001470345822664, -2.9598848989666835, 3.084607062096633, 3.492582161685203, -4.18520430926772, -0.9075154219372888, -1.6421570654928144, -1.6712706735581762, -3.9381391784734183, 4.4262859908557335, -0.41762219428079317, 1.818807611431654, -0.8362351475194231, 2.985926536466646, -0.13622151532884946, 3.300886210353606, -0.5114829287391927, 1.2463624091126022, 0.589974700835875, -1.2376571064029813, -2.9565472371080417, 1.0679339100929446, 0.2096820870550002, -0.1245868325087121, 0.12303263792999009, -0.9418711240137307, -0.1977993118855351, 0.41330797054872176, 0.8170514308395443, -0.037799292827881185, 0.07052142881525904, 0.49891971181849887, 1.5924966920286963, 2.092139290863921, -0.23628142374032363, 0.8560021663659516, 1.5952100226810466, -1.2169239042127364, -1.2377445813844201, -1.2488657361600448, -1.1449670085596702, -0.7005600484904994, 1.3599173543215024, -1.5371925621680549, 1.0782020107064405, -0.6712622206027685, 1.788231226687172, -1.06516737594957, -0.40913096522805936, 0.3715401159825425, -0.37479690637341195, 1.653976834847095, -0.9559488943708385, -0.3139608482161065, 0.10064568766900013, 0.03668989754043355, -0.9711550027465579, -0.7225715739450754, 0.026575658739227608], [0.7200785765357565, -2.1633939495984658, -0.22072757326585352, -2.4134129469010075, 2.0613280166640586, 1.2489998608960915, 0.6673819239893735, -4.579811925095221, 0.9734664846367406, -1.9286763584705644, 4.997180837490512, 2.5387824028053747, -2.344049601158388, 1.1799644620468352, 1.346241817711433, -2.255970953794728, -2.414501928635636, 0.4637457624571332, -1.1061676386516845, -1.418789321321021, 1.3081541803601904, 0.053291586785522066, 3.529769132662292, -0.08453466647733328, -2.3036811610133023, 0.999783673921982, 2.7628967340623793, 0.7013707253162073, -0.08170355461833599, -0.04763020362145201, -0.10164206594790982, 0.47343437123828913, 0.2494983756088185, 0.028422415268631582, -0.7977726868306009, 1.4325162699035465, -0.10814381103686338, -1.4363708309651786, -0.22693490511591458, 0.11782582099294905, 0.011261565972816821, -1.0948787133387567, -1.3842073034106217, -0.49702529867916434, 0.7454233602013695, 0.34797100579372364, -0.09512062367830701, -0.4730341407764921, 0.15796736630037975, -0.7032482796166056, -0.1636129260153511, 0.5185114304125716, -1.0448453396337989, 0.1097556103093904, 1.0155058211621897, 0.46026905943292507, -1.3539913287869982, 0.8409921360788952, 0.1721986173278494, 0.4475652309955775, 0.06432528034925647, -0.011910569825653148, 0.5022293047107954, -1.0370603655044932, 0.005473304040653189], [-0.28918846530335074, -1.6913735037657032, -3.125740872852419, 1.5405867527014403, 0.7958933990024342, -2.0114862845957036, 3.0287564009961416, 1.852851305498411, -4.15640529407834, 1.819220384023161, -0.029378375143623032, 4.378530918613906, 0.17866396008856558, -0.020592380561006127, -1.3527788020700737, -0.9104507045908283, 4.447922081296768, -2.2586068473130503, -1.1932204661451904, 0.2432626243053881, -0.060528233397708575, -1.5484495404455183, -0.6987763744397394, 0.7757105729313724, 1.3609652472046525, -0.8999275058540703, 0.6230247921162312, -0.5243673744952109, -0.9942178603657994, -0.22517770391387784, -0.049755980211525705, 0.4027733312708696, -1.6653323138602434, 0.0515226154307011, 0.35722839016295194, -0.5446014418060161, 0.24304187240564357, -1.9688088899226885, 0.8990016748375399, -0.6259798537241411, -1.4988341118699453, -2.1946863454666934, -0.8184165505581463, 0.47915914332256393, -1.6551114881855788, 0.6806543898482855, 1.0991253004947625, 1.1502549292081203, 1.1131325848125246, 0.7203102650788468, 0.18423124370558067, 0.31562292171141837, 0.811094112412427, 0.14900485519599388, 0.0008828512296282129, 0.32017472729639246, 0.6884078802141453, 1.0820938971030418, -0.059172287121825144, -0.5569377157942951, -1.1522522681666179, -0.12429623734503521, 0.570841455901, 1.983673528881396, -0.004983292412512081], [-0.10223014789158641, -3.0942421475747692, 1.129358710574434, 0.11508212531691744, -0.37306878711971964, 3.519897590257135, 0.1271224389840859, 3.47695352403474, -3.2198951927753887, 1.489192696027837, 6.472254174317528, -3.906945464691484, -3.989964551175718, -1.466942156793547, -3.2019759115011412, 3.8712369503616797, -0.7745101789108663, 0.003913291941934547, 0.5076820407775521, -1.207394832663938, -2.623691668509321, -1.1217925251375296, 0.6818208963724869, 0.5107773883238583, -0.29587828315547, 1.4185186205884792, -2.7510915406851617, 2.5294618336244556, 0.5443562221191248, 0.7667700849395712, 0.09263657829068253, 3.244085565941304, -1.0232649463543513, -0.3422875836186429, -0.4962444606990904, -0.7183951834211186, -1.1364636192833515, -1.5046453316307122, -0.8948083025826387, -0.05873512307249281, 1.559399183071434, -0.6090622218951608, -0.8578523988483011, -0.061006584356967646, -0.5952146956984664, 0.21500887557600226, 2.9027815146675, -1.2563221835034413, -0.7755391949241255, -0.38630740427151133, -0.7427155321549893, 1.4688578016159388, -0.5269573241414467, -0.13043320983218887, 2.2775670374266066, 0.17365526007001697, -0.6068060429231833, -1.0169336107739337, -0.945476599885756, 0.08436677732588198, 0.9968319638799809, 0.0038322771721343058, -0.0008394836788154464, 1.0024842505147662, 0.057657969366643844], [-0.15191696538100918, -2.701641498795269, 0.9085830228234185, 2.185481068379388, -3.1196878118373172, -0.4718946494341244, -0.9072018945408474, -4.231861294425295, -2.144197877428683, 3.979835664198977, 1.0168569689812166, -0.3198575863858496, 5.365274682324345, -4.041600819508831, -3.2607610259306403, 4.205208140162779, -3.0385969089160074, 5.226648376432183, 0.848181423215399, -0.3314062707770604, -1.9093515813915394, 0.4210029325663874, -0.7088786707177921, 0.12417597727005812, -1.4022877975050059, -0.16679245969454368, -2.580876908871096, 0.20600114815948997, 0.4549795077721232, -0.1790905516114791, 0.22278361646518544, -0.9526822813676477, 0.5333008889596558, -0.4325388815189741, 0.2912918043984636, -0.6356819804855575, -0.1827102881389859, 1.845870658317104, 0.9354468247365809, 1.563725295203334, -0.3760819383719285, 1.5423094886913133, 0.9302895001079391, -0.35603168123066714, 0.02756424801978937, -1.6926012055889326, -0.14745893417933, 0.8257838520190399, 1.5004650222177056, 1.0881313220057554, 1.2240625477107807, 0.1952739633871524, 1.5156953345773045, -1.0456416100372001, -1.0292916403219265, -0.8304470894782728, -1.1815239601524374, -1.6504561824915933, -0.7229696075471148, 0.7659888764395407, -0.9483577143298405, 0.115771350297031, -0.8309778951108129, 1.9260469163234275, -0.028791722563124195], [0.6962944953885032, 3.4655535450214052, -1.647958604076482, 3.0930117816478306, -4.010624644615847, -4.544475213607174, 0.19339854770941234, -2.1521009791927006, 2.2387191142845304, 2.5724279280418765, 2.313260201825224, 4.025378081543501, -4.706896644709082, 3.338277501319301, -0.8784750967483012, 3.2440987389070997, 2.5797443498912203, 3.1115699336751135, -0.5625332768406764, 2.211446651074843, -1.330813444892861, 2.4907749250284112, -2.37158221540489, -0.9072804878516613, 0.898567008529249, 0.17573849225478985, -2.0359974568306085, -1.1188924156647124, 0.12176451150048598, 0.13224566157716539, 0.19987855650693817, 0.5645485077331864, 1.1500403579045735, 0.039542208187258863, -2.773255673326126, -0.05607499340922771, 0.2403033992856305, 1.4164715511242905, -1.9733253592573445, -3.1582379958749445, -1.2591375299137213, 0.9246227968634662, 0.6141629729124943, 0.5770584093365686, 0.4132272180598488, 0.1107016882390768, -2.0455763347464146, 0.46577245028855163, -0.11679547680627948, -0.33604839784960117, 0.6201309339910979, 0.9662592191857293, -1.297566026705408, -0.008912204372620169, -0.0638540813398585, 0.09199701006151002, 0.16475103781995085, -0.009508227040675022, -0.6042190200327398, -0.3794053647898115, -1.2157406622541012, -0.1466742598676793, 0.379504526009481, -2.4634071929726797, 0.004477550073997262], [-1.2748831060562078, -6.074634621480677, -2.217899682143771, -0.30176199328153147, 0.9880245908061364, 2.919215126479502, -3.340730286242741, 2.902507174060139, 0.9605859017776008, 0.5916214690337216, 1.7931772541428697, -0.1143413265859597, 2.2736920870392536, 3.6171993262611393, -2.61547093761841, -3.180162487180543, -1.2440583270201437, 3.2374614940482243, 0.5240779391736197, -1.4487846342956356, 1.9581740025342536, 0.6674377435936328, 0.014294825821954155, -1.0210656963154432, -0.261382877876941, 0.9655347729473917, -0.33022692295657136, -0.060383010711393785, -0.07348165145915712, 0.4393945886704631, 0.17157063940091757, 1.047035765623905, -0.70063477820611, -0.39648796894609456, 0.6811465757122164, -0.024119191554247247, -0.4359491655163773, -0.9984453234967453, 0.38504183372156436, 1.031012447004225, 0.1463013718821783, -0.07992792813459675, -0.7434542741303595, -0.8939038901166895, 0.6584437809173846, -0.4981590630712298, 1.1107709616853436, -1.709316535189115, 1.0139867400022826, 1.1606567359665083, 0.7329918997176239, -1.9966992454366401, -0.21301567525373283, -0.9309971052601484, -0.43402979200401953, 0.5454605441917556, -0.651740077562377, 0.09438489959020316, -0.2284325968471065, 0.8019878057020823, 0.4030561886667443, 0.003467608978629292, -0.9323950964367798, 0.8277658820646604, -0.009253393743456025], [0.04834015623509746, 1.50042041871671, -2.1160431548716128, -0.8263706841324064, -0.8566078781198051, 0.2228217165316221, -2.481985860119661, -0.7124680381334889, 1.9599393739936741, -0.2017180079680376, -3.284563587757543, 2.8034123301248988, -0.440513636459782, 2.628552426989749, 0.5428951656813308, -3.1195678860830536, 2.1128833214712905, 4.792783445074969, 0.1452299937201001, 1.4387094294882419, -1.9851791419681646, -0.22855809546664213, -0.5188326182765889, -1.242772432078124, -0.3006659777391104, 1.0253328178988101, -1.2903491248480645, 1.7406277365506637, -0.14686648699765864, 1.2152654663916245, 0.08700572130720842, -1.0233925604794833, -0.918345889577749, 0.3024673187683637, -0.3606776830714939, -0.5860922961497945, -0.2486536920855211, -1.9172974710930963, -0.10729539735267471, -1.0353018825403195, -0.5375310434287565, -0.9546111848681591, -0.2996130515983103, -0.9973290390101859, -0.2752819961640895, -1.1260791426884431, -0.25470970752357286, 0.8363260973463905, 0.28713907218244283, 2.319130998647346, 0.9746000614311306, 2.122948898022854, 0.2033378891963618, -0.6225324760386489, -0.8422403512655405, 0.47426586708101115, -0.3756922115506522, -0.10190817194503576, -0.02749207620696051, 1.6404501319493625, 0.2075570715471448, 0.03947432899034614, -0.9958505193115902, 0.11820327942162477, 0.016102545040169943], [-0.5197732156748249, -0.41401843614081124, 2.772892605730704, 2.734514320334457, -0.9479351550059777, 2.943579862406249, -4.156774564363303, 3.154327785484891, -5.514493808441262, 2.9234259343448796, 4.726180801075043, -1.9470076283877833, -3.9453104188928685, 1.0326695442802956, -0.45358937966216545, 3.893531054757249, 3.2511248421716745, 0.7854998554156596, -0.02201781749233179, 2.4509460056899455, 2.3546008468079465, 2.0414561614000912, 1.4124473394389174, 0.8209584156311519, -3.1782459198287536, -2.5946962766958985, -0.8575611623042041, 0.1575331188115809, 0.08209172073745816, -1.6029922594318964, -0.47858767435393357, 2.6242559673633443, 0.7364463634566288, -0.42455820987552323, -3.227586182545871, 0.25857020672716746, -0.00809513476761919, 0.5706574926253611, -4.24875978333043, -4.08321677322555, 0.609986965567545, 0.8709828561932602, 0.7367122917434183, 0.23111409310591016, 0.6665796533255408, 0.8006298237637542, 0.8201475301272896, 0.21545576538623848, 0.6393841019024296, 0.6197076646881846, 0.427066115314457, 0.7528388739183856, 0.662695559565203, 0.571116539567362, 0.5773826357807126, -2.145108816924948, -1.9152010960577766, -1.500182468913941, -1.8858781546393402, -1.6107313879292988, 0.2390798912614914, 0.07944876777084742, 0.06598955624472598, -2.8665326949253407, 0.031207566408766912], [-1.3098065396198886, -0.19024330575729814, 2.5209012133240507, 1.6469394013539742, -3.090688845522296, 3.4684004605074468, 0.23284166535407688, -2.6751954334948818, -0.3523834995108478, 2.04360710556995, -4.427499862930684, 1.03151651271541, -0.5190909558052295, 3.0817559252839657, -0.22722796064592085, -1.118033823034165, 2.169341892096338, 0.8734902617559024, 1.8940882298641384, -1.3098565519761192, 0.3659281043864672, -0.17311933770892485, 2.8512057861669176, 0.9812290314589392, 1.6603078012668573, -0.6302096052295266, -0.0746852072630786, -1.6027653271051614, -0.445090658888976, -0.3662587787001191, -0.23608484817343378, -0.036725295128018746, 1.4132547749012632, -0.5491053268314963, -0.22106230946041866, 1.810649900740384, 0.5750069103674716, -0.9460502885604413, -1.1496785946118113, -1.3031823678777372, 0.7362041166672583, 0.6998932200994462, -0.4273024926508847, 0.8379538864751976, 0.20255402278254664, 1.3264379896448195, 1.2210927543167898, 0.15138896424648549, -0.6347915873426939, -1.9980964055075778, 0.7255729127899047, -0.13962101395650578, -0.19607555340511393, 0.08717671640539745, -1.6927225916728768, -1.420862022668595, 0.44670728502484086, -2.145327971352876, -0.06724258061679392, 0.11929281400652643, 0.2643454546062041, 0.02856665877939924, -0.3499715362986951, -1.3903778657735202, -0.02195318949591253], [0.361036758768647, -0.6945205016491375, 0.46711178532929953, -0.4113550600544262, 3.6283867524859623, -2.636072584326526, 1.6333684780335231, 2.1693430584206697, 0.25567985355567446, 0.3429876893605074, -0.5291414926845874, 3.1880259860243916, 3.311906327227922, -2.301888977842014, 4.913950172034392, -1.7383761788348002, -3.3344264173484306, 1.8564675197322258, -1.4877262309964316, 1.0059593023662055, 2.018994964970248, -1.1926272991352505, -2.1592159955393284, -0.8400112223379692, -1.159870527845101, -0.4482623809620168, 2.7874284084116967, -0.7248207608852336, -0.30215573294012815, -0.05503746250206492, 0.00281846018216145, -0.31988886741998196, -2.306956060890468, 0.21423420919477307, -1.2179873127653627, 0.03447109508814062, -0.9151802922750147, -0.6605634321695422, -1.5879781740456616, -1.7525952266162483, -0.5827206435829144, -0.9479992822669514, -0.7256309768820064, 0.86556263763724, -0.617629742454633, -0.8556954887709635, 1.9204934083183038, 0.1754174021762523, 0.7515552194784283, 1.5459200555700965, -0.9121939517719954, -0.4614600154007895, -0.11515908344482902, -0.47860739134724406, 0.22464577517433307, 0.575044074279355, -0.5685423060882668, -0.6617934068863778, -0.026763989535237283, 0.18010644793228286, -0.39361920598100264, 0.02255109562954809, 1.517401721134405, -0.10106340115372905, -0.013894346571460213], [0.43294832594033467, 0.7349978831379183, 0.23792633580984604, -1.310703435225621, 0.666754428925381, -2.929589148822482, -0.12117280838711507, 0.6746291691494483, 0.2353015473063475, -0.6677152218275367, -2.2456633518754634, -0.2871974544287952, -0.7126007964780298, -0.45298403074305876, 0.15324845256058747, 0.44963408154482, 3.495849284904676, -2.421239371001279, 1.0704906342838882, 1.304302378621569, -0.6935028450555323, 0.2936445039072915, 2.2919227183781743, -0.34358988839903326, 1.2362936064849834, -0.3085099393451847, -0.5743199359501833, -0.7003776015871257, -0.20606248060277574, -0.1710456833416217, -0.026314908670311967, 0.06258222745800565, -0.1473254806568446, 0.1708198743878027, -0.1887062929953325, 0.8889663350942485, -0.05455671410643138, -0.8483529808080882, 0.4475972103052166, -0.43713886681985675, -0.48878639023049825, 0.07652068249127499, -0.0658119083240517, -0.2695117003853588, -0.03612992937661905, 0.4468111217265378, -1.5528167472283139, 0.9198520119947294, 0.47097980969200326, 0.7882255831778271, -0.2577840418151266, 0.2026871275167094, 0.5478835273240844, 0.15081306928515614, 0.045823942834635034, 0.20879146414827968, 0.47343733963328627, 0.8531729885710524, -0.1896816290272696, -0.5592245831742637, 0.2612470189513668, 0.01596377736029346, -1.3364216815827945, 0.8639707646884499, -0.02511506228102851], [-1.7480061863246223, -3.90109940381731, -1.9142438055894508, -2.3968409743810866, 3.8180188940218835, 4.120076805409034, -2.8421675918571383, -2.158347637173747, -3.863310501594669, -2.2774488713108796, -4.009137858694155, 4.053130276800254, 3.7185953881287683, -0.1699343845385251, -2.695882118096569, 1.9272940287098999, -1.2433831500891082, -3.4056298735626465, 1.2231928754319448, -1.4875563436456982, -1.596499313831903, 3.6005477955016074, -0.8952835870545871, 0.9615820313400886, -1.8792607437353583, -2.3298541614983073, 0.9365412961386069, 3.630334600047959, -0.04118509091707307, -1.6298545459854856, -0.5172206366075164, -2.3253373136137143, -2.311642983511514, -1.9572146661650873, 2.4144979888554405, -0.5186278138491514, 0.20943760608387976, 1.9096188382607528, 1.5021033610397103, 2.621472671733079, 1.3082259814742543, 0.018847173779830674, -1.9268937584249535, 1.3249946485433826, 0.969664827241205, -0.003215731063467121, 2.35696237434208, 1.964511585107466, 2.150464166272467, 2.1006546153146797, 2.404081595133117, -0.5519888079716093, 1.698285210064365, 0.33416357896903987, -1.5929566228421461, -1.4503625552708597, -0.623514612328954, -0.5119354006170245, 0.7222719307369279, 0.11622360223006184, 0.7506611252309328, 0.17686263344837905, 0.2162057941654776, 0.9914700270716819, 0.0073255951871577], [0.9893455208281849, -0.7154439912462319, -3.9247617699914557, 1.9174523533753336, 5.18378235790246, -0.7434354027577805, -1.5815967802762771, 4.389492901458551, -4.2534832663972555, -1.9513501170545688, 1.249012680975785, 4.907793523008272, 3.3416336915352334, -2.1204606942512014, 4.281779794975906, 2.0402351409555255, 0.05601006110138825, -0.13099426137626255, -1.8793205379620954, -0.7485773547481759, 1.77831901229934, -2.9622993058943052, -1.8415773424586468, -0.3033970651536606, -1.7282698195503332, -0.24978741652434172, 1.901908695748874, 0.24838854471734226, -0.07521407754807768, 1.6400386872880444, 0.0074140921966804685, -0.039278688549692006, -3.2608925478700783, -0.42003401926382633, -0.700027607367021, -1.5095528984979643, -0.48087560855193434, -0.6266497077643608, -0.6472289032043905, -2.798058422199222, 0.3914784097702989, -1.9424482308884803, -1.2793729943534002, 0.4264220473588244, -0.12557283558451376, -0.5985521170989534, 0.5469491943978629, 0.604792312743629, 0.323074298695215, 1.2501683461372126, -0.9954930860527952, 0.6738471483965209, 0.69756454802062, 0.6137963956470948, 1.2680834656353068, 0.1606848894426306, -1.5501314503004116, 0.881106377111838, 0.20621494403297405, 0.4954514511706791, 0.10569690516796941, 0.06372789726629959, 0.36441454148030045, 0.4995355365101934, -0.027418431547499195], [1.5124858937244599, -0.9252547731520409, 5.290203343320814, -1.1266257172084544, 2.4573689787367297, -1.8965184585118957, 3.1430564383534065, 0.02679909982173825, 2.1342607333919816, -1.3936469700261787, 2.6457019773241504, -1.132531951435484, -2.7347962324583297, -3.012217689730676, 3.222750765474529, 2.4109861110653834, -3.589006619844205, 3.195403238875859, -4.6641024346557645, 0.47432715004091014, 2.7785578725226525, -0.9499506817054788, 0.23294860359144506, -1.1833118202944606, -1.74722322907898, 0.4018788929759488, -1.256862441039008, 0.45199560159142527, 0.6879053745188562, 0.4009334533098492, 0.272000936230745, 0.3933331292504184, -1.2592976668834173, 0.3993072587954094, 0.6852548498984843, -1.6887594493318083, -1.6182747575052936, -0.27428720787688293, 0.9807492801141726, 2.584545724135091, -1.2655350863961503, 0.26921068622207617, 0.24455863842611028, -1.3618131037853654, -1.6666558142903551, -1.984131540651038, -1.2427081778616773, -1.5019354952772073, -0.9344294008813936, 1.1310618865299393, -1.4467512939934142, 0.6085612410935557, -0.672740284062324, -0.831572457415971, 1.6830320733653814, 1.0830476520799825, -0.49445596634332284, 1.7306441079380466, 0.06595142820981288, 1.201342531134392, -0.4242627023035688, 0.07033732196890095, -0.5835397290041755, 0.4985041757930828, -0.04393528417213676], [-1.1112223617112056, -2.566690675232671, -2.263507380909834, -0.2352867874945269, 3.6884372521387716, 0.5728837888456995, 4.5605897216266005, -5.3334204775071035, 3.8506995376741986, -0.5424844717965501, -2.6966732429168414, -1.9644389620601528, 1.0747445019730508, -2.2197182696922253, 1.892935207021269, -3.5767563158330855, 0.14253992537523302, -3.5916729397622653, 1.4656354452147924, -0.866038695813023, 1.789002926813986, -0.018756380377827855, -1.2029230917949507, -0.282069927352709, 0.6095769447811418, -0.8041623478129065, -0.22188234241697602, 0.30727861524204264, -0.3832367496403413, -0.2460070256670135, -0.6656700785403338, -0.5042901069274253, -0.30511611763689667, 0.02036992003875306, 1.6244099020395222, -1.0124414687879, 0.8961323514805833, 0.8165190513297579, 1.2260589786139848, 2.1180514414079274, 0.3806116963169419, -0.4215821226632406, -0.5284804325804952, 0.3070682116133127, -0.28250129219369285, -0.374167052997144, -1.305421974955382, 0.44057672416306454, 1.5763930093961256, 0.538300190843177, 1.4846900251216546, -1.2869091444347622, 1.3939118833855764, -0.0523355286313507, -1.0603038959955216, -0.03008511397288145, 1.246651419196716, 1.6102848837458734, 0.32690955160672275, 0.012982162013451586, -0.4740558515854251, -0.08167999885190819, 0.45198584693273525, 0.07168605728991263, -0.0017946774197607925], [-0.5886975177595265, 0.14355512474185275, -1.9221822484939144, 3.3805949294997553, 4.142216687915975, -0.25499820485479985, 5.668511660789186, -3.1457000731477724, -3.2418527328370255, 3.8021516291745723, 3.5274467973513355, -1.5836130343998276, 1.994105299399387, 0.9144816054469469, -0.8308887715541159, -3.9278234248681603, 3.427918289090731, -3.647907895314518, -3.8129843569935127, -4.087505657826985, 0.10570717883589686, 0.24259838121235422, -1.110051537278902, 0.3558805313729187, 2.214053907496794, -1.2438633555380505, 0.9640838938584783, -0.13415835562964074, -0.3962981530402113, 0.11649693931983295, -0.08060308529992936, 0.575414649397644, 1.1253404110634706, -0.20323630639604137, -0.8346728543616844, -0.02694356701261121, -0.07114859984846922, 2.2471971069231533, -0.7682118487615736, -1.3040998229986975, -0.864733756850742, -0.49089321718255224, 0.7741212851174784, 0.6905496748307208, -0.34840134317855836, -0.4102358050513553, -0.9577983084998832, -0.5293792961477255, 0.11596193138819352, 0.517457808682527, 0.29488255097355615, -1.5717820732292236, -1.1324616332950026, -2.148404600049373, 1.0370833701983035, -0.8768834438001896, 1.0390369759649574, 1.7698005290782237, 0.05663098243684472, 0.11031157332770902, -0.7310500951651009, -0.207071840841406, 1.1358765083364422, 0.13432978065830253, 0.005794210532276901], [-0.8170259764271499, -4.779009882732454, 2.560795749285015, 0.014663505331292404, -3.2411994702849647, -1.1869611950318277, -3.003983013943138, -0.17786156456711977, 1.1028271559743135, -0.7743029163184404, -2.262757737614571, 0.18816222958859138, 2.4528533527423715, -2.244597556627479, -1.6117477104352969, 2.587582892099676, -1.7346635712657463, -3.4368612278900192, 1.1851118312544993, -3.990816146845174, 0.1531875603328072, 3.853371355225515, -0.6833476473825072, 1.0782706764252914, 2.9387677108553962, -2.0105600557671988, -0.6178641519674394, -2.9587103252990983, 0.03210019412081778, -1.1317137327506162, 0.13175526463289597, -0.2974859550207514, 2.300853742185989, -0.8068778111849975, 1.7250921760476277, 0.4108462525534949, 0.3572891122810324, 2.4195590646525926, 2.8173256855985795, 3.375772833499969, 0.18971508251394348, 1.1501117260459122, 0.13720777043372562, 0.46705837106153436, 0.6462967188794629, 0.7918485932131779, 0.7435467545397969, 1.1896860715526376, 0.47240269872976887, -0.9217026077867391, 0.8256429860221144, -0.9123598433815342, -0.3412686587445034, 0.46546428898912284, -0.7948408179579557, -0.9915195654703847, 0.9726057897531308, 0.32435257733758954, -0.46947965901978567, -0.34981033281888546, 0.11584454186673956, 0.044083228903810646, 0.02098290353920349, 1.8219951130820469, -0.02010955024011356], [0.26902878380424095, 2.277206246748478, 0.5759210985195511, 0.8897067671692751, -2.0436405047654267, -3.9454632168284256, -0.3795582992493212, 2.038222922553092, -0.1906056222694164, 2.6000319655887227, -0.5470254983161547, 1.9535551851618138, 0.5739801396599794, 0.941692976175041, -0.9641393398598165, 3.344218820387213, -0.7211261003262085, 0.9257967309614475, 0.9172350636854121, -0.6816859672190007, -1.300140895517584, -1.2477654299613796, -1.6029575797746551, -0.03232298327476527, 0.5847111443658679, 0.5689981134424619, -2.4046989651823543, -0.6759261577271838, 0.07758375856585004, 0.14632109639393517, 0.015720896769357895, -0.5922323507784598, 0.22350626507178456, 0.09343487815637107, -0.04392585527858858, -0.12960609021934352, -0.0432607855349372, 0.6294271120961739, -0.12138815290107044, -0.3297209613862238, -0.291089708540082, 0.7081343026929555, 0.817947938983796, -0.17365255844233085, -0.44621480975408073, -0.7578082074866909, -1.0472931974674313, 0.11860429110467412, -0.18900618574493314, 0.1556136311310185, -0.010352284826933575, 0.6206131938818056, 0.2332728167932736, -0.33632028735374264, -0.20527668991829923, 0.12875828288636568, -0.3011996671003905, -0.41286502675573394, -0.0400423000670565, 0.0404375320317484, -0.017853577823657873, 0.034123230307437157, -0.10966161721813035, 0.08181220829534722, 0.0090040619840327], [0.8376129287133891, -2.111838924069915, 2.2614943102824436, -0.205422237347373, -3.6668585493803842, 1.9150543440219816, 1.5043607593564476, 0.5040196846802866, -1.3376626714784137, -1.1140503999681366, 0.5365111501858002, -1.3967516897181849, -1.5582287434374067, 0.4492998454899941, 1.1563435242861295, 0.5652288011430829, -0.432237449338298, -0.5411801069793721, -0.0023479750779781543, 0.24177419611999515, -1.3724965446613606, 0.7110758739316511, 0.7077148508238179, 0.6326328354154255, 0.5472152744998642, -0.038220653719458035, -0.045845034088445424, 0.941193864030259, -0.3955460543663255, 1.9953039707541387, -0.013270255247948283, -0.03161764074215863, -1.740173212129528, -0.475106838947186, 0.3730463625443537, 0.44110674321139415, 0.10758370549795139, -2.4045004194775292, 0.6136730015065283, 1.1445995794800745, -0.27492934150826653, -1.4716284147318277, -1.5736267699239967, 0.5758225839866999, -1.3249566735362412, 0.09443529080329835, 0.5992146514809984, -1.3942699320358252, 0.08381912349268471, 1.7438628709153319, -0.2917259239240452, -0.11421856391718062, -0.9672041135782028, -0.09745008148495019, 0.6780416737361773, 0.38322010661970435, 0.8808295823818291, 0.1107595865051578, 0.06163353942814311, 0.9150646695084377, 0.41372716103959845, -0.011234970769686789, 0.15133442209889963, 0.3489655563281083, 0.05041083109747503], [2.812142930207645, 4.279828808784827, -2.2366553515214864, -2.36836486977709, -2.8227719819354835, -3.33041889249646, 4.127467919780336, -2.180718776926019, 2.3909454612928513, -2.7689465629144077, 5.404315726212877, -3.5431537658924706, -3.0733055074531874, -2.6844922573800587, 2.2355107507979213, 4.102101074186024, -2.598612532184138, 2.95639025375252, -2.348789107927462, -2.7699371984554357, -2.779200682037703, 3.4018202890160136, -3.175522209482419, -0.7379495775266118, -1.695580597090084, 2.883266881330683, -1.172441467390486, -1.9692970499351794, 1.310912559943944, 2.442921992311605, 0.3451799220933679, 2.6416515955477604, 0.4143976470646124, 1.569477071955496, 2.0359461416373215, -0.9371911659549392, -0.5681845848442948, -0.802932993798343, 1.1162273175244684, 3.0909891564579732, -0.654880033695219, -0.44213734193203214, -0.6322770381069269, -0.6310306514618236, -0.4744334543280685, -1.1325613130848913, -1.4462687400808851, -1.0374784149110374, -0.9280478710484125, -0.6003280114936412, -0.8897395566640582, 0.24391623513964336, -0.8383661048247333, -0.2713613511811012, 0.8825964630413449, 0.5328630357174418, -0.12263295730659074, 2.419716940155393, 0.8063906642680789, -0.01019458877690601, -0.4818896100197227, -0.14698974378640625, 0.4101655715334145, 0.8604530076770645, 0.005213354051727609]], [[-0.23221506585660176, -0.20399325596662027, 0.0028101806391743994, 0.7051420829018751, 0.4534661206826011, -0.647541708326236, 1.5768605145804757, -1.0071925602740375, 0.9358790378153711, 0.6440834731675219, -0.6104715537926103, 0.6970607475084734, 0.029643218643772784, -0.3645619300450475, -0.01966796349898755, 0.5502803508050415, -1.0146064270815593, -0.26255746754557363, -1.101679981888793, -1.3696968429204233, 0.8616656669220755, -0.314076873301187, -0.2997182320573703, -0.9427944310561134, -0.2613535378428242, -0.5886824483268177, -0.05078226236451697, 0.4061685265106612, 0.5395148126258168, -0.37707415086809104, 0.03826810594279525, 0.8638805098097987], [0.16666594039153212, -0.02368556485096691, 1.4267897330047743, 0.06661662255083398, -0.6126992985988865, -0.4652075112597424, -1.0658470420793575, -0.16321532480823434, 0.2515484252685853, 0.2385320108660733, -0.013500955091735913, 1.1098468852713268, -0.40105351273319073, 0.3751524384340123, -0.5312750580042996, 1.2636323091751176, 0.21584910876002303, 0.14377279473066054, -0.27744952556344243, -0.2688467962830135, 0.34693239553091965, -0.20014637411987846, -0.18164137345970083, -0.6444222142000885, 0.2539978274740224, 0.22425927104279966, 0.40082099488341616, 0.2770404547720744, 0.3904825432244816, -0.7610330559028762, 0.13680214840973876, 0.07884576730575966], [0.3787296685457258, -0.01087838976641194, -0.16808216925350103, -0.08321060725747494, 0.4015422417087409, -0.14432435263292256, -0.20150479146175854, -0.5595029325670453, -0.423558986242864, 0.43981947036929975, 0.729466821933092, 0.9230389880552367, -0.3347067415171437, -0.2194724758568783, 0.21648057319462372, -0.42519345951868676, 0.5888400556308603, -0.558955213761163, 0.30068293713717215, 0.1630291491742624, 0.22919155246760037, 0.034198270115207804, 0.1110194788627645, -0.2798564102931724, -0.05733952968852094, -0.3307202376727078, -0.14870310121447897, -0.7817908060361947, 0.7412775647501514, 0.0005592640993198959, 0.2833126827340523, -0.6517339427096207], [0.5155984015997307, -0.30658096206714247, -0.7287011568070682, -0.46562355364264546, -1.2198104445727853, -0.5943521308229782, 0.06737123446866464, 0.8077050808342703, -0.11445774577267595, 0.5093735648549039, 0.39334735361307005, -0.14984681620113433, 0.5581982708410199, -0.11665907846180718, -0.17025982143278892, 0.3805562648529821, 0.22900357502326205, 0.21530541062049252, 0.19080003355272396, 0.43532188155348134, -0.18810985724626075, 0.8956207732264791, 0.25383779815238094, 0.13105200119028948, 1.0813519909558387, 0.8324153554753211, -0.6472513539904685, 0.04506496730156153, -1.3907277400648468, 0.08587909719892325, 0.2144690797355262, 1.8014980027060516], [0.25752726908701307, -0.0627289364049381, 0.3579533213960706, -0.3487083383911852, 0.3406136196463238, 0.15146973900933106, 0.0019583867666078184, -0.4663125464785126, 0.38381699894320936, -0.254396811807288, -0.3684148009272706, 0.354347227037541, 0.30200375357644116, 0.3712003664994011, 0.12452738783570065, 0.4574950118856368, 0.07766417404638216, -0.24142026282000767, -0.3406231445528402, -0.09848708135149775, -0.35468292334624085, 0.43040291443275314, -0.15126797432624342, -0.4499817869574633, -0.22781992255280858, 0.3151228638524005, 0.08162359916912006, -0.563824448346503, -0.4527558955827744, 0.22536229229309437, 0.4945642036840803, -0.4475825901230974], [0.3233808372295507, -0.38772245462222155, -0.2297445424177049, 0.11370668332144102, -2.2480151244859696, -0.26820785982514994, 0.2306018177198315, 0.7090362364715042, 0.13976359062795116, -0.45579216752779844, -0.6532858049542224, 0.21620838852630322, 0.09156693254266614, -0.5279646059607608, 0.5261085295236905, -0.06909455822249862, -0.7644333286304774, 0.9112154830905569, 0.3001335792721654, -0.533486430239393, -0.7305843394824999, 0.3580769510563257, 0.000655982454253153, 0.26384084948919306, 0.652097726928411, -0.38768916418688265, 0.3160024683733457, 0.2557406642642551, -0.27357207657189686, 0.7741655203840172, -0.22172755458827514, -0.5273173302627893], [-0.07062484667893935, 0.32329792860696827, 0.3100973607201445, -0.07941449013811495, -1.366565815195611, 0.14847779949864295, -0.4237878787311794, 0.312758989542316, -0.12454444242108569, -0.48348520698737335, 0.1322740465534254, 0.529682001807658, -0.11131504093953927, -0.5322976277468756, -0.009674742989455323, -0.08097098689027303, -0.2501046784580053, -0.19142180546329382, 0.026396046887510436, 0.42664593507817317, 0.2517541650483381, -0.06033220296411564, -0.3389237822772946, -0.2543980512879548, 0.12657047662237889, -0.28368097848075535, -0.0423788849340448, 0.2389678851997806, 0.2693571238768161, -0.18195591564426536, -0.1315279429415231, -0.3472108654511765], [-0.07961051556805203, 0.2358062121190143, 0.5189358793092271, -0.2620290548268653, -0.6318632443148064, 0.00845203616528587, -0.0674200631418341, 0.10195400365027417, -0.23666504320599746, -0.25222776811300723, 0.16660128794561357, 0.2691290608967137, -0.05534958302885875, -0.3514021976657197, 0.5624460751527609, 0.018651913161695042, -0.9171262411719462, -0.10224553455955919, -0.37171436801588853, 0.9288498410975972, -0.034136925472409936, -0.6104154051842545, 0.17660433749335125, -0.5685920918495537, 0.02836259788648186, -0.49877678704204687, -0.2114407528985072, -0.6110666502963158, -0.1972184991468663, 0.3209790985219922, -0.004014798248823383, -1.3153594146403207], [0.14798383891690373, -0.6465321489161237, -1.214795357315771, -0.30864622376548695, -0.362576901923836, -0.12071235661343106, 0.5017371348246898, -0.4863957214318919, 0.0905584312837126, -0.5487269433452039, -1.0783633926601641, 0.35844323611250534, -0.3523512267489945, 0.2804573857208839, 0.796280570564941, -0.7630081342608453, 0.9044926453686034, 0.17081453568569785, 0.10556380433375474, 1.0146788684528847, -0.34085821060060006, 0.47842552244353637, -0.0386048543065815, -0.159730641327908, 1.3243059029340094, -0.3240870246398202, 0.004013498547181878, -0.2932612119277967, -0.7657932144992539, 0.2350780848307971, 0.11824561773654713, -0.2759039641546327], [-0.6149768317253379, 0.04864730513337499, 0.9268479454895641, -0.9251639054649691, 0.9935010128626686, 0.14872755068930962, -0.17168935035056115, -0.7648207172764748, -0.39079046134707146, -0.15155857262774516, 0.06722874485957472, -0.21588359713772748, 0.7218187502520715, -0.5939177691890746, -0.6096514458556015, -0.284140516216411, 0.8562429612990777, 0.32108003336699287, -0.013243699649059387, -1.4655645241135882, 0.1058658602353729, 0.6470174796410096, -0.22986778107866127, -0.8074840374507962, 0.6555005280003618, 0.10557190062795829, -0.6428266116725325, -0.5577215234597905, -0.4994595055660352, 1.3168639879899582, 0.2857105540138256, 1.4082456816519817], [0.09266478291714392, 0.3491676438545156, -0.24057969596392537, 0.9545233366964224, -2.237651657739027, -0.49370706930224106, -0.5982381531485114, 0.18066672049597493, -0.3304811337810046, 0.09013844417375934, -0.29940189068731504, -0.21226215046562188, -1.0733208629209727, 0.04134804959790105, 0.8941137104961423, 0.31738225317270446, -0.2457341609177653, 0.21892043614627724, 0.01780835616596298, -0.7606973469742114, -0.3921966785758459, 0.12806786913190066, 0.13803181897469335, -1.3374650285316998, 0.13600696820464497, 0.3920035128440886, 0.08734471270668814, -0.7700588736966355, 0.061785763569032766, 0.22473978701313246, 0.2683797536663064, 1.8019081591541852], [-0.04891972466127258, 0.5570213154910107, 0.004300656356282178, 0.06243780593893753, 0.577633740036797, -0.26380323605458245, 0.12103328956403696, 0.3106167182679994, -0.6186991113422716, 0.557639537724429, 0.11419991942499669, 0.05588992520263814, 0.056946933289545455, -0.9057597615990165, -0.11878299372981868, 0.8357717947656216, -0.0767311286636316, -0.2555100421793457, -0.06257055781329685, 0.7043399299720017, -0.5125974011444151, 0.35152247398079073, -0.534529237737216, 0.6488393985064326, -0.01790484496875461, 0.619812122380332, 0.1642020938999365, 0.2577717011727982, 0.48397372225022134, 0.404175639045234, 0.6166731038606883, -0.8021171520582504], [-0.26762577014904165, -0.29927366190841803, 0.15803176738639585, -0.2935045550912346, 0.818157116409646, -0.27068063563646605, 0.2693467070169576, 0.384775861229419, -1.0266869676054566, -0.27669800736538475, 0.3462351912730835, 0.7581944504648067, -0.44429385256361476, 0.07431482875643818, -0.07273292179692983, 0.11809935431594945, 0.026162583195618785, 0.24039672928327488, 0.17817509284931807, -0.16500867985703008, -0.6197403891373626, -0.40219080405857993, -0.8466775664944826, 0.9524101794736911, -1.823615528612815, -0.1805554671989887, -0.6360601736082552, 0.5449879401126618, 0.37400683584298144, 0.19464625709532538, 0.04227649132597539, -0.7205601253078887], [-0.7391085845239392, -0.5060481234904228, -1.0231227530223397, -0.12151215441893848, 1.282425632428216, -0.9828824173874865, 0.28155706611622966, -0.41011835789597606, 0.3553125075239783, 0.44327535678072105, -0.09251871933710981, -0.6683229443806536, -0.636871183618509, 0.27924723330753665, 0.4992186539455059, -0.849270716725105, -0.6434790000858117, 0.1800671740225329, 0.35875020232036897, 0.5103588970088504, -0.06293532286598864, -0.47166212964498455, 0.19771968774390797, -0.09691348952386682, 0.6047424394250959, -0.1235773447974494, 0.30707830036987127, -0.7211508601599356, 0.8507295055287301, -0.20294354814509874, -0.1366819008469476, 0.8902264615702933], [-0.011194145190386175, 0.10931692934974856, -0.0948073115484092, -0.22077273981364165, -0.7714942593917732, -0.2652968674139811, 0.32614216568138177, -0.06944893335427194, 0.2334701500221775, -0.06982333912373216, 0.026292571706249605, -0.0051504419826506045, 0.23638090960915842, 0.2218091849425256, -0.22376790205360794, -0.21448879254635878, 0.48046549206539896, -0.8483950085663704, 0.138578000176431, -0.7579387544285767, 0.26284456893580316, 0.4243955659040198, 0.15458747481913823, -0.39945929031139743, -0.00036093586480024633, 0.1038912573704469, -0.11261187933320711, -0.457801867716878, -0.03256066417577047, 0.43655699041075335, 0.2725563568755087, 0.342177843126603], [-0.0523572637199987, -0.1997856651552181, -0.12768533230213278, -0.4141297365585471, 0.8314722978145996, -0.12440662084423466, -0.05445174411987121, 0.42680907353862046, 0.3014561969288208, -0.4308811740777539, -0.1382865397305338, -0.3032720414698341, 0.2697760571900218, 0.17359967683199545, -0.7425150011926357, -1.0139886016010875, -0.77113579881971, 0.6712412794973721, -0.4432295676720945, -1.0071694934758337, 0.13568290220748816, -0.26008988475287176, -0.3432583562530715, -0.28411892073057293, -0.5859087494909438, -0.2526872098766602, -0.191842822534403, 0.03033293174746938, -0.46820940058773325, 0.313797269372251, -0.6758858256680103, 0.04729012171864842], [-0.6696009122420469, -0.19986307534528622, -0.23851620718786493, -0.1741557323893883, 0.470737275135993, 0.21593004816563524, 1.1589010639970734, 0.20128778169594128, -0.008608025553862747, -0.2828066441011889, -0.20771632913794022, 0.20070342280166847, 0.1484130637890843, 0.45100793709809217, -0.8719011409594402, -0.16127658499233843, -0.07540983934498192, -0.1273373805856612, -0.212549594916306, 0.8957370864280719, -0.3267606108342732, -0.7233455250960611, 0.3439798293842778, 0.6639427061163481, 0.4233223168856386, -0.47111715153577205, -0.01726969520393063, -0.09992673705909326, -0.6502282219148126, -0.25230639781022396, -0.11279793235098115, -0.05015808487461644], [-0.2547809641647829, 0.5467579433114154, 0.5723973870442688, -0.5122749546164267, -0.3455296874371228, 0.558906370241266, -1.02999926346069, -1.3159022440472155, -0.6742255661516818, 0.13870230317426374, -0.14178142323083734, 0.4891924489848799, -0.15386030261927447, 0.7948928231375918, -0.26739055319221766, 0.9255239736848829, 0.8508172875534126, 0.4562461373081937, 0.3372954290490971, 0.0499447941921276, -0.0561526829328506, -0.034273560400735516, -0.39904675386070165, -0.5742693117336052, 0.1422940894743022, 0.0865612409460028, -0.11145725957151016, 0.018293925975016553, -0.42325263712630296, 0.5065954650885013, 0.1651940071548378, 0.2117055593600054], [-0.13779436346329177, -0.06548955282024993, -0.011078985007074021, 1.1701624564738011, -0.9958105515695487, 0.4809399098166731, 0.6753374251788555, -0.3672013054518292, 0.209617210420184, -0.4933599404790458, -0.10577920760775111, 0.21804106834565476, 0.21250814924198932, -0.04915884863985983, 0.7254747650891578, 0.15611618491345083, -0.19311240949581152, 0.03560089130517661, -1.1566173315649932, 0.15935094943839692, -1.3809502261364952, -0.9805425615467948, 0.21705873803745976, -0.005320869308779299, -1.4001173834281642, 0.04525267821029385, -0.1043111224987698, 0.19271624467034984, 0.8876425165472118, -0.07118762223504262, 0.32383188280660485, -0.3311884096353744], [0.552312513693035, 0.1230168330596875, 0.08504699108854517, 0.4561469832999913, -1.0127155938779662, -0.6663463329633608, -0.2217947685671822, 0.37852651883012345, -0.09514641849738924, 0.22635141898165895, 0.08968250676436651, -0.0033388109898981996, -0.02219101390849614, -0.07070683766372045, -0.11664852446125679, -0.33575357753479174, 0.31722736220166486, 0.4754238371358475, 0.03768640208351873, -0.556893793571803, 0.38674792980212896, -0.11438094461179318, 0.29902389542275454, -0.7516640403007188, -0.06368065494314473, -0.1712327919078135, 0.4878907827170658, 0.29227197437655167, -0.007918355318842768, -0.06755541020254312, 0.06461914939432577, 0.902511618617712], [-0.04943737161304504, -0.570342278667421, 0.8929979825193526, -0.03341709787244104, 0.3628856705142653, -0.0514215531828492, 0.7684795828023645, -0.9748365611106456, 0.055023802573291494, -0.3364034606834108, -0.27296025411843383, -0.32658382927581286, 0.39756679018829777, 0.5468243676318978, -0.3492801869886201, 0.5385360372459693, 0.7681883491281764, -0.7224806881825677, 0.35694817585028604, 1.0259159299107934, -0.6114862650654481, -0.4983733301945338, 0.27656121529051597, 2.002180909112521, 1.0753175424596146, -0.7189224574395515, 0.37655906567194103, 0.47491748933453687, 0.4308977162239046, 0.09376239516364789, -0.1591322504036364, -2.6028372869059724], [0.5100949941646297, 0.41049329517188227, 0.17586827041436665, 0.30556428792623086, -1.7259368090077343, 0.17712413370674077, 1.4485016540224283, -0.49867117426882723, -0.4878187217957138, -0.1762298210471576, 0.46473156808737415, 0.928890316554003, -0.13762825571340254, -0.026183286400502645, -0.6668933526147847, 0.4494563966597335, 0.004395344546738892, 0.7857516568646071, 0.7898215890455926, 0.6435259210474985, 0.12916795811631232, -0.012655360468054867, 0.06807182553846766, -1.3388248696418925, -0.02273007499910472, 0.10243486251448543, -0.37669957121323566, 0.5198777218486343, 0.4868055978418734, -0.3065227443571068, -0.051008076292231676, 0.23903718228016704], [1.078299204984704, 0.6786895958356317, -0.4035156640229908, -1.0627029611342627, -0.520156093604813, 0.04231594525926389, -0.4411574526000591, -0.17125519686675517, -0.6134736226782838, 1.0917745565771817, -0.10421310110547446, 0.7252562309318267, -0.026204079239753524, -0.24100144969753937, -0.8395269376594336, -0.12771312411556074, -1.0292270044379952, 0.28962357073464295, 1.3565529716239544, 0.6146647032758902, -0.669073739408983, 1.50125383448039, -0.8940308458274765, 2.2186105204532924, -0.20305540786607448, 0.8680817673861413, -0.1362168266206329, 0.12175969762222644, -0.13390093634447076, -0.07491051512610376, 0.31385291010301425, 0.38276220744072964], [0.47777501330014455, -0.6313438227651584, -0.0010431809684303063, -0.009904839393613023, -0.17368479432156925, -0.6188057115989918, 0.05914156734974806, -0.42518348357304336, -0.2707757582307695, -0.1259243065362826, 0.24995038925071486, -0.08632592612524369, 0.2357689472416468, -0.10210069049503306, -0.02152501993784211, -0.039501937388621684, -0.3717216789306344, 0.29161063891212663, -0.3359026974153604, 0.6124505612173664, -0.23959233552684325, 0.22629778285012722, -0.034509012454373975, 0.7652980162912877, 0.21289044595757728, 0.4655996260429668, 0.26725943078012726, -0.09364505232580553, -0.10930484612069542, 0.28640647128498536, 0.21687340064074126, 0.024143853673232525], [-0.3103274694442004, -0.11392290689862296, -0.4388400052313231, 0.7198600886302621, -0.3430962146038212, 0.445926844897434, -0.2540476190355698, 0.870688446318673, 0.4073270005507952, 0.21519079214890302, 0.05150108558413592, 0.12160528444659313, -0.06659027651088209, -0.5031826066772535, 0.6999705382255403, 0.5483475060581939, -0.42240356399052753, 0.5449221616257846, -0.12994716982426482, -0.09157611230490531, -1.0085526421465385, 0.6185521215700733, -0.11402338223877977, 1.0075929762780693, 0.01949313966590686, 0.04424662828073924, 0.3088754014404717, -0.42012007703081605, -0.26148759495048257, 0.1426151970866922, 0.18359028331097776, -1.256475356421164], [-0.20418421029806683, 0.004325124496726888, -0.15824561036304607, 0.7270407350909439, -0.23990080816481185, -0.11592269333103553, 0.2461040405671391, 0.8591913544748309, 0.0019072650690103118, -0.5353808996953104, -0.9792004664957028, 0.6965892054322343, -0.2562663080215876, -0.18514176672010532, 0.25465482439026826, 0.9957003700577008, 1.1616545949479542, 0.5873681149595747, 0.08981711421419876, 0.750466912837251, -0.3097276323471997, -0.23241664435388798, 0.24691779921395182, 0.5221173082794123, -0.308245683824806, -0.30243021768375894, -0.4245499709051851, -0.1982585013829365, -0.10313805080023358, -0.2605932866071615, -0.3258414119412097, -0.9197030369417498], [-0.2231213284494, -0.28350104487923705, -0.0519550737799113, 0.24044496760281836, -1.4579922516586281, 0.02454626155340426, -0.22629872253304262, 0.007927588909174057, 0.42901122768218136, -0.4969813821944165, -0.18636508298167043, 0.4228777028242211, 1.146112455059084, 0.7857903306540938, -1.5876979654484853, 0.13447891437654305, 0.9077200103085602, 1.8609090799562813, 0.8705457832542385, 1.2660143764594183, 0.4764702087560987, 0.3910166697209045, 0.20703868125847538, -0.2734160437825994, -0.5015996628185501, -0.8468963738057577, -0.829878806241483, 0.6707346964100332, -0.3787972120770363, 0.005048352997111426, 0.4788733838878384, -0.38772241212912967], [-0.21470591232265193, -0.680364764016277, 0.3300977743434994, 0.24095384269066436, -0.2444325628118903, -0.1318715675286115, -0.36248716102995615, -0.28572845981513634, 0.6642322757698457, -0.11434314628009354, 0.5680476490869061, -0.09423504046008227, 0.11206371370305061, -0.2482791968452182, -0.47565177150383153, -0.5443416668876778, 0.18893016732791787, 0.022140276131175807, -0.1724993868141837, -1.0713457364061538, -0.4274495194243782, 0.7324225475535884, -0.3130637786282575, -0.2718233684715396, -0.29352855957690654, 0.46954637178968867, -0.12122325411936664, -0.1486050864944272, -0.38044128597926496, 0.3005476964410543, -0.3992460614134089, 0.6672619645382137], [-0.8631253619702675, -1.0561650398790472, -0.833268361151758, 0.5954034051840813, -0.5169328420472586, 0.0791871764626296, -0.0633542605321592, 0.19700664050301944, -0.4559547634350166, -0.12153465049239708, 0.13573946996149208, -0.39382426146860244, -1.0767827523682798, 0.7285594506141317, 0.5440937395419424, 0.9127559862079049, 1.164058340788191, -0.004467658187971308, -0.049107779989810085, 0.45060185274510794, -0.18160840305214712, -0.06939381103472074, 0.13812475986079503, 0.2763539592573201, -0.39111793536590633, -0.05712878374481837, 0.40838660592079407, 0.14703438312452288, -0.051693381296383845, -0.32307560227621623, -0.20005982130184707, 0.46226974443554697], [-0.1637769535731642, -0.505422764806106, 0.48048211120032536, -0.2929817626404956, -0.41644857051874257, 1.9114580398075205, 0.21812896304022908, -1.081594665514657, 0.6241853142146282, -0.8483814557568374, 0.10569080607347345, -0.15639511493220043, 0.11417815499684802, -0.2983877532807274, -1.4896351282304419, -0.17891060392201985, 1.0576331327239092, 0.5241920412015706, 0.48538732907908794, 1.362979114930143, 0.5250550714303082, 0.31391423521625095, -0.16979472236728713, 1.8050835989865592, -0.4929809662050994, 0.05025922262611985, 0.8395609363613267, -0.11669362905129771, -1.1160797196101433, -0.2757729062899221, -0.19284586369454415, -2.351000958876285], [-0.636845840099251, 0.5949767393854993, 1.1136623493798685, 0.4187519116761235, 0.7845204634901214, 0.46734252650439456, -0.3657947801423946, 0.8102679278192141, -0.608854062101386, 0.751839145950552, 1.105443165106008, 0.2954359116809962, 0.14188903729022198, 0.06976894879531267, -0.6448306999957618, -0.7638646780406888, 0.34403299392275716, -0.731874709303995, -1.2938867224386978, -0.6710769711978377, 0.507999423557912, 0.7722703152772871, -0.31342076233166977, 1.436175084498845, -0.890974850805924, 0.2994355404636523, 1.6442694556224804, 0.8572339332367452, 0.6699806881352595, 0.17291496302083248, -0.6232550360666484, -0.38419678172411714], [0.1858901051206752, -0.27418422463705766, -0.21417251479280078, -0.23066459431726158, -0.24947158215389617, -0.042169279843479256, -0.18609723444001233, -0.10393259300817255, 0.24527269622055559, 0.024802807891594596, 0.30615571365418953, -0.21535845602964687, 0.1672436536654757, -0.11683521032600701, -0.22761782921228285, -0.22633403338697575, 0.5466106603944173, 0.2592122468490073, -0.23653015436250344, -0.10228843582332181, 0.038856259030512465, 0.3151885410845904, 0.13623917281455042, -0.11664121243682295, -0.24389405868635822, -0.24387590133754442, 0.07865681633665811, 0.07988315914513727, -0.3180285927096037, -0.138623624097306, 0.3075836171577374, -0.5277908206201891]], [-0.0226635478034975, -0.747462081112687, 0.7125677849271169, -4.10590884206792, -0.3122877644653283, -0.7906110814985883, -1.3044342985850383, 0.29744966538313894, 1.0297987932033712, -0.598628125625088, -1.29728682209313, 1.5344027592188456, 1.0183098341773695, -0.545386144195142, -1.8725189305558112, -2.3493866882655623, 1.4491362227098021, 0.27143224893350654, -1.4969870012165916, 0.9866126722047011, 1.6318434395230814, -1.0724609576332818, -0.9365064736017822, -0.3996497456770494, 1.3955078410210557, 1.6506002075229336, -2.160297156427057, -0.13704762801300102, -0.012623692242916254, -0.8925989362830415, 0.10200559332266246, -1.1133815030896876], [[-1.1722913177172252, 0.5022549974574091, -0.44556987895112987, -0.8447146034429583, 2.8740315290662144, -0.8689151879851741, 1.4343465723042321, 0.6445870976806235, -0.08645213219242241, -0.6547508041752602, -1.8630953384996691, -0.0427368858965979, -0.3573367357785693, -0.34161947406727494, 1.086685476784845, -0.4559857038080766, -0.02210486897577959, 0.22671366857277972, -0.4867269743394303, -0.5662985404144081, 0.5621282342146149, 0.08202974731284983, 0.9476556167522198, -0.0851867040028235, 0.2590085787933791, -1.31974003791716, -0.29987628350195195, -1.4835697480050438, 0.8663257110808067, -0.18413624057552497, 0.3828572203475081, -1.3755016371688633], [0.2841441817671371, 0.08975989411278129, 0.6599187592567853, -1.400034033047355, 0.6058001014981729, -0.8162640450435082, -0.5373313595062706, -1.4050843810913591, -0.025929032101368474, 0.14893318075363393, 0.3231475751338804, -0.8539322930699078, 0.36277318067449676, 0.25739334150123633, -0.5147648611392058, -3.1145458535121615, 0.16874749423415955, 0.4868794607786947, 0.04171735410328131, -1.274089221549133, -0.7779351548113232, 0.5442454910691747, -0.20228718518319622, 0.14739917327781443, 0.6384823728709943, 0.7962209234694521, 0.36828328524592935, -0.009643897740121976, 1.0248336546965813, 0.28797632635579057, -0.09405691440187405, 0.8492751261449205], [0.45839397072146676, 0.8282124539915436, 0.16225376227956212, 0.7298671535141463, 2.407035468158309, 0.9553300258949683, 1.7401850475266512, -1.0682821974128385, 0.9145186553627591, 1.3563420574907923, 0.3743745735207255, 1.2025655991922497, -0.17209315082313412, 0.40305789199730496, 0.710962291234526, 1.0587957865694613, -0.7192530711480922, -1.0788956265799947, -0.42364120707849817, -0.5224642141865008, 0.11587909058634789, -0.3387111756214655, -0.774135227424335, 1.4740882513015567, -0.37858970367048445, 2.140318198422069, -0.7112671703720295, -2.0212313385143585, 0.819712661073486, -0.3089809461040886, 1.2034524889483982, 2.2666188895355854], [0.785393280842104, -0.07422390869720934, 1.2593351844669338, 0.4666499225375109, -0.014843366492228916, -0.3094957375465445, 0.5816545756204099, 0.2223040793665416, 0.07909775218263378, -0.9607266979848076, -1.3255134606529368, -0.1211666453390698, 0.5796503772006337, -0.48564847857910626, -0.5860006613763016, -1.0487780153135566, -0.05452819823295081, 0.24670274885542928, 0.6395998229859127, -0.8431138310482357, 0.6384393219002236, 0.13596196568990096, -0.08057333343013941, -0.25031922804962947, -0.42967382571414753, -0.1281201018281484, -0.39291432502810913, 0.2169201797026578, 1.059177142627571, -0.41498897290731424, 0.5058307807154842, 1.0873422653073928], [1.0859023063958093, -2.12036393099953, 2.0828149668669926, -1.574582530917549, -0.48746898399462046, 0.14594347133604352, -0.789470222028871, 0.8884939730433262, 0.34282818953557487, -0.3857972307200755, -0.7492703300027952, -0.8916712377006216, -0.38539139315399285, 0.25860455291439466, -1.039357797124627, -1.078172913304992, -0.1309061480926668, 0.43312714717394074, 2.1093407803994055, -1.3937256107379585, 1.074567433613011, -0.59423871316278, -1.0058023449863385, -0.0533906564261637, -0.432091585429435, -2.369790539174659, 0.944294075355001, 0.23322840797679031, -0.5791966127342004, -0.072132503927183, 0.11991777555156813, -3.422825965246875], [0.8915230332512817, -1.4674174794801762, -0.24341507817228908, -1.1715499629818014, -0.022443352528922402, -0.22452543165296285, 1.2901504991519859, 0.1582482081978599, 0.9404549737582143, 0.21944989380161034, -0.1417604252575786, 0.49391130317901727, 3.251960021521869, -0.6333632102640265, -0.644465937272487, -1.449322016849046, -0.9662502118896089, -0.414498345012286, -0.4000156599245413, -0.47802204644203194, 0.6371490947697044, -0.29379694460544187, -0.18135425992115034, -0.6173776222327654, 1.1890176714209417, 0.6756349373543559, -0.5579604672102152, 0.5281018999420084, -1.5821558829550484, -0.9991322833390577, -0.3247890424419942, 0.547195090570728], [-0.6071400867123846, 0.5927129511597548, 0.30860700645277583, 0.3882973764935809, -0.8447799007833479, -0.5474314621262991, -1.55514575337141, 0.953948856993687, 0.8109220871915881, -0.1679386521796532, 1.0206382398577574, -0.7877346444448009, 0.5890808567200114, -1.862503708135193, 0.915931663038515, -1.2987724247247188, -1.7628849124634063, -0.6950975757292122, 1.517157151473729, 1.3236234320539837, -0.8453465954780599, 1.3469276195825675, -0.6610154027332462, 1.0183358579830615, 2.212156655527526, 1.3918165793988222, -1.5729141027215792, -1.5908219159166268, -1.2666338235970196, 1.1521524578662306, 1.0650847293234764, 0.49939968673201923], [0.1234785058863311, -0.25635669332350275, -0.5959549077019947, 1.0088570019480798, -2.0945940715967004, 0.9198428434374805, 0.002863646157939425, -0.28911248063351397, -0.6465285332097274, 0.8730462778234376, 1.6726269352737013, -0.20957074173956017, -0.554681036861935, -0.17279787871461616, -1.4900883132207932, 0.0918480193403124, -0.05067379617210976, -0.8098212355313581, 0.23762332610626857, -3.9380866407099675, 0.5048091498167764, -1.3446288495351941, 0.6309373394743354, -1.3079790717814517, -0.552811464971995, 0.4955856225355626, 0.9644277380820563, -1.3091941366554816, -0.1548802386283478, -0.3088234089735607, 0.24485842826758764, 3.902561033944883], [-0.5181935084856079, 1.433542983879837, -1.4668554358169021, 1.750597696505876, -1.2213965884053033, -0.09838886700103788, -1.1259245250351315, 1.112998425496432, -1.253022571598644, -0.410703158494775, 0.0936713495927137, -1.0522470969430762, -0.012245267100195393, 2.1976177018386944, -0.13546416057861058, 0.06390190907840167, 0.1700960934828316, -1.5337695658810786, -1.2692071785702421, -1.5359839067738, -0.8664164276762862, 0.4807643284529911, 1.3247096656594144, 1.4740010603205134, 1.0954174644631922, 0.3753204747383759, -0.4344651334639987, -1.1754864740324988, 0.8610180533084496, -0.10656891432811023, 0.9826598840628263, 0.1511196228678777], [1.475145105641491, -0.41888807050549676, -0.8313284875473813, 1.2072685974380717, 0.1379802536640799, 0.094205842435986, -1.6999057767921002, 1.777678827477232, -0.010761352785385198, 0.4169254611085877, 1.1413402953960525, -0.17740501329775982, 1.4335676004033293, 0.18062402449851947, -0.6553462892887356, -1.706755254119183, -0.3538701420456546, 0.7298760130620907, -1.0022649062399978, 0.3045851788055542, -0.4678942348354684, 0.7420728194108098, 0.019907179123427918, -0.24122565205810223, 0.8556935884950191, 0.09666824715215337, -0.2444562007265085, 1.047035180471864, -1.025273544004081, -0.6323134605483157, 0.6006955054993, -0.5623051855361769], [1.3866981320576133, 0.5091592408531873, 0.6915314871341275, 0.20163814138001823, 0.5421415743304681, 1.119979271879656, -0.284104468230101, -0.19179514659817895, -0.782137723161053, -0.7198225870413404, 1.9553677512733603, 2.7516739062262956, -0.33576610267701845, -0.31664225400112767, 1.346424319955669, 0.6418507366957589, 1.228888562599836, -0.8059597059382737, -0.21459848884633112, 0.4926368637678925, 0.45116646858244663, -1.3123292872291128, 0.6037123610775237, -0.8330565552199409, -1.5441299004224918, 0.19919947819088688, -0.580576410267882, -0.5286747646228646, 0.736125473063836, -0.33930075629034534, -1.080147153781626, 0.923824253588653], [-0.2682977141497924, 0.3168562875485457, 1.581449478241819, -1.48209628864885, 0.19503395422857311, -0.583809584840795, 0.5837427051589246, 1.9954126309871114, 0.21960541387582308, 1.4385869521740942, 0.6012440038003511, -0.0877196713560994, 0.6386645224316219, 0.10752014453979929, 0.9911842768382509, -1.2221386630852156, -1.4394278393644615, -0.12209188414317494, -1.0513687825411877, -1.975029174990733, -0.464239878953807, -0.9755473266204409, -0.4762249142919605, 2.1105657251433723, -0.7892148096658769, -0.3366037318836534, -0.14109359676278885, -0.3021261877968784, 2.1489541245174757, -0.9128940802843943, 0.8394315520788145, 0.29038367045393865], [0.6522308027645389, 0.220585462545925, 0.0484635112902843, -1.3820379237063996, 0.0958686241113244, 0.556413731452745, -0.34450879265633705, -0.013973657223919632, -0.35036892566401745, 1.3188422718077168, -0.32241104856042174, -0.09191366811216725, 0.04908240222605647, -0.2993448795572979, 0.7149118339595241, 0.3516417546646245, -0.02325626319422915, -0.7048813324751547, 0.18362624367335015, -0.5030000535982059, 0.2878034170961954, 0.16547591839840275, 1.4336236462132232, 1.102175189629882, 0.32445844347754477, 0.3247581181870749, -1.227386927796298, 0.33140098210450764, 0.31512412940219253, 0.4924723735970741, -0.7533638690647948, -0.7347226316323751], [0.4410329746271278, 0.3598733979997731, 0.4893632210955983, 1.4027894451088307, -2.6907604007358277, 0.7026915229084925, 0.22369771136666378, 1.550927234762393, 1.0051528278421238, -0.08682656901911474, -0.47179301561720843, -0.574654012481876, -0.7190467625475331, 0.4383276968111533, -1.39865615453831, 0.586124234679475, 0.8612096146545711, 1.0281125587984816, 0.13385799025316616, -1.2070960734085725, 1.0051703808733188, 0.5503613526775819, -1.2357806808384482, 2.1906561171893615, 0.6214087120140104, -1.8003284946694824, 0.9906399779860265, 2.3986872879526553, 0.19186278071266172, -0.6731316713791781, 1.6880551164224686, -0.09825756254588298], [1.5427888847511562, 0.7673148822351793, 0.5521618660429407, -0.7168760786387794, 0.9154343293351053, 0.16737022089187237, 0.12184748185053194, 0.02103402863005778, 0.2979836284560138, -0.2863622439974115, 1.4182537924469159, -1.1672465191528882, 0.8879293489108273, 0.40319591499129565, -0.6175860317737817, -0.5809824249813523, -0.07440313649192636, 0.29823741354792366, -0.9214472910969282, -1.6301148224170232, -1.1217766219530771, 0.25765426082218684, 0.8603429289034004, -0.14080623074746165, 1.2427360693815193, -1.1611177488135065, 0.20362510187060148, 1.2508999680876784, -2.0776396344235435, 1.8036768102694392, -0.6628711108972194, -1.1509713133637474], [-0.3138808085598268, -0.6685909579391979, -1.1404770792933074, -0.7147867975698952, 1.094984330253207, -1.9246356485254374, -0.7622543600306211, -0.0422067950494398, 0.5196746681396283, -1.4040190938513064, -0.1648097741950453, -1.494692239303097, 0.6681429980221955, 1.3596872074917432, 2.13760008725262, -0.9167840410750553, -0.5563346878937782, 0.36631501039418063, -0.9238751920165847, 1.6745421586546068, -0.28138894773405887, -0.04780993644425565, -0.774312084141059, -0.04393228267197175, 1.7415964383151068, -0.4812975156309282, 1.0944246928315646, 0.6909298648127724, 0.32990700021359504, -1.3858967123797943, 0.08679047099155775, -0.3197085318227968], [0.2270403727798705, 0.7577292377763346, -0.2513844307294137, 1.1546597857118972, 0.02947457842055171, -0.8127700509571374, 0.7802859405313526, -0.43900492280961745, 0.34081650473384273, 0.3849718643265292, -0.5772084872268923, -0.3538557942677157, -0.20989301390133824, 0.6112910733365996, 1.4298451269025858, 0.15690133516219829, -1.4570863794190607, 0.5475263622602757, 0.0380467754559751, -3.3578798573431565, 2.4741812013841984, -0.9188266785522079, 0.5372851983382989, -0.92545329915705, 0.43850042487434143, -0.7451968759859338, 0.4961330711997724, -0.40420345978616745, 0.5458715715129545, 0.5206201681985477, 0.28309050906376576, 1.2701512612061605], [-0.3051230259075242, -0.9550319786341499, 2.4209378671562183, -0.7525691222056289, 1.5927222017776503, 0.6197573695638395, -0.8045262844907298, 0.35591469723341684, 0.037349709648817314, -0.5671570780706554, -0.01011400334729627, 0.332395483656907, 0.23510082835346388, 0.22998024446397028, -1.6794148945491043, -0.7264388420376818, 1.7054762825639505, -1.6689182412847425, -0.5216698101431663, -0.4571594024623806, 1.3365368328803218, -0.6079601805064646, 0.14855203186901608, -1.557387547770225, 0.08896249199505761, 0.23014892657784175, -0.7325658703786494, 0.23008041838080484, 0.7329041019780861, 0.40548226986692065, -1.0058230945055753, 1.2380629667705214], [0.7346855058642093, -0.2772440846372948, -1.0942858823332893, -0.2754671189024481, -0.29165162665442057, -0.14765962462478066, -0.1290799539682255, 3.034848956691071, -0.6137939061012583, 0.9129466266635995, -1.2079675878762746, -0.5931718199233141, -0.41630640789601786, 0.3456347031456594, -0.5710256603357621, -1.0398722417033708, -0.44954507134319044, 0.08865108419453974, -0.2982113763462287, -0.6467095653346173, 0.35258599522311884, -0.22824108493548054, 0.3772238057143043, -1.26232213767616, 0.9720056887818873, 2.673439797230648, 1.1628818232442528, 1.6925144969335006, 0.6797697679963094, -0.17680349976152301, 0.3310595528164589, 0.4155693773050418], [0.4275535373058851, 0.10023552312649238, -0.44402779531781383, 0.7378727828459736, 1.0472591226173944, 0.2299823375064201, -1.6367618076710262, 0.10763767073160244, 0.6895870151574129, -0.09929065813366854, -0.33972972351401964, 0.3825886625839595, 0.12760999467040576, -0.1451347845271725, 0.34437260405261105, -1.3066385356101315, 1.1712982942226053, -1.7369152707943951, -1.3943048252294827, 0.4814947682894674, 0.02098174593728922, -0.12578387449263348, 0.8484595967474381, -2.904685481529926, 0.2443068326601223, 0.5301104644548391, -0.7002810074196738, -1.122375672036231, 0.13053556280813663, 0.03265337808752792, 0.7078276511220013, 4.092684989242632], [-1.020568258796633, 1.5459755277382994, -0.2638239097584453, 0.7935412090812406, -1.4971651470982381, 1.473810208704439, 0.3143560312403999, 0.7253816878806136, -0.9175513590925756, 1.013199116501226, 0.5772409815091579, 0.3044932698679101, -0.5396251509383337, 1.37758012495021, 1.2874749397081948, -1.3107751838457542, 1.4462582628717864, -1.6164647729834143, -0.9993273508311225, -1.5347664329680182, -1.3057768662003844, -0.5174421116748871, -0.8588608381643431, -2.56099134691954, -0.9571797405055198, 0.42647692003135956, -0.2669168067507315, 1.1083221676738577, -0.09738685423564823, 0.018124505049029828, -0.30951010511738003, 2.671769734379944], [1.013361005529233, 0.10098608292489063, 2.0349739857768636, 0.0001897685307799373, -2.3093369003816444, -0.828179461543813, -1.6909936547573972, -0.6950612977270936, 0.29766945629336733, 0.7727175613199154, 1.2214987539344622, -2.9942127144441595, -0.018890409512466892, -1.0032580844648433, -0.5202859189052633, -0.249735078276529, 0.2130223103851862, 0.11009520427233423, 1.179820105995898, 0.11025405343260444, -0.13782432172565362, -0.9751738083189181, 0.5115874992084696, -0.9180864987624063, 1.0741123099201826, -0.2708923319191266, -0.6801488099086592, -1.668726300415765, -0.8283994606504099, -0.26708608938129935, -1.185972044391059, 0.2896532653887038], [0.24062158895986963, -0.46927808380269276, 0.04588830940609129, -1.733617209976377, 0.9453882223342859, 0.7651631308511972, -0.4573798573423527, -0.34504925214377397, -1.7160050324652805, -0.4125832850941832, -0.16179661932992323, -0.4699457497376768, 0.09519327408894705, -1.204328095394729, 0.7838589456639928, 0.3681739637507956, -0.20082766069792374, 1.280454939165149, -0.6812317237217707, -0.08311424711896591, 0.5934775946282672, -1.1661402382500425, -0.8563847260782772, 2.0706200071976424, -1.7608128565666075, 0.8838645718813726, 0.11705483551933506, -0.3378559167457189, 1.4293696203043607, -0.7111599933284876, -0.9477704849026223, 1.7031938651870886], [-0.09653569011416144, 2.0987933964767413, 1.3952051762751712, 1.3946336648485385, -0.92770571631017, -0.619882961525305, 2.636795521076349, -0.13857177143464422, -0.641565986472152, -0.22219924755961815, -0.8383790148668145, -0.08332120709577817, -0.7416885396909636, 0.4056569022702206, -2.044534585589434, 0.290567796102526, -1.7798325920387366, 0.6632644978540516, -0.40495945966968483, 0.1445078691394312, 0.8850221065705473, -1.8288709325929622, -0.16112754158284545, -0.008972629646670841, -0.9560309942036226, -0.690476733622743, 0.817630381297101, -0.08671220431057054, 1.199425509844143, 0.4147534750850624, -0.10335446480012853, -1.8610448650465126], [0.9267903651900403, -0.5764508552035084, -0.19705931199212273, 0.19397747355393152, 0.037254536838225896, 0.3760811024787297, 0.01765847158601652, -0.9909772545200873, -0.04482950180432278, -0.6875906212644942, -0.06306157125216585, 0.10236296891159434, -0.4944460231524517, -0.8432683303143055, 2.135979427811698, -1.1078625371395099, 1.1101043897142149, -1.0163758196156387, 0.09151309535722382, 0.9967278128115848, 1.8014058163092839, 0.2968394159239277, 0.33881019442292476, -1.6095848814443365, 2.918506133845087, 0.6428886693544924, 1.2203664527538947, 1.59259975417265, -0.6526870154992008, 0.2784418026816012, -0.1369802578332909, -0.2979308343326939], [0.4645965320874883, 0.7112156160339038, 1.87700560385853, -0.3486538432597717, -0.5127954596784546, -0.7568115127046761, 0.010900585171310392, -2.4539932059263494, -1.668325553462562, 0.41174418980848354, 1.8047122413035797, 1.0851005680553145, -0.1342372951196322, 0.7146823238465975, 1.540196240973607, 1.0392842008484275, -0.20109145659733893, -0.25440356436722505, -0.0951333872639224, 1.0551518340109873, -1.4261066379813976, 0.3542325489337391, 0.9013168331115389, -0.9801633586798562, 1.7310806113730723, 1.1084161033328892, 0.05380358953105722, -0.5431626050186014, 0.02710790398347634, -1.2087056477739049, -1.181537881058873, -0.13578236537078664], [-2.1930712568646182, -0.12690073705448632, 1.513839884402804, -1.703395761519917, 2.0818316828945025, 1.2434037795270647, -0.13151013651664825, -2.52364971252935, 0.5694402080764415, -0.25199579674622224, -0.38008755513930026, 0.22947476132646397, -0.31500459274801385, 0.19208359687838805, -1.1053751030369519, -0.30549108457306595, 0.7920180801212335, -0.6143393191056425, -0.36785497285223046, 3.4005210428760595, 1.1878333318084862, -0.4338348268553539, -0.3410884295920101, -0.5589991754326533, -1.457442193014605, -0.4427434701152028, 0.9607237797543513, -0.8189156748709626, -0.3506159240863104, -1.4972757629156708, 1.1974805183872443, -2.863787233983341], [-0.5507559313641938, -2.660754393638739, -1.0564326598437421, 0.7082028164388061, 0.6895308810734084, -1.4969373123302905, 1.2176929683543247, -1.6137311379542216, -0.06742395816778318, -0.53298595172224, 1.0810326780699149, 0.3165234518113138, -0.3525148051230833, -2.025814735887849, -0.05662553588466139, 0.5779547714680836, -3.5098837873570172, -0.2959804957550337, 0.2750878875298012, -0.693543728189108, 0.7666862300503411, 0.36419739399528656, -0.608434674447453, 2.5612769838191842, 1.0503526502100713, 0.7163732844658726, 3.0931203120222426, -0.7550137247197047, -1.1164978820144693, -1.165895219804273, 0.13840498065142434, 0.3795747019588519], [0.4703159669141832, -0.43282730182812035, -0.1696998966918117, 0.9031206467853288, 0.3814124090605869, -0.0446931926988857, 0.4989370699739359, 0.27399837657648224, -0.3512418159223566, 0.05365143378642488, 0.8823928916870455, 0.8638614399497659, -0.7955369953810798, -0.8482170301394557, -0.8412078543088283, 1.4740064437611713, -1.7081898474822466, 0.6048572845323336, -1.1858027315853756, 0.5854266812707409, -2.5061143046842926, 0.5337739558579172, 0.011664795082880501, -0.39622024812290735, 0.784237910031225, 2.5342322883221713, -0.054239718400300715, -0.36956986662792835, 0.10459895334932881, 0.2226194914724514, -0.3689615501593298, 0.26100195785926195], [0.7658751602431539, 0.35795007070674817, -0.9977091093327615, 0.4187144738602095, -0.5659353691287187, 1.2456755672420565, 1.8154159774085772, 0.7937225610048233, 0.29969331360631574, -1.4123032532781015, 2.2771157886024422, -0.42692039323724507, -0.9802826303467492, 0.8634711258178457, -0.6825821998618657, -2.7117605826395295, -0.41265161113686794, -0.8859387603395885, 0.7669284267326716, -2.0666209366240125, -0.6044046787746366, -1.3870460223547612, 0.42079098205438026, -0.6367009138205854, -0.5650946479477811, -0.379192222609666, 0.5015450299296704, -0.6927530250050822, 0.15645686152442728, 0.3656857846981413, 0.6783311576122346, -0.8324387652995106], [-0.2836796782333544, 0.22547383877967003, -0.627439616325484, 0.7708671991510261, -1.5861438484513335, 0.9159522765602828, -0.05304448457786427, 0.9144157884351991, 1.0489783183240478, 0.08956140329122489, -0.8839112549852705, -0.391710225722279, -0.2705846140712886, 1.3496422955482676, 3.204505645141515, 1.5635293886727557, -0.7504518361822047, 2.3186022407422073, 0.9497592676976317, -0.1353484985877432, -0.26233873774647054, -0.5999500129702401, 0.06557075769083795, -1.1814132935986954, 0.7732128906932689, 1.232993720647145, -0.8379597770987527, -1.9249552595328256, -0.4439620158959128, 0.8276657714442467, 0.26436401110660546, 2.157955027059628], [0.16020534293778252, 0.6534590563607097, -0.7437754739563762, 0.8954403064938616, -0.31410577668532697, -0.954094982278488, 2.4788530032193075, -0.4877237495503478, 0.45209393962837446, 0.37288474632987184, 0.1020521615368602, 0.5065874375445749, 0.34374601667373816, 0.18447368728037555, 0.020702664887381497, -0.27403515612814755, -1.3480515153119619, 0.8767759970695808, 1.160022701179236, 0.20778445226902523, -2.31384013303935, -0.9878192898078573, 0.5515563826768047, 1.5608945601488813, -0.2212225521616097, -0.5630473516965611, 0.5614514450699954, -0.5521252354571534, -0.7313422009372925, -0.6267499973356735, 0.144006901868217, 0.2501285523730506]], [[0.902361362994143, 0.7605305370257411, -0.10582456744915168, 0.3659292741790244, 1.4929814291139012, -0.2214848939001884, 0.07796592616081525, -2.888939596699987, -0.043070089583660986, -0.3481612485008211, 0.03467002078774572, 0.17740713632508015, 0.3817582204418436, 0.4755727331257397, 0.3274762891665955, 0.9085203557891619, 2.3585367057836955, 0.13828670720656622, 0.36237917101432743, -0.48908168029850285, -0.7158297875650713, -0.3829511990252269, -0.22518711792760235, 0.039460437756066044, -1.6560872812846923, 0.6526292210597743, -0.6312939500624654, 0.3049963537956519, 0.13137843822377684, 0.22193120424296017, -0.5024171856316004, 0.08359237376100702], [-0.14303240518088572, 1.724613526099989, 0.40283300110393794, 2.2164306359563644, 0.6487275144614715, 0.11757841750256055, 0.2975824309372886, -1.5650127763079864, 0.4718576826038389, 0.07882448894807298, 0.19174700868284927, -0.23382293406969096, -2.000057162086939, 0.4458331315381053, 0.5580783627628623, 0.2969371238058329, 2.502489909887636, -0.2134525151506347, -0.146680425489901, -0.2255083310715677, -0.29876619100091395, 0.04759506310300156, -0.015086742270290221, 0.4366265083708929, -1.4801240184283257, 0.37619047464541533, -0.13709910060821437, 0.09228469485953522, 0.9703537694377564, 0.6955358700417213, -0.44628994147104883, -0.6018722781772984], [1.7634268679256966, -1.3517443109513017, 0.5492428801815997, -1.2500748819552332, -1.2534420380076963, 0.02997366639878778, -0.07134495426959547, 0.6574186581670337, 0.324806542703072, 0.3434080228356105, 0.24693124589463614, 0.6050421286287679, 0.5007461128481159, -0.6822015583575801, -0.2887451581214173, -0.9399010714282497, 1.0101104960336473, 0.13224800752211238, 0.6674095564133145, 0.5852816059425209, 0.774821423424653, -0.6080025015953223, 0.41539341065778085, -1.1661794747454868, 0.4410727869486649, -0.5366563479297197, 0.7976184413182903, -0.027087113339129644, -0.8862979754520942, 0.6202694024030616, 0.2771647589714268, -0.17751720449703878], [-1.2700677154513307, 0.8411872811599385, 0.1998073916052312, 2.7755722955827684, 0.4744898350277117, 0.7463261809163346, 0.6927756884378558, 0.3125468984457771, 0.2254399951519335, 0.7594494976392033, -0.9241443242421814, -0.347311119772593, -4.450183664581833, -0.20600060023856553, 0.17186920751002852, 0.27498829745698294, -0.17149746598795848, -0.33915580704807435, -0.596004277731142, -0.55657648137692, 0.3933572987007798, 0.36792948477028814, 0.11021770960878872, -1.492442059837661, -1.2411116856306819, 0.22906896051238154, 0.05391215737039761, 0.21822663286789845, 0.16278198877198077, 0.11788649174094738, 0.6197928733084216, -0.0950735624903463], [-2.301836482764758, -0.4929777674756904, 0.3708029176092056, -0.09753125550809029, 0.6153277180993374, 0.14093127917762138, 0.002201937525181946, -1.1294672000742525, 0.28938212649136386, 0.10320650727253491, -0.0532488736086885, -0.16344635921881284, -1.7108494397607117, 0.7633605779272924, -0.19351621757654336, 0.317896579881126, -1.750409091313378, 1.3463649828711708, 0.15440262490145035, -0.17297540175710457, -0.6009003666436125, 0.2959265688723346, 0.31475830041164343, -0.7766602920323457, 0.7457452119730787, 1.3076477538714706, -0.06849669647805036, 0.09646299247675551, -0.5183624297704348, 0.2690745169656175, 0.30306183698647265, 0.037337230391189], [-1.479908952354634, 0.29692881127631, -0.019234187505070256, 0.3324243325868446, -0.9571818379015385, -0.43638177154769303, 0.72005619540777, -0.5620954335028081, -0.20724053505378906, 0.43594835285735817, 0.016011938330819327, 0.022140425311262518, -2.735697690694313, 0.2124185879129433, 0.6048102652180211, -0.08931432053107563, 2.4318834798986715, 0.3572308584514677, 0.06545382725758288, -0.6735682780961212, 0.5420368494819364, 0.5611896613017668, -0.2885536005949581, -0.5206572034153207, 1.2180032607544535, -0.6414800487360739, -0.7386537555368972, -0.14529079694013983, 0.8991305558354783, -0.6243381847062905, 0.8643968104066088, 0.03790402346444193], [-1.208495730112033, 0.7719274202607362, -0.7982517914451437, 0.2601183404493584, -0.10964464734641939, -0.20982755764959288, 0.3177895578768005, 0.8201201716165941, 0.4068617685149464, -0.14553842209645312, -0.5468866324466635, 0.3387703683641588, -3.6748862013435035, 0.4225151740274837, 0.15493394323268728, 0.07491222802615657, -0.8284683208398828, 0.3790510318553116, -0.2501668075006958, -0.12748501993994954, -0.2857536626252271, 0.6632340646703478, -0.30181354196347215, -1.0398993518590391, 0.46108283112452797, 0.2034676252693059, 0.7296974461852038, 1.0102526937604452, -0.04218562237049087, 0.4067624939728919, -0.1189321199570548, -0.3295764300070315], [0.7053125040975445, -0.7429246563638688, 1.2312023728076822, -0.46173836790243417, -0.1594798125492971, 0.15665149446216556, 0.11350730352267287, -0.24987720410173242, 0.35406663070691663, -0.135055991077646, -0.19135083541592762, 0.639395886009326, 0.5155255000405319, -0.4781980407215949, 0.03490310083096574, -0.17550019041999249, -0.8601827565893845, 0.19987108071444346, -0.4248483493436172, 0.004851099593455141, -0.369118189021238, -0.11605997463580348, 0.35533274137771836, 0.9789264271366405, -0.28872209001988286, 0.15701050641693337, 0.8049342837818225, -0.3121426155593021, -0.1842431190353148, -0.48635498132348165, -0.6934542903853631, -0.3221652298758445], [1.2526719658714034, 0.45168068959505187, 0.4782508033292113, 1.1537764892354152, -1.5737107751337485, -0.4733665888974061, -0.316382682925646, 0.784027810708197, 0.6836495738334277, 0.6883393213882218, -0.490946480510901, 0.03499547228628731, -2.3968680559149536, -0.0026423083950936977, 0.48516710677772873, 0.9645570819218081, -0.16213820201939505, -0.09514587649753624, -0.2737007079458651, -0.5394014834773989, -0.3833429500882283, 0.48201458657138746, -0.53606562736733, -0.7639350682545429, -0.3575013818745283, -0.3785862981782592, -0.6091912984754816, 0.19656740949046234, 0.40000191579841365, 0.08627545929759439, 0.23423286196780435, -0.5952403244601255], [-0.4146706402696633, -0.06535574093024607, -0.287555737982958, 0.49263768137086356, -1.2086961591351508, -0.09457740791472165, -0.02735260133008306, 0.23133197807119144, -0.18068493552725817, -0.29273789248331805, -0.1997608952595898, -0.06774028806283763, -1.791214628208122, 0.17592616729765378, -0.8391808471899533, 0.13638122023150917, 0.5068253882973257, 1.4939036727113668, 0.9988533685264185, 0.06286766842841127, 0.12828025122815145, -0.3005662918379479, 0.7053045844926169, -1.0064472022571054, 0.9260239215482913, 0.6420997856248047, -0.19782166914185742, 0.13045027613773677, -0.36053066561926034, 0.6970411989259157, -0.1799823884124425, -0.3551639341314222], [-0.1668696402418106, -0.3428797200199, -0.6408091090293795, 1.091324052624188, 0.5018062754606037, -0.3412999580531151, 0.10660582887442784, -0.6495625643339578, -0.5624122052227158, 1.1228288476235755, -1.49955093097558, -0.45051861654368724, 1.260763542988843, 0.11242489079708826, 0.040209642696433706, 0.23736450494678166, -2.1967715714459435, 0.5030683522840832, -0.55883006077438, 0.03444513607095209, -0.2989534764855894, -0.30594007502231985, 0.16660079301571276, -1.2192131582326715, 0.6844519883460265, 0.44824596270651035, 0.221462126664218, 0.26052895257491565, -0.1631820196364338, -0.6035876670688587, 0.11406430396469668, -0.485913105991853], [-0.4956768783273801, -0.9435175316791191, 0.19758730888249548, 0.45460594442435426, 0.5999063854743958, 0.5705247922721025, -0.38044893542749497, -2.7933916675298973, -0.3678421962818124, -0.2629081724522721, -0.36771978965942176, -0.31189471132836255, 1.8297890520218123, -0.6744607106253953, -0.19407661900108625, -0.08950875363797374, -0.9883291900845748, -0.7099352948288676, 0.5176777648022319, 0.09906262730672552, -0.15608530984416485, 0.13809440855023689, -0.26204419355655156, 0.23483307382754753, -0.9229600964309539, -0.7703146863338781, 0.37415360841580225, -0.11177872066337347, 0.7017370896551671, -0.6228797931372455, -0.6276218571796741, 0.4153032844612315], [0.09115237713098777, -0.5866234183604694, 0.4207906655594389, -0.3141925312538068, -2.288900349325472, 0.37402213507313836, -0.02147299532734749, 1.3614734878068897, 0.3464093779918562, -1.5067247707456346, -0.20548420402724601, 0.5813305429006858, 1.134241751442861, 0.3691722859549574, -0.7184874524365491, -0.3427262822221567, 1.3358998334227445, -0.5138134072898313, 0.3326458749215624, 0.09092055407838337, 0.033997584252280735, -0.04373239683417686, 0.46320593559626727, 1.8781847622100134, -1.387053104935749, -0.7974308190340692, -0.739734218730104, -0.05707729139568796, 0.9109807165894671, 0.735066641066567, 1.066034608987862, -0.1087193271219277], [-0.17661994424693628, -0.3888981760359476, -0.46633077846668697, -0.5586344625555225, 1.1057012382382616, 0.32584134681117144, -0.07212896455055146, -0.6923288920701558, 0.23100391997932115, 0.12924163981585365, -0.3649603382972065, -0.4677973736969721, -0.9882425030659023, 0.3716775500669977, -0.13719084217374122, -0.04858762448987755, -1.1256558925790394, 0.15682467378944637, -0.9279858517174959, -0.1931041430200148, 0.5463828449463527, 0.6754222699143153, 0.4289722457531017, -0.3635643358083982, -0.1040893801158916, -0.22540312961628245, 0.2050098744157016, -0.11391489789992773, 1.1184337184847268, 0.04952458193533845, 0.2912532499931749, -0.5059462242597504], [-0.17559450862539433, 1.0660014038919947, -1.40439206766349, 1.4273718391969519, 0.24663220995984786, -0.5232768616885458, 0.18946375220775236, 2.588650942993578, 0.9846543406645665, -0.3056922064388679, 0.8248689681136807, -0.14479566167834687, -1.4004599599788097, -0.9624497031122897, 0.29626118218722985, 0.28410387494903583, 0.9459932841416202, -0.9288792020728306, -0.48175958351910664, -0.5571309571442415, -0.18401719490796586, -0.04966883133206158, -0.15333153077512252, 1.0095210656576556, -0.4628631487240964, -0.004918048090885092, 0.7836321874641634, 0.05233151829978221, -0.15784748638421703, 0.14198942879128268, -0.27821538931173745, -0.1990881642515327], [1.165230112734096, 0.5328874971455472, -0.4335836168828124, 2.1557089576732587, -0.6603336518351418, 0.2436277388201189, 0.20214180516630098, 0.2689701357454925, -0.34526718891002484, 0.21435014429502908, -0.12971656910381293, -0.26087060985266997, -1.379446351978837, 0.3629764619379273, -0.20285491196671118, -0.6804749767726643, -0.1417939430381572, -0.22621224538007373, -0.32844077041294545, -0.6923248744093302, -0.37998375147219315, 0.6056570376290734, 0.4067258202479431, 0.8064399397174578, -0.5754147554122021, 0.4262685087094229, 0.19926304119854488, -0.3789842013957262, 1.0116122771893024, 0.571533366485299, -0.4360484255574405, -0.2852583901012781], [1.3752381290764288, 0.21492950061557123, 0.9766897125935977, -0.35186986020480276, -1.1861746731073934, 0.0568345959060157, -0.09066116218447742, 2.255392941609176, 0.7082687722864452, 0.44578718441810045, -1.702707428497282, 0.12596411148561792, 0.055985805889226914, 1.0457710229903678, 0.27368717377058094, 0.8734923161434756, 0.5813010697725337, 0.7826706008282595, 0.2963601179366272, -0.32298137254284587, -0.6148197483727201, 0.31426232334726095, -0.4944483071138363, -0.1687189016561825, -0.30300504442372855, -0.16368604135422518, -0.6300196462905316, -0.01742061397927097, 0.23064068580023916, -0.5988067138571744, -0.0659325394404625, -0.3731527761230878], [0.3963325592951637, 0.14228511843245578, 0.5480088302682746, 0.9070397984903565, 0.5532752390452412, -0.15530658079072895, 0.3263561148151957, -1.3909008338765865, -0.336739566509238, -0.10925956174397937, -0.58805212561499, 1.2719683306881502, -1.9228480662759355, 0.023056489414242445, -0.09647702314212553, 1.0669449079661781, -1.4410699141332757, 0.2000982028154865, 0.3316140675403309, -0.18115991414685884, 0.609639693930079, 0.6748544772439813, -0.6192344368812989, 0.22081620391622972, 1.5398270842376085, 0.43991736687768757, 0.14654986136691742, -0.16426231022527074, 0.29270655555206326, -0.49836320295664926, 0.19235640256091643, 0.261601562280933], [1.206763364556305, 1.479588367855072, -0.9229546011016294, 1.1846387467397061, -0.7235345862246901, 0.57451547167883, 0.0645974202287455, 0.7977593154646802, -0.03457110735258267, -0.12343539581311044, -0.3644331828343886, 0.03273989420994656, 1.1795892310125644, -0.29815777882556643, 0.4264963804202935, 0.48413724516454715, 1.412534560600868, 0.13072283560093417, 0.10454417472988081, -0.751551386926747, -0.053687711914205315, 0.6924709811838691, -0.15398597383724713, -0.6278980081930998, -0.049290174071048985, 0.4245476091555176, 0.771256444580962, -0.6685579194758183, 0.25526721285349124, 0.6350213892205286, 0.3819533935178419, 0.6489645512952782], [-1.2023124186308498, 0.10400480724229069, -0.2803674447905847, -1.1352437439110399, 0.07487393554949111, -0.5849932990229552, -0.27710284668493546, -0.8392906527158136, -0.3588417346954365, 1.1424560735090064, -1.518450329904915, 0.02867991822392189, -0.4325882007284453, -0.14396353146984514, 0.1779685460107795, 0.37798201649583857, 0.7415466525079584, -0.023425219183456525, 0.1533500067993387, 0.6184091258595743, -0.6121509201245472, -0.22413275005855515, -0.09762216526647266, -0.5412490904914271, 0.03874244738789974, -0.32986671225573244, -0.2961983497364919, 0.31255659597677976, 0.06377253816459956, -0.2254773584718786, -0.6316567025586943, -0.06425091421349735], [0.13825550392978483, -1.55891065417342, 0.3391578504376883, -1.644139569055288, 0.19363701515355158, 0.1367818621494192, -0.8177724019966578, 0.8213640916826781, 0.06566852108764766, -0.04780957267049558, 0.11085912656360768, 0.8665144088012007, 1.795470224073325, 0.1138474595875571, 0.0020722801711822512, 0.34985173325246877, -0.9977407705675015, -0.6623527082359049, 0.16914145205209946, -0.8065588942093025, -0.008085540172735014, -0.22285112362336787, 